
//<![CDATA[

// a few things don't have var in front of them - they update already existing variables the game needs
lanesSide = 1;
patchesAhead = 4;
patchesBehind = 3;
trainIterations = 10000;

var num_inputs = (lanesSide * 2 + 1) * (patchesAhead + patchesBehind);
var num_actions = 5;
var temporal_window = 3;
var network_size = num_inputs * temporal_window + num_actions * temporal_window + num_inputs;

var layer_defs = [];
layer_defs.push({
    type: 'input',
    out_sx: 1,
    out_sy: 1,
    out_depth: network_size
});
layer_defs.push({
    type: 'conv',
    sx:3, sy:3, pad:0, filters:11, stride:1,
    activation: 'relu'
});
layer_defs.push({
    type: 'conv',
    sx:2, sy:2, pad:0, filters:12, stride:1,
    activation: 'relu'
});
layer_defs.push({
    type:'pool', 
    sx:2, 
    stride:2
});
layer_defs.push({
    type: 'fc',
    num_neurons: 20,
    activation: 'relu'
});
layer_defs.push({
    type: 'fc',
    num_neurons: 10,
    activation: 'relu'
});
layer_defs.push({
    type: 'regression',
    num_neurons: num_actions
});

var tdtrainer_options = {
    learning_rate: 0.001,
    momentum: 0.0,
    batch_size: 64,
    l2_decay: 0.01
};

var opt = {};
opt.temporal_window = temporal_window;
opt.experience_size = 3000;
opt.start_learn_threshold = 500;
opt.gamma = 0.7;
opt.learning_steps_total = 10000;
opt.learning_steps_burnin = 1000;
opt.epsilon_min = 0.05;
opt.epsilon_test_time = 0.0;
opt.layer_defs = layer_defs;
opt.tdtrainer_options = tdtrainer_options;

brain = new deepqlearn.Brain(num_inputs, num_actions, opt);

learn = function (state, lastReward) {
    brain.backward(lastReward);
    var action = brain.forward(state);
    //console.log("state: " + state);
    draw_net();
    draw_stats();

    return action;
}

//]]>
    
/*###########*/
if (brain) {
brain.value_net.fromJSON({"layers":[{"out_depth":99,"out_sx":1,"out_sy":1,"layer_type":"input"},{"sx":3,"sy":3,"stride":1,"in_depth":99,"out_depth":11,"out_sx":-1,"out_sy":-1,"layer_type":"conv","l1_decay_mul":0,"l2_decay_mul":1,"pad":0,"filters":[{"sx":3,"sy":3,"depth":99,"w":{"0":0.05292052790668582,"1":0.017151332343884024,"2":-0.002076986173063447,"3":-0.026593995026118124,"4":0.0383304321175528,"5":0.07438670594158316,"6":0.027130805925175732,"7":-0.09761595411040304,"8":-0.003848647546388975,"9":0.005338130963693081,"10":-0.05773761536378437,"11":0.05264673195236892,"12":0.014481145053847816,"13":0.01919632794305415,"14":0.0022760212954311444,"15":-0.023155439547447296,"16":-0.0259481159708181,"17":0.011428606630360143,"18":0.012190969375836554,"19":-0.0258462201510895,"20":-0.025145625344248346,"21":-0.03114263927206703,"22":0.06841291730796127,"23":0.032147104186637764,"24":0.02362735870947754,"25":-0.001681598382954159,"26":0.05530048913875963,"27":-0.043442882783877895,"28":0.006507405471777498,"29":0.015512755708634016,"30":0.014852572750609654,"31":-0.019127546522389956,"32":-0.023383824414458576,"33":-0.012653941844674393,"34":0.043411278162612275,"35":-0.038000360550562266,"36":-0.1075745652812105,"37":0.052524981473864564,"38":-0.03238771152952837,"39":-0.03411339074853216,"40":-0.002407235312112986,"41":0.040963521047315765,"42":-0.03876733261820366,"43":-0.016552470006249972,"44":-0.0010529659605088427,"45":0.01815593924748345,"46":0.04013544511431402,"47":-0.008142652294506982,"48":-0.03582462098035592,"49":-0.03989508570676755,"50":0.02511606934910873,"51":0.013222166704103002,"52":0.006657239925264233,"53":0.018552859773929363,"54":0.014455928206677198,"55":0.04718336141813755,"56":0.03335400956699592,"57":-0.04084490839202226,"58":0.06514488811836024,"59":0.050041247282234566,"60":0.06254886535911225,"61":-0.00894616981989378,"62":0.08322287840385716,"63":0.00793623778021202,"64":0.017035436326706538,"65":0.002473266017502893,"66":-0.0025228219516918652,"67":0.024119079788228224,"68":-0.0032129637657138024,"69":-0.05553189169433683,"70":-0.00031336764584442107,"71":0.012340596681398835,"72":-0.01466843182166016,"73":-0.06431966224414398,"74":-0.0023683403296896393,"75":-0.0031962206208454662,"76":0.04491243595490409,"77":0.009001443338977805,"78":-0.030906655530244513,"79":-0.013416034516907654,"80":-0.03399237523816825,"81":0.014005327220128145,"82":-0.02053924260050546,"83":0.053195479340637335,"84":0.009758883125125283,"85":-0.008228473675055888,"86":0.01642879198043606,"87":0.0298354712430407,"88":-0.04577158884113309,"89":0.04165013670846601,"90":-0.009249555932551785,"91":0.08134556988999647,"92":-0.04555991854770551,"93":0.0508500076615212,"94":0.027764746269310716,"95":-0.025695632464326643,"96":-0.02625656978594158,"97":0.060204583413762294,"98":-0.06261351053060998,"99":0.03449896417862768,"100":0.004539571103133558,"101":-0.05514844465158764,"102":-0.0016460311862953388,"103":0.005026926465093812,"104":-0.0007856978255650971,"105":-0.04977346799750016,"106":0.01997776723908045,"107":-0.027605882026834914,"108":0.05313071738081689,"109":0.013572628656163961,"110":0.03387444434418126,"111":-0.021608673298559845,"112":-0.027920432299998427,"113":-0.0007904921777617968,"114":0.02964800292119543,"115":0.008799467946446803,"116":-0.02583768147387044,"117":0.030988192367478982,"118":-0.0018055411859237344,"119":0.010557237219800213,"120":0.05307853105456341,"121":0.0077338024500743395,"122":0.018555656399582895,"123":-0.024543551974686544,"124":0.06111731919489288,"125":0.008966615145954648,"126":0.020433305839917582,"127":-0.020754496279426642,"128":-0.00006206027556720054,"129":-0.02305086512892984,"130":0.07357611759714495,"131":-0.035207540265048895,"132":-0.05360550289064501,"133":0.021846270354516074,"134":-0.027524969306087183,"135":0.11133932259908987,"136":-0.04411891708347069,"137":-0.0555821262622758,"138":-0.003899258456082293,"139":0.04011577995119872,"140":-0.013434532243146096,"141":-0.010431823931581164,"142":-0.015365727903587366,"143":-0.011969484390369644,"144":-0.029668886196577288,"145":-0.006134376634428422,"146":0.0018056634816924451,"147":-0.010304796356861884,"148":-0.00783802913097181,"149":-0.043884380236916286,"150":-0.04095497572511247,"151":-0.004196760934182929,"152":0.05587650780118183,"153":-0.029129800227313422,"154":-0.03433103148996694,"155":-0.04286697705813541,"156":-0.029477334892805136,"157":0.0484151066825791,"158":-0.050649528557939215,"159":-0.0031551544465234223,"160":0.03301984421958035,"161":-0.014450964176097533,"162":0.02999954371514966,"163":0.005593724457352547,"164":-0.10608116694278898,"165":-0.024171824701328126,"166":0.07827167790321088,"167":-0.03132563527108452,"168":-0.04841634718689973,"169":0.06311425864924126,"170":-0.0825460713954932,"171":-0.017378720965678288,"172":-0.019802908903941294,"173":0.028871455326194503,"174":-0.03614593309157139,"175":0.02120935748644788,"176":-0.014529437720374794,"177":-0.03561617128044858,"178":0.03267315875072981,"179":-0.07479323382117045,"180":-0.013225847900391632,"181":-0.01400503217138975,"182":0.013507456272673114,"183":-0.006458313383712764,"184":-0.015838441099991156,"185":0.01123511752615651,"186":-0.035385788702811685,"187":0.0038333460799948806,"188":-0.04993861987344343,"189":-0.008006918097621392,"190":0.021056428274568426,"191":-0.004769961771797679,"192":0.06028809786994144,"193":0.01683668208227481,"194":-0.03935274110105616,"195":-0.052144861960486656,"196":0.006823915410917131,"197":0.02511634674681009,"198":0.013011647281715244,"199":0.03151820641775353,"200":0.05131578301196377,"201":0.020800379838192804,"202":0.02452896473739789,"203":0.05394187824343514,"204":0.00015564784950082173,"205":0.01283452299647964,"206":-0.009272977171610053,"207":0.041773132793504246,"208":0.050430075186487434,"209":-0.023946534170915832,"210":-0.03744344848076267,"211":0.052738797995947446,"212":-0.025536251982430848,"213":0.006856266448480977,"214":-0.0193811999451534,"215":-0.01832503098130136,"216":-0.05910873029058042,"217":-0.021115593299957137,"218":-0.005895197694299324,"219":-0.028292080793743523,"220":-0.009967475041978034,"221":-0.04576810441310012,"222":0.016463278519338237,"223":0.021506303689295635,"224":0.04355477702415509,"225":-0.03191497321740535,"226":0.016096011338382076,"227":-0.0180108244996924,"228":-0.03166526826717329,"229":-0.009936829502060384,"230":-0.08974658658850808,"231":-0.03864084175885395,"232":-0.014041234340388018,"233":0.08226745251636451,"234":0.04919427326404895,"235":-0.003143881070255516,"236":-0.035119749165958454,"237":-0.028036804709574238,"238":0.0028521362232134515,"239":0.023731220412059023,"240":-0.02539365459382634,"241":-0.000037727064282768344,"242":0.044380668060115175,"243":-0.02579346930437959,"244":0.02273630681559546,"245":0.08336617592952508,"246":-0.04816974427875198,"247":0.017099635151070075,"248":-0.07403651751190962,"249":0.009572792570554366,"250":-0.0074990311002353085,"251":-0.0067296476038235225,"252":-0.03525848795812596,"253":0.008410429818979229,"254":-0.018425044179008164,"255":0.00614365973993175,"256":0.03007683962042249,"257":-0.028861616972551962,"258":-0.01962232661934026,"259":-0.05150073753227377,"260":0.007658308567621319,"261":0.004694104313037507,"262":0.018025461162914553,"263":0.0019392888636070795,"264":0.0026987202446037994,"265":-0.020210588939167894,"266":-0.008344034805077956,"267":0.02581886880539907,"268":-0.007017119587733499,"269":0.02270844377780927,"270":-0.0069214293144304485,"271":-0.011149123058284563,"272":0.01846553002969669,"273":0.008969252396643687,"274":0.00215194549179087,"275":-0.00037097553932770815,"276":0.026957541444951938,"277":-0.022863720863649926,"278":0.006781377946601836,"279":-0.09000274454254038,"280":-0.003752024097324977,"281":0.01719516928566989,"282":0.018585201558446757,"283":-0.03302335745679208,"284":-0.04225252218434115,"285":0.015134017272774308,"286":-0.004732113300362461,"287":-0.018281143520528367,"288":0.02504963771051535,"289":-0.012500675869975898,"290":0.040034557379284436,"291":0.013881819095474384,"292":-0.03246437859009355,"293":0.017287201698886468,"294":0.020127188766599628,"295":-0.021751161547439373,"296":-0.03212577355660827,"297":0.03100207105724464,"298":0.005219507230060902,"299":-0.03770212244412469,"300":0.04857771410516538,"301":-0.02751368507159218,"302":0.034436398596409075,"303":-0.023879506463167322,"304":0.004686726719631322,"305":-0.036294067568280255,"306":-0.020768672265250882,"307":0.022042619154083766,"308":-0.02101140740884642,"309":0.02070699781975549,"310":0.014289106959427901,"311":-0.012231369319524047,"312":0.0007338993565845972,"313":0.018577100144767923,"314":0.037269600862001026,"315":0.009203121555256127,"316":0.014577834577828215,"317":-0.06020759261292777,"318":0.008508378149842406,"319":0.000860808265635893,"320":-0.05118825695266802,"321":-0.0233974981907543,"322":0.03806265506523248,"323":0.054746680839395774,"324":-0.01664469753639265,"325":-0.011010570737842425,"326":0.008517157919929618,"327":-0.034084864171926604,"328":-0.04336962434155715,"329":0.0255520498423121,"330":-0.0188753629188942,"331":-0.016508154749090245,"332":0.0059769927607327125,"333":0.02006700865972604,"334":0.0018074262983526503,"335":0.008079042826218144,"336":0.012961657739371527,"337":0.027138027473982543,"338":0.016661337384551632,"339":-0.032057771147620304,"340":-0.03484117964524083,"341":-0.007417507352688912,"342":-0.010520927898995546,"343":0.014188483927863387,"344":0.012515012250467292,"345":0.06985944413882655,"346":-0.04312595720055562,"347":0.04165888682142402,"348":-0.017250465097198936,"349":-0.017316806628896262,"350":0.006516057166590116,"351":-0.04614020939462585,"352":0.026634005991170474,"353":0.021373108811380086,"354":-0.07486366155424613,"355":0.0054007255819108375,"356":-0.01984235171432611,"357":-0.007471036401358488,"358":0.004742365520357293,"359":-0.05303905744127991,"360":-0.08297968325195648,"361":-0.005918359469412718,"362":0.02454275003557217,"363":-0.03412113476817209,"364":-0.03742390194725443,"365":0.003669804992089523,"366":0.045723616815324275,"367":-0.010801382196308893,"368":-0.02185243132709022,"369":-0.021665317812296598,"370":-0.06995671508955265,"371":0.003996521479009801,"372":0.054995140019049205,"373":-0.005101782055247514,"374":0.0003770093295083314,"375":0.012990603768063637,"376":-0.053160155719422654,"377":-0.03293092691913403,"378":0.03937330025987822,"379":0.012611717708365467,"380":-0.01098700093526334,"381":-0.0508447889955987,"382":-0.06479236600455784,"383":-0.050836452535956776,"384":-0.027510605714516457,"385":0.06757613530508798,"386":-0.048173435555842255,"387":0.06704751647744595,"388":-0.00093923501168564,"389":-0.002229043927586083,"390":-0.024653266028289735,"391":0.0010935595104254864,"392":0.00509934431421455,"393":0.004182259547511038,"394":0.0029792150972188106,"395":-0.008834489621083191,"396":0.0035692473746836055,"397":0.05821384284514565,"398":-0.03893035819970217,"399":-0.06970616246291125,"400":0.025676920005525388,"401":-0.0026269955901617025,"402":-0.05419669066712205,"403":0.05797055578075487,"404":-0.03300355474022012,"405":-0.03976231172746627,"406":-0.051458150653435696,"407":-0.019753807271663586,"408":0.03337549774270734,"409":0.023946725950120862,"410":-0.0005209526874254996,"411":0.004326289933151077,"412":-0.04130583409351939,"413":0.03959656406246297,"414":-0.052901285643516045,"415":-0.029402727775257473,"416":0.04911955195921332,"417":-0.02003360415187233,"418":-0.03360365728454241,"419":0.011995250505030223,"420":-0.0010032470913989289,"421":-0.0413260857073817,"422":-0.002411149063975712,"423":0.017628549894987924,"424":-0.04922767329739069,"425":-0.005933693069620576,"426":0.018611163185704514,"427":-0.006324898255900128,"428":-0.05882303330660023,"429":-0.0016648755359872642,"430":0.016521828724307255,"431":-0.0510695697582014,"432":-0.01189783374667839,"433":-0.00697178227387207,"434":0.009942968968933624,"435":0.0012671033403967606,"436":0.037635771664911215,"437":-0.007260972367894696,"438":-0.10106522708948823,"439":-0.03266705292390496,"440":0.015584777633986902,"441":-0.015596176892558558,"442":0.008782115493512025,"443":0.02072233501312461,"444":-0.009721405493570425,"445":0.00545997569101631,"446":0.021322792132376044,"447":-0.007404303694394111,"448":0.03781213382359994,"449":0.051386859875896536,"450":0.01836172159577721,"451":0.0004273405259674093,"452":-0.003967300809266883,"453":-0.013244532977764756,"454":-0.02651078101767518,"455":-0.01015346443213802,"456":-0.03778773785740288,"457":-0.005568330291554504,"458":0.004780431669479368,"459":-0.004634027023514494,"460":0.015219826423343644,"461":-0.0026265186043559685,"462":-0.022667660302197693,"463":-0.0030805761984037364,"464":0.01684438602407305,"465":-0.0453725384074465,"466":0.01158408663065807,"467":0.04302484295864427,"468":-0.001105920509627361,"469":0.03269236271344553,"470":0.0178133882564799,"471":-0.03597869906310238,"472":-0.06192277955773354,"473":-0.00717758278531308,"474":0.012438162610264019,"475":0.0027142381160756165,"476":0.03997997675316902,"477":0.008595807485286386,"478":0.022437672838541728,"479":0.024186025412482746,"480":-0.07355919749733607,"481":-0.002989447675771333,"482":-0.031505199278965716,"483":0.02402814204954821,"484":-0.0004998104595932566,"485":-0.07430726409110804,"486":0.039328259507474074,"487":-0.0232332698044079,"488":-0.04156200959650406,"489":-0.011390883342385338,"490":-0.0011748544356376116,"491":0.01474609254491355,"492":-0.060013935890094655,"493":-0.032864478893872756,"494":-0.025035392469684926,"495":0.03055386052530702,"496":-0.05812815737378583,"497":-0.028335692944417065,"498":-0.05428635457625756,"499":0.04886153085400035,"500":0.012476917190281569,"501":0.005710368279603173,"502":0.006598410242932119,"503":-0.0797198671435203,"504":0.0680892468134368,"505":-0.0417016387391328,"506":0.02077848528319547,"507":-0.026487746275009834,"508":0.010497498230048412,"509":-0.06054587970122472,"510":-0.06954087843752522,"511":0.013302786047922847,"512":-0.01878324140932152,"513":-0.03156632356926742,"514":-0.03729416302547847,"515":0.009271856268992544,"516":0.044303367824986964,"517":-0.0037936559519637747,"518":0.01822356748013982,"519":0.05384889193555955,"520":-0.008057183779482273,"521":-0.017886729226935433,"522":0.037310033209682104,"523":-0.0317644179319068,"524":-0.03862119661604123,"525":-0.03887876490215271,"526":0.004731834825650018,"527":-0.031004094600806924,"528":0.017851180303050506,"529":0.07479514853457173,"530":-0.02322638588833632,"531":-0.0035022072943573916,"532":-0.02630713250372368,"533":0.023611774307311432,"534":-0.015022658144406833,"535":0.006102590171652711,"536":0.01293213228466979,"537":0.006068241726017525,"538":-0.007845717187666985,"539":-0.05818356076341452,"540":0.023271641661119464,"541":0.029946925422308535,"542":0.007582304605144605,"543":0.037755392637856024,"544":-0.037893947675054655,"545":0.07442591621763726,"546":-0.030768565905529965,"547":0.011457562058690984,"548":-0.06805352759599415,"549":0.0014496164498375315,"550":-0.03595345863238135,"551":0.033057134506178316,"552":-0.036047716865499436,"553":-0.01037605065895316,"554":-0.010360904604623505,"555":0.05135178582687811,"556":0.060552569979224494,"557":0.011835205012511526,"558":-0.054519516503317704,"559":0.01887820666030488,"560":0.03088768290477716,"561":-0.008643178558225235,"562":-0.016014108993949804,"563":0.019431610198929014,"564":0.017445755182419788,"565":-0.039827494394606214,"566":0.018908754060359363,"567":-0.03786864551350609,"568":0.04877550084949669,"569":0.035311009532140857,"570":-0.046779348952124634,"571":-0.014030984626926648,"572":0.009397636400052638,"573":0.03693046452442291,"574":-0.017648743075052396,"575":-0.012079162683169215,"576":0.02464040990761783,"577":0.04296071177347385,"578":-0.001986756136738669,"579":0.0394570613160596,"580":0.01150823690354506,"581":-0.03414368376189191,"582":-0.005266444176869686,"583":-0.07337333531633258,"584":0.04229957096336464,"585":-0.007090582457620794,"586":-0.019821675391803864,"587":0.03197619286954882,"588":0.02718864188426386,"589":0.02849953799617665,"590":-0.015483970387567979,"591":-0.04335126826840796,"592":-0.0018484610702968053,"593":0.004448051520661591,"594":-0.01236550038830645,"595":0.05281481168611582,"596":-0.02984865303849137,"597":0.009530369270287626,"598":0.043539936681515456,"599":-0.042983612849848106,"600":-0.07622665204283703,"601":-0.039241217106545156,"602":0.004151772404024364,"603":-0.05248072170751305,"604":0.02667154036323088,"605":-0.030942034404618686,"606":-0.04117925493997126,"607":-0.06885539145304595,"608":0.04829417725752066,"609":-0.023713217511734663,"610":-0.06265767624710741,"611":0.02756210129827056,"612":0.001489407002985876,"613":0.01934480086958633,"614":-0.015503299877524641,"615":-0.011659056512578998,"616":-0.028530835361778816,"617":-0.028565632420729185,"618":0.015121412933488183,"619":-0.05166509205933781,"620":-0.0032655612453110928,"621":-0.023825921739972153,"622":-0.013471442838699438,"623":0.007606467731666795,"624":0.04095934620525611,"625":-0.017562370391520057,"626":-0.0033436201641273465,"627":0.01830197245423119,"628":0.02353735541153654,"629":0.008478201677356481,"630":-0.011200121101583435,"631":-0.03409774659369829,"632":-0.06654782183532516,"633":-0.0148785235053101,"634":-0.031275841315062884,"635":-0.026349125238243426,"636":-0.013927313949665125,"637":-0.0196543696137941,"638":-0.013272454944841514,"639":0.005250193503797424,"640":-0.04697222905986909,"641":0.024924567218307797,"642":-0.033627835701364246,"643":-0.017307913864086637,"644":-0.016146136509425542,"645":-0.011859426201062702,"646":-0.06332347588469382,"647":-0.032413997107642055,"648":0.047133138989690015,"649":-0.055908233508936346,"650":0.08482977096058679,"651":-0.010295282711620337,"652":0.01698511246808526,"653":0.03848520949802035,"654":0.009165716797758341,"655":-0.03922103021375415,"656":-0.030534941485739577,"657":-0.020802212491753,"658":-0.024187065984700575,"659":0.0364310257925692,"660":0.026951603643162535,"661":0.0173502549881175,"662":-0.020685945730427636,"663":0.09242189086398067,"664":-0.013538676686605178,"665":0.017249790393087078,"666":0.009247332893877384,"667":-0.03110412269044784,"668":0.008199366527249561,"669":-0.02158635502292622,"670":-0.0802226596654314,"671":0.027599626168210368,"672":-0.03997653704277407,"673":-0.01325320832354605,"674":0.004262014848793564,"675":0.015648036763900756,"676":-0.05682508122144411,"677":-0.06514243640999293,"678":-0.018590607372258223,"679":0.021046637288101435,"680":0.02133102752740937,"681":0.005270560827997059,"682":0.04626511639059927,"683":-0.054412917654085104,"684":0.04564865709310704,"685":-0.012371600206123904,"686":0.0026525503609921373,"687":-0.01825421496700199,"688":-0.04190960965247427,"689":-0.008136567360652536,"690":0.05684315482457854,"691":-0.08658818420702864,"692":-0.00967830199921515,"693":-0.01624714035639223,"694":-0.030899743352638794,"695":0.007385564061442025,"696":-0.025726252459574456,"697":-0.04092990025505772,"698":-0.04622939892054314,"699":-0.0635103418610024,"700":-0.013763774708596709,"701":-0.04815787107497218,"702":0.05662498467005326,"703":0.00305626551914663,"704":-0.006177171930747585,"705":0.027050657711237547,"706":-0.03617328242916467,"707":0.04241409546280066,"708":0.06250273412892328,"709":-0.00473166266710287,"710":0.01688970693446583,"711":0.012589714771220745,"712":0.013006481417631303,"713":0.0010691278042810506,"714":-0.03327050044766518,"715":-0.02260242252147358,"716":-0.011633427002237361,"717":-0.01235492498829328,"718":0.0371664756688289,"719":0.006841291918778019,"720":-0.021339685309487134,"721":0.00918091477417533,"722":0.000816622863428095,"723":0.0017583557114153243,"724":0.029717026141300767,"725":-0.058946679100772954,"726":-0.03270145461975731,"727":0.03885346111626959,"728":0.013256273321129391,"729":0.013867225317571872,"730":-0.004512394638675084,"731":-0.029402960654506375,"732":0.043443330877330745,"733":0.0017123584700043932,"734":-0.021243248492380143,"735":-0.029493669185577824,"736":0.0058945978646367395,"737":0.014554230575022267,"738":0.026158075599912674,"739":-0.02267348093983671,"740":-0.007276405578454611,"741":-0.009727895762842918,"742":0.0010931692708212755,"743":0.07194862956751158,"744":-0.022322302661989216,"745":0.0031617516762019165,"746":-0.021093712045870815,"747":0.01526559634650097,"748":0.037764816103615824,"749":-0.03515852295083044,"750":-0.010367283815481593,"751":-0.0403701155846468,"752":0.02711896346554976,"753":0.006914281520886543,"754":-0.029896982159167213,"755":-0.009093803420606355,"756":-0.06298538647662082,"757":0.0002487461764825662,"758":-0.04800177646603832,"759":-0.027768408488599752,"760":-0.019482497880859442,"761":0.0451578333616573,"762":0.02625628415697644,"763":-0.036753013761818255,"764":-0.0047258579408561594,"765":0.004666299529835105,"766":-0.03704021553902882,"767":0.0032517639299966517,"768":-0.03056654980405133,"769":0.013858600930929275,"770":-0.06005171115348057,"771":-0.04179174886233852,"772":0.005113849737976972,"773":0.014291204068619431,"774":0.0558167950073693,"775":-0.062473638021083085,"776":0.019263660321416628,"777":-0.05619088707859333,"778":0.03844872054904508,"779":0.006693134435111691,"780":-0.029642905018021387,"781":0.002422251799933033,"782":0.043359705838787496,"783":0.02091234816424023,"784":-0.01650192114089694,"785":-0.041512401456757886,"786":-0.005150555276137552,"787":-0.020826663094845464,"788":0.016710295774435904,"789":-0.004815869637048182,"790":0.01884898750964231,"791":-0.02098744709727426,"792":-0.044487169990668964,"793":0.05158569043617713,"794":-0.02032195342535581,"795":-0.07591317152082612,"796":-0.052614309963153666,"797":-0.0003347917872658374,"798":0.02144628947739252,"799":-0.010847826064718877,"800":-0.02755854218004921,"801":-0.003327920047426306,"802":0.012671892291693989,"803":0.02197486752451744,"804":0.027288331146493053,"805":-0.05603159375597008,"806":0.021628456018351783,"807":0.03772801195365054,"808":-0.008993880460691684,"809":0.0012790312836659032,"810":0.02537147638995506,"811":0.04394413205403057,"812":-0.020609584484142414,"813":0.01974201485700647,"814":-0.015130857281371993,"815":-0.040005080077687855,"816":0.030975767652821007,"817":-0.08759870028713164,"818":0.06004375636026521,"819":0.023149271792001175,"820":-0.022179945140195768,"821":0.020473492959150068,"822":0.014767413046457664,"823":-0.006171992824738565,"824":-0.07971135824460812,"825":0.0007800164106824061,"826":0.024186772536858615,"827":0.04030481885307892,"828":0.004905625698308635,"829":0.0006538377655273857,"830":0.016675932564548385,"831":0.021634900068533056,"832":-0.028109599067804476,"833":-0.05089587538369273,"834":-0.014012971463637409,"835":0.006734227531917193,"836":0.004652281196008145,"837":0.020098055260135413,"838":-0.029029713718436972,"839":0.012895005467391063,"840":0.03242706251575656,"841":0.009694530133135917,"842":-0.020771671981417036,"843":0.034279530438997154,"844":0.03080415695377537,"845":0.013711537620139687,"846":-0.04794652979121203,"847":0.02250898059717479,"848":0.03657018018656753,"849":-0.02938130938429723,"850":0.054411744011604216,"851":0.04031803271209242,"852":-0.03659861746063434,"853":0.10704748057348035,"854":-0.023358041571779172,"855":-0.04033516310669811,"856":0.0005359016637228676,"857":-0.013073050450628673,"858":-0.06557631697898605,"859":-0.017737854661556845,"860":-0.04291286570354781,"861":-0.003113071788821622,"862":-0.014689301294907687,"863":-0.05103942623652308,"864":-0.030582412887259058,"865":0.032775048192967685,"866":-0.05365129282550428,"867":0.006603953939349879,"868":0.015509610112747076,"869":0.05206172947664126,"870":-0.007083768540635857,"871":-0.04068348641546281,"872":0.01015400312433094,"873":0.007534511244928581,"874":-0.04370837788823861,"875":-0.007828679360884688,"876":0.0011607263819485851,"877":0.0007928111140422011,"878":0.003082439361658945,"879":-0.042599503930451435,"880":-0.04303926046349573,"881":0.009956873863987463,"882":-0.0813785900240664,"883":-0.022153007182272404,"884":0.03412415205968108,"885":0.0051285728918196456,"886":0.08478946264496404,"887":0.03563592787338965,"888":-0.05227333317165091,"889":0.03456706320677526,"890":-0.019206810652953817}},{"sx":3,"sy":3,"depth":99,"w":{"0":-0.019291144194028827,"1":-0.048317347657617485,"2":0.019360715306086764,"3":-0.03273770904720583,"4":0.000414626700516088,"5":0.060479636841758305,"6":-0.04180185227370409,"7":-0.02469014370529992,"8":-0.045867614583956086,"9":0.023795566784535833,"10":-0.03159682670686312,"11":-0.05798684808718906,"12":-0.011731303108207644,"13":0.04121237984579758,"14":0.03800730241556949,"15":-0.02320783045337987,"16":0.015757153697389174,"17":0.007516689633337363,"18":-0.05709015458790087,"19":0.006238276758661928,"20":-0.009828489828110038,"21":0.032598181246345066,"22":0.03229754305155149,"23":0.06804458407626558,"24":-0.003977733962243076,"25":0.0306238409637927,"26":0.011771579127999816,"27":0.03643615908715192,"28":-0.014461627209121452,"29":0.029967581253371577,"30":-0.008649701017026348,"31":-0.018060915201994536,"32":0.01574503824797832,"33":-0.012634422888822088,"34":0.06577128996990297,"35":0.06533870967614366,"36":0.030128265278726377,"37":0.03193477962813123,"38":0.0286399192290489,"39":-0.03857844669869691,"40":-0.005284076970301072,"41":0.015572641765528108,"42":-0.043531911836136236,"43":0.07500684249383388,"44":-0.026043866745165893,"45":-0.1141907188692135,"46":0.015994463118146642,"47":-0.020793560552474867,"48":-0.0014245730246081776,"49":-0.009002539913929675,"50":0.023137953501707727,"51":-0.041115748161104325,"52":-0.06008654617401295,"53":0.03656629425932552,"54":-0.004473417041705139,"55":0.002130255485173789,"56":-0.01820255574639982,"57":-0.048166377090117604,"58":0.054332349562524355,"59":-0.08486460680227201,"60":0.09049284359334464,"61":0.031941936540980806,"62":-0.06312803939199102,"63":-0.0221814181438131,"64":0.03746483683079484,"65":0.06500636044132899,"66":0.0016143020434231492,"67":0.07179089053736139,"68":0.0037976030866285417,"69":0.0026841633826081603,"70":-0.03254369876621086,"71":-0.019922833313059538,"72":0.022233219682989587,"73":0.06223020590489256,"74":-0.01622756094327709,"75":0.0008542055735452874,"76":0.026760390484836305,"77":0.01823454548682732,"78":0.005034343739042005,"79":-0.02436117928459121,"80":0.03790040980544195,"81":0.08790673857858275,"82":0.028354705650848962,"83":0.016766116109750328,"84":0.015504410557881947,"85":-0.018187034478055336,"86":-0.0049113169740319694,"87":0.01429745567697392,"88":-0.005757812612885245,"89":-0.029784949765583362,"90":0.0024207104635253014,"91":-0.052518194131329986,"92":-0.00804144323007975,"93":0.01888054684751531,"94":-0.025477392063651766,"95":0.03286030690802715,"96":-0.0073413556154789715,"97":-0.041053185048385024,"98":-0.0021696061037961563,"99":-0.035758065353980344,"100":0.04245624947224422,"101":0.027675673894705724,"102":0.051136877056786115,"103":-0.015473919116148194,"104":-0.021696721117329846,"105":-0.03283352578314503,"106":-0.1010071480684911,"107":0.041232726433607605,"108":-0.040387498403822365,"109":0.012713851869602447,"110":0.005545079366582655,"111":0.0010077710898285515,"112":-0.03506865774528674,"113":0.0008541283325037338,"114":0.07252264218708945,"115":-0.028852798390339322,"116":-0.02825683799752125,"117":0.01608643733252658,"118":0.027170313342425572,"119":-0.08867043685081173,"120":0.010564736832162138,"121":-0.03663164323297701,"122":0.029736921842063526,"123":-0.02259607819015243,"124":-0.07035827017778436,"125":-0.01724119039328696,"126":0.008582909126530775,"127":0.011722783472672154,"128":0.04446575667257148,"129":-0.017709496669112614,"130":-0.00010236609204105883,"131":0.0018102591858101774,"132":-0.002785697995252965,"133":0.008344977389842287,"134":-0.03595897925857924,"135":0.0310302464869297,"136":0.015529392581765576,"137":-0.04156267125465345,"138":-0.05496285412425342,"139":0.05397406810675372,"140":-0.029351467865834913,"141":-0.0216032378003978,"142":-0.01173810343460116,"143":0.010570861047208236,"144":0.02049001803321665,"145":0.006930058048737276,"146":0.03796390717003818,"147":-0.01671970037132852,"148":-0.002695742970012252,"149":0.01954466421244612,"150":-0.024291951197000807,"151":0.029663392303773062,"152":0.011429854509546245,"153":-0.028109346798312194,"154":-0.0327155512265406,"155":0.04540190765427503,"156":0.0035854546162841414,"157":0.00865746497637639,"158":-0.028028820158476672,"159":-0.02720732727353841,"160":0.045203148804955254,"161":0.045449918500576156,"162":0.017195391297573543,"163":-0.01716784487045119,"164":-0.08474778488630082,"165":-0.05302208996083746,"166":0.0406885287539681,"167":-0.007414170608188009,"168":0.03904857463907627,"169":-0.02732838655640173,"170":0.07483031083457276,"171":-0.0004923206855399186,"172":0.07338563212169309,"173":-0.06942799730224793,"174":0.0220926028279984,"175":0.08767649131705586,"176":0.023204142938868542,"177":-0.020340172223108778,"178":-0.00048255896178852654,"179":0.007512989638174223,"180":-0.02686772823765553,"181":0.07150623786435814,"182":-0.04039156944467439,"183":0.0311006666626192,"184":-0.004068943478390192,"185":-0.011053531012780709,"186":0.01910375140962776,"187":0.0530287747722729,"188":0.0016284049704409329,"189":-0.03533597497560682,"190":-0.0357464126827467,"191":0.06714615315703762,"192":0.0574892062421565,"193":-0.0018866530194524963,"194":-0.0035379999256508073,"195":-0.04171088197925104,"196":-0.04917511203898613,"197":0.03983565755543767,"198":-0.024116814493742957,"199":-0.07036522922174078,"200":-0.007174524750263831,"201":0.01660918284024754,"202":0.03867359349287279,"203":-0.007929827696994773,"204":-0.013483405816142102,"205":-0.01627757259941449,"206":0.029959612265149947,"207":0.01259127778407766,"208":0.012748537068641395,"209":-0.025912621734094952,"210":-0.01894927446151689,"211":0.022672866547481144,"212":-0.004623750250156167,"213":0.024376188374739434,"214":0.02474001901685143,"215":0.06535284235904254,"216":-0.02304350747343483,"217":-0.022369935809988774,"218":0.032461873661961016,"219":0.023282056786257926,"220":-0.009380435471266315,"221":-0.038245586482608,"222":-0.0030770768657043474,"223":0.040720805261780804,"224":0.04848313565509725,"225":0.06981083430543686,"226":0.09838988129301661,"227":0.024132160270576943,"228":-0.043714059358145825,"229":0.0444618600565506,"230":-0.011010654424623666,"231":-0.045770007146067784,"232":-0.01995625094027986,"233":-0.043735696580036426,"234":-0.00897563960931586,"235":-0.061597356725388346,"236":0.030006650524214865,"237":-0.019887336488006998,"238":0.016048834568839754,"239":-0.015433314399075833,"240":-0.011922473703290977,"241":0.0264712559610307,"242":-0.004958963263760567,"243":0.05531814894604147,"244":0.0013947116888501914,"245":-0.04199088521612023,"246":-0.05987285773132655,"247":0.00013774427000262126,"248":0.016508328952355458,"249":0.00693759984682743,"250":-0.06927210588839859,"251":0.009526205192600562,"252":-0.054284138021875726,"253":0.018468415056089572,"254":-0.02888175006391588,"255":0.0449670005833053,"256":-0.012408022328043396,"257":0.03365576684990217,"258":0.08633952046132204,"259":-0.011654398694251623,"260":0.0006180815096043512,"261":-0.03504724087432419,"262":0.024819599592919708,"263":-0.037798066279064915,"264":0.016439886656700577,"265":0.029439242702197853,"266":0.013544869361777354,"267":-0.04235527962020254,"268":0.031544225745576984,"269":0.07062670211426046,"270":-0.007364767186725807,"271":-0.029046802022705376,"272":0.041222574323668486,"273":-0.011006335982994638,"274":-0.016384932027217074,"275":0.04462897064904178,"276":0.014380320428969477,"277":-0.0005295129995608705,"278":-0.02051531058785663,"279":0.02283711638684416,"280":0.02375229473195423,"281":-0.006041231277989702,"282":-0.016474345480619934,"283":-0.01744262754875005,"284":-0.01927019611078993,"285":0.0243822083139047,"286":0.018469202177705663,"287":-0.011295588608956564,"288":0.025318360308163788,"289":-0.04569703346672701,"290":-0.08190694695147967,"291":0.029320178203227482,"292":-0.036424998405772985,"293":0.01312944801629643,"294":0.03699451334439771,"295":-0.04239591942517558,"296":0.04779328377816233,"297":-0.006797405667467575,"298":0.03471683414397987,"299":-0.018053174227568684,"300":0.023208371299526416,"301":-0.0338137356150444,"302":0.01840404294227602,"303":0.016364895970139987,"304":-0.0525814189401325,"305":-0.06615910708311717,"306":-0.00655905798822728,"307":0.019831694917926208,"308":0.028437211097284292,"309":0.006506106729004844,"310":-0.004436269805189637,"311":-0.0074868236283172785,"312":-0.031416135859076474,"313":-0.029871821584256178,"314":0.03207225267801938,"315":-0.025703472910922665,"316":0.025271616379566007,"317":-0.02488102135388878,"318":0.01887667309281885,"319":0.0020200875898626954,"320":-0.018644937386489587,"321":-0.0300139311622526,"322":0.016916900698081112,"323":-0.017146570168154053,"324":-0.05557851264377284,"325":-0.01849397656888399,"326":-0.030296718105345777,"327":0.040913599421128405,"328":-0.018241520546812138,"329":0.02456269150062248,"330":-0.0008147649293334526,"331":-0.01756636120603555,"332":-0.0185043854948354,"333":0.07460352613203111,"334":-0.057857685903592145,"335":0.03986703914270116,"336":-0.03387882288901434,"337":0.017884706255486132,"338":-0.0003265729089946586,"339":-0.04281148876759942,"340":0.019449507639692085,"341":0.04133261514828038,"342":0.006212483285924086,"343":-0.01551390042675231,"344":0.023316094411234053,"345":-0.03128071277382585,"346":-0.06192199756580433,"347":-0.019991163063732872,"348":-0.05055658813796094,"349":0.04515301311629143,"350":-0.04869274639079727,"351":-0.011111478125079986,"352":0.037548514045538904,"353":0.0053453386482010794,"354":-0.020354715597438445,"355":0.06272687889066103,"356":0.04472373736620556,"357":0.032984437669676986,"358":-0.003438679105415568,"359":-0.05042512882311678,"360":-0.00512992050925846,"361":-0.06795642117086353,"362":0.03717968611101428,"363":0.024873681743783793,"364":0.03211359997633914,"365":-0.04458242539047733,"366":0.018879192688331093,"367":0.02507989975635431,"368":0.03552113767900478,"369":0.046216872362704685,"370":0.02993045550221195,"371":0.07821447110991689,"372":-0.0314373291695842,"373":0.03126117222142795,"374":0.04894164024708769,"375":0.017664822208224754,"376":0.024570829414941462,"377":-0.0036653108307399688,"378":-0.006627589099275621,"379":0.0053190773747363715,"380":0.03098876551699114,"381":0.07162945469664884,"382":0.021504636886712884,"383":-0.04164151653270845,"384":0.03628953251847242,"385":-0.06441942916879556,"386":-0.01797443926189312,"387":0.02986155304265724,"388":-0.03071978378556808,"389":-0.008166850709990849,"390":0.045055638831193914,"391":-0.03468706881855621,"392":0.060077111602630025,"393":-0.014611520185053337,"394":-0.03852026011876194,"395":0.05479777754803736,"396":-0.03427564699661176,"397":-0.0032220544415809543,"398":0.026312341076913992,"399":0.007532464865124907,"400":-0.030848038606465896,"401":-0.026787694555602995,"402":0.012406698394573297,"403":-0.0067697056691832375,"404":-0.004047750049055608,"405":-0.008583044965444124,"406":0.010012280832822185,"407":0.011566634140833948,"408":0.02978404467906465,"409":-0.024671791729759193,"410":-0.036003705072301315,"411":0.00004556325772574757,"412":0.009828126789506156,"413":0.011314183183630436,"414":-0.005789317295481352,"415":0.004025204868427376,"416":0.04210615678228231,"417":0.008251628659256521,"418":-0.06453127212968456,"419":-0.009345305409664875,"420":0.05118995454057133,"421":0.019703331389630967,"422":-0.05272849935790692,"423":-0.006585679433975733,"424":0.008397849503030262,"425":-0.005110191914121965,"426":-0.05219504178838,"427":-0.034854185814013096,"428":0.023255586540126064,"429":-0.034525257357847776,"430":-0.03602870322379631,"431":0.0005202408339731196,"432":-0.0030234482779261706,"433":0.06166393179904981,"434":-0.04637442821443134,"435":-0.014864216382926398,"436":-0.005677655562116492,"437":0.0333986916416087,"438":-0.02066737561343777,"439":0.024170133957669315,"440":0.012219924099699131,"441":-0.02179422809071957,"442":-0.032929477523615164,"443":0.03581603524278144,"444":0.04408555456773617,"445":0.055667242222714505,"446":-0.026764199109234662,"447":-0.091687688174878,"448":0.025602655772327558,"449":0.005495388764865316,"450":-0.05282934424462688,"451":0.061755197856260345,"452":-0.02820019827752081,"453":0.00019385736891355595,"454":0.07260248745846443,"455":-0.05068125802607486,"456":0.059578803154807,"457":-0.03690750701297687,"458":-0.058490138245560055,"459":0.013459291664510141,"460":-0.004500677160323757,"461":0.06610640883289276,"462":0.012284294378627221,"463":-0.020326375058303058,"464":0.003469703635771872,"465":0.04998145661663668,"466":0.03175325511910588,"467":-0.0009568545512279096,"468":0.012037655246234033,"469":-0.017838189509647495,"470":-0.02641430245461164,"471":-0.02539173177685193,"472":0.009045478266047582,"473":-0.005946218134550215,"474":0.04570379570959063,"475":0.05812799820655352,"476":-0.0052046384256465485,"477":-0.023382091128333022,"478":0.07979829172049877,"479":0.06644533067059218,"480":-0.005056754952830561,"481":0.030078751865162467,"482":0.0039521724003842955,"483":0.01506518577590015,"484":0.03995272701441988,"485":0.036812201737333745,"486":0.045995752238294066,"487":0.03524845340516322,"488":-0.0016982459537771804,"489":-0.009846887065881115,"490":-0.0009210425530918929,"491":0.049653875667978284,"492":-0.0013111856264463448,"493":-0.011692962728152585,"494":-0.0267750732733926,"495":0.0053640873972560935,"496":0.0034897867379263484,"497":0.0012107130620099434,"498":0.007866967077637954,"499":0.072770726915244,"500":-0.006798705268260547,"501":-0.016208503435776924,"502":-0.0021006545424150395,"503":-0.04656838733230861,"504":0.004255364420188494,"505":-0.007967815245104929,"506":0.0071487357541102255,"507":-0.023151408002233986,"508":0.01240671867690375,"509":0.04059925971798401,"510":-0.007102622066530483,"511":0.019618210348530854,"512":0.035650884871527226,"513":0.07281692550853873,"514":-0.013618824959058876,"515":-0.026137177896547376,"516":0.03214417960739038,"517":0.022472752265826037,"518":0.06441772551686242,"519":0.02328840653505505,"520":-0.012048665113489534,"521":0.03733762520300281,"522":0.014055465233178204,"523":-0.006772774088031651,"524":0.015389808322595285,"525":0.010484219433288344,"526":-0.00937323072496688,"527":0.016204839314891112,"528":0.024179522087371376,"529":0.0121046569189103,"530":-0.08242971406594528,"531":-0.003499785359341261,"532":0.008799993128120603,"533":0.023791318386817747,"534":-0.025075797559830238,"535":-0.043465544755504924,"536":0.07972777052579748,"537":-0.05716975246717028,"538":-0.021220323810485893,"539":-0.07260298881102295,"540":-0.06311261049735459,"541":-0.0037542011116281485,"542":-0.02488388297600989,"543":-0.012414263920416025,"544":-0.06438776760814958,"545":-0.044104039550541395,"546":0.010838570316247926,"547":-0.02754409411141748,"548":-0.018944228459775208,"549":-0.03203014701473997,"550":-0.028470352167932533,"551":0.029566055382967193,"552":-0.016192022213352468,"553":0.03513202851903655,"554":0.04407503293836239,"555":0.01858712207692814,"556":-0.051651765712583064,"557":-0.06061415866581813,"558":-0.01845618147136872,"559":-0.015865911029199622,"560":0.021807392469824192,"561":0.021322803890549417,"562":-0.022024118695676973,"563":0.008057372981438628,"564":-0.02666430495200109,"565":0.01597832782627659,"566":-0.028439462470609734,"567":-0.016454643287950113,"568":0.006793373242822398,"569":0.04408193453207288,"570":0.061241929762431445,"571":-0.029854482753817385,"572":0.04760838147611485,"573":-0.016978724857559184,"574":-0.005650634260074996,"575":-0.014090644612030663,"576":-0.012160350363179235,"577":-0.017648883582978767,"578":0.0012535716780561418,"579":0.02637023143794866,"580":-0.016307930433558483,"581":0.02755461251467103,"582":-0.011117218165532334,"583":0.00920852931539167,"584":-0.01748801006172617,"585":0.03718046086459157,"586":0.08997945723818274,"587":0.018851790171959083,"588":-0.020906053015526126,"589":-0.011648753330728295,"590":-0.006429650078687283,"591":0.032579858954654414,"592":0.007990286937169347,"593":0.00016849353328437787,"594":-0.021071567491066465,"595":0.010731909436858188,"596":-0.026915095092570125,"597":-0.03371568577486525,"598":-0.009928040493993526,"599":0.02946074777975367,"600":0.007752692526726501,"601":0.00034730882064897846,"602":-0.019899607789182254,"603":0.049219738709182524,"604":-0.003090672867008327,"605":0.026485207961218834,"606":0.01886153608502222,"607":-0.0076223748265328494,"608":0.0015259714669530943,"609":0.04481237131975268,"610":-0.03793032849555286,"611":0.00844020719479518,"612":-0.024221325610348832,"613":-0.05384166664995243,"614":0.03503080969891417,"615":-0.006403652348782338,"616":-0.06488380434724354,"617":0.028749694561745094,"618":-0.019656682988213273,"619":-0.02164297345855728,"620":0.05814826371976572,"621":-0.022406896864975396,"622":-0.025215886064485812,"623":0.01935207629031152,"624":-0.037833477861122636,"625":-0.016498834927792562,"626":-0.030810252592418493,"627":0.03773115508096411,"628":0.048333936764759625,"629":0.04911317354143644,"630":-0.008947206420666428,"631":-0.05268603588300259,"632":-0.013999372069691967,"633":-0.0005921391410307551,"634":0.047741210158150915,"635":-0.020941006542617012,"636":0.024471495677496517,"637":0.0379197443669196,"638":0.008743783105751158,"639":0.0081362901505985,"640":0.01826378091466344,"641":0.0066129479895072505,"642":0.005196314637836384,"643":-0.028823069773099487,"644":-0.00513237468832957,"645":-0.022558839073634623,"646":0.013144377009599164,"647":-0.001253606915607368,"648":0.04882301998456975,"649":-0.03029473554185117,"650":0.03234868575432723,"651":-0.042830572807899286,"652":0.010979029981759312,"653":-0.052028640022604065,"654":0.03764798966072275,"655":-0.01435310506956731,"656":-0.02112327442739289,"657":-0.014049514487423281,"658":-0.0059511231929239745,"659":0.001296135609402772,"660":0.005835101159836469,"661":-0.00964961565653689,"662":-0.021772927312675612,"663":0.002926620660871822,"664":-0.0003153264101967757,"665":-0.021258544003667543,"666":0.06813739170761947,"667":0.04459240139868527,"668":-0.018842264989023198,"669":0.007560261672198622,"670":0.05536769788989408,"671":-0.0070017575563510745,"672":-0.010151809104127463,"673":0.029184625652084198,"674":-0.012555137098196237,"675":0.000735131538227965,"676":-0.032392993589383065,"677":0.0050763773643227915,"678":0.08729922607521796,"679":-0.07200624461106102,"680":-0.026331700083531955,"681":-0.018187748305016512,"682":-0.01791773487246889,"683":0.044027278301037996,"684":-0.043368611555530075,"685":-0.010314617549127074,"686":0.003069230668900454,"687":0.06524842943569845,"688":0.01468835082161641,"689":0.0055550942539624665,"690":-0.06016451988905051,"691":-0.028218046888241668,"692":-0.012874643379461008,"693":0.022912791989105553,"694":-0.0022453152936052962,"695":0.022701005883818362,"696":-0.00946663571157621,"697":0.07102566281837236,"698":0.024363813980063816,"699":0.016148129202253832,"700":0.01885190951890585,"701":0.03362362135854371,"702":-0.03311080028453803,"703":0.014414661643090026,"704":0.0021536116861236537,"705":-0.032996339159444325,"706":0.01005152433666519,"707":0.020542382650681125,"708":0.05057834734151112,"709":-0.0045196147573609066,"710":0.018043540478794768,"711":-0.0414893478754112,"712":-0.03715014790022921,"713":0.039219854338869625,"714":-0.07357707483009343,"715":0.03214674130931095,"716":0.025134568971251523,"717":-0.02270558929194081,"718":-0.03943932636820337,"719":-0.02771075513195212,"720":0.006467459783611417,"721":0.03802643795064299,"722":0.017414077265433654,"723":0.024775906068387324,"724":-0.004051732645661104,"725":-0.03961550550142146,"726":-0.003052470242344749,"727":-0.0030866921045095484,"728":0.027156729226488475,"729":0.010551496262031142,"730":-0.00006629131372024936,"731":0.019891814163907864,"732":-0.00895673789872902,"733":0.037558846809070415,"734":0.04427405572640193,"735":0.006591839503595511,"736":-0.012607314378733407,"737":0.015385605436852226,"738":0.04414816700784496,"739":0.06093453427364845,"740":-0.017732480522851642,"741":0.025800609853480073,"742":-0.048286328444353065,"743":-0.09073369571606446,"744":-0.012172053956154802,"745":0.01164509115940907,"746":-0.02363584241077828,"747":0.003464028949006903,"748":0.0014877541499058935,"749":-0.0004591669864171695,"750":0.006392019160082145,"751":-0.076151828118409,"752":-0.055043811185488484,"753":-0.05533151886472606,"754":0.02060655596834676,"755":-0.0026823542426054167,"756":-0.022173214411098405,"757":-0.000540511817238,"758":0.029173242749673773,"759":-0.03345766799456716,"760":-0.04637668893492383,"761":-0.012227487065092869,"762":-0.029622547031731727,"763":0.06495292992223459,"764":-0.010323835173979896,"765":0.03668494952000172,"766":-0.09736926953930425,"767":-0.049472409209739575,"768":-0.013974882994554717,"769":-0.00608511831107087,"770":0.04913516894150888,"771":-0.08085679131496698,"772":-0.04568878349340616,"773":-0.02343260655512884,"774":0.027064275101442416,"775":-0.05188273250031879,"776":-0.04290254303039703,"777":0.03986370150266256,"778":0.0023246418226246083,"779":0.026336074876867416,"780":-0.03838590371346087,"781":0.0006162429241461766,"782":0.020896163371230354,"783":-0.049609496859952196,"784":0.05746485828342597,"785":-0.0009100352762926339,"786":0.03177352379838045,"787":0.048789755110105706,"788":-0.031450906479670956,"789":-0.007152188303281404,"790":-0.025292284999143388,"791":0.014865265389204031,"792":-0.028889020449063014,"793":-0.015429107939701005,"794":0.015464632683468243,"795":0.005053644957840054,"796":-0.02295990107509122,"797":0.04412374911588794,"798":-0.004946329296121958,"799":-0.036390943915653375,"800":-0.025854909178979008,"801":0.02512060652961566,"802":-0.021628894507274066,"803":0.04777209124054037,"804":0.01722119483560396,"805":0.038426585118185634,"806":-0.04507416921295492,"807":0.005019131243109865,"808":0.007896498837367275,"809":-0.04025006618071999,"810":-0.017962557652191232,"811":0.018055452769639237,"812":-0.019270196648215374,"813":0.11232485112010483,"814":-0.011127173484865955,"815":-0.009629155842864643,"816":0.022638688851696884,"817":-0.023829818723408523,"818":-0.0008357968175748922,"819":-0.07088035878428854,"820":0.046908141670529646,"821":0.01668234408014583,"822":0.03205308474440789,"823":0.005990998030845216,"824":-0.005774961070676726,"825":0.0036971034556276703,"826":0.009646575899412915,"827":0.06101934196964202,"828":-0.044643929982250155,"829":-0.016611048392918038,"830":-0.01638655538213649,"831":0.012902161610571715,"832":0.000696789119378754,"833":0.03391647541717512,"834":0.06803094914810787,"835":-0.025565799092934577,"836":-0.028316349035376456,"837":-0.0005848595897469576,"838":-0.06650711417022631,"839":0.0008209311453065548,"840":-0.03549510180793084,"841":-0.031780608728853466,"842":-0.04624455897224134,"843":0.05563232821929304,"844":-0.005817864642703277,"845":-0.017807075091866097,"846":-0.00448573032911662,"847":0.007197089203713345,"848":-0.03264901883535284,"849":0.0050255009247863755,"850":-0.04032999615749905,"851":0.05646047086914984,"852":-0.004350923084992676,"853":0.016453609949059724,"854":-0.02398182140796305,"855":-0.1254195675820668,"856":-0.026444461761489756,"857":-0.03531343941580327,"858":-0.014503440163771263,"859":-0.01096184686821593,"860":-0.009600129461479296,"861":0.02225383608805736,"862":-0.017870022888305147,"863":0.019359545732193503,"864":0.023749054595668843,"865":-0.006070971248988057,"866":0.02947509358979857,"867":-0.07405615510465043,"868":-0.012293292845650242,"869":0.04759527239776706,"870":-0.03424961148878623,"871":-0.017634500054370252,"872":-0.009096236991962197,"873":-0.06168020621297596,"874":0.0372474148825838,"875":0.022290677042623018,"876":-0.030420348375325795,"877":0.022542850563177987,"878":0.004091095445147575,"879":0.05208274927675003,"880":0.03130550907968474,"881":0.030757326676674385,"882":-0.02599919908951122,"883":0.010543654448095179,"884":-0.008818757331720009,"885":-0.005989183334863926,"886":-0.06702411539306223,"887":-0.006779697913373474,"888":-0.005423984802589388,"889":-0.005276368179592425,"890":-0.0482349616499308}},{"sx":3,"sy":3,"depth":99,"w":{"0":-0.016188050861718394,"1":0.01928475962845795,"2":0.03674240887441187,"3":0.007764968370229644,"4":0.03521225272860333,"5":-0.0057081920365426855,"6":-0.04720853728957871,"7":0.0716157647218833,"8":-0.04661080597436669,"9":0.029357239792854588,"10":-0.034833103461140894,"11":-0.017740087481092102,"12":0.007548927643905055,"13":0.01767591514764516,"14":-0.03578935632793945,"15":0.027397547404125904,"16":0.0567497586717747,"17":-0.011574714703882978,"18":0.002347771146904967,"19":0.02190666360411747,"20":0.026386388764173353,"21":0.04007915478602124,"22":0.016240033367024967,"23":0.03672383474235657,"24":0.017596079980046645,"25":-0.05887382941877601,"26":-0.063035852455818,"27":-0.013526971344897866,"28":-0.03484248253123037,"29":0.0020303111279010634,"30":0.012070412603808842,"31":0.0856039964259025,"32":-0.004823143887359189,"33":0.014602546005296948,"34":0.02126420337213238,"35":-0.04544010000913916,"36":0.07392483394646834,"37":0.01696623097912689,"38":-0.02907193946523186,"39":-0.0011310851165934636,"40":-0.013311439621764863,"41":-0.02004402157008036,"42":-0.05149103788465721,"43":-0.01953799027189718,"44":-0.004004017058042292,"45":0.00959350585477388,"46":0.015717842342486004,"47":0.0425088271247055,"48":-0.10162465706655618,"49":-0.032906559279573186,"50":0.005977400561509943,"51":-0.01457991316082169,"52":-0.008381160926214791,"53":-0.006182819878457234,"54":-0.040625359151523044,"55":0.015771161670701424,"56":0.07190573509887939,"57":-0.01476065620982178,"58":0.028308368416842797,"59":0.02756509618691652,"60":0.01137551984912571,"61":0.004083884308038236,"62":-0.06384295432741903,"63":0.022341536402883867,"64":-0.03078204178763456,"65":0.004220661767068234,"66":0.0006080137638330633,"67":-0.020722780809414407,"68":0.0179246567197102,"69":0.042246669457649114,"70":-0.0038128747394361113,"71":-0.020172677813583645,"72":0.01288810478843218,"73":0.018608818179909035,"74":-0.01867545313609768,"75":0.038924101398749966,"76":0.0038955219022096576,"77":0.03144227170540006,"78":0.007812513311727788,"79":0.0025017717493211735,"80":0.010021367618451986,"81":-0.0006932976319569564,"82":0.007335103924861308,"83":-0.0006411659599871457,"84":-0.033147095965155186,"85":0.04343083862837835,"86":0.03735764701212199,"87":-0.01944419494775945,"88":-0.0039797563854923335,"89":0.021401937283631337,"90":0.028456272810664478,"91":0.010007419868720719,"92":0.04418574750585649,"93":-0.0012855773235647453,"94":-0.028812843171020574,"95":0.02774010732838345,"96":0.02756975751393288,"97":-0.04302350355302414,"98":-0.03428457309025016,"99":0.041783791644022975,"100":-0.008440672931566489,"101":-0.05192826409034848,"102":0.031167242824802887,"103":-0.04624323046150421,"104":-0.053362898909201296,"105":0.043818897387397894,"106":-0.008500312553924468,"107":0.024600115789277618,"108":-0.014205091033946293,"109":0.08722536714748573,"110":-0.031266360805089544,"111":0.007870041880776828,"112":0.00940102105280775,"113":0.01742358991063088,"114":0.031651011854851606,"115":0.03993817708092535,"116":0.00787674003617539,"117":-0.09137710876711393,"118":-0.03874317115190835,"119":-0.014980185265420236,"120":-0.043806402491827046,"121":-0.020659364559944958,"122":-0.00283830336997489,"123":0.025106706484109512,"124":0.021865337752489982,"125":0.01754876389409597,"126":-0.030933294617493223,"127":-0.07532832453193596,"128":0.03146325055053962,"129":0.005946193881199609,"130":-0.016163070939926062,"131":-0.02131060673106018,"132":0.000857685456114083,"133":-0.04117663853909142,"134":0.05846685633509844,"135":-0.002785501142858865,"136":-0.04450996385579431,"137":0.005937422243548885,"138":0.0037806663179207403,"139":-0.017452829036628693,"140":-0.011019252994439987,"141":-0.034056482936166074,"142":-0.0045303177231472294,"143":-0.02796139681632152,"144":-0.018956600981146744,"145":0.004274197957218112,"146":-0.08608396615453806,"147":-0.024764402838682902,"148":0.009221461287033736,"149":-0.012464661699742925,"150":-0.015597299323071941,"151":-0.0023375590362391657,"152":0.026107839699730313,"153":-0.007673262703817946,"154":-0.015511172513199629,"155":0.00019196657323223063,"156":-0.04101636636086474,"157":0.009434112048866102,"158":0.03214033182111145,"159":0.011115895604508732,"160":0.059510583456106596,"161":0.011074026330048786,"162":-0.012346985334211085,"163":0.0011698573531890276,"164":-0.06618620015075549,"165":-0.06579277374236131,"166":0.04492864339999483,"167":-0.013017044113461485,"168":-0.008856024430731732,"169":0.07401905644949879,"170":-0.017407430883088465,"171":0.03312279906896672,"172":-0.026021591754662385,"173":0.033851221700016844,"174":0.034966653781953363,"175":0.0596428110518947,"176":0.02243458379781848,"177":0.013272619370676975,"178":-0.028644693854027816,"179":0.01578999980272831,"180":-0.015081354366584648,"181":0.015552972557431214,"182":0.009181823393403312,"183":0.03640115028319629,"184":-0.0383007615023444,"185":0.0313223146572088,"186":-0.018942454944460917,"187":-0.0385577090875705,"188":-0.0052894152023240226,"189":0.025063072106088186,"190":-0.03068728477789031,"191":0.03950695756199396,"192":-0.018226675755201694,"193":0.014218353479911057,"194":-0.027500382174474366,"195":-0.01548450011423844,"196":0.00005235630329215509,"197":0.024940082155574913,"198":0.004771441725658676,"199":-0.019155077648496572,"200":-0.02092394909107572,"201":0.0015262484489521652,"202":-0.020216214523627915,"203":0.02424493137515039,"204":-0.06204891766403618,"205":-0.07070671025956694,"206":-0.05512318486817807,"207":-0.011891219448458215,"208":-0.021046056874488798,"209":-0.0044429847177496935,"210":-0.034981364325880074,"211":0.023487066526530688,"212":0.007133193545244892,"213":-0.009124116910578885,"214":-0.007545091933203303,"215":0.01953453934493012,"216":-0.02603076662420256,"217":0.019579513598545574,"218":0.014750982143145908,"219":-0.0004868584544445633,"220":-0.03853027235994968,"221":-0.008965591619615281,"222":0.05687941714915825,"223":-0.0031653318902783944,"224":-0.0863699304598455,"225":-0.005650242529446081,"226":0.009520942701362714,"227":-0.08349122804612101,"228":0.020981261409677758,"229":0.07042235703008246,"230":-0.02920350174938298,"231":-0.026509968796467265,"232":-0.03840729237088721,"233":-0.01594189871893793,"234":0.03204660434611544,"235":0.022535355125903104,"236":-0.015044314716674594,"237":-0.021601258599024755,"238":0.03691717076719072,"239":-0.03649733289364436,"240":-0.008409647615640769,"241":-0.027173041193039305,"242":-0.01876871091791155,"243":-0.007092726432637268,"244":0.009629019393432872,"245":-0.03213917390898036,"246":-0.0024277201215257747,"247":-0.0006170481605471908,"248":-0.02500806036323007,"249":-0.008660998867668367,"250":0.0027989768607148864,"251":0.010523445716951232,"252":-0.06546117378370633,"253":0.019865627672170833,"254":0.05953223345819858,"255":-0.01174864360581453,"256":-0.03030043138908352,"257":-0.080103095559227,"258":0.0028493994566441204,"259":-0.02652283563270224,"260":-0.04466511434674539,"261":-0.036458555693778996,"262":-0.018047038307609446,"263":-0.00801880975692316,"264":-0.029836402997810266,"265":-0.014042712967336484,"266":-0.039193365428713295,"267":0.002630244462493832,"268":-0.008940805013205754,"269":0.031094396036220395,"270":0.037092437649551224,"271":0.01790270966454729,"272":0.043692891933667995,"273":-0.040603073181883644,"274":0.024200911959010224,"275":0.025166965072137858,"276":-0.025323814335754855,"277":0.01225414041367465,"278":0.04066491834953362,"279":-0.019003743800341914,"280":0.012914960415047683,"281":0.03444800436124713,"282":0.008010446009639837,"283":0.040961232576217754,"284":-0.0354147170512111,"285":0.03170171780377569,"286":0.02917120019292573,"287":0.023410942306836793,"288":-0.036397144485158836,"289":-0.014485193669200673,"290":0.010916737953186345,"291":-0.015448320601911229,"292":0.023821461337778422,"293":-0.04918094073531554,"294":0.02041225795250146,"295":0.016341716010763507,"296":0.028520062931809382,"297":0.012120768811996621,"298":-0.04390666095318435,"299":-0.008684436999351128,"300":0.00757784061102199,"301":0.04862675949338758,"302":-0.021533268800865982,"303":0.005109034549846843,"304":-0.011689916911998045,"305":-0.021859392382768735,"306":0.03749634834687566,"307":-0.014408797541462312,"308":-0.021141633414792433,"309":0.04234146417676693,"310":0.08344693252666453,"311":-0.016042430451833165,"312":-0.009907678598219847,"313":-0.0363056120299599,"314":0.0056906629978455275,"315":-0.03724919711468177,"316":-0.010866333095389376,"317":-0.009471101824754979,"318":-0.030415159976083118,"319":0.006813240206938204,"320":0.029599404447381863,"321":0.02823906252321679,"322":0.0014564309664772729,"323":-0.008049984270731917,"324":0.013410742522306352,"325":0.026530416393078345,"326":0.027983545788546952,"327":-0.005787230014494487,"328":0.010953628226325897,"329":0.02434248144768244,"330":0.04461476600402889,"331":-0.012550033689802977,"332":0.045112683365847894,"333":0.004563128138806859,"334":0.005901511559742432,"335":0.0072009459481517145,"336":0.04958373268680547,"337":0.03477309928239013,"338":-0.01969374993699573,"339":-0.04004407826410294,"340":-0.014665333169761938,"341":0.010845718167906799,"342":-0.022438033258726727,"343":-0.03802312052249653,"344":0.002966852368272119,"345":-0.017362042875078986,"346":-0.015281775768946211,"347":-0.016610201833949862,"348":-0.02139423337283706,"349":-0.021127601683844005,"350":0.0525345743217078,"351":0.05597691689099253,"352":0.015737754089913587,"353":0.045081321788149185,"354":0.047444616460706024,"355":0.000988830661881491,"356":0.017257332440555467,"357":0.015894512509312585,"358":0.0015945238031265395,"359":0.060939878063704996,"360":0.03754950196408291,"361":-0.05849285798369594,"362":-0.0053793204718058955,"363":0.0038006250268047864,"364":-0.03183394874832898,"365":0.02060537928505933,"366":0.0039247240396057675,"367":0.006213149794632893,"368":-0.025990519593026305,"369":-0.0499656035881018,"370":-0.008632320805106392,"371":0.0444768198959968,"372":-0.025917851915195016,"373":-0.0004328418209895393,"374":0.024388291766532552,"375":-0.0010344656753398082,"376":0.0576228762301734,"377":0.037468487006534205,"378":-0.018750308713503396,"379":-0.024457081272173387,"380":-0.04108126853223054,"381":-0.042179290240639794,"382":0.0072297762399004045,"383":-0.0005254446714909286,"384":-0.032257635452920916,"385":-0.03857055075186479,"386":0.004253730450228795,"387":0.03971885447357115,"388":0.012488300076038877,"389":0.059332208191508216,"390":-0.0388929362102597,"391":-0.0772625797853386,"392":-0.033161434024953,"393":0.003482160701846465,"394":-0.030749307749452306,"395":-0.03588410074212744,"396":-0.017096237979969297,"397":0.00018788159579062133,"398":0.05559394969392739,"399":-0.0002485603925438923,"400":0.018833715334750412,"401":-0.01941327176540829,"402":0.05400995289798249,"403":-0.03998334246391728,"404":-0.03092277469417687,"405":0.022049454163471392,"406":0.0317275449735426,"407":0.048057863216155246,"408":0.03948038911350356,"409":-0.02349448749822475,"410":-0.0002313567349180605,"411":0.00308787781740531,"412":0.03506755888020701,"413":-0.05755041085458453,"414":-0.007158666345584129,"415":-0.03645294160667568,"416":-0.001966005639169,"417":-0.0042844406945728945,"418":-0.01846923619024163,"419":-0.058489814246221815,"420":-0.06303368996167265,"421":0.03426519770867835,"422":0.026333261858713628,"423":-0.011055317599307215,"424":0.0425476897440924,"425":-0.04695383018604337,"426":-0.009789001548490408,"427":0.02729387999793057,"428":0.013011137133149974,"429":-0.005592756404298923,"430":-0.04243709688485351,"431":0.0013950370201000625,"432":-0.033707512583803265,"433":0.016703097623953028,"434":0.037904512091824716,"435":0.03321156006809231,"436":-0.03686877807777135,"437":0.03291179992684239,"438":0.015056992367844215,"439":-0.001905616828923158,"440":0.003976824673542861,"441":-0.014255010952424717,"442":0.016458241245334654,"443":-0.006410276313613819,"444":0.02830316500513475,"445":-0.041231407838860167,"446":0.05764448746686117,"447":-0.03420720357468354,"448":-0.009703256364421254,"449":-0.050665327528039414,"450":0.00004635778788126319,"451":0.03860122276210215,"452":-0.013960785263902875,"453":-0.02043577403738499,"454":-0.04745711941644767,"455":0.01373888183493255,"456":0.0024157895187601848,"457":0.0037620634829600205,"458":0.02429805489797181,"459":0.044568571165421546,"460":-0.005856951339917555,"461":0.007720601603366522,"462":-0.01345573792024004,"463":0.05734485390641466,"464":-0.03248272931389507,"465":-0.014688805698473605,"466":0.018566070455506352,"467":-0.03585942843418853,"468":-0.0262686054122215,"469":-0.02850958151636102,"470":-0.03315635272937612,"471":-0.018716127747032102,"472":0.024514055978159092,"473":-0.020451060580180466,"474":-0.07476446064504669,"475":0.004148663816045424,"476":0.00975548984804657,"477":0.01869203948434884,"478":-0.01916138359997276,"479":-0.02445121918806515,"480":0.024638388915297935,"481":0.025618536596491423,"482":0.03190278498719487,"483":-0.015119479075724621,"484":0.07129485258411451,"485":0.02926848917391926,"486":0.009236442452144878,"487":-0.008490470743707014,"488":0.01413261375187829,"489":0.03677936522110578,"490":0.009120653669671401,"491":0.04063232277732037,"492":-0.020296422832091904,"493":-0.018186911385979943,"494":-0.0016973094463462353,"495":0.00659052037044214,"496":0.05307506228549989,"497":-0.010553400277256174,"498":0.014340627729012612,"499":0.03641250678392355,"500":0.0323495957546692,"501":-0.018591573610493333,"502":-0.09307166081518044,"503":0.016885276271572356,"504":-0.03637484186677554,"505":-0.0346099622781835,"506":0.010191027632294108,"507":0.055606314004075556,"508":-0.010940286173924061,"509":0.011708272874313747,"510":0.057215109509228396,"511":-0.0030385821307753985,"512":0.04267656674520604,"513":-0.0038638330954306422,"514":0.03157419282670088,"515":0.06537521179294244,"516":0.01028249535989468,"517":0.014164149219573995,"518":-0.031151255142109514,"519":0.0011049023754743075,"520":0.011429160408986621,"521":0.05324701604572241,"522":0.023324975744379018,"523":-0.035050583352735296,"524":-0.056519774840215024,"525":-0.06004685835986259,"526":-0.03731597116144765,"527":0.019913447929881593,"528":-0.018058902084675227,"529":0.02695038598167197,"530":-0.004755295739422976,"531":-0.02364174802007347,"532":0.014091913656223148,"533":-0.013041356622647252,"534":-0.046319105855218964,"535":-0.04255000299266225,"536":0.019752801744717986,"537":-0.031616762015727475,"538":0.009637639625064686,"539":-0.02008191187620025,"540":-0.03948401877724944,"541":-0.025267970537637786,"542":0.04788369187079669,"543":0.051964370748538394,"544":0.05590177393067838,"545":-0.04340043463308225,"546":0.03908007695537548,"547":0.02736692348745324,"548":-0.0019977753398331705,"549":-0.033738396348062534,"550":-0.025730138233697512,"551":-0.025414706249656277,"552":0.017641182896310996,"553":0.020608928137066686,"554":0.019247641300012722,"555":-0.047983952143072967,"556":0.019132646881465515,"557":-0.004055052266672494,"558":-0.005262069038255601,"559":0.0242715336385847,"560":-0.008786103577331337,"561":0.041359893769547657,"562":-0.03098516942211046,"563":-0.02418081293676181,"564":-0.043175603646003695,"565":-0.03966455429550634,"566":0.04861992046410736,"567":0.009198508300696595,"568":-0.0020585963757270747,"569":0.021376503733986082,"570":-0.005493952265813231,"571":0.05717211624816105,"572":-0.03241617187991261,"573":-0.019098777667816935,"574":-0.03602055373800713,"575":0.011284431229867638,"576":0.025153647519833938,"577":0.044338824131117144,"578":0.008604746308938288,"579":0.056129841532484175,"580":-0.03867820831532399,"581":-0.030230767874670078,"582":-0.03131264706826142,"583":-0.012172872773196928,"584":0.038378537017275546,"585":-0.01724128960947318,"586":-0.026069453800788588,"587":0.044512901592374435,"588":-0.015517639275000631,"589":0.002330177531468891,"590":-0.05289587003472165,"591":0.002288880569749727,"592":-0.03321189055302732,"593":0.025361728553059702,"594":0.003716622884469516,"595":-0.04926624684526531,"596":0.0011609464295164295,"597":0.0004238399811816135,"598":0.009377896541492412,"599":-0.01311043628135728,"600":0.04589412589094431,"601":-0.020593526673107557,"602":0.03918280417562582,"603":0.001150506238179414,"604":0.025575442284075774,"605":-0.005454509503711234,"606":0.02388663942664123,"607":0.06769620353671979,"608":0.012088783100346057,"609":-0.0004618773389780669,"610":-0.002854180276782826,"611":0.002398397337371585,"612":0.03555991168546657,"613":0.012947396603406254,"614":0.012561684060418405,"615":0.017424217367827483,"616":-0.03235232550608122,"617":0.030961217322120635,"618":-0.01061510810015193,"619":0.010231215343337801,"620":-0.04174850192381361,"621":-0.012493596204872039,"622":-0.055625249045768946,"623":-0.01975234808506385,"624":0.004166831070230376,"625":0.06641374364713679,"626":-0.0008212991556655455,"627":-0.026746890367034912,"628":0.024730397276185433,"629":-0.012275745304174251,"630":-0.01866952364973591,"631":0.0354802939703894,"632":0.05901084703611072,"633":-0.00843853800161047,"634":-0.002040432662346258,"635":0.03631430911289773,"636":0.0021078235551390684,"637":0.010254643125705015,"638":-0.026499534799400908,"639":0.02897997778459396,"640":0.04209240857271746,"641":-0.02303740684964041,"642":-0.023409903303718102,"643":-0.0030992865993882453,"644":-0.04927398092523277,"645":0.014977393496514498,"646":-0.032429492889359826,"647":-0.019013662339097036,"648":-0.002728567110491826,"649":-0.0533350310587575,"650":-0.040182106745273456,"651":-0.0006693734858766747,"652":-0.030409293231545467,"653":-0.038469815298508785,"654":0.026383326592243968,"655":-0.0013079641422589362,"656":0.004572400697119407,"657":-0.02590500085606309,"658":0.0010052217765306715,"659":-0.0014563838291038781,"660":0.007590108464049239,"661":-0.0232372972479926,"662":-0.0474850477628984,"663":0.07380526692741043,"664":0.016626836128199297,"665":-0.04118162329693674,"666":0.02299338533600073,"667":-0.049620947699123265,"668":-0.05205255583733841,"669":0.01678872551519001,"670":-0.019111744950593455,"671":-0.008219817729280347,"672":-0.03342116913387592,"673":-0.029472697735698872,"674":0.03847423567203025,"675":0.014834433278281775,"676":0.04974334978270304,"677":0.036147489032192004,"678":0.035315589954237045,"679":0.018911369237909918,"680":0.03915410295270899,"681":0.030046135264344777,"682":-0.01709509464331537,"683":0.006134793767092029,"684":0.04709475845989295,"685":-0.004247126770966038,"686":0.0007584599902635161,"687":-0.023590432798290612,"688":-0.022772484435150536,"689":-0.03613571185413111,"690":0.020562806191686187,"691":0.07078758604444572,"692":0.06521845437296246,"693":-0.00033130177396538233,"694":0.012881488225968088,"695":-0.04969892401048554,"696":0.05817963086722195,"697":-0.03177600616264029,"698":0.02425094517375756,"699":0.018142871193281566,"700":0.010465856192111064,"701":-0.035456724178445816,"702":-0.024932073252584022,"703":0.01926728567557438,"704":-0.001994142947314084,"705":-0.04867613033647131,"706":-0.00287179441045861,"707":0.03252933292654797,"708":-0.0009409947689515577,"709":0.0027139200445761747,"710":-0.001614255462525058,"711":0.03998617405299937,"712":0.05673827396183684,"713":0.001283072950015262,"714":0.02298881619547974,"715":0.007804182442786797,"716":0.03796763515001065,"717":0.0265482536249863,"718":0.0708486677409938,"719":0.05564600170925448,"720":-0.013963712125991715,"721":0.002243419331914094,"722":0.01799000077181682,"723":-0.022484637184168002,"724":-0.004701894947383294,"725":-0.01740926077485057,"726":-0.005040566661830648,"727":0.0041695069489421244,"728":-0.033962747049925586,"729":0.05859163589003986,"730":0.01903381643769161,"731":0.0070511076823710295,"732":0.022398788653117577,"733":0.026323843736870734,"734":0.005746381954500632,"735":-0.011425360871666033,"736":0.04387078329585316,"737":0.07548357419912632,"738":0.005970887808484098,"739":-0.03720433143361022,"740":-0.020140414332027238,"741":0.02854972279956911,"742":-0.014805646524595076,"743":0.04932868753725516,"744":-0.03910331717742602,"745":-0.006074603069645994,"746":-0.006753347601202788,"747":-0.022669643194209367,"748":0.011294705264287084,"749":-0.005380872816880854,"750":-0.0014130276448131686,"751":-0.028340394933489364,"752":-0.006931512924551859,"753":0.014852194095773439,"754":0.022138378071901905,"755":-0.020556319951332953,"756":-0.00988114830028696,"757":0.022567182098780076,"758":0.0649843756435395,"759":0.02689665945759451,"760":-0.005627331209031579,"761":0.060127999616363836,"762":0.028769599002520508,"763":-0.05837127361760824,"764":0.06352519919868728,"765":0.01642064225627664,"766":0.05135274287478963,"767":-0.007474415645722931,"768":0.010639920652417565,"769":-0.07589906378251735,"770":0.053278833749761154,"771":0.05020124877310967,"772":-0.04303704820742205,"773":-0.007683399628552866,"774":-0.07493839788432724,"775":-0.04807007464079402,"776":0.006872899228992239,"777":-0.08984818280590597,"778":0.008118368772304298,"779":-0.025250333698762967,"780":-0.021501559861955514,"781":0.04951679451791756,"782":0.053286970373437874,"783":0.054114033532771035,"784":0.017227810621738806,"785":-0.004553808294579624,"786":0.012267956216139011,"787":0.034215756597029766,"788":-0.0341466430600204,"789":0.00959473787881918,"790":0.03003765228247782,"791":-0.009211646940387801,"792":0.026743403329455902,"793":0.02778594766205255,"794":-0.03260209768112199,"795":-0.043473352477733714,"796":0.017756113460299046,"797":0.04523390547259533,"798":-0.03451239380290819,"799":0.09124692440920866,"800":0.051482843907317645,"801":0.017190784491309976,"802":-0.029388056160605493,"803":0.018564133416778535,"804":0.03771737215412911,"805":-0.029283119935016318,"806":0.021592899112254704,"807":-0.0027531764537918014,"808":0.04481632209850672,"809":-0.021792201503151212,"810":-0.02931786404948283,"811":-0.008249924953062851,"812":0.029630097560197605,"813":-0.016389057377910275,"814":0.03980933811052619,"815":-0.06285083914997257,"816":-0.01347572012950441,"817":-0.015489160492196149,"818":0.05462058639244316,"819":0.0366325458342704,"820":-0.023742518678821878,"821":-0.04114620298941035,"822":-0.0841029241509587,"823":0.045824449824472153,"824":-0.04665700847524828,"825":-0.036868127347189944,"826":-0.056201418908995944,"827":-0.04928757843272813,"828":0.03221799726741283,"829":-0.005771631639468908,"830":0.006660179051869664,"831":0.04776012891142838,"832":-0.00016521470187337141,"833":0.01810780933763964,"834":-0.01634650920325939,"835":-0.01809921318957845,"836":0.06806791957796395,"837":-0.02908111152437087,"838":-0.017681760458522006,"839":0.07980209501598139,"840":0.0008132138671619483,"841":-0.03995957831433845,"842":-0.03374156898194692,"843":-0.07254643428556425,"844":0.023897328528490032,"845":-0.0011923062237403856,"846":0.009972873893295774,"847":-0.03773639981838602,"848":-0.036490112286063046,"849":-0.03699176800788856,"850":0.03362541245532811,"851":0.008703740665382745,"852":0.013136016113384434,"853":0.03742730236360241,"854":-0.04739588068361855,"855":0.009142418346374928,"856":-0.007348827523734231,"857":-0.0030422411489962253,"858":0.05489036159615026,"859":-0.046035317637085446,"860":0.026169956492933504,"861":-0.01378518100163294,"862":-0.021351279058807304,"863":0.005389012468777652,"864":0.03631575353857846,"865":-0.0184950698401712,"866":0.028119797185113097,"867":-0.03868963789733456,"868":0.08351174479038406,"869":-0.04732613692375864,"870":-0.05196917890318547,"871":0.01655571314115276,"872":-0.014798651451244357,"873":0.02704904919022789,"874":-0.0211427607441846,"875":0.020336426708371335,"876":0.0029257650315065637,"877":0.05384526774614744,"878":0.04991452791948244,"879":0.037147502217886104,"880":0.033878865095796726,"881":-0.016788138888982975,"882":-0.014655760471043673,"883":0.05009084684213938,"884":-0.008870506428260172,"885":0.06981079657270393,"886":0.016363928959881317,"887":0.0011407810110919,"888":-0.008801160945674468,"889":0.0019346434572685347,"890":-0.0071325562268788395}},{"sx":3,"sy":3,"depth":99,"w":{"0":-0.02494396370303537,"1":-0.027288274914884808,"2":-0.009618851645004927,"3":-0.05022639170706503,"4":0.011446203908075797,"5":-0.038669085547138334,"6":-0.01903793978919472,"7":-0.004803074513100006,"8":0.005259535863498998,"9":-0.03057264174982858,"10":-0.022861317062922142,"11":0.014580684262165189,"12":-0.03139844864175325,"13":0.05126684281963829,"14":-0.029752980485168404,"15":-0.09981020680088876,"16":-0.03731058118099678,"17":-0.021584326806360587,"18":-0.061456141043354104,"19":0.07153116958660874,"20":-0.06413335077122108,"21":0.001968815550060423,"22":0.02879850841584529,"23":0.023071157191843213,"24":0.012953004050197675,"25":-0.01803277166710668,"26":0.005949425300064565,"27":-0.011236629758582398,"28":0.01754008779895986,"29":-0.02781069673714755,"30":-0.0007213061352103727,"31":-0.010159284063341874,"32":-0.05284621258577633,"33":-0.022800674789464098,"34":-0.04490792996327589,"35":-0.042844382922002565,"36":-0.02455331391599442,"37":-0.030307568039050003,"38":0.03966260113407426,"39":0.00599563483978439,"40":-0.01913044731892063,"41":-0.0015563067013171711,"42":0.0547850471385387,"43":-0.029759356406652313,"44":0.015822550354335295,"45":-0.025447585414815503,"46":0.022252084372127345,"47":0.028181671858911145,"48":0.01299250827816879,"49":0.017498726848209342,"50":0.022417733290211676,"51":-0.014284886464902476,"52":-0.02706991875425909,"53":0.043075066734314764,"54":0.0021188501119931012,"55":-0.013442296039361912,"56":0.013821375312428748,"57":-0.0172952749065842,"58":-0.03796408350875809,"59":-0.04226656629554702,"60":0.01773934792988131,"61":-0.00553225965478262,"62":0.013759097666444054,"63":-0.03057180373129127,"64":-0.023564380013333913,"65":0.01892893006959479,"66":0.03269253321075116,"67":0.00008811500840466049,"68":-0.034728325752585845,"69":0.048326999677744654,"70":0.02803013786867728,"71":-0.007032159899311595,"72":-0.005912265792343414,"73":-0.06331161072198153,"74":-0.07752465147073055,"75":-0.005778391426097317,"76":0.004874157887297199,"77":-0.062224611155595334,"78":-0.0515410598965359,"79":-0.015306997694820423,"80":-0.0256846473387992,"81":-0.06023503763475895,"82":-0.016111375064034626,"83":0.018645007306152168,"84":0.006588126462532868,"85":-0.019333266013741773,"86":0.06905370047666434,"87":-0.029553496625877595,"88":-0.02206395845230221,"89":-0.004705883498425653,"90":-0.004357890343938786,"91":0.00033066425506895553,"92":-0.03097658255375991,"93":-0.02148145933026831,"94":-0.0366360670978242,"95":0.022253466864776073,"96":-0.01412857299407156,"97":0.03389247119381906,"98":-0.0046349774920667825,"99":-0.02483784264685811,"100":0.014742297599246846,"101":-0.004927138537801539,"102":0.051137576361402586,"103":-0.05984674118585639,"104":-0.0647387883563512,"105":-0.03806429134486273,"106":0.001401129152863292,"107":0.025386541708952663,"108":-0.013765760797928428,"109":-0.00763228201820212,"110":-0.06324366042182993,"111":-0.015357579523715125,"112":-0.0019078154850887858,"113":0.003395975083775309,"114":0.0023651655981237296,"115":0.09107939948249842,"116":-0.030375905120653513,"117":0.016908334556034573,"118":0.01900323662190667,"119":0.015996723722349712,"120":0.037056320884521377,"121":0.06138043579758294,"122":-0.027990063214222823,"123":-0.03869271365919794,"124":0.0784629992236225,"125":-0.01899285994175172,"126":-0.007495851879917493,"127":-0.020539865497414163,"128":0.043969979541108734,"129":0.0040255307652658145,"130":-0.036150572760273586,"131":0.018724880050511993,"132":0.039652079555524467,"133":0.026739480636947456,"134":-0.03708621853117753,"135":0.059513098245031905,"136":-0.0424073032787575,"137":-0.0031533540933848573,"138":0.024524053107233833,"139":0.015248113520004427,"140":0.003600515632017965,"141":0.04278212174028005,"142":-0.032254409446630536,"143":0.04907888273322197,"144":-0.002266333961014992,"145":0.03776858785605891,"146":-0.009074674041578372,"147":-0.03908098314367735,"148":0.051338568121903856,"149":-0.04718813866548901,"150":0.01009382533286751,"151":-0.0008712311492611766,"152":0.021135854762368882,"153":0.005761138308582447,"154":0.03131962631246864,"155":0.0279713274990781,"156":-0.0211474640105283,"157":0.005695101016490535,"158":-0.01217088592414243,"159":0.025405739421811135,"160":0.029498901225097407,"161":0.0003925456218837019,"162":-0.05404909941400571,"163":-0.01183383926939429,"164":-0.010513506736560074,"165":0.008583869778039543,"166":0.002243993194562808,"167":0.048200641580673304,"168":-0.011781232413912636,"169":0.013421563005331366,"170":-0.06471768253680737,"171":0.0383348872399374,"172":-0.08992056977402639,"173":-0.010089323607752007,"174":0.03861409757194655,"175":0.024413321363228012,"176":-0.05713759362349777,"177":-0.06445599538780529,"178":-0.007466938195021591,"179":-0.032705691542839165,"180":-0.02204613665533665,"181":-0.02964735056923664,"182":-0.011311032576015713,"183":0.009350904139160754,"184":-0.02832100599139678,"185":-0.049009812406092625,"186":0.042285116880787545,"187":0.015210265409464643,"188":0.03654015707376242,"189":-0.0007175725743435699,"190":0.02378582739628248,"191":0.07807609237677968,"192":0.014576859727037627,"193":0.04885753671889499,"194":-0.017280375255230775,"195":0.006877486984661383,"196":-0.000304840176430615,"197":0.07068786123164628,"198":-0.027104838715980066,"199":-0.006439540767189141,"200":-0.047455208533063176,"201":-0.0030149431139973063,"202":-0.00927884870771994,"203":0.017438996653593483,"204":-0.038733053998068985,"205":0.012923933704029259,"206":0.055553169288071046,"207":-0.007752920417457397,"208":-0.007965887484477862,"209":0.027995644227114442,"210":0.04511381770618027,"211":-0.028602209633504416,"212":-0.004468777598169147,"213":0.004289927239747967,"214":0.012869191356978232,"215":-0.02265165261770775,"216":0.04195982009682179,"217":-0.042739752653785476,"218":-0.011988473084430774,"219":-0.053738607640769404,"220":-0.05062050224006667,"221":0.011860559259157239,"222":0.01482895553224324,"223":-0.060823278450068345,"224":-0.011506265220103003,"225":0.0175811713139176,"226":-0.007763652365751951,"227":-0.028907181234605814,"228":0.06625484499280429,"229":0.02766196649398852,"230":0.04233456069291725,"231":0.02192426543972194,"232":-0.032484552066503455,"233":-0.013553367832797371,"234":0.045438458740109024,"235":-0.003587410583648007,"236":-0.032157300186144946,"237":0.021356199167338212,"238":0.025324587680764628,"239":0.0011359986469211708,"240":0.06125192704252794,"241":0.03342947826186025,"242":-0.038402229833860366,"243":0.015603515795890878,"244":-0.014832364515218922,"245":0.05214308288857753,"246":-0.02044437699954802,"247":0.008696504428339434,"248":0.0041538526989192545,"249":0.026968879508476772,"250":0.03889566789614203,"251":0.021936413898407725,"252":0.0313529015398892,"253":-0.02115674448797291,"254":-0.05025212938760782,"255":0.0001109587365116097,"256":-0.06415815971188538,"257":0.018738779966767684,"258":-0.0013863871808175749,"259":0.011706263382486167,"260":-0.004480911344414294,"261":-0.005009585518905839,"262":0.03307316994583853,"263":0.0798236249838223,"264":-0.00980667230564059,"265":0.048231053280596924,"266":0.019787007486859527,"267":-0.013405324188648088,"268":0.060716429530061206,"269":-0.05622004327131506,"270":0.03918108494144931,"271":-0.037169552037729446,"272":-0.033020593056839014,"273":0.02736147836864158,"274":0.04456603216944905,"275":0.008949261728526135,"276":0.017395949731877046,"277":0.016513435417916323,"278":-0.015236589917600862,"279":0.027856150881082616,"280":-0.015378264380990405,"281":-0.0073434941278077304,"282":-0.029114937165639985,"283":-0.017719191780921517,"284":0.01866340869180923,"285":0.05293285732269676,"286":-0.0439607587979408,"287":0.01882839247620687,"288":0.015024770715414956,"289":0.0750810527446412,"290":0.04549127431542144,"291":-0.015547354618978545,"292":-0.053349837137985225,"293":0.004831242706108529,"294":-0.022627373354093858,"295":0.06538742295756601,"296":0.018769201649445677,"297":0.045474733341226925,"298":-0.029828824112458407,"299":0.028294032200423456,"300":0.03787734461229049,"301":0.003214004339821454,"302":-0.011127120547008668,"303":-0.02953728515194783,"304":-0.01288444664411132,"305":0.02825970938284076,"306":-0.023952821817520526,"307":0.0004531000954979048,"308":-0.032677599153495766,"309":0.03829632641043064,"310":0.052001703676869196,"311":-0.014959688713479878,"312":0.016160221242973068,"313":-0.036711025732768146,"314":0.05922982932149454,"315":-0.023451400711155396,"316":-0.027047202796924498,"317":0.052645723927359236,"318":0.01472867827760943,"319":-0.05257105514927773,"320":0.015358239972625807,"321":-0.020747463400317145,"322":0.04153010881361084,"323":-0.02614033764402364,"324":-0.048620405808117426,"325":-0.0034128783306464146,"326":0.02074041846281491,"327":-0.01766453986564664,"328":0.026230022977087347,"329":0.007906275609409902,"330":0.06029905186888177,"331":-0.013109892801512552,"332":0.008975234139550646,"333":0.0051219275617645,"334":-0.01116949963576983,"335":-0.00745157896213326,"336":0.015200535046282842,"337":-0.006718642678230126,"338":0.05187425494307975,"339":0.07377989800672555,"340":0.011333305200792718,"341":-0.022310483268568583,"342":-0.06018721573892113,"343":-0.023282923628886988,"344":-0.00902432792409506,"345":0.02282611059567549,"346":-0.03118227686359442,"347":-0.03665717277950982,"348":0.06026035674851672,"349":0.005292082252344195,"350":0.020848497289113043,"351":-0.035479666387239116,"352":-0.0063412587597527015,"353":0.009520394647463964,"354":0.002578898787573723,"355":0.047895301068895786,"356":0.006384596879017528,"357":0.0330951652628062,"358":0.009098926715111925,"359":-0.008391413441701997,"360":-0.03470814970567027,"361":-0.06703234892148907,"362":-0.04992262918171326,"363":0.041620428581959024,"364":-0.023000421511378207,"365":-0.013518235576983404,"366":-0.021928800128781904,"367":0.026026840799319495,"368":-0.02921460889959841,"369":0.022061528003598126,"370":0.0344915636474765,"371":-0.04133591883599095,"372":-0.02524639351650035,"373":-0.049419222195066004,"374":-0.025165371807776914,"375":-0.031063339687083903,"376":-0.00013584572034785997,"377":-0.00724415402281196,"378":-0.023625781632699232,"379":-0.0002053807335706867,"380":-0.0028725025168490842,"381":0.012865830330223734,"382":-0.021053975180444256,"383":-0.013409112019376744,"384":-0.019477700028081333,"385":0.04928582953760719,"386":-0.08089091125203658,"387":0.019325926487724996,"388":0.014341757040420535,"389":0.0019347016333853687,"390":-0.044069117311876835,"391":-0.0007121081207772281,"392":-0.02193585275495366,"393":-0.006092252709941645,"394":0.001337985374863389,"395":0.007977619280289006,"396":0.019639484130017468,"397":0.006976940354109438,"398":-0.02988620208456261,"399":0.022297675908382896,"400":-0.03573233042354461,"401":0.03809335826563979,"402":0.06332336249505706,"403":0.015394430675664808,"404":0.011406080377438227,"405":0.03014757509384119,"406":-0.04490819414451551,"407":-0.014646414986092517,"408":0.043717292229060366,"409":0.07365980463494136,"410":-0.01226590661097834,"411":-0.009981566232738387,"412":-0.01817788587510779,"413":0.046986472146243796,"414":-0.006039338146626773,"415":-0.0006871247147159118,"416":-0.013604528904923013,"417":-0.04560447127576824,"418":-0.01573632836996546,"419":0.016033176421838897,"420":-0.07321337336492806,"421":-0.025969296806911315,"422":0.0822794802141043,"423":0.013065808196394002,"424":0.0387028285122254,"425":-0.031480489074840586,"426":-0.01370832143105949,"427":-0.002406574859268857,"428":0.004643223219141376,"429":-0.013659373883727675,"430":-0.009902803931286475,"431":0.010238066859127131,"432":-0.05344051227521223,"433":0.023933560802053097,"434":0.023772617933053866,"435":-0.015398317568400915,"436":-0.04766168267591144,"437":-0.01112778849813852,"438":-0.0444496207761334,"439":-0.028599370094241565,"440":0.04832945509687865,"441":0.008206250787039284,"442":-0.008152945233462374,"443":0.009339803255106013,"444":-0.0036425416028378495,"445":-0.02529695380366907,"446":0.03338773494971167,"447":0.050481192612088645,"448":0.042268470705140726,"449":0.0011823311002332913,"450":0.04327002803537354,"451":0.006183957983725816,"452":-0.022578269977301967,"453":-0.003597993917789933,"454":0.010735578345152737,"455":-0.07288575252915434,"456":-0.025652629211520162,"457":0.018300744432808172,"458":0.002930581275120795,"459":-0.0943864049999425,"460":-0.01715764896072833,"461":0.04019817205677949,"462":0.003806615181949679,"463":-0.02728461897731873,"464":-0.04680536959653523,"465":-0.03014713032420361,"466":0.008875818395786201,"467":-0.012855241396817192,"468":-0.0336717514577584,"469":-0.025488503786460642,"470":0.006116074756749773,"471":0.020719433294577913,"472":0.044569827169489366,"473":0.01771239258067473,"474":0.0049458873857752125,"475":0.038853033774533446,"476":0.04842848027761147,"477":-0.03602912800886102,"478":-0.03707476776542195,"479":-0.0434060932942753,"480":0.007597314110244974,"481":-0.015394181639977618,"482":0.020022850127878973,"483":0.0016889223782964647,"484":0.06119115669111266,"485":-0.016144912000777684,"486":-0.039415534776839845,"487":0.020319987855140262,"488":0.02473544860217144,"489":-0.08207040724338817,"490":0.009336569119384028,"491":-0.00953020632813141,"492":0.08757820163624737,"493":-0.014086583685071395,"494":-0.00290738072850603,"495":0.0016918639365375886,"496":-0.024545234499392887,"497":-0.02929299910531265,"498":0.023818744473586295,"499":0.06586348879193535,"500":-0.047248939187351555,"501":0.015580561946269599,"502":-0.05650289131297337,"503":0.02072722696637457,"504":0.02004886017010522,"505":-0.01883871578475181,"506":-0.01747337883896902,"507":-0.023972542438143028,"508":0.018981623978508864,"509":0.027992405679942593,"510":-0.008545679124549621,"511":0.0047952257408073115,"512":-0.004838077905998969,"513":0.025689686852357754,"514":0.015543444565031182,"515":-0.022187242097922378,"516":0.02175460739411513,"517":0.014510947554355674,"518":0.05529696192086399,"519":0.004621100464886217,"520":0.05158105839905423,"521":-0.052092597801728376,"522":0.06045984212357768,"523":0.03492443721275089,"524":-0.04058880198403707,"525":-0.034005763822263654,"526":-0.04159569011445175,"527":0.0065276505214174625,"528":-0.033582629580200016,"529":0.0035898849265930074,"530":0.02012713366355637,"531":0.022588675064299565,"532":-0.018672434704423785,"533":-0.04592569068734146,"534":0.06326649467303266,"535":0.07156343402087371,"536":0.03551115610147208,"537":-0.03496680191699838,"538":0.03511480729073971,"539":0.015511247142875773,"540":-0.024663084217317936,"541":0.018223644254660987,"542":-0.04420968472241978,"543":-0.04509561982504576,"544":0.006371727055581285,"545":0.014920050442357917,"546":-0.013561960823517153,"547":-0.000048652867415816754,"548":-0.026713135788349003,"549":-0.03583782387839652,"550":0.07804409294405064,"551":0.016870358953991634,"552":0.06276366311086047,"553":0.05592080166496456,"554":0.031150970541538776,"555":-0.01092029164843962,"556":-0.0393533139979192,"557":-0.03870916108270657,"558":0.005346448956950192,"559":0.009167416288873935,"560":0.022297156698587194,"561":0.03845074433497774,"562":0.03887025448925546,"563":-0.019173555366506057,"564":-0.0003082320260984098,"565":-0.07389678268556968,"566":0.07115462367045862,"567":-0.004591988055042741,"568":0.0485750667432186,"569":0.05933527499445176,"570":-0.02542010367933929,"571":0.002711665001187855,"572":-0.0031214841511451727,"573":-0.02304666673619336,"574":-0.038949751562603246,"575":-0.06886898674227694,"576":-0.0225760371730731,"577":0.03609218651178039,"578":-0.02535544982080674,"579":0.0546501956901051,"580":0.027214476709042226,"581":0.02788923179803855,"582":0.022931294860109856,"583":-0.019515286744150897,"584":-0.05765443475229458,"585":-0.05430127392174753,"586":-0.042644248564484774,"587":0.03211074313162995,"588":-0.0029100892991407116,"589":-0.011438453342611942,"590":-0.009888636175200761,"591":-0.00033998280772483684,"592":0.01784925658596139,"593":0.0716793854716049,"594":-0.007430719567133159,"595":0.01618204032412036,"596":-0.030425681984492758,"597":-0.031156360214774095,"598":-0.011681413384726684,"599":-0.023868032038604357,"600":0.01812833461994809,"601":-0.027018435364712653,"602":0.01723668576764123,"603":-0.0007243351424955648,"604":0.04986308207875481,"605":0.0194073583039533,"606":0.01903164046147055,"607":0.07475555618866209,"608":-0.00685869479205103,"609":-0.010445524598605196,"610":0.034477145024614825,"611":0.047732365128087734,"612":-0.050394904645759485,"613":0.017745006463831137,"614":0.011942968667118468,"615":0.11118407737641745,"616":0.022407597569204084,"617":0.016312259116164542,"618":-0.0034565726118149912,"619":-0.029372041704420364,"620":0.0025727734423418185,"621":0.03604317052940962,"622":-0.03618250710052233,"623":0.01738916194025859,"624":-0.006707479604536793,"625":0.0034804903175892294,"626":0.045827596124656415,"627":0.01868119254217466,"628":0.03246856548918543,"629":-0.0032373547319541887,"630":-0.021425517933796226,"631":0.045581724762012686,"632":0.003866718743799485,"633":0.0378123472673513,"634":0.010252586449036795,"635":-0.009845064677145732,"636":0.004902157025440624,"637":0.034745625696866185,"638":0.04148357119136697,"639":-0.016280378303532513,"640":0.0572705855553302,"641":-0.005794695904890629,"642":0.06215709897744249,"643":0.004794194297557115,"644":0.030902298456692397,"645":0.0021443509389943295,"646":-0.014309023840524246,"647":-0.024286060821275008,"648":-0.01796094331479648,"649":-0.07494846994665855,"650":0.0007130258439055209,"651":0.08087768703234717,"652":-0.02519465972316185,"653":-0.053835781860196254,"654":-0.05137341619931903,"655":-0.00829404763150509,"656":0.029552649636780413,"657":0.005084532250873129,"658":-0.005222974744766403,"659":-0.010386424342669842,"660":-0.007391891858013757,"661":0.0032148437484085224,"662":0.019228161381818144,"663":0.01668338973503779,"664":0.07469207546495604,"665":-0.047634071417122684,"666":-0.010225473648243394,"667":0.04119858507905425,"668":0.007873603684472014,"669":-0.016072053435211033,"670":0.045373424710081524,"671":0.00028328705717260374,"672":0.014922853768808595,"673":0.04775069218571087,"674":-0.0034988540611410645,"675":-0.009562977375295427,"676":0.01632634827073512,"677":0.01947201106130129,"678":0.03965068833208716,"679":0.008828348822976157,"680":-0.015064042648116784,"681":0.019466649401169055,"682":0.006501468650141491,"683":0.007712992681512915,"684":0.012305870077922033,"685":-0.014481631936290923,"686":-0.0011265249694817733,"687":0.002396232212561499,"688":-0.007882870814106257,"689":-0.02444506523328224,"690":-0.014531774896903011,"691":-0.014400608805568121,"692":0.014913796607723585,"693":0.02376240703240171,"694":0.009282096442891631,"695":-0.021263279077363837,"696":-0.02019166432108383,"697":-0.016594904986295806,"698":-0.02091185676884828,"699":-0.003558988716395078,"700":0.022038961053526054,"701":0.05110222990760116,"702":-0.0043534542161617696,"703":-0.04157564373024543,"704":-0.030144058982383155,"705":-0.013745547435961049,"706":-0.057778043950483665,"707":0.03164320375617181,"708":0.012632898916385001,"709":-0.023299306046588624,"710":0.015820679018581498,"711":-0.00034792672776636527,"712":0.03758467109914419,"713":-0.011223345313764361,"714":0.015266771166505948,"715":-0.046132258352875495,"716":-0.014070652627406914,"717":-0.005762762010716854,"718":0.03778504606452663,"719":-0.0008428817765103753,"720":0.031131004591091225,"721":0.008867119816186863,"722":0.03500086214875086,"723":0.043123805094758716,"724":-0.013786525083052423,"725":-0.021187499195716834,"726":0.014388887899213281,"727":0.03296996742207116,"728":-0.04144337936289462,"729":-0.014605850082564683,"730":-0.007142828093600797,"731":0.04575655973310413,"732":0.015183600304231345,"733":0.030191894929587515,"734":0.027076116246835882,"735":-0.025354106582710034,"736":0.01909428575052901,"737":0.0024433203879668398,"738":0.03088475858390581,"739":0.027641128470086228,"740":0.023583805864213967,"741":0.03061355531695977,"742":-0.029697221286685477,"743":-0.010993531892859367,"744":-0.007910435885239805,"745":-0.0005802662245706323,"746":-0.01667326627784068,"747":0.0026574477396960395,"748":-0.057260786841574415,"749":-0.008565760781339003,"750":-0.04479257251767091,"751":0.023156391500887507,"752":-0.08973603704904126,"753":0.028699742877285193,"754":-0.021327624622891284,"755":0.029301271354108278,"756":-0.04921421041628878,"757":0.060423336998691304,"758":-0.037029602639958886,"759":0.0012975767835346722,"760":0.011310845811707038,"761":-0.042435216241167265,"762":0.0283633560809386,"763":0.0010594282688904054,"764":-0.018968208209146034,"765":0.011238869253430156,"766":0.027631989212187655,"767":0.005676968384454781,"768":-0.003110510259504858,"769":0.02107686394716555,"770":-0.031570943528058504,"771":0.029678484151984354,"772":0.021819243155935985,"773":0.02492960599433877,"774":0.0025717896446100807,"775":0.01248729598069222,"776":-0.02294578932310908,"777":0.0590689278854184,"778":-0.0483421097897847,"779":0.04117225257117139,"780":0.03829265136810802,"781":-0.019004864658476065,"782":0.04245504258958738,"783":-0.0046008905608468514,"784":-0.01972364712252671,"785":0.018067075722350796,"786":-0.014295565258702174,"787":-0.007817564014068731,"788":-0.04295457662195276,"789":-0.03157728889396578,"790":-0.05900086308187396,"791":-0.010326947111105862,"792":0.01059131206902011,"793":-0.02888831800910012,"794":0.0704301066896215,"795":-0.01173209421953252,"796":-0.02404971526616337,"797":-0.024229415628367532,"798":-0.032423345077522904,"799":0.015124157981074105,"800":-0.01277978074223071,"801":-0.010263486045802067,"802":-0.01818411143070011,"803":-0.03060357011253872,"804":-0.05466043320297749,"805":-0.03668293723830082,"806":-0.008528932961198452,"807":-0.04947239493951468,"808":0.04207695513289299,"809":0.0007423461479911698,"810":-0.008622043253698301,"811":0.048275608525657494,"812":-0.01117789627996313,"813":-0.0402704068025472,"814":-0.06300879625191326,"815":-0.02716733995072433,"816":-0.04713501253881255,"817":0.006613208506306755,"818":-0.011379434236864128,"819":0.018360507333612327,"820":0.012429265469613274,"821":-0.012683899794614166,"822":-0.059369167312069905,"823":0.01184662237353952,"824":0.02062276277552,"825":-0.10073596840379825,"826":0.05896611414549,"827":0.05372536677639634,"828":0.009655821582448192,"829":-0.0013805859462739398,"830":-0.025790870253984688,"831":0.00175496966339764,"832":-0.03900891389696262,"833":0.020829466906802846,"834":0.017291930346397182,"835":-0.003908177719758364,"836":-0.04403106628265134,"837":0.029865979641173393,"838":0.041199100073668345,"839":-0.045218143019148296,"840":-0.02473823356121344,"841":0.03641094913080968,"842":-0.004606325857806805,"843":0.018163352521351626,"844":0.03209633954562638,"845":0.0078370218835066,"846":-0.05053969507671342,"847":-0.004186127977700374,"848":-0.045836411238368,"849":-0.06325231381020156,"850":-0.025193741675501532,"851":0.03660362735670622,"852":0.051129194616379055,"853":0.011052709958717079,"854":-0.03033854374720803,"855":0.038144900683132164,"856":0.01936596788865275,"857":0.024945940650037524,"858":-0.029764901797508837,"859":0.009834001958663602,"860":-0.022689349986166656,"861":-0.052232310807319667,"862":0.022127264441906255,"863":-0.014755002015926756,"864":-0.040722059878977625,"865":-0.013030611564291616,"866":-0.0414243426482918,"867":0.05562213513732578,"868":-0.04249320547923488,"869":-0.015805263213490486,"870":0.004154744441193395,"871":-0.011044887926441059,"872":0.032283634020635485,"873":-0.04747270995020729,"874":0.01193975655881087,"875":0.05193002944444914,"876":-0.048105636798983394,"877":0.003589028472344341,"878":-0.013545750053392949,"879":0.01634074164902563,"880":-0.005288293640397216,"881":0.013127137917992164,"882":-0.053937579885506313,"883":-0.018037931260471287,"884":0.014790954420114416,"885":0.054954769024036614,"886":-0.03234367924966658,"887":-0.04943605864438146,"888":0.014623889715865097,"889":0.03076558022792969,"890":-0.010517623764602049}},{"sx":3,"sy":3,"depth":99,"w":{"0":0.013765314119663377,"1":-0.06498586044694676,"2":-0.004809938561719987,"3":0.00636284604398918,"4":0.01642987218196036,"5":0.00005971264649850827,"6":0.04338418773160591,"7":-0.010742703673859207,"8":-0.011390112552289165,"9":0.06208374408454284,"10":-0.03767551289152237,"11":-0.012455346307065683,"12":0.03437508958676636,"13":0.044790409066204566,"14":0.023466245746338103,"15":-0.05732543833507298,"16":0.05745949039891704,"17":0.007246882871864447,"18":0.00503341932955543,"19":-0.010944865877515265,"20":-0.016055086496784263,"21":-0.018905352262582643,"22":-0.05288071533171918,"23":-0.00031889092315614604,"24":0.04736680674860638,"25":0.019951549702552567,"26":-0.02843090280843544,"27":-0.011270335386277917,"28":0.05950438179395706,"29":0.06642522270186835,"30":0.07087409619961464,"31":0.026037484929917892,"32":0.05738896436985429,"33":0.0004965564162700473,"34":-0.02933277528337236,"35":-0.021137617626536046,"36":-0.017809857147450727,"37":0.012518821512346585,"38":0.0002526325828427378,"39":0.010463470119522785,"40":0.0054509256362772806,"41":-0.017292605043656036,"42":0.01625369738848835,"43":-0.0010675334293413902,"44":0.01261131142994052,"45":-0.022358191016396224,"46":0.014184802883523844,"47":0.0064352029842386195,"48":-0.024649567865464985,"49":0.005621430212130821,"50":0.001232925955633766,"51":-0.004165775832493368,"52":-0.002106599823967811,"53":0.02422747853842973,"54":-0.04846267360415007,"55":-0.00018405373441339275,"56":-0.0850518629352844,"57":-0.0512262307743991,