
//<![CDATA[

// a few things don't have var in front of them - they update already existing variables the game needs
lanesSide = 1;
patchesAhead = 8;
patchesBehind = 8;
trainIterations = 50000;

var num_inputs = (lanesSide * 2 + 1) * (patchesAhead + patchesBehind);
var num_actions = 5;
var temporal_window = 3;
var network_size = num_inputs * temporal_window + num_actions * temporal_window + num_inputs;

var layer_defs = [];
layer_defs.push({
    type: 'input',
    out_sx: 1,
    out_sy: 1,
    out_depth: network_size
});
layer_defs.push({
    type: 'fc',
    num_neurons: 100,
    activation: 'relu'
});
/*layer_defs.push({
    type: 'fc',
    num_neurons: 100,
    activation: 'relu'
});*/
layer_defs.push({
    type: 'regression',
    num_neurons: num_actions
});

var tdtrainer_options = {
    learning_rate: 0.001,
    momentum: 0.0,
    batch_size: 64,
    l2_decay: 0.01
};

var opt = {};
opt.temporal_window = temporal_window;
opt.experience_size = 3000;
opt.start_learn_threshold = 500;
opt.gamma = 0.7;
opt.learning_steps_total = 10000;
opt.learning_steps_burnin = 1000;
opt.epsilon_min = 0.0;
opt.epsilon_test_time = 0.0;
opt.layer_defs = layer_defs;
opt.tdtrainer_options = tdtrainer_options;

brain = new deepqlearn.Brain(num_inputs, num_actions, opt);

learn = function (state, lastReward) {
    brain.backward(lastReward);
    var action = brain.forward(state);

    draw_net();
    draw_stats();

    return action;
}

//]]>
    
/*###########*/
if (brain) {
brain.value_net.fromJSON({"layers":[{"out_depth":207,"out_sx":1,"out_sy":1,"layer_type":"input"},{"out_depth":100,"out_sx":1,"out_sy":1,"layer_type":"fc","num_inputs":207,"l1_decay_mul":0,"l2_decay_mul":1,"filters":[{"sx":1,"sy":1,"depth":207,"w":{"0":-0.022428728932849574,"1":0.07114817360255672,"2":0.009577200564628836,"3":0.08350963285573368,"4":-0.09357333177190863,"5":-0.03649668619201035,"6":-0.049903849997842906,"7":0.018841273999143676,"8":-0.010161965696900133,"9":0.03245325643168465,"10":0.008032607696165438,"11":0.0949803444267683,"12":-0.035589315190238516,"13":-0.019356521448615115,"14":0.06467959626120905,"15":0.02152675651883229,"16":0.10650677827929139,"17":0.11577919495604597,"18":0.03903567621361366,"19":0.1045940947468823,"20":0.015807412259276895,"21":-0.1860896259377067,"22":-0.054132174279651384,"23":-0.13677278683681585,"24":-0.030549073920148037,"25":0.004016953888617812,"26":-0.04693911475921523,"27":0.04189687519135036,"28":-0.02325064116882504,"29":-0.08803752949543954,"30":-0.06052951559841023,"31":-0.11129284169019049,"32":0.047766939873418214,"33":0.0946221653373751,"34":0.0018499395056954214,"35":-0.012549388788010643,"36":0.1001895319372995,"37":0.013378220845027376,"38":0.036634057101722475,"39":-0.07732235344264388,"40":-0.04673717425392359,"41":-0.14208932658833032,"42":0.05729093814675397,"43":0.014548609348446435,"44":0.010464732504615118,"45":0.054982496534618217,"46":-0.026905002300475656,"47":0.00798199393152368,"48":0.013219398463766425,"49":-0.12677111578775282,"50":0.12629907301047247,"51":0.08529176466445504,"52":-0.09587626154009486,"53":0.1082534336257337,"54":-0.03727471958820479,"55":0.011011690983293503,"56":-0.04634170449050932,"57":0.009073218338949994,"58":-0.1302619118118584,"59":-0.02925157474549386,"60":-0.05400143417414604,"61":0.007397076000089762,"62":0.017807236945052023,"63":-0.009837304187793824,"64":-0.00958359644135709,"65":0.02703364465813113,"66":0.07348743325137791,"67":-0.005976166228567877,"68":0.0344008220329029,"69":0.0842646921447114,"70":-0.06869202526619829,"71":0.024732389032053673,"72":-0.011711081265951478,"73":-0.04272147483747264,"74":0.07543737055003324,"75":-0.009225223494545682,"76":-0.07576901593635617,"77":0.03165525163275564,"78":0.046366426940588214,"79":-0.07471933012276444,"80":0.06894176170775601,"81":-0.10974658995613312,"82":-0.0741372136184466,"83":-0.034313458582637076,"84":-0.15019369884323916,"85":-0.026526258210089103,"86":-0.028500431947597434,"87":-0.012894232799376874,"88":-0.042773839665463415,"89":0.09349417545541433,"90":0.13987277269331996,"91":0.016468684956123372,"92":0.1017765326314621,"93":0.12263364263952264,"94":-0.02932325662762399,"95":0.0007365031379064712,"96":-0.056784073292878136,"97":-0.04414678688392674,"98":-0.015836973222678574,"99":-0.04687228995896405,"100":0.05817914280557686,"101":-0.025647668471080763,"102":0.01505783910468051,"103":0.06200505157972828,"104":-0.0381931326345749,"105":-0.023880848297696208,"106":0.10902315161631738,"107":-0.018225617642905152,"108":-0.05865280327185999,"109":0.014348779567567495,"110":-0.05051403060157196,"111":0.003915601494705048,"112":-0.056679187921241846,"113":0.08367380487919543,"114":0.003874604845100414,"115":-0.028490065555027855,"116":-0.016814758584900436,"117":-0.09238421681191877,"118":0.06072295442418549,"119":-0.0030128377387352067,"120":-0.05079766648714727,"121":-0.016866573017957114,"122":-0.13518960809404867,"123":0.024343986351926673,"124":0.02156298491940783,"125":0.1359429206342256,"126":-0.1677391289709162,"127":-0.01606089699791206,"128":0.04977330669536634,"129":0.0046175537384199675,"130":-0.08178768268300197,"131":-0.043074848051167285,"132":0.0780155984090429,"133":-0.031514103279267694,"134":-0.014097919325712109,"135":-0.06123606276091432,"136":-0.03481112902251403,"137":-0.10773727664398905,"138":-0.027293884516726825,"139":0.04145897018065452,"140":0.001868081408022567,"141":0.0375320637048277,"142":0.07150806130870996,"143":-0.12003032365856556,"144":0.022355612897087353,"145":0.03166968887986335,"146":0.028651645655393184,"147":0.045072792456068086,"148":-0.11307860123314753,"149":-0.019712172073816446,"150":-0.03766507729777202,"151":-0.14439519374148987,"152":-0.07903954569998377,"153":0.0008224725454426423,"154":0.05816305274962458,"155":-0.023596154152496135,"156":0.09467536350797938,"157":-0.04357234780207952,"158":0.008733622342190776,"159":-0.10641632862507407,"160":0.018328054193904132,"161":0.020939033623200452,"162":-0.07066002850995859,"163":0.07249907668207498,"164":0.029591218580630674,"165":0.021157479672194935,"166":0.11487315815417731,"167":-0.0428047810789461,"168":-0.02526368563381955,"169":-0.08725986027358604,"170":-0.09705991334222532,"171":-0.011249887459748633,"172":0.020206581761643014,"173":-0.09085942275593722,"174":0.023585928420733787,"175":-0.08684695906329469,"176":-0.025811209421498615,"177":-0.01201825714268479,"178":0.06720657429595127,"179":-0.05291067255128806,"180":-0.0006484849352310647,"181":0.0033702904571891426,"182":-0.03788811547366756,"183":0.038489631955054414,"184":-0.010671688960320936,"185":0.09087977732702443,"186":0.02323639962299351,"187":-0.010865564072843167,"188":-0.07702725783873779,"189":-0.005882401453283832,"190":0.037818504049598065,"191":0.125965062631598,"192":-0.06769834799527419,"193":-0.061242689490925775,"194":0.02291877982293533,"195":0.007828554424248076,"196":-0.08308491467247393,"197":0.11817027934133616,"198":-0.05717093021057484,"199":0.012211187401338789,"200":0.07957416969759508,"201":0.02205295491928463,"202":0.00923046517751389,"203":-0.0473397248451668,"204":0.024437644010166865,"205":-0.06061005755852734,"206":-0.1024877882606826}},{"sx":1,"sy":1,"depth":207,"w":{"0":-0.04541186337883787,"1":-0.126252884570773,"2":-0.05058634441366664,"3":0.07958343297775267,"4":0.07563331766965553,"5":0.03842495142041851,"6":0.13047831028873483,"7":0.10157358831025315,"8":-0.04957807401754908,"9":0.010894345838178797,"10":0.17709753284954197,"11":-0.03122700253350448,"12":0.02292033250221938,"13":0.027857633802399976,"14":-0.011865089110215289,"15":0.00002390861191648462,"16":-0.054174026171587716,"17":0.08832603481932338,"18":0.023029811008907563,"19":0.008796663039974747,"20":-0.14021597538961555,"21":0.004327998541308501,"22":-0.0815692166688415,"23":0.0007610006526041894,"24":0.03519013599611373,"25":0.15502498099544326,"26":-0.04465888380047146,"27":0.12451172157351556,"28":0.015239514875213194,"29":-0.05859324865667421,"30":0.030506705123828026,"31":0.018183667149747975,"32":0.02437994660913039,"33":0.054764236770823135,"34":-0.12723338510600563,"35":0.10253480759610305,"36":-0.04006653990828459,"37":-0.04897591609937173,"38":-0.0318478289064028,"39":0.047493223442656336,"40":0.0048628714317154,"41":0.06197772390491896,"42":-0.03477505643328114,"43":-0.0971006270827762,"44":0.07090275355424265,"45":0.01810805658083762,"46":-0.0836850972918379,"47":0.015927558562084127,"48":0.08376167350990528,"49":-0.10750500708319569,"50":0.17669816880674363,"51":0.008559562016596578,"52":-0.03827848501608703,"53":0.06431627148362118,"54":0.026505553766451834,"55":-0.04982950340608445,"56":0.003054437640393018,"57":-0.03736599960598223,"58":0.05922970564460565,"59":0.04500008448747226,"60":0.006196825582422158,"61":0.02806566038712073,"62":0.09523787948803072,"63":0.07896484548157207,"64":0.08638326723259963,"65":-0.0014992873532429808,"66":0.06755435805657777,"67":-0.05088790313840206,"68":0.019928874467243698,"69":0.052734528903837126,"70":-0.11560166175963964,"71":-0.018425051700265743,"72":-0.025672084130321453,"73":0.12714648147795715,"74":0.021534700633975085,"75":-0.01881459157756471,"76":0.10397741920256422,"77":0.08764197147406064,"78":0.014497482616128436,"79":0.05640593311355346,"80":0.03733561589952408,"81":-0.04877297214450448,"82":0.06382698255913065,"83":0.04684532308200575,"84":0.004865277737508094,"85":-0.008471724835596068,"86":0.03253290642458093,"87":0.028241207861131552,"88":-0.0026158620785557245,"89":0.12105719978375022,"90":-0.008614944349220478,"91":-0.021478818425518992,"92":-0.19325787728198324,"93":0.04358649048261733,"94":0.09033817985889155,"95":-0.04080485088144854,"96":-0.0797534851581405,"97":-0.051344295705842265,"98":0.05144159254241975,"99":-0.023493071735235432,"100":-0.15184515257031067,"101":-0.10929356152649829,"102":0.022990168813912953,"103":-0.061299493954611366,"104":0.08803311944045566,"105":-0.101256431982339,"106":0.0009515227597443423,"107":-0.02319352749741939,"108":-0.09147029875208831,"109":-0.03927228283111949,"110":0.01068050338632831,"111":-0.09240290366760807,"112":-0.08335901673106405,"113":0.053436580775122235,"114":0.04727575390630288,"115":-0.10050439495348953,"116":-0.008765365823725469,"117":0.11128277859605186,"118":-0.09981269744699504,"119":0.003350476168699364,"120":-0.03285361833256908,"121":-0.01371977797135612,"122":-0.06199975114526177,"123":-0.010029598570191494,"124":-0.03696597545500405,"125":-0.08387678769613062,"126":-0.07048498912514782,"127":-0.021136476293379038,"128":0.02375739841267148,"129":-0.09302858048184866,"130":-0.06198746903759923,"131":-0.018778629716420157,"132":0.049518028017636086,"133":0.05174472536740666,"134":0.06199734015018773,"135":-0.017795708910684604,"136":-0.050632833792763614,"137":0.11471815676743533,"138":-0.0418132095647046,"139":-0.005812259198037142,"140":0.0601397913585006,"141":0.04755650425381381,"142":-0.05792724419352775,"143":0.13053347942713606,"144":0.09866402456025505,"145":0.007758378233517384,"146":0.08193083848636137,"147":-0.036746352433478305,"148":-0.024836105650058,"149":-0.03165916038559776,"150":-0.13548141243488104,"151":0.003099070647382486,"152":-0.04683962905849759,"153":-0.08334709059058429,"154":-0.1501393119292722,"155":0.0014882307256690352,"156":0.04032425506900936,"157":-0.05911252968656055,"158":-0.030260072581288266,"159":-0.02750295874106402,"160":0.02994432277822494,"161":-0.023973664901466477,"162":0.06392824119628562,"163":-0.11483563569949568,"164":-0.02573941419288184,"165":-0.03851365929064311,"166":-0.014593462786962403,"167":0.0727637191820899,"168":0.08362890807485722,"169":-0.05987032605787635,"170":-0.042144740662695974,"171":0.10367975468663918,"172":-0.19225380252500168,"173":0.050764163964290274,"174":-0.061278741739537096,"175":-0.05789327920558235,"176":-0.032846391079918866,"177":-0.08957503638923456,"178":0.017725329433289347,"179":0.09424464460178622,"180":0.07132954518267137,"181":-0.01923899576193146,"182":0.08521522426193015,"183":0.021075293725442465,"184":-0.11844055810566258,"185":-0.07892095502520725,"186":0.008799691011480414,"187":-0.12902742401255787,"188":0.0390196660652184,"189":-0.030680734288793393,"190":-0.012050588850513003,"191":-0.0916022654955814,"192":0.11150577077933657,"193":-0.0961159958305119,"194":-0.012168915847964465,"195":0.01753631505851811,"196":0.07996977820654799,"197":-0.05032449019406804,"198":0.16663028505900318,"199":0.1822660490017068,"200":-0.047269639509031486,"201":0.08787249833986066,"202":-0.07193485805177817,"203":0.04665687245000925,"204":0.14337938208094572,"205":0.03809123979758054,"206":0.025065978026056104}},{"sx":1,"sy":1,"depth":207,"w":{"0":-0.001092481637241731,"1":-0.11013082163660252,"2":-0.08392493413433975,"3":-0.11388009910527779,"4":-0.07041217908199911,"5":-0.04925358633771163,"6":0.16377227494649307,"7":0.0927508324987275,"8":0.0026828824814506317,"9":0.15357863592937923,"10":0.07220811465317148,"11":0.06736579949750296,"12":-0.050583315886816624,"13":-0.027202836189578403,"14":-0.1375298169134499,"15":0.034965783850688326,"16":0.06171678976855258,"17":0.02290245381673794,"18":0.013973491001313624,"19":0.006258434173158624,"20":-0.01790888431572603,"21":-0.027690184717549488,"22":0.11441760718658027,"23":0.07845543417402745,"24":-0.0053124818381927365,"25":-0.0626531390629302,"26":-0.095107641265378,"27":-0.00701923146596371,"28":0.0014640254346842544,"29":-0.028019117453183803,"30":-0.00971187579556681,"31":-0.11414387045817184,"32":0.04242799223168552,"33":0.018798502086545165,"34":-0.09088776500504159,"35":-0.02019099308947291,"36":0.0329458470463882,"37":0.05994105728727517,"38":-0.03010764277421768,"39":0.06822641745181639,"40":0.04369754525920524,"41":0.030125279357348187,"42":-0.008123593873873866,"43":-0.04852876124283474,"44":-0.09384365736274382,"45":0.1256305774271571,"46":0.16802639301258007,"47":-0.08788466404427862,"48":-0.0387881613117494,"49":-0.03610441284219062,"50":0.06742730962369546,"51":-0.07847412202643113,"52":0.11822336106698994,"53":-0.17208404048364798,"54":-0.04984593317715131,"55":-0.007066820964130293,"56":0.1397109918569268,"57":0.07051892024660082,"58":0.06347020600440634,"59":0.06961923047903991,"60":-0.036098405908095904,"61":-0.1085205047802906,"62":-0.08363831757794253,"63":-0.09895626518673813,"64":0.01000402220582758,"65":0.05057212174411767,"66":0.012853212813110543,"67":-0.021085252227656583,"68":-0.10916532778655949,"69":-0.12071707106030433,"70":-0.04184548756697761,"71":0.03323079758457681,"72":0.06346107955302231,"73":-0.017971888674063918,"74":0.11530079759082205,"75":-0.07361418153728849,"76":-0.01983013665489792,"77":-0.03244694802100967,"78":-0.028648588107800552,"79":0.12140021750594186,"80":-0.044571873596837105,"81":-0.08093519933570696,"82":-0.08146908759133377,"83":0.028533585465473233,"84":-0.057752616297090185,"85":0.01146624551081619,"86":-0.046811342686142295,"87":0.02675592964941131,"88":0.024579566130726798,"89":-0.03829232142238017,"90":-0.05382231851701737,"91":-0.05877064345287075,"92":-0.009519860449998155,"93":-0.16659910397346317,"94":0.07083624119604996,"95":-0.05477006096726733,"96":0.046371895344915384,"97":-0.056636536966704745,"98":-0.020515903669002664,"99":-0.13224537186867572,"100":0.05314602721979644,"101":0.09938096598900127,"102":0.08482804888214239,"103":0.09535653691835684,"104":0.0036980591088124188,"105":-0.013157960092960413,"106":0.03549025307209182,"107":0.008165754158058374,"108":0.01757872152410883,"109":0.027050606974793674,"110":-0.03589407267231527,"111":0.012500810900929946,"112":0.026255528395415076,"113":0.06577337340503991,"114":0.048036386328724784,"115":0.010048707397833775,"116":0.1558357644676018,"117":-0.035568338622363214,"118":-0.08297851468245983,"119":0.004038015854695968,"120":0.03133361370384091,"121":-0.16175430123557538,"122":0.13167271658378174,"123":0.08180845884845725,"124":0.16780784257818704,"125":0.1489467343807438,"126":-0.01010339136609659,"127":-0.05240533725800934,"128":0.07946204192119552,"129":0.03914422061435367,"130":0.04435126109667857,"131":0.012409633854750498,"132":-0.061777633347698424,"133":-0.057552775641431485,"134":-0.015433097990824159,"135":0.06455308420093131,"136":0.011024702723292168,"137":-0.07379768092162253,"138":0.03921180394996128,"139":0.006001807759601781,"140":0.038146570457838556,"141":-0.1353666790396981,"142":-0.0889841947349454,"143":-0.0058730148835809464,"144":0.09925073377943115,"145":0.10625072255827267,"146":-0.04103769765339263,"147":0.0824326980474827,"148":0.07812760497444808,"149":-0.08634282620680883,"150":0.09840853812587826,"151":0.008191357661311266,"152":0.015425702938305747,"153":-0.01223686065669342,"154":-0.053040258028348664,"155":0.1087010853291176,"156":0.07357552629707075,"157":-0.06643356687474437,"158":0.05170574393723495,"159":0.0022792423197512445,"160":0.2507349278417136,"161":-0.056507059101830244,"162":0.018551637936567424,"163":0.011095161327714018,"164":-0.0354663908172395,"165":0.13477820655708952,"166":0.0016998370532876504,"167":-0.11272254793215722,"168":-0.037580040286349765,"169":0.0900519578791712,"170":0.1117606877791498,"171":-0.03743362239362297,"172":-0.006234853179970055,"173":0.014147226628553148,"174":0.014140910338659178,"175":0.06108020313576103,"176":0.01502717576479029,"177":0.06280303101140232,"178":0.052990247588758456,"179":-0.058986425136130165,"180":0.026176056389058365,"181":0.11447960894474615,"182":-0.06060139143081284,"183":-0.025637403349358188,"184":0.05740096670543963,"185":-0.021622279007240845,"186":0.018890447316498086,"187":0.11664283832762894,"188":-0.0891545437641904,"189":-0.004960125253413052,"190":-0.04157711821467999,"191":0.18537421004072907,"192":0.07922257579405848,"193":0.022910006104728334,"194":-0.038199163362170614,"195":-0.07138178146197949,"196":0.13375950148276597,"197":-0.036497173679424906,"198":-0.27785970625508616,"199":-0.037525849576517674,"200":0.11430693499983974,"201":-0.018229963175875434,"202":0.05591769173898204,"203":0.015017408066734175,"204":0.09262609387461693,"205":0.038225523419533315,"206":-0.003119833965544245}},{"sx":1,"sy":1,"depth":207,"w":{"0":0.004954604396464293,"1":-0.0760859832818045,"2":-0.1638221147950897,"3":0.05436762638876949,"4":-0.07819566005141747,"5":-0.18812171825275725,"6":-0.06795396141464186,"7":-0.04133995651280497,"8":-0.08588769683776404,"9":0.1543000775353229,"10":0.04308028046579202,"11":-0.14791682320466132,"12":0.06324558857773498,"13":-0.012822887071593795,"14":-0.13609885391272047,"15":0.025095841345349736,"16":0.02234537590497322,"17":-0.06371486555385282,"18":0.013734068611051309,"19":0.058376291259721026,"20":-0.10812991155833435,"21":0.042728168824923425,"22":-0.005498466076040154,"23":-0.08386849952035057,"24":0.09882707072353879,"25":-0.11734764995311063,"26":-0.07664769121753935,"27":0.09241844420813063,"28":-0.11564411471470508,"29":-0.018878550007291436,"30":-0.005979441461450841,"31":-0.05271504423859819,"32":-0.12287769585283474,"33":0.11699911127057183,"34":-0.16059933387494632,"35":-0.073832292374231,"36":0.08849017457960213,"37":0.08862301617251196,"38":-0.06529624372198588,"39":-0.0074884401855483075,"40":0.055687664121204274,"41":0.09995602709709453,"42":0.044595185400519405,"43":0.0349500176341152,"44":0.13743858243475157,"45":-0.0028378059059603646,"46":-0.01675081832173003,"47":0.13756502583831764,"48":0.03692996077101001,"49":0.003731693830890366,"50":-0.023519667719810684,"51":0.07005290918477418,"52":0.00433328159979522,"53":0.05803204868463492,"54":0.014220436156519106,"55":0.12922508825834486,"56":0.07394958403596091,"57":-0.10549563646417003,"58":0.05020206408748915,"59":0.09581997017957852,"60":0.1314909762623573,"61":-0.045475088025447884,"62":-0.014942105687133783,"63":-0.050536526937871445,"64":-0.1984904499777719,"65":-0.10045202681519322,"66":0.05635339847517289,"67":-0.0607903387148597,"68":-0.048372696635202606,"69":0.041771955070778036,"70":0.034802387380640114,"71":-0.08785573547117134,"72":0.08662148307271594,"73":-0.06568719834455743,"74":-0.08300448481162134,"75":-0.019578052445512868,"76":-0.038290220604325756,"77":-0.04935073911286952,"78":-0.012390380912159047,"79":0.005190115830256303,"80":-0.02226540924931854,"81":0.04827918999772241,"82":0.00845209626949949,"83":-0.0856425475695648,"84":-0.012159943436506577,"85":0.11551914708977601,"86":0.014213192338873219,"87":0.03447011089971648,"88":-0.054342983465402284,"89":-0.0013543645622035414,"90":0.08892330570188661,"91":-0.05132445526490055,"92":0.0906382288674131,"93":-0.11233030412397225,"94":0.04773670133517981,"95":-0.059805988761747704,"96":0.09576494696931735,"97":0.04803262131240477,"98":0.1422023957170619,"99":0.0961954230327999,"100":0.14250502793832062,"101":-0.036506736466555785,"102":0.02440669878613796,"103":0.03955176582035897,"104":-0.09858293427585012,"105":0.02221196861611306,"106":-0.031135941524456454,"107":0.07979953281020959,"108":-0.024959001920739448,"109":-0.0003865023808393166,"110":0.016420649166072554,"111":-0.034594624699940874,"112":0.15112449104568115,"113":0.04554202120198431,"114":0.08633670397624305,"115":0.024373739303008683,"116":0.09788624817145318,"117":-0.12425382234088067,"118":0.033259836121352145,"119":0.01979234671710138,"120":-0.08708770607287326,"121":-0.009660807011345123,"122":0.10155311564057244,"123":0.006117842823168013,"124":-0.004581221978354879,"125":-0.027046259635587443,"126":0.022494996369066135,"127":0.009003758572437407,"128":0.10728996777231369,"129":-0.03099824304173429,"130":-0.010348251370898436,"131":-0.012995185043728945,"132":0.028606223791062774,"133":-0.004225332384412228,"134":-0.0936836958611572,"135":0.013189029805611126,"136":-0.0038807614513210117,"137":-0.042475385633715564,"138":-0.014178905932526381,"139":-0.036164184297301574,"140":-0.020344098084003392,"141":0.038537003776267745,"142":0.11688187739793118,"143":0.01924688211689752,"144":-0.021752827993025872,"145":0.049517270321261846,"146":-0.008512034468257376,"147":-0.11276648647138075,"148":-0.02598132560634241,"149":0.040417695542598615,"150":0.026158244082029727,"151":0.08786344405803426,"152":0.011148321114261327,"153":-0.08400288638287853,"154":-0.007341861664930917,"155":-0.1030330561736842,"156":0.005834691255670215,"157":-0.05048283192255556,"158":0.0483859043415552,"159":0.046539523681192595,"160":-0.12559750297519812,"161":0.07117274812791614,"162":0.031376573730260725,"163":-0.1343957995497498,"164":-0.038361831629798934,"165":-0.01169934932676979,"166":-0.015060436461017627,"167":-0.08070505095355385,"168":-0.059165667329146715,"169":-0.03225279124186115,"170":-0.013629015949017812,"171":0.007829565151512688,"172":0.05313957782013491,"173":0.10303993275882532,"174":-0.04640787636581142,"175":-0.04128657418817376,"176":0.08685012078155066,"177":-0.06760371030289807,"178":0.008721778236221833,"179":-0.021604865876600925,"180":0.025237663727086405,"181":-0.047395981950791845,"182":-0.017427870860709207,"183":-0.030326992151239886,"184":-0.04605746466717404,"185":-0.08147713286964466,"186":-0.06318826080592907,"187":-0.003633754625900476,"188":-0.00328957046681205,"189":0.0553478008844186,"190":-0.042461249960526304,"191":0.016700532313972744,"192":0.05032616962038664,"193":0.024847940301564765,"194":-0.020993381121802875,"195":0.061922850195489904,"196":-0.054057278352547374,"197":-0.041645035921178866,"198":-0.002884389057256531,"199":-0.02130912311431214,"200":0.049892797537572996,"201":-0.08207031040452903,"202":0.00989964145592171,"203":-0.06446941956029327,"204":0.05726880564924659,"205":0.022173599913854935,"206":-0.0006759874712374561}},{"sx":1,"sy":1,"depth":207,"w":{"0":-0.009519298378376664,"1":0.110587222051773,"2":-0.03386749070259285,"3":0.0022253129240987464,"4":-0.003616406197787863,"5":0.05936173169587122,"6":-0.03831819889130169,"7":-0.14302930109873382,"8":0.007061574267515633,"9":0.03791600794881582,"10":-0.06271716367311383,"11":-0.011765900716903118,"12":0.07293301419618568,"13":0.012013508895480049,"14":-0.03454601027426799,"15":0.13858974339382035,"16":-0.05976199500732312,"17":-0.0542885742921654,"18":0.031053679274317663,"19":0.013959013558719641,"20":0.039363164834758664,"21":0.0182605153801737,"22":-0.060951420163206364,"23":-0.03226405248426916,"24":0.06291772096651978,"25":0.03372351391599772,"26":-0.00528932942668824,"27":-0.04248215430921691,"28":-0.01157647725203859,"29":0.0279959227890865,"30":-0.021777082841469116,"31":0.13094786475152154,"32":0.055670496648824216,"33":-0.056976960469113457,"34":-0.030242675530195072,"35":0.11640809037103478,"36":0.093898873701529,"37":0.009432956186543382,"38":-0.01721958005898577,"39":-0.04845793067305664,"40":-0.08545760960200083,"41":-0.020690393168150946,"42":0.003095912409903382,"43":-0.0031775622163383974,"44":-0.024793332231404522,"45":0.10063225882876675,"46":0.030006954579843103,"47":0.07526913274878205,"48":-0.03242915454572327,"49":-0.06451205219739056,"50":-0.008281687065107375,"51":-0.0017548422361756664,"52":0.04781019053801358,"53":0.009034067317806396,"54":-0.13451500081816017,"55":-0.02012148113079424,"56":-0.15671779813725906,"57":0.0111389663842297,"58":-0.060272996751939735,"59":-0.028148769571168804,"60":0.09478747504034468,"61":0.009323542047634229,"62":0.029291396500703146,"63":0.04638047024575791,"64":-0.08553830828497862,"65":0.04659700004148304,"66":0.01437361550143709,"67":-0.04301948812130479,"68":0.0647245897139931,"69":-0.037667967431528095,"70":-0.013782377666364231,"71":-0.031197258435860964,"72":0.03991921796502601,"73":-0.018972865787710368,"74":0.027661133573624992,"75":0.025294281334337528,"76":0.03658091783486971,"77":0.01100231573495475,"78":0.019789055339367395,"79":-0.0025303501805847574,"80":-0.0833737021962737,"81":-0.11883116262650727,"82":-0.08226258528378394,"83":0.0127245422002512,"84":0.013335180792041842,"85":0.08449678275527593,"86":-0.008390309820583166,"87":0.0019457955478772997,"88":0.023875581477662597,"89":0.03564604687846998,"90":-0.07386147354516996,"91":-0.08528362860565329,"92":0.10349740321742351,"93":0.21583051057537014,"94":-0.1308826847743899,"95":-0.043451457130039305,"96":-0.008900909939418241,"97":-0.07588232936596964,"98":-0.20055387882484108,"99":-0.05255375261303789,"100":-0.11473901393590011,"101":-0.07201711668499436,"102":-0.1173464783410286,"103":0.02698931030901227,"104":0.01223287114347191,"105":-0.017889966359147923,"106":-0.04059156842417942,"107":0.03792693069734265,"108":0.05040143488245709,"109":-0.03732150144260058,"110":-0.07362120175701248,"111":0.02837490502824258,"112":0.20210806900938844,"113":-0.08014587493289423,"114":0.09042435946560826,"115":0.006056645487096462,"116":0.09454029745706177,"117":-0.023422977533159493,"118":0.006755984804395391,"119":0.09220232658398939,"120":0.03725133213001258,"121":-0.05152429351015552,"122":0.07924359507868964,"123":-0.01840841435370097,"124":-0.07278902013670742,"125":-0.04205379697426409,"126":-0.075592235538284,"127":-0.018576161014431374,"128":0.028889694982495502,"129":0.015861467868883074,"130":-0.10815899471667295,"131":0.020111512118379676,"132":-0.1182835127530461,"133":0.08419923531150816,"134":0.020821782890875253,"135":0.0877560909127578,"136":0.03238520087794393,"137":0.07702659276600368,"138":0.004848199435423968,"139":0.05093362176438474,"140":-0.03340104140585095,"141":-0.0455510531237039,"142":-0.029454876982804273,"143":-0.08888622168104482,"144":-0.06945941044281193,"145":0.0007243099835745928,"146":0.03530553329228669,"147":0.07383597933481131,"148":-0.08792570611235781,"149":0.018857648861837373,"150":0.03871189562801426,"151":-0.06905589225963006,"152":0.024108334140037293,"153":-0.06533663012754665,"154":-0.13159974396506746,"155":0.008196998896327122,"156":-0.01647560524263688,"157":0.048245642413858605,"158":0.04210768627708296,"159":-0.14610246075666058,"160":0.0435703033962173,"161":-0.04122927905566288,"162":0.07954350781948628,"163":0.017875890151808446,"164":0.08569721604209339,"165":0.09064934486771656,"166":0.017727515318933275,"167":-0.048815742063299264,"168":0.044896909292424375,"169":-0.034777196642610746,"170":0.06016884536646313,"171":0.008906642058278246,"172":-0.011640524066832744,"173":-0.11510661242704426,"174":0.03841898932677326,"175":0.06312529482146034,"176":0.030154348901042863,"177":-0.043499834750992096,"178":0.0023632333104297984,"179":0.018540418697400824,"180":0.09400885015580109,"181":-0.03548890700309535,"182":0.0051724502661602105,"183":-0.06645106548113469,"184":0.017241940606740808,"185":-0.017005653208515048,"186":-0.030159149857613324,"187":-0.1080559877595085,"188":0.019428302633399203,"189":-0.07427370341539015,"190":-0.07488838531057204,"191":0.06849689038971471,"192":-0.044575747973723684,"193":-0.13389990801701368,"194":-0.04126823390456284,"195":-0.12221534142078823,"196":-0.05904809183514657,"197":-0.012357162297552357,"198":0.09330726463976302,"199":0.058492670401758054,"200":0.026878904749341563,"201":0.022873275620010288,"202":0.014968756761182932,"203":-0.13578958244142164,"204":-0.015510360947023197,"205":0.07369161364352876,"206":-0.03729611711114439}},{"sx":1,"sy":1,"depth":207,"w":{"0":-0.0993849050018437,"1":0.28179680739385826,"2":0.0660550438693689,"3":0.08499436020351878,"4":0.23309468016580362,"5":-0.042639704070627914,"6":-0.017353917756753882,"7":0.1873983273666419,"8":-0.04183170390716021,"9":-0.03537345959279048,"10":0.17311704991997834,"11":0.0923676469439666,"12":0.08604470306347137,"13":0.12749906659469498,"14":0.0436916929131505,"15":-0.017454235135397695,"16":0.02872404803492215,"17":0.030654567702493713,"18":0.006266320311555346,"19":-0.09234221505106563,"20":0.0385159894152931,"21":-0.048471221617790494,"22":0.09871317258596582,"23":0.07547858798461515,"24":-0.026541607737685352,"25":0.0354051618536126,"26":0.05368038747678026,"27":-0.051965477326269716,"28":0.1435822899331679,"29":0.011059425753706921,"30":-0.01269993101345401,"31":-0.05901888169240739,"32":0.08395872333705581,"33":-0.07677722458335971,"34":-0.0322127175939347,"35":0.061247512881015514,"36":0.02221635819405332,"37":-0.0336610220668713,"38":-0.09600565757227807,"39":-0.08604970114066385,"40":0.02957377620800038,"41":-0.0018975063366583169,"42":0.11415998820817551,"43":0.05195249631539342,"44":0.07853976463033016,"45":-0.0741649572444047,"46":0.030882827787490245,"47":-0.026586781326226,"48":0.040210546535944386,"49":-0.013625331257050158,"50":0.002861554279375725,"51":-0.04362538967538541,"52":0.1817717051304304,"53":0.00784038897197014,"54":-0.013859021570487448,"55":-0.03673246337044208,"56":-0.03704601146416141,"57":-0.2048844064576454,"58":-0.1804542402509035,"59":-0.07641645265400168,"60":-0.009434490846406938,"61":-0.09845285737424507,"62":-0.003986512858799112,"63":-0.022855112739205968,"64":-0.02102047176098797,"65":0.03918588977831778,"66":0.044906532839479284,"67":0.032035597599177956,"68":0.09532922254321273,"69":-0.06903037482155183,"70":0.004109278755702174,"71":0.03536264251242709,"72":-0.027474878903962604,"73":-0.07012970592698266,"74":0.003439520218201995,"75":-0.035756529885009124,"76":-0.12054297111305697,"77":0.10380795957294191,"78":-0.10857595691500234,"79":-0.03351648041437493,"80":-0.08027065270055266,"81":0.02648738811912027,"82":0.01074780262895295,"83":-0.015053508793326382,"84":-0.10389342741313701,"85":0.002237688685888027,"86":-0.049775920448228844,"87":0.010578381824486114,"88":0.051222597043377505,"89":-0.05115612380127102,"90":-0.028071804796147407,"91":0.04971947710778663,"92":-0.08261515618572926,"93":-0.07987207110568614,"94":0.08310765670841748,"95":-0.07604708407470624,"96":0.027905950244566304,"97":0.05867412687964719,"98":0.09972789880248495,"99":-0.09110868657723023,"100":0.07298923185235777,"101":-0.039881424496864645,"102":-0.029304929350244698,"103":0.06684499832062432,"104":0.0065852259780738364,"105":0.12182505797170733,"106":-0.018572355781126825,"107":0.05294451556731777,"108":0.060986657207936695,"109":0.09345268939731047,"110":-0.08441469001729333,"111":-0.11479761139727207,"112":0.14143644967139407,"113":0.09853246172314514,"114":0.04832729508654504,"115":0.10277870737706507,"116":-0.04634843529741981,"117":0.06670776769165328,"118":-0.011003833031701398,"119":0.022705079086387,"120":-0.0015829924113782243,"121":-0.06515990550268322,"122":0.02985715642567661,"123":-0.057408876173851965,"124":-0.03081183884813874,"125":-0.043940171182095845,"126":-0.06173030947693582,"127":-0.020430745831489544,"128":0.09531242720306105,"129":-0.07032491716466795,"130":0.049954416669280716,"131":0.044326586348762076,"132":0.009670959887203196,"133":0.08612420696011612,"134":0.10099376519853247,"135":0.04162762082732577,"136":-0.022692102519725314,"137":-0.018849790983274186,"138":0.0322254149349876,"139":0.05874655180083859,"140":-0.08286576041411857,"141":-0.1454888006441164,"142":0.04987176799767388,"143":0.04776999577951391,"144":-0.03959374713958375,"145":-0.12117266690114072,"146":-0.01705075870496883,"147":0.004256381632019091,"148":-0.0993452915116172,"149":0.00036069817599143075,"150":0.0432764955888056,"151":0.04094914750652642,"152":-0.02501185060761488,"153":-0.008102275594640322,"154":0.06095421403242599,"155":0.009625088997202137,"156":-0.01585432051347336,"157":-0.03480752716615957,"158":-0.05958395095365825,"159":-0.05015819811862302,"160":0.04599016360927911,"161":-0.04981492316674393,"162":0.024791806423553123,"163":-0.03579382798799988,"164":0.017123219397197652,"165":0.15388876241429492,"166":0.13284040729883098,"167":0.011426820948214655,"168":-0.05007670790923462,"169":-0.019014326777183826,"170":-0.18769245562983844,"171":0.04104428596114122,"172":-0.04533038453169754,"173":-0.013221179311559151,"174":-0.07730802720686719,"175":0.024472446326619757,"176":0.08540023534178588,"177":0.17485378390155557,"178":-0.07429991425685993,"179":-0.01192221686856885,"180":-0.014182540650621465,"181":-0.015469980524793972,"182":0.0646274805005616,"183":0.06903508694525676,"184":-0.24160908438756912,"185":0.03732310220997686,"186":0.0645806412790692,"187":-0.014848615195960986,"188":0.002436834585750531,"189":-0.07887612450579602,"190":0.017273467159465785,"191":0.05787456871316033,"192":-0.05810290332032078,"193":0.07324098475045973,"194":-0.026798760726609548,"195":0.009628112111129895,"196":-0.06679185085447825,"197":0.10166336163390906,"198":-0.045225149158910086,"199":-0.015167988898734,"200":-0.028162693824345903,"201":-0.07251864970063321,"202":-0.0029500284261320124,"203":-0.0011076340551196483,"204":0.03628309444385662,"205":0.08972623966520292,"206":-0.018168745675346838}},{"sx":1,"sy":1,"depth":207,"w":{"0":-0.04050917033203536,"1":0.15126836546139083,"2":0.051440046343156465,"3":-0.05564879242093259,"4":0.1260523916620949,"5":0.036829289014942965,"6":0.014370410861901384,"7":0.018793276261181806,"8":-0.05135559805515152,"9":-0.10984106953081169,"10":0.06097688389561418,"11":-0.02526967093118598,"12":0.006194072050713057,"13":0.07771567067558946,"14":0.034299805389868404,"15":-0.06454949720119335,"16":0.027302266027568266,"17":-0.07887730593341184,"18":-0.04291193043389576,"19":0.02933068872669761,"20":-0.21094929669757143,"21":-0.031553768487484785,"22":-0.00829192175250027,"23":0.018309210491426187,"24":0.01041016593680967,"25":0.023003751326576734,"26":-0.019570539394879856,"27":0.0029747534184736807,"28":-0.062478828697360156,"29":0.02664053083794549,"30":-0.00486205122264818,"31":0.13203021727162204,"32":-0.13700285834810041,"33":-0.09719040185375355,"34":-0.07948219065713158,"35":0.015802945567492135,"36":0.0777522037539927,"37":0.10459462865983579,"38":-0.02180563452467717,"39":-0.07193741380643401,"40":-0.08659970154139518,"41":-0.0883696367802567,"42":0.06198020204460339,"43":0.009015935509561498,"44":-0.05423526210394861,"45":-0.06000816723696124,"46":-0.06381996460318963,"47":0.027425231434267255,"48":0.06731215731192565,"49":0.09991663607455731,"50":-0.0415322872752454,"51":-0.0882172515546387,"52":-0.08452388709020171,"53":-0.13698026220135062,"54":-0.00874887668804748,"55":0.03294854349693674,"56":-0.04542289093259154,"57":-0.04402995186479766,"58":0.028667336970728523,"59":-0.12168674482267641,"60":-0.014377016147680137,"61":-0.08869057862507865,"62":0.022108694887775088,"63":-0.007987136602163542,"64":-0.061401698130579364,"65":-0.007368139120253501,"66":0.031116010783035723,"67":0.027435997225853954,"68":-0.14264440968140968,"69":0.016956252851710728,"70":0.0039541475493236646,"71":-0.05338265778204566,"72":0.016787828014782753,"73":0.0698721889641721,"74":-0.012679938682010923,"75":-0.1318959355489659,"76":0.03901050106219641,"77":-0.04797025737033121,"78":-0.04948627013127297,"79":-0.16882430491369865,"80":0.06867592131692311,"81":-0.04705538146044812,"82":-0.010883330897941676,"83":-0.07495187348406238,"84":-0.050997514276412595,"85":0.012558464894722478,"86":0.13822378847870204,"87":0.04855860987536181,"88":-0.0026599200907982986,"89":0.0633576890214705,"90":-0.05552844371852305,"91":0.048905899856153824,"92":-0.1260809182393308,"93":-0.03199176785605397,"94":0.06930524073674323,"95":0.09217299558177613,"96":0.00872788604748003,"97":-0.020834473682295816,"98":-0.06659698470624349,"99":-0.0188403597597277,"100":0.06394573444392726,"101":-0.05836000719497581,"102":-0.07799789613211187,"103":-0.07460736805220797,"104":0.040047476069913324,"105":0.0896419108938266,"106":0.012147396762902938,"107":-0.03838326088732858,"108":0.1798047772771626,"109":0.08103436942577123,"110":0.022598081967864062,"111":-0.1084748794988392,"112":-0.018243144227452376,"113":0.008952834804694151,"114":0.03649915616877951,"115":0.014190075043471242,"116":-0.04168803087817606,"117":0.0540157599714131,"118":-0.0056777484646956524,"119":-0.09595970817912906,"120":-0.03169708898541605,"121":-0.011917099340586169,"122":-0.025278343128844992,"123":0.11352677817219868,"124":0.09688110996207103,"125":-0.057128052152819006,"126":0.022733723267526866,"127":-0.019547022327610287,"128":-0.10557514503769515,"129":-0.04109528891625761,"130":-0.04558659762921909,"131":-0.014926893174272676,"132":0.04213341705364731,"133":-0.07834835422861373,"134":-0.002468099246399955,"135":0.11133612638736723,"136":-0.03929701939591067,"137":0.11878697070912049,"138":-0.013136717534696394,"139":-0.026457994256598803,"140":-0.11611602690301703,"141":0.026256093120133665,"142":-0.009663071448332212,"143":0.016832482751181627,"144":-0.06883425951494805,"145":-0.021215019398649164,"146":0.030038909457037934,"147":-0.021397943037647554,"148":-0.058722076712106566,"149":0.06559778878181295,"150":0.031822198662521645,"151":-0.02289968911967477,"152":-0.05142383842546922,"153":-0.003901384017294806,"154":-0.058321717782938355,"155":0.006064879099735784,"156":0.06200660963444703,"157":0.017046283704976264,"158":-0.017804059489912184,"159":0.05741686399232734,"160":0.03448641605391637,"161":0.05343356649430613,"162":-0.004862942708510813,"163":0.007504817676120523,"164":-0.016750068125577947,"165":0.0867048756856955,"166":0.03100043808325571,"167":-0.005511700376530278,"168":-0.053766711280199886,"169":0.014582205707126684,"170":-0.04085307796214739,"171":0.06309810372836948,"172":0.06316891295046972,"173":0.12959257615779113,"174":-0.006159942852020747,"175":-0.03253970182980506,"176":-0.141634798764846,"177":-0.11682677268693867,"178":0.07876135259695725,"179":0.07279057601570528,"180":0.11414795111430863,"181":-0.061181581280947486,"182":-0.08526687128019103,"183":0.017386384337758614,"184":-0.09954163859277862,"185":0.019936943208954602,"186":-0.05452455771609887,"187":0.053203185200596616,"188":0.011357847174077704,"189":0.10227316179247949,"190":0.04197927394253732,"191":0.07807632143328452,"192":-0.01603092721753309,"193":-0.05350874101006305,"194":0.0030356660528143447,"195":-0.094704547282061,"196":-0.016131915238505275,"197":-0.006296936891091814,"198":-0.002576959283323282,"199":-0.004605598036746963,"200":0.06068142415079772,"201":-0.1382390814547428,"202":0.0640864815227829,"203":-0.1253478596826789,"204":-0.05512120058681728,"205":-0.0013806383452192046,"206":-0.01986962702997499}},{"sx":1,"sy":1,"depth":207,"w":{"0":-0.0033049189057869255,"1":0.026218898758646674,"2":0.029083023594200286,"3":-0.09542818461276843,"4":0.01888757377703163,"5":-0.06821948239202143,"6":0.0855856180932848,"7":0.10669873216009111,"8":-0.0687881306996501,"9":0.11501355870345442,"10":0.018643914636694126,"11":-0.0906022445759252,"12":-0.04761855866552585,"13":0.06256474753015041,"14":0.003095228923529164,"15":-0.020228577234789647,"16":-0.006139050515084771,"17":0.03674481888585251,"18":0.028765798394855015,"19":-0.03508770690024955,"20":0.005454454834182124,"21":-0.03752621045739501,"22":-0.13241801420381236,"23":-0.07384742800586978,"24":-0.00506218539899812,"25":0.07971953907950591,"26":-0.13903267309666706,"27":0.08896345576806763,"28":-0.09547863744616292,"29":-0.011489928347283863,"30":-0.11947427609279694,"31":-0.048550651524059255,"32":0.04492339025016441,"33":0.01153837639068836,"34":-0.02474866670178306,"35":-0.02924696114015423,"36":-0.04172981342901546,"37":-0.08499579192254404,"38":-0.1045688289436541,"39":0.14283465847929497,"40":-0.12466460210242579,"41":-0.03944620873641024,"42":-0.12878480071358958,"43":0.10171264490195654,"44":0.07119723331907217,"45":0.08341510044120491,"46":-0.003130572148531798,"47":-0.03969947784463732,"48":-0.08930866202115348,"49":0.052335743863678626,"50":-0.0880747572178535,"51":0.005927241790563803,"52":0.13071726477519466,"53":-0.0006028492638827105,"54":-0.003968156357541032,"55":0.06835430549819094,"56":0.022336493350229056,"57":-0.010588197603452556,"58":-0.018442876872351913,"59":-0.07168914094583602,"60":0.05805477446912415,"61":-0.06654096518302234,"62":0.02413438106419167,"63":0.019332416265547384,"64":-0.02369738169373802,"65":-0.018924102264910064,"66":-0.047996048271138216,"67":0.02700819401073952,"68":0.07863150740942494,"69":0.04010944165090051,"70":-0.09015050517738189,"71":0.02111490603859499,"72":-0.020226149174258835,"73":-0.046016153909183184,"74":-0.12011719598814778,"75":0.17213502261789992,"76":-0.057704546072189764,"77":-0.0040967391794308455,"78":-0.13671723005043,"79":-0.06045661470541731,"80":0.024387599949204208,"81":-0.06683361741268962,"82":-0.1792186637417299,"83":-0.004931840125468817,"84":0.03524182122012942,"85":-0.12347914463820082,"86":0.012673160046935033,"87":-0.1133456417502748,"88":-0.010024157350035335,"89":-0.006432296998577554,"90":-0.0335634063086725,"91":-0.005437126135525497,"92":-0.0011308305853028058,"93":-0.00927006520933774,"94":-0.025554188387597068,"95":-0.037389790310861745,"96":0.051284100147442745,"97":0.0024819709169082585,"98":0.08716372732133636,"99":0.047332743407031364,"100":-0.01730536054889159,"101":-0.1441384039276804,"102":-0.04909694428922786,"103":0.021543330323338918,"104":-0.039324766880311494,"105":-0.019114279051049093,"106":-0.01869401964788143,"107":0.03288297249915587,"108":-0.07093856770291511,"109":0.04982230304579437,"110":0.09189305997013654,"111":0.0006612719463035771,"112":0.04313543569113019,"113":-0.006368738704103724,"114":-0.017954943004172635,"115":-0.02233511056170023,"116":-0.030134801705116603,"117":-0.018317561565503092,"118":-0.004591744189031883,"119":-0.032968449081757494,"120":0.07360673683819628,"121":-0.13124224298931922,"122":0.030127173347763554,"123":-0.05747457962693409,"124":-0.04095036918842463,"125":-0.07653324860149552,"126":0.01164079846717058,"127":-0.07214459018916972,"128":0.04303117958412194,"129":-0.0957170559731318,"130":0.032807298956483585,"131":-0.06325421624791591,"132":0.05338613269531171,"133":-0.030719976498871676,"134":-0.001882262626790911,"135":-0.10691045501520724,"136":-0.10617031298501539,"137":-0.10495250734272694,"138":0.029416905111844558,"139":0.025470664814167265,"140":-0.1523560829036497,"141":0.0011174555129287863,"142":0.005714601340562288,"143":0.07899778623196256,"144":-0.054518313147735385,"145":0.03341695041944815,"146":0.025941579562654384,"147":0.11769025376591445,"148":0.06175433156232017,"149":-0.12542945044578616,"150":-0.044258267088247455,"151":-0.07714296109672604,"152":0.006662706240792625,"153":-0.10136917928318127,"154":-0.13403738115512506,"155":0.06532702465377405,"156":0.01922311797597105,"157":-0.17386173469720279,"158":-0.06474796268843479,"159":-0.02406891051385354,"160":0.053199443724671225,"161":0.0013231980467536624,"162":-0.10400359447359356,"163":0.0190519252247414,"164":-0.1504461898383609,"165":0.013831707571898735,"166":-0.09958531616827286,"167":0.0052756575476483585,"168":-0.007032852889755476,"169":0.06801715118432812,"170":0.03576035687867651,"171":0.11793551502356321,"172":-0.07291545749905465,"173":0.008337939351101397,"174":0.050386725733585054,"175":0.1246863666867612,"176":0.088644243819472,"177":-0.06496404103236247,"178":0.031540810111444446,"179":-0.10740951079046299,"180":-0.1324199775404449,"181":0.10251687402957432,"182":0.04134226404934709,"183":-0.08333381050767122,"184":-0.12031362144842331,"185":-0.0738759259877153,"186":-0.11480922292210151,"187":-0.025654442875936906,"188":-0.04816954765083573,"189":0.043894042176044624,"190":0.023707944457459714,"191":0.08489403870268598,"192":-0.11895407037199288,"193":0.11923576488763993,"194":0.03014756225162176,"195":0.15706937442000293,"196":-0.13211886129828143,"197":0.007794230275442265,"198":0.0015641459887549142,"199":0.04339343677054778,"200":0.05695593957225306,"201":0.10450018986486802,"202":-0.047348256185749525,"203":-0.02854435561094277,"204":-0.020449934463980916,"205":-0.10914974766429789,"206":-0.0020266035660218996}},{"sx":1,"sy":1,"depth":207,"w":{"0":-0.006617743253865901,"1":0.030395960410406948,"2":-0.005895570905362812,"3":0.06084406508952759,"4":-0.017840694245919296,"5":-0.09138690811713125,"6":-0.09951822104912686,"7":0.015989617079337305,"8":-0.10178684260563538,"9":0.04180754172509392,"10":-0.06952106180919872,"11":0.15006748102732778,"12":-0.053446965144192726,"13":-0.05059738530024974,"14":0.025449464199564717,"15":-0.050327454753983515,"16":0.07862375741457632,"17":-0.016514029019359618,"18":0.04465138166582278,"19":0.12515737742875355,"20":0.07013873611348462,"21":0.01703443041287089,"22":-0.03796458225945946,"23":0.04709343314266512,"24":-0.0815474662470813,"25":0.002411821712962212,"26":-0.052147609983326376,"27":-0.046212847793593866,"28":-0.10294179895658291,"29":0.06903673361866854,"30":0.016049824759994006,"31":-0.024458597625453864,"32":0.003249910854376083,"33":0.05723386984966546,"34":-0.038869327283892655,"35":0.09143229235736586,"36":-0.030890642424118556,"37":0.0895346050966849,"38":-0.06704197219683666,"39":-0.0472278432022589,"40":-0.005869820875257575,"41":0.005920269986664021,"42":0.09665579117685227,"43":-0.04038901499233624,"44":-0.09213398817672816,"45":-0.05465315825243705,"46":0.06803761000778828,"47":-0.12422311372855278,"48":0.04668774542492509,"49":0.031262513498310746,"50":0.05220142003857145,"51":0.010294987008427715,"52":0.011761072068047588,"53":-0.008264016065834911,"54":-0.11036543337296585,"55":0.10146341050602761,"56":-0.036203328273438924,"57":0.027783330556667225,"58":0.043170792552858925,"59":-0.0771453028793189,"60":-0.05175488164840204,"61":0.009895534139854232,"62":-0.079138174486632,"63":0.03830847594518753,"64":-0.006953617659463677,"65":0.010671446184400184,"66":-0.04486407824144712,"67":0.022426801566161166,"68":-0.0012690656145261442,"69":0.08888605127443998,"70":-0.010844331376161448,"71":0.009955318572572381,"72":0.01204785227779089,"73":0.02986686081921739,"74":0.11041687666388278,"75":0.007580952850047187,"76":0.019362757782393242,"77":0.06854289818886118,"78":-0.150029198932252,"79":0.01286573656507194,"80":0.046516596474566636,"81":-0.0068214010119102345,"82":-0.024596938335738415,"83":0.02245368238927986,"84":-0.08322151067580577,"85":0.028479784038864024,"86":0.026131068146934083,"87":-0.10452990104202207,"88":0.031567936058217026,"89":0.03528151704615765,"90":0.004247132223930591,"91":0.014463251604313006,"92":0.07338747508295071,"93":0.017249856917805867,"94":-0.15664659219436725,"95":-0.009346244690108781,"96":-0.015748031604542023,"97":-0.04853558588302957,"98":-0.014680716481240336,"99":0.03223229695604059,"100":-0.011651122451564022,"101":0.13600322268833678,"102":0.0407985196758753,"103":0.162038051596461,"104":-0.11425081804919794,"105":0.009734803135098646,"106":0.10452867363034718,"107":-0.08382489459313922,"108":0.1204341848264779,"109":0.002172154157509439,"110":0.04281540958103022,"111":-0.0031658252818020497,"112":-0.05670775168289122,"113":0.15389850165909752,"114":-0.13217200722622446,"115":-0.03164192684893642,"116":0.03084010199272928,"117":-0.12355052494997756,"118":-0.09673043328236935,"119":-0.04924245482281295,"120":-0.054869517256556984,"121":-0.113006710949425,"122":-0.05711748606059483,"123":-0.08761624696689892,"124":-0.009633584564547631,"125":-0.16893425826314457,"126":0.06802498102279442,"127":-0.017085434530853018,"128":-0.10488763078492604,"129":-0.04641639394775207,"130":0.021242926645522072,"131":0.06879346534757991,"132":-0.11976303250634053,"133":-0.07585636499637675,"134":0.08552157761328104,"135":-0.02874428309774949,"136":0.056791771376491954,"137":-0.044534887457477815,"138":0.01224668785833393,"139":0.10116406130873608,"140":-0.13173726513982398,"141":-0.02045112768608295,"142":0.06501344760023221,"143":-0.09685412363430995,"144":0.019915581238867552,"145":-0.15399693242583248,"146":-0.03981702621896378,"147":-0.0022276716763750806,"148":0.06770853096460513,"149":-0.023415257542055434,"150":-0.14471135485705494,"151":0.12507944616958572,"152":-0.09800593280421871,"153":-0.026759702145935167,"154":-0.08420435643342412,"155":-0.04640222585084444,"156":-0.06996113386781673,"157":0.08999056824475997,"158":-0.018875214712935125,"159":-0.14164146731095356,"160":0.025281901825860313,"161":0.014684563571851644,"162":-0.110743232346734,"163":-0.0020706757916783987,"164":-0.046941515845621354,"165":0.04066088655390003,"166":0.006833734233783838,"167":-0.09126002364061832,"168":0.09522341113833906,"169":-0.15154290470196882,"170":-0.04987841850186268,"171":-0.14440999550087077,"172":-0.06546297999672347,"173":-0.02732594087687597,"174":0.10616751547479789,"175":0.12440881332895082,"176":-0.0023380701243417143,"177":0.0184971752579263,"178":0.008374266313607569,"179":0.02041525107674236,"180":0.060673497638948866,"181":-0.028379221622741157,"182":-0.06596816444667822,"183":-0.1616598046767634,"184":-0.1067013272338638,"185":-0.06499707569819609,"186":-0.02516262346720532,"187":-0.02362629003549366,"188":-0.14390635959626064,"189":-0.08186721765201545,"190":0.048859686940059696,"191":-0.010955858467980613,"192":0.03612100836785359,"193":-0.022766200212215704,"194":-0.0052913969415583125,"195":-0.019911991428527707,"196":-0.025096698531553763,"197":0.09621062173112752,"198":-0.07306693876617577,"199":-0.0991170264896457,"200":-0.05254353820332182,"201":0.0416754575457512,"202":0.0040115610846605315,"203":-0.07553451832532489,"204":0.05838054988441388,"205":-0.053108449421927564,"206":0.03262215949550852}},{"sx":1,"sy":1,"depth":207,"w":{"0":-0.05057243448064349,"1":-0.008717826454967223,"2":-0.07324740111393002,"3":-0.05222688647552443,"4":-0.00517613937629306,"5":-0.043855524111841425,"6":-0.08521732041572216,"7":0.06404252109372785,"8":0.12371986916527775,"9":-0.2049246388673208,"10":-0.015929580203101455,"11":-0.005009185832552557,"12":-0.014145460724413935,"13":0.037309414524569255,"14":0.05042057508822528,"15":-0.18204188803434976,"16":0.0035637573082628114,"17":0.05235844323768067,"18":-0.06691005175263685,"19":0.04798503337220498,"20":-0.01923697943169095,"21":-0.0007116583446686244,"22":-0.06750353999693583,"23":-0.03149543935001026,"24":-0.014047800444021536,"25":-0.0887538805742161,"26":0.03948932593578695,"27":-0.07844703445370983,"28":-0.006653061122527035,"29":-0.0325773330813932,"30":-0.05119560284898027,"31":-0.01327647089825825,"32":0.05447420839786788,"33":-0.03123574558278185,"34":-0.03440096250116295,"35":0.027514042588846037,"36":-0.1140313200708118,"37":0.038034154859411605,"38":0.03143895467138051,"39":-0.036806919226292985,"40":-0.0053592454721994665,"41":0.028533901636720774,"42":-0.13208628108275114,"43":-0.058929866861254815,"44":0.0031338003832944807,"45":-0.044426526719752835,"46":-0.12445752710901824,"47":-0.04467772621891904,"48":-0.026581995905583786,"49":-0.02327529727641064,"50":-0.08900150143404015,"51":-0.05517106184880486,"52":-0.044307129657412556,"53":-0.0538115174597334,"54":-0.04178746000258891,"55":0.0808942509031384,"56":0.07612524135857957,"57":-0.06588273532514856,"58":-0.01644235563971873,"59":0.038452237964366955,"60":-0.11575785239307812,"61":0.13219895674275026,"62":-0.00031724436332049755,"63":0.09607080891569728,"64":0.006763422705794754,"65":0.07836913692455788,"66":-0.1325366759930211,"67":0.012229992556657264,"68":0.11545528945269082,"69":0.029624083846265456,"70":0.1011862377651948,"71":0.09336051407432076,"72":-0.0050860437394216786,"73":-0.0004384698179530223,"74":-0.06349118238428067,"75":-0.07188553415976001,"76":-0.06972800375374123,"77":0.07906763445882121,"78":-0.023984888480754044,"79":-0.018490169198260117,"80":0.062357483074108475,"81":-0.014926796975988147,"82":-0.14062757473047036,"83":0.01798397991398736,"84":-0.035206492040021097,"85":0.029057879081583412,"86":-0.002657429833281732,"87":0.05157318554198757,"88":-0.01336955622620523,"89":0.0794127308427668,"90":0.02909717926930941,"91":-0.028974206884585015,"92":0.11963206873175146,"93":0.031831400659903995,"94":0.01650561154688548,"95":0.061378841528394915,"96":-0.0896348968408895,"97":-0.03767307366041852,"98":-0.06691698613273743,"99":0.024105425290474356,"100":0.005327196157935439,"101":0.07974515034486637,"102":-0.012246598348418129,"103":-0.004567558740769825,"104":0.08554876413350136,"105":-0.08832397564919055,"106":-0.12387294936392367,"107":0.10978289370092115,"108":-0.013740856639515122,"109":-0.05336781752038676,"110":-0.07146843213113306,"111":0.0461150828805356,"112":0.03451269811478043,"113":0.0332640869185708,"114":-0.11834327992623832,"115":0.11263929262119732,"116":0.06797161394860393,"117":0.11071444823658276,"118":-0.061350358124224076,"119":-0.036906482017131155,"120":0.05453700941673615,"121":-0.002671030841684436,"122":0.061106658713636255,"123":-0.053130063076967105,"124":-0.04715212871503023,"125":-0.02795402272073712,"126":-0.022888377782756077,"127":0.008068830305558368,"128":0.07506736904786025,"129":-0.05163936073838009,"130":-0.05410611773042438,"131":0.04736471681945587,"132":0.0016503026108183054,"133":0.16101641494080382,"134":0.04622735039342109,"135":-0.031977743196769805,"136":0.014415150635796814,"137":-0.01747665212183515,"138":-0.01575459860146594,"139":-0.04344768047443563,"140":-0.06340986971699508,"141":0.0006718852364341998,"142":0.007440951642966106,"143":-0.1256542337278077,"144":0.005679590075418742,"145":0.06746650472513221,"146":0.09794138420451173,"147":-0.08633564025097154,"148":0.10046516862868993,"149":0.10542067726654349,"150":0.04268812000503057,"151":0.13340694633282965,"152":0.06815273721641628,"153":0.07318149723133435,"154":-0.14562069576040823,"155":-0.05616231138905993,"156":0.04655005279937529,"157":-0.04115417929558214,"158":0.039799125267905903,"159":-0.02132431735629132,"160":0.006974420565173206,"161":-0.09044695779975231,"162":0.05444790051491834,"163":0.00006327247135825031,"164":0.056240254861306474,"165":0.05338237113894781,"166":-0.04882096566408365,"167":-0.004826314859120649,"168":-0.01875291009577088,"169":-0.06495033788983814,"170":-0.03749180834477415,"171":-0.037678986862403036,"172":0.04497287438433226,"173":0.001792390814231721,"174":-0.009690651649494494,"175":0.042990687564334606,"176":0.070610549298983,"177":-0.05652511065407177,"178":0.13513229345734024,"179":-0.07162222461247125,"180":0.027750437930290642,"181":-0.028644505473612435,"182":-0.05001967697463666,"183":0.09564029377788269,"184":0.12023815616187442,"185":-0.0631022070545543,"186":0.05524409647749539,"187":-0.023755175327765186,"188":0.03542345232133474,"189":0.028441013656323944,"190":0.01482181382422742,"191":-0.11324160186111638,"192":-0.030229739569725692,"193":-0.10089144249479907,"194":0.028685580397456435,"195":-0.07040520351141528,"196":-0.021066936878208348,"197":-0.08359996600236386,"198":-0.10321771799841019,"199":0.11641260310948591,"200":-0.15366929705256951,"201":0.005540061236300509,"202":-0.022310445461753037,"203":-0.0007137242532703424,"204":0.05331775576721654,"205":0.013511163984003843,"206":-0.13626638090326618}},{"sx":1,"sy":1,"depth":207,"w":{"0":-0.08721206357718862,"1":0.16779059118133832,"2":0.12412902097649789,"3":0.006339462613309591,"4":-0.002390638852427303,"5":-0.07669587145682846,"6":-0.13188316447255585,"7":0.10687612079422901,"8":-0.040443110545867855,"9":-0.004653287047179566,"10":0.005890164131484006,"11":0.03736359241207834,"12":0.023520684059128456,"13":0.10112914243210967,"14":0.06948914103454339,"15":0.07085712978328887,"16":-0.011709545568613209,"17":-0.103789667059118,"18":-0.07872443481363546,"19":-0.06546105799520478,"20":-0.050992778032625384,"21":-0.0038703302758666363,"22":-0.0010839200830144113,"23":0.07150739895582647,"24":-0.050052773398122204,"25":0.006735732764920058,"26":-0.009760371398549865,"27":-0.029875583092450055,"28":-0.01814372792086382,"29":-0.10341424540292,"30":0.09720861286078551,"31":-0.04949081352606358,"32":-0.021244865497550797,"33":-0.09278763413279263,"34":-0.10705803754225886,"35":-0.1319310705018574,"36":-0.004831004767030972,"37":0.09903782498609796,"38":-0.0120762074147737,"39":0.005144045475992519,"40":-0.040561381425836554,"41":-0.01066654166294576,"42":-0.14619778156936536,"43":-0.06163433916800926,"44":-0.047838563696353316,"45":0.01874520431754994,"46":0.051754075567411094,"47":0.02781022026360186,"48":0.03409084579664614,"49":0.12499142297322595,"50":0.1425134393212432,"51":0.065265500928163,"52":-0.01996430175987545,"53":0.03851042561328319,"54":0.013379563733899494,"55":-0.061629027087470076,"56":0.004871855975332173,"57":-0.008266603256351054,"58":-0.039395051746670184,"59":0.022854508635558497,"60":-0.05023562778063476,"61":0.011680597667752165,"62":-0.06974823703893832,"63":0.007075467533976306,"64":-0.016109672252961033,"65":0.07266912340970323,"66":-0.013901139958548126,"67":0.06522669866777234,"68":0.10710773443804124,"69":0.022828215356752543,"70":-0.0757169701317564,"71":0.04532696566916348,"72":0.05051449290214548,"73":-0.1262828798284088,"74":0.07105583195183919,"75":0.048697733292187635,"76":-0.05121889578812138,"77":-0.07226693579212314,"78":-0.1014085422049848,"79":-0.02941424096242583,"80":-0.07638480452503077,"81":-0.03281870078595076,"82":0.0333972930152105,"83":-0.0013016684726134145,"84":0.01007893945108003,"85":-0.028189712672222512,"86":0.017971515064806137,"87":0.049579362103940566,"88":0.05565432839854726,"89":0.006302587120338205,"90":0.10398844347338347,"91":0.08471769408376525,"92":0.15045875081983992,"93":0.04979087269225452,"94":0.021253896004278818,"95":-0.045756816737650745,"96":0.03414778088971216,"97":-0.009573967880114952,"98":-0.0029071865077611374,"99":-0.06293699468576089,"100":-0.09762874717299676,"101":0.05483886567610334,"102":0.05483488963928621,"103":0.07689447963344777,"104":-0.03193174576740372,"105":-0.09474466381970932,"106":0.10672563616183134,"107":0.058137784524145336,"108":-0.04646775144578802,"109":-0.12880038329072138,"110":0.0008600801922974895,"111":0.07223295463508089,"112":-0.0426504860246588,"113":-0.0710663888255305,"114":-0.009141859866806011,"115":-0.028275149589760185,"116":0.004556723440735359,"117":0.030329643640745932,"118":0.02999225123660627,"119":0.08249712066796244,"120":0.04005620108017401,"121":0.1452752732202867,"122":0.005006841943828023,"123":-0.03728297803893566,"124":-0.034537711856877866,"125":0.08071729489299367,"126":-0.06676836431922772,"127":-0.055489895216084065,"128":0.006264485514903285,"129":0.030184179049129144,"130":0.06629108648795816,"131":0.005682598034187384,"132":-0.017935083786289132,"133":-0.043654199543209135,"134":-0.11418709588241137,"135":0.02135280125409112,"136":-0.07743916174185808,"137":-0.0328516180523019,"138":-0.0000311264022196114,"139":-0.09223744729775048,"140":-0.014322034580252626,"141":0.059904756991131486,"142":0.041576492229593885,"143":-0.09695658627716845,"144":-0.028097799428415823,"145":0.007274884988076246,"146":-0.02419924065253065,"147":-0.058257069595088355,"148":-0.02924452500965054,"149":-0.013024852049729897,"150":-0.08638165523471004,"151":0.08612028884014457,"152":-0.004272115019789046,"153":0.020579469020066583,"154":0.06257730469211806,"155":0.002071689335088039,"156":0.015688278396951638,"157":0.019427261500783534,"158":-0.03307148482012023,"159":0.04723620824801265,"160":-0.13166445076014363,"161":0.07377887315261103,"162":0.005950237693438309,"163":0.07832818022791044,"164":-0.05347238905658728,"165":-0.07364217995464037,"166":0.044228698034748735,"167":0.13787100755979328,"168":-0.023652248282594775,"169":0.017972925225695505,"170":-0.08448829861781407,"171":-0.02654801083287708,"172":0.018123474948983566,"173":-0.031312645577729094,"174":0.17474461896941879,"175":0.0016657171660935173,"176":-0.06577005363643061,"177":0.019325902287878123,"178":0.1378508222731415,"179":-0.09634261308524142,"180":0.004003713253136959,"181":-0.012004942848689585,"182":-0.07082292402623043,"183":-0.0041172679414612995,"184":0.025141689828792013,"185":0.01836344244926184,"186":0.13521571384517933,"187":0.0953614254629381,"188":-0.08378154680638843,"189":0.04073645624562565,"190":0.12409247128523651,"191":0.060846482344612984,"192":0.03863788789516183,"193":-0.07162422095986863,"194":-0.10401190064202664,"195":0.045992646419893646,"196":0.06329947914992382,"197":0.06207412969397476,"198":-0.06439130064705487,"199":0.11051335054296564,"200":-0.11470815843496168,"201":0.033187379165495356,"202":-0.02815938613113405,"203":-0.030076284704630505,"204":-0.02373086536487816,"205":-0.02639574533434062,"206":-0.020431044021723858}},{"sx":1,"sy":1,"depth":207,"w":{"0":-0.03091471220495036,"1":-0.20698105921491747,"2":0.04650130764240084,"3":0.0909194642913364,"4":-0.1043866723852985,"5":0.022170068814707743,"6":-0.13007760567916948,"7":-0.17336298510749304,"8":-0.16148925443919043,"9":-0.07683179045515294,"10":-0.17162961434021232,"11":-0.13068928506569005,"12":-0.08693489911551948,"13":-0.11480387720623032,"14":-0.08466336936589777,"15":-0.1504952625609032,"16":0.08853464635988659,"17":-0.028451063864495287,"18":-0.05933892296287607,"19":0.12174569146904128,"20":-0.1391813549950885,"21":-0.11486434100751437,"22":-0.021496766179799127,"23":-0.07118120849591023,"24":-0.10953168818329309,"25":-0.011396269595263622,"26":0.0189879946047768,"27":0.02605603798980289,"28":-0.2293154065179972,"29":-0.21035327733339074,"30":0.0917073394173481,"31":0.014843473183097282,"32":-0.0763784121317117,"33":-0.05230866469528902,"34":-0.08103775087454036,"35":-0.09726319655423117,"36":-0.0707824736336339,"37":0.05366498219505811,"38":-0.12866766986481223,"39":-0.07271865697161327,"40":0.030708442581658935,"41":-0.10103661438050514,"42":-0.04980072582657084,"43":-0.03690929436300087,"44":-0.01566417998809564,"45":-0.04266001540061372,"46":0.04330024458667705,"47":0.10995880997512883,"48":0.02278529607041487,"49":-0.11086913659883578,"50":-0.044737020227869635,"51":0.09087045807742013,"52":-0.06844382975281514,"53":0.08710947441645361,"54":0.11462591510726554,"55":-0.11534986600341908,"56":-0.02859724443903685,"57":-0.006809712653503287,"58":0.1007185188544801,"59":-0.012791512077103561,"60":-0.00889215155214367,"61":0.02258186675333173,"62":-0.08052643087173257,"63":0.05432589107296913,"64":0.12891841379463936,"65":0.02368453157673276,"66":-0.01887809286827125,"67":0.017254726808523097,"68":0.014749131369701605,"69":-0.0021272818582629806,"70":-0.05339612836198725,"71":-0.04243181331469926,"72":-0.023199244028423736,"73":0.11354582991087336,"74":-0.15812538934412435,"75":-0.03989555367513547,"76":0.024141795495301193,"77":-0.09311345310311937,"78":0.04718639997115749,"79":-0.07456231803060603,"80":-0.024756369755008823,"81":-0.02040011650419376,"82":-0.10987944070930296,"83":-0.007514191137624607,"84":0.10824220308320505,"85":0.13794287348707954,"86":0.05341272304277679,"87":0.014692643551476156,"88":-0.0862038492337154,"89":-0.021027420901275896,"90":-0.01838179490514911,"91":0.026977992998449298,"92":-0.07012081257311338,"93":-0.014056329819130086,"94":0.00278066997962367,"95":-0.04097440803644019,"96":-0.12801292906765008,"97":-0.02496026438420533,"98":0.055250076214813586,"99":0.024872537691065264,"100":0.020067270586049343,"101":-0.08396234328649324,"102":-0.18154180538646128,"103":0.01361435249283153,"104":0.06466993313262871,"105":0.0023205571747357385,"106":-0.05145046825816143,"107":-0.04516275348048135,"108":0.12469222605405786,"109":-0.06901423232154257,"110":0.027409985976609364,"111":0.059294227183911384,"112":0.06707286610722048,"113":0.03023113104951929,"114":0.08347734517440393,"115":-0.0373932679654959,"116":0.09910834983424296,"117":-0.015570647332113238,"118":-0.04113646762331282,"119":-0.004514735524323609,"120":0.0745660878629392,"121":-0.045502801220429004,"122":-0.027124963758437037,"123":-0.1047786292022116,"124":-0.05787941122593109,"125":-0.11758872361957177,"126":-0.018765004567051994,"127":0.07143998756487938,"128":0.06452959444473819,"129":-0.13856046753843257,"130":0.04021626171241983,"131":0.005293996757829874,"132":-0.06415687087987641,"133":-0.0157837899088736,"134":-0.011303547064114234,"135":0.05699455594750237,"136":0.05810937860458099,"137":-0.07500481518341956,"138":-0.00042222658515452633,"139":-0.08860397128241164,"140":-0.11209799319063607,"141":0.03735277113309921,"142":0.017615094393280392,"143":-0.0758592221201089,"144":0.07496550544700677,"145":-0.0697914463494026,"146":0.07769915936942355,"147":-0.0898373004736545,"148":-0.04900913062846926,"149":-0.05606119701720489,"150":0.007171313357115418,"151":0.05511666486919611,"152":0.09808077515164718,"153":0.08188245872090819,"154":-0.05352697544715092,"155":-0.1413538642623638,"156":-0.11930072833249124,"157":-0.025850161944076813,"158":-0.06838811603228828,"159":0.04423254903858154,"160":0.039078431582649995,"161":-0.05510939401788952,"162":-0.011209493392890242,"163":-0.08277233463232242,"164":-0.07714183810455492,"165":0.10840136842974589,"166":-0.0415975616913104,"167":-0.11117678999657006,"168":0.1407086064961156,"169":-0.006366969572899659,"170":-0.05969368919023226,"171":0.02160850351261433,"172":-0.06287322594629831,"173":-0.022690122742339988,"174":-0.0010407336383342813,"175":0.08921780833572847,"176":0.027285195892592876,"177":-0.03290808572749874,"178":0.05538736579452588,"179":0.046182917658855724,"180":-0.05010977247564818,"181":0.10719136953788665,"182":-0.011416869637192602,"183":-0.012561052937884174,"184":0.03033848250494945,"185":0.017972556167795205,"186":-0.06620709776218481,"187":0.013566024236460996,"188":0.051535605723478484,"189":0.09017312389360785,"190":0.015525275480537747,"191":-0.026103507796666484,"192":0.06829169623637803,"193":-0.035492640454120636,"194":-0.03246130258578058,"195":-0.004444176898819086,"196":0.01107146293214301,"197":-0.11185040294514134,"198":-0.04801005019400585,"199":-0.0017542362853461759,"200":-0.058186218795501767,"201":-0.07226113200781317,"202":0.005509935140256196,"203":0.04344696792399066,"204":0.030878325410665063,"205":0.05243827800507742,"206":0.037944897266546984}},{"sx":1,"sy":1,"depth":207,"w":{"0":-0.05114733231186057,"1":-0.11832137198283399,"2":0.05101455435343685,"3":-0.001005549672084303,"4":-0.13979275347268066,"5":0.01980642885804051,"6":0.1456830744150398,"7":0.030604971346721424,"8":0.1153472388578501,"9":-0.1893132314390705,"10":0.002676108012120498,"11":0.05514447332394948,"12":-0.04584676765778901,"13":-0.009366107876856914,"14":0.0639634036410878,"15":-0.0003321588489686518,"16":0.14717740807487445,"17":-0.03278053337787162,"18":-0.011766964248871383,"19":-0.00265170581926187,"20":-0.049024462289214386,"21":-0.08612911474713225,"22":0.011330455806710112,"23":0.02235361453011243,"24":-0.02806319811518911,"25":-0.03877526737836374,"26":0.04135604213560507,"27":-0.08814456285242032,"28":-0.011529298927864232,"29":0.07827797452619108,"30":-0.08092209524508769,"31":-0.01737348446056868,"32":-0.020601699153141712,"33":0.0009079507599543869,"34":-0.005927356481977993,"35":-0.04726909723008312,"36":-0.021252662254311175,"37":0.07621203294425712,"38":-0.06805617935230517,"39":0.07721593659130514,"40":0.10912639558580939,"41":0.011768943063542701,"42":-0.030450235754507653,"43":0.033047127231496276,"44":0.05011070573845063,"45":-0.13069962101078358,"46":-0.036878982807509134,"47":0.06696740925113488,"48":-0.028261363810766278,"49":0.07835606126946891,"50":0.0236183917815053,"51":0.006229709223643461,"52":0.03022019542413244,"53":-0.0258616776866057,"54":-0.012763748428719215,"55":0.012091251392494475,"56":0.006552477794198686,"57":-0.04348826873989327,"58":-0.08007319954669101,"59":0.059759170471708416,"60":0.013463710989740443,"61":0.05228015533958585,"62":-0.006463876181043584,"63":-0.07326171012130252,"64":0.039410136335800566,"65":-0.014753743438609683,"66":-0.03407285717309217,"67":0.021524667147672687,"68":-0.001416923644647294,"69":-0.04553734683718231,"70":-0.0014241836223281249,"71":0.1067360680127333,"72":-0.02585980127684327,"73":0.015480500086310032,"74":-0.036910940710308336,"75":-0.007586223606481504,"76":0.09213641571094414,"77":0.07458794606386028,"78":-0.032184627892891705,"79":0.06340475950335592,"80":-0.000610890651842485,"81":-0.030340310498782937,"82":0.02074880631464816,"83":0.06096961318229701,"84":0.06975001355311573,"85":0.06867575768263064,"86":-0.0777491444754699,"87":-0.04118554284764483,"88":-0.001069241120275266,"89":-0.06658445771315082,"90":-0.09194826153429696,"91":-0.05531656204665321,"92":-0.09460685506798239,"93":-0.09034521477273108,"94":-0.008832579722168842,"95":-0.028864706941945036,"96":0.028841917781494236,"97":0.054080283228336766,"98":-0.03415059713762195,"99":0.0007414552355409699,"100":-0.014116707104029033,"101":-0.013054450289008446,"102":-0.02113384621532641,"103":-0.022751472984573744,"104":-0.04566485181627359,"105":-0.04646878286660377,"106":0.01596937135414769,"107":-0.0905007255596284,"108":0.10735897187288324,"109":0.058092752389506785,"110":-0.11747845960754316,"111":0.10526176871016885,"112":0.08680353537013477,"113":-0.05158011480144641,"114":-0.002246308437615962,"115":-0.08966624468540872,"116":-0.04791601628827181,"117":-0.021100325207582486,"118":-0.04221769295147944,"119":0.02683588584471427,"120":0.13622849549354402,"121":0.02403421957383693,"122":-0.01642294774607098,"123":-0.013183477763075095,"124":-0.0624352551710114,"125":0.0023613112432968307,"126":-0.018751025428235056,"127":0.029835772402452772,"128":-0.06339697368041493,"129":0.015473477998897887,"130":-0.025399088827303587,"131":0.0030402843323186187,"132":0.03452277628386357,"133":-0.10189901847574348,"134":-0.11255608641740039,"135":-0.09135108119299969,"136":0.0330368477900755,"137":0.09567456292409125,"138":0.04556132981212611,"139":-0.06023454294896174,"140":0.092846027844532,"141":-0.10328390399325552,"142":-0.13661454492895955,"143":-0.021342202267852436,"144":-0.079675376764635,"145":-0.04392448249498128,"146":0.15272037363320723,"147":-0.003864867390252732,"148":0.03919778955921533,"149":-0.004662940857556453,"150":0.016272563785151264,"151":0.10361057211976947,"152":-0.10187509211217947,"153":-0.08918829644239144,"154":0.0883543279676132,"155":-0.03230835785322857,"156":-0.0410369078545195,"157":0.04531143331817852,"158":0.11732187989676135,"159":0.023753722792950228,"160":-0.00893127522862757,"161":0.01650945259635069,"162":-0.0681358100675427,"163":-0.021756332086030263,"164":0.10953890977591119,"165":-0.021562225564027534,"166":-0.04334448833354734,"167":0.03541328659647347,"168":-0.06727634184199113,"169":-0.050686703745423486,"170":-0.00045631881112486643,"171":0.06604496075946034,"172":0.06452926998693534,"173":0.09155382134240171,"174":0.04316946002920825,"175":-0.076507305686656,"176":0.014568687750703744,"177":-0.08075851315365472,"178":0.0335013617748771,"179":0.005694624860712663,"180":0.014772435585774023,"181":0.022180283326527668,"182":-0.007164030332738836,"183":0.06317159073885027,"184":-0.029761102555875694,"185":0.08174519200271134,"186":-0.22309812369561768,"187":-0.06978073366829729,"188":-0.06277477168108278,"189":-0.059090482550463515,"190":-0.03592955755119208,"191":-0.19204405355239773,"192":-0.06488076769783944,"193":-0.013676288176258487,"194":-0.07736852389656328,"195":0.07847793848382947,"196":0.09164359522942536,"197":-0.020381745111143563,"198":-0.026521215513940287,"199":-0.13905654955281002,"200":0.036503031459360964,"201":-0.03426196367950238,"202":-0.0652934134749534,"203":0.007585570007245839,"204":-0.12424949677315524,"205":-0.014756592599923582,"206":0.04295216743877239}},{"sx":1,"sy":1,"depth":207,"w":{"0":0.22424519545722787,"1":0.7207175238174235,"2":0.30703538932214264,"3":0.03890749571865118,"4":0.7011102564581418,"5":0.11458742969623158,"6":0.06066328008519691,"7":0.41319184718915786,"8":0.23427783891515375,"9":0.06731904094151187,"10":0.3789783090607631,"11":0.24513859077904496,"12":-0.0549109344216526,"13":-0.11977332747796433,"14":0.06248836967937856,"15":0.0467029716232244,"16":0.05531099218951971,"17":0.2930252324982394,"18":0.15988211830676133,"19":-0.05206175750368781,"20":0.14638882805316744,"21":-0.12129794109782456,"22":-0.011916869260875698,"23":0.12480909370706944,"24":0.01612268216620255,"25":0.1635706494053389,"26":0.11218927752006333,"27":-0.021073641842644632,"28":0.04533791535215769,"29":0.15584156598422552,"30":0.056091054351643,"31":-0.003756160920036526,"32":0.09732366157778177,"33":-0.02020824348317597,"34":0.032552613353815735,"35":0.01950177379334028,"36":-0.057716165748477384,"37":0.006060096910952086,"38":0.15753173172312743,"39":-0.0766654956408355,"40":0.0680670090446067,"41":-0.13194014557036388,"42":-0.1850576938827253,"43":0.047844489317008104,"44":-0.08305379713044313,"45":-0.144094740113584,"46":0.021055534033071924,"47":-0.12039904124774414,"48":-0.040915130646354006,"49":0.050607769510060976,"50":0.004331243913715129,"51":-0.019208234425580513,"52":0.08349127516741447,"53":-0.010181976169339631,"54":0.0479313670931535,"55":0.01881670680800513,"56":0.07395020858714967,"57":0.0041863411187310065,"58":0.02665896057358422,"59":0.11577356065681364,"60":0.10050487001462233,"61":-0.033186785611137415,"62":-0.06907060703621579,"63":-0.04694890286289079,"64":-0.15346793482324828,"65":0.14623449877522202,"66":0.05214156166119549,"67":0.10592837369303866,"68":0.1487933801589294,"69":-0.048814640202111105,"70":0.023455764496415097,"71":0.07426137516164813,"72":0.04442188623146398,"73":-0.03647327728516164,"74":0.06792035807857616,"75":-0.009571732942236007,"76":0.05511397417768144,"77":0.05741347074617134,"78":-0.0669794883970642,"79":-0.041611292333289515,"80":0.10759450436394508,"81":-0.10522736612796263,"82":0.003763794559256473,"83":0.0375056407650142,"84":-0.16794579404099055,"85":-0.033043111566580234,"86":-0.01154603170266177,"87":-0.12970573342073097,"88":-0.028198250565587526,"89":0.1304374736402745,"90":-0.1183626512177176,"91":-0.009609053944168841,"92":-0.016544074143074232,"93":-0.029126839817783568,"94":-0.012283935156932558,"95":-0.14317136464129956,"96":0.027232545600753305,"97":0.08209438864819239,"98":0.016967636897702133,"99":0.047050494379667324,"100":0.04967250984319915,"101":0.02059524310316357,"102":-0.03982182822958304,"103":0.10309026722923927,"104":-0.03609454433094955,"105":0.021705635600123705,"106":0.1034209794698357,"107":-0.10389915915921778,"108":0.03098841311982801,"109":-0.06585857293918006,"110":-0.0262331727590134,"111":-0.03871072283420914,"112":0.06883506068998567,"113":0.09509069329295641,"114":-0.002712748918300926,"115":-0.036410569789730174,"116":-0.006273572343929469,"117":-0.04743234402378587,"118":-0.011721856378083463,"119":-0.01603759774467308,"120":-0.02649505531445166,"121":-0.05992849974092271,"122":-0.009361274861088434,"123":0.04471625788447544,"124":-0.035725123809291146,"125":-0.03127831085841398,"126":-0.11942354081896445,"127":-0.11520183152878091,"128":0.04497222615494226,"129":0.10147334896390496,"130":0.15471917828920026,"131":0.028301036713044916,"132":0.055651149273121966,"133":-0.03892177937765686,"134":-0.08264934252598942,"135":-0.013168049200234308,"136":-0.025576497930161316,"137":0.0028466904589578884,"138":0.0140975128686653,"139":-0.04416356752565843,"140":0.0097980180065524,"141":0.01648504340285906,"142":-0.04900736303248777,"143":-0.006348281791797872,"144":0.11498307044237614,"145":0.07172112842697781,"146":0.04507274138098604,"147":-0.03340326757551787,"148":0.012360418486468674,"149":-0.056590860308052056,"150":-0.06952375638340565,"151":-0.009892217397193669,"152":-0.06268863639462699,"153":-0.05925643343316734,"154":-0.036599059403472516,"155":0.00969573674318449,"156":-0.006612172944199808,"157":-0.018000631821978284,"158":-0.06841057420119327,"159":-0.049098168741986255,"160":0.09333669375956817,"161":0.04452030866676363,"162":-0.030170969214519016,"163":0.07168352674019486,"164":0.007294399467427141,"165":-0.056573530672798314,"166":0.040200447001096075,"167":-0.01571011411599749,"168":-0.05647594046897525,"169":-0.1254884155510401,"170":-0.027690934307236296,"171":-0.10247150056550108,"172":-0.0537256938722238,"173":-0.12440438638392327,"174":-0.032568441191704385,"175":0.0628668632065864,"176":-0.03568587735423554,"177":-0.06531502245160799,"178":-0.053249272053745175,"179":-0.1423643725773156,"180":-0.06516626220934556,"181":-0.0879769120113201,"182":-0.01913170468669381,"183":0.08233229135377987,"184":0.022518551967977796,"185":-0.022230368430927065,"186":0.02082041234584253,"187":-0.04778564250758239,"188":-0.013909453833179484,"189":0.06303837877232837,"190":-0.01583334491742592,"191":0.020732408775708533,"192":-0.04865612343974289,"193":0.025039767238757255,"194":0.0022957233799787615,"195":0.06409787998010143,"196":-0.050341648118496604,"197":-0.022699459729849686,"198":0.07329750585507704,"199":0.057732335985490976,"200":-0.00564612360495436,"201":-0.03196736095875031,"202":0.029593859514548966,"203":0.011979765099701977,"204":0.03935140205106072,"205":0.014836588733206063,"206":0.04663750335055219}},{"sx":1,"sy":1,"depth":207,"w":{"0":0.023025719370052492,"1":0.006049641616833766,"2":0.03598083623407556,"3":0.046835429744978986,"4":-0.06586688827403941,"5":0.02049921850595762,"6":0.01715933943369326,"7":-0.021392306653997273,"8":-0.031240263893149663,"9":0.03794331924379547,"10":-0.02136723916106865,"11":-0.06228676621927724,"12":0.10288270192961053,"13":-0.08353680636938907,"14":0.06175405350001852,"15":-0.002794433383162979,"16":-0.14263399142472297,"17":-0.039995707903812065,"18":-0.01682073444531792,"19":-0.08333655630565005,"20":-0.018171079309272663,"21":0.1378040172923843,"22":0.06277360502994266,"23":-0.10836899513921879,"24":0.01232542378465822,"25":0.057575676110839434,"26":0.0055149029511040205,"27":0.015131853265810818,"28":0.0017119258637843318,"29":-0.03483144173691434,"30":0.12111600025610546,"31":0.04823985231441815,"32":0.07419065018292716,"33":0.057487089175234506,"34":-0.0009118136669515542,"35":0.08308852104080645,"36":-0.08265817834741383,"37":0.006078342084738934,"38":0.05128809526594001,"39":-0.046460799171827036,"40":-0.02137072080664401,"41":-0.021504807403268912,"42":-0.007382364451527905,"43":-0.00007782587891591425,"44":0.040455681187507746,"45":0.11026746303227997,"46":-0.003931189314638605,"47":0.03130344406032737,"48":-0.10643643796926273,"49":0.006803758154308446,"50":-0.08750700820825341,"51":0.06447986271106082,"52":0.058895934070107896,"53":0.0636966749768138,"54":0.05223252511489968,"55":-0.05474750546182849,"56":-0.015501432125191617,"57":0.0766822625611648,"58":0.035501026217533274,"59":-0.05139039797861913,"60":-0.07257732052110201,"61":-0.03422342474558549,"62":-0.014115847176220903,"63":-0.034688108355667824,"64":-0.04885296230467883,"65":0.08470828332686424,"66":0.09157848777976184,"67":0.006572311777823852,"68":-0.024646694472537253,"69":-0.0005195145607408703,"70":0.00922867591921044,"71":-0.05929261950055723,"72":-0.11368518271096852,"73":0.04170627246650515,"74":0.05364737632327386,"75":-0.11768498645726556,"76":-0.05532946070753523,"77":0.04516428687114044,"78":0.022228684787768852,"79":0.1289651550373569,"80":0.03624340600162086,"81":0.04505338870901823,"82":-0.10270052681438126,"83":-0.09888624958628545,"84":0.13931309334226183,"85":-0.031120392728686563,"86":-0.04298608118720028,"87":0.016090771796594856,"88":0.09746261435789372,"89":0.011387594445379874,"90":0.0205589845974723,"91":0.002945677840983203,"92":0.05934202494412437,"93":0.07454982244469698,"94":-0.012151484816073237,"95":0.08994952876889178,"96":-0.0023303869755740675,"97":-0.07996303145236942,"98":-0.07487515001305085,"99":0.1343532686839209,"100":-0.015704163593113767,"101":0.08621688783739459,"102":0.05175178818073373,"103":-0.050959177425225786,"104":-0.14015472548000765,"105":0.13028629460541302,"106":-0.08033255431504886,"107":-0.02377903695337748,"108":0.015182139069253931,"109":0.007688066146942627,"110":-0.14236743622221273,"111":0.003915305171675723,"112":-0.0419292814049687,"113":-0.09188572027659367,"114":-0.001642269138307383,"115":-0.008203530684078681,"116":0.09099082772086291,"117":-0.1401946590714211,"118":-0.013672921252922954,"119":0.038941904643406265,"120":-0.0912175765510075,"121":-0.023133789068046612,"122":-0.029259750986999837,"123":0.04205657628206964,"124":0.03376324692692251,"125":-0.1709804930540853,"126":-0.018876241555881162,"127":-0.028918329596572815,"128":0.028551920072893755,"129":-0.008109314187072005,"130":0.07408395545180006,"131":0.02276435738554522,"132":0.025384049365119236,"133":0.05621246561582666,"134":-0.05537323846767616,"135":0.034240187606491425,"136":-0.1741949309093023,"137":0.06997905204789713,"138":-0.028538896172009737,"139":-0.020303840679610063,"140":-0.024242494241614936,"141":0.027004783926391263,"142":-0.029852330966478203,"143":0.04063013570039042,"144":0.06686294138595002,"145":0.05500487746423214,"146":-0.07144128853044922,"147":-0.05865572071125421,"148":0.01035519086945105,"149":0.005032651444484318,"150":-0.03861086841810353,"151":-0.014729631485678416,"152":-0.07086246669119861,"153":-0.07558532209871623,"154":0.05875490849204972,"155":0.022201781982163105,"156":-0.03358191675649736,"157":-0.13161290736930217,"158":-0.06724089603474942,"159":0.005796536038551105,"160":0.10664943834860269,"161":0.009158398511018464,"162":-0.01387685702500737,"163":0.0874501792762187,"164":-0.04645751891842683,"165":-0.026483174765657657,"166":-0.14914989754351776,"167":0.021475220819444158,"168":0.05423526038267717,"169":0.021944083615477637,"170":0.08231579292762367,"171":0.0072422419880866515,"172":-0.07940909120198195,"173":0.019110910233762587,"174":0.02264304547502367,"175":0.02665407675465636,"176":-0.06561702742856276,"177":-0.007829391814333715,"178":0.03284208788068585,"179":0.05554929629811892,"180":-0.013076771783817928,"181":0.01022335475191229,"182":-0.012901533567061777,"183":-0.156314459155256,"184":0.04031951605882492,"185":0.003124086263574214,"186":-0.03259716135946162,"187":-0.059355720761387634,"188":-0.027215775313263083,"189":-0.1300841101693613,"190":0.10626830386095862,"191":-0.04251268568109005,"192":-0.06297153445334948,"193":-0.10477484717348269,"194":-0.042833813916234705,"195":0.002909436596349819,"196":-0.03193974677610143,"197":-0.0741841777384249,"198":0.02110141090908043,"199":0.029588659857785016,"200":-0.07058604668028387,"201":-0.027962772870035443,"202":-0.055886919361345835,"203":-0.03820481156171667,"204":-0.03933568138804156,"205":0.062341111628209475,"206":-0.11524548186626712}},{"sx":1,"sy":1,"depth":207,"w":{"0":-0.07074108447386768,"1":-0.03510981706471891,"2":-0.024284166113143237,"3":-0.04206124945794718,"4":0.06640809320307663,"5":-0.06778661808542047,"6":-0.024570120308451925,"7":-0.01423186806249585,"8":-0.11020382184405446,"9":-0.042490966837676905,"10":-0.08285678085435852,"11":-0.010144644751394347,"12":-0.09690922800298012,"13":-0.021828554396586316,"14":-0.06617452036088713,"15":-0.03161220714447739,"16":-0.10233491636090677,"17":-0.10855563526454952,"18":-0.1690489276320466,"19":-0.02609951614935845,"20":-0.08484871779265304,"21":-0.0669514444807633,"22":0.09480807890987614,"23":0.020602882750830737,"24":-0.02027282227793068,"25":-0.044998526285729534,"26":-0.06890723508409217,"27":0.053363568612997424,"28":0.016408801051706983,"29":0.05614120851046177,"30":0.009861762549763734,"31":0.010989841600118377,"32":-0.04464005452278745,"33":0.04650822175257213,"34":-0.09206622577009145,"35":0.04349839364485284,"36":0.019526460285665754,"37":-0.004465862906564162,"38":0.13602806019924088,"39":-0.06447991096613397,"40":-0.06270391106400972,"41":-0.037599711428846376,"42":0.06564367352524492,"43":-0.15275677876746763,"44":-0.06239856312574139,"45":0.04618663783999516,"46":-0.10818534542430618,"47":-0.11367606393977556,"48":0.010334342588915593,"49":0.050535067458889145,"50":0.12160705020719091,"51":0.023996437548343276,"52":-0.04681825671512115,"53":0.04973599101816631,"54":-0.013631962412164883,"55":0.051135460740913505,"56":0.024835942075127366,"57":0.030580139792268767,"58":-0.010805965726810064,"59":0.06134335912281298,"60":0.2139368400008354,"61":-0.026162095569276726,"62":0.024367058552461747,"63":0.04027035307793032,"64":0.032743499357978954,"65":-0.03344084267407725,"66":-0.05608658299010538,"67":-0.0695029857947787,"68":-0.053365981219798776,"69":0.04809202828724855,"70":0.00048199185531085575,"71":-0.05973753320232251,"72":0.027688385714169907,"73":0.12982833417059655,"74":0.01856443124319559,"75":0.01899438478510116,"76":0.05428501178924077,"77":0.06361657782756454,"78":-0.018562336408106558,"79":-0.027154614896137564,"80":0.03552679559516259,"81":0.11908190402621613,"82":0.14072748732576887,"83":0.008685576015477425,"84":0.0286089300278334,"85":-0.04892452706211337,"86":0.05495014926150836,"87":0.01639958841561637,"88":-0.11487023149624,"89":-0.04113818324343761,"90":0.022676285740751142,"91":0.061629411958540256,"92":0.1397268014533572,"93":0.04547887391857459,"94":0.0159604680279476,"95":0.06929236707449041,"96":-0.07514711713141355,"97":-0.026203660670719036,"98":0.046547818076196464,"99":-0.09176943630258962,"100":0.07498646029028151,"101":0.05914695316213118,"102":0.015124982293900626,"103":0.04077495696546744,"104":-0.005781369730427027,"105":-0.01208135763600289,"106":-0.043542042389624135,"107":0.12930347437440606,"108":-0.02613949045352557,"109":-0.030199033449512316,"110":0.06956125259574843,"111":-0.01729685883329417,"112":0.09645901186211632,"113":0.247400372013488,"114":-0.08224571588046138,"115":-0.007076718748286841,"116":0.028858692601197677,"117":-0.053600593748314336,"118":0.057514425990311355,"119":-0.017540743821528555,"120":0.10556924934746685,"121":-0.10785004514346758,"122":-0.023858981261765607,"123":0.040527256393148366,"124":0.01096457777123791,"125":-0.1403646871258314,"126":0.11842311549161805,"127":-0.04373476164051024,"128":0.06586921605461682,"129":0.006374314395973866,"130":0.04450920952093413,"131":-0.10193242668903388,"132":0.08042999177612017,"133":-0.05798794417364209,"134":-0.095419724334409,"135":0.03179160295457873,"136":-0.03151321950486093,"137":0.06291057917526971,"138":0.028410151421905273,"139":0.03837480349424193,"140":0.00873513715113482,"141":0.02532583573344563,"142":0.16966673314966366,"143":0.0834374583641314,"144":0.033324757023440635,"145":0.10574701820234983,"146":-0.025115273909606523,"147":-0.025351729751063954,"148":-0.06493812242707137,"149":-0.14035366823421266,"150":0.026389963929049572,"151":-0.0356876625614402,"152":-0.0815069523460533,"153":-0.01761456722200729,"154":-0.1011303203540338,"155":0.028292361376940897,"156":-0.07019857560908517,"157":0.02037625423256311,"158":-0.05569037652103456,"159":0.025031018411274537,"160":0.04739314656549575,"161":0.10399043852100809,"162":-0.09550582519820541,"163":-0.02964564491474021,"164":-0.060732978100629456,"165":-0.053706001983140586,"166":-0.03812005659256859,"167":0.07316962392764977,"168":-0.01030037354606912,"169":0.013920606020952877,"170":0.06594726734668133,"171":-0.03811146384973959,"172":-0.043261899085168365,"173":0.05251936164903929,"174":-0.07168779465163919,"175":-0.10417876980493301,"176":-0.12088449821998105,"177":-0.18167601781485782,"178":0.009922154110057294,"179":-0.030832431712065636,"180":-0.020659272926393635,"181":-0.08194287869984769,"182":-0.051661484423133855,"183":0.11501888833975343,"184":-0.04573143096329605,"185":0.07465332658145657,"186":-0.09123961208176133,"187":0.07104298884511981,"188":0.04647309019332737,"189":-0.013435772949855046,"190":0.01762831041973418,"191":-0.06595849094058724,"192":-0.06187671889605572,"193":0.03008712142452349,"194":-0.07007074517775042,"195":-0.028553432179613654,"196":-0.03333653056922575,"197":-0.015157108967502216,"198":0.031776179930162,"199":0.06648725860039226,"200":0.10028148813670143,"201":0.02088522216134638,"202":-0.04597186153861831,"203":-0.03315200393253126,"204":0.09459424444787765,"205":-0.0023151754679762502,"206":-0.018470014929563818}},{"sx":1,"sy":1,"depth":207,"w":{"0":0.11661114132215575,"1":0.19909667521793595,"2":0.017626536275285452,"3":-0.03240278459210733,"4":0.02556966270653038,"5":0.07139438531478491,"6":-0.03716123713906449,"7":-0.01783567026279048,"8":0.04889507650011654,"9":-0.0033311427267545333,"10":0.004565090304275479,"11":-0.03467558227874316,"12":-0.11070925954208556,"13":-0.1272964477906055,"14":0.07246425567708731,"15":0.024627684686198092,"16":-0.05940541679873616,"17":-0.04450513778312196,"18":0.0029116387799505566,"19":-0.11935025304315218,"20":-0.02978279823353582,"21":-0.01015352861868426,"22":-0.09776970777734274,"23":0.06475910906966272,"24":-0.043362492881749946,"25":0.029618398662897772,"26":0.03474068503350037,"27":0.03122013537065273,"28":-0.021024834726226207,"29":-0.010436907043043873,"30":-0.052873582111578755,"31":0.018809233201915736,"32":0.17896408136215025,"33":-0.03814654109999014,"34":-0.01066895691654074,"35":-0.05889210831268796,"36":-0.1082800542799721,"37":-0.11753163928580879,"38":-0.06532203377924582,"39":0.029528084470369906,"40":-0.02041369166895638,"41":-0.07730688239731416,"42":0.10301146654971823,"43":-0.029322837031043197,"44":0.0766985606961048,"45":-0.0817329311990229,"46":0.15173215663847672,"47":-0.013139309541611965,"48":0.01088867842149478,"49":-0.051305134515386826,"50":0.045124186287828716,"51":0.006670864951725902,"52":0.04002699821443728,"53":0.05381645754857024,"54":-0.1055428815570399,"55":0.0681149217358102,"56":-0.03204841725695695,"57":0.012634683537127702,"58":-0.04702698964666202,"59":0.12403541448866895,"60":0.08214866890127996,"61":0.023172772768722028,"62":-0.05281518323041493,"63":0.015209432807327842,"64":-0.03119077378384164,"65":-0.03377328890090556,"66":0.04602858260815724,"67":-0.017617758831662514,"68":-0.05877496541702238,"69":-0.04475680078506994,"70":0.1267359732199631,"71":0.01416878328465843,"72":0.019951187927191572,"73":0.10345762859503774,"74":0.05802868266970578,"75":-0.1050518071050316,"76":-0.018518211960985003,"77":0.04996380092096328,"78":0.07314229569474529,"79":0.01324340372217437,"80":0.05962164889411032,"81":-0.10743286666580905,"82":-0.13485103391913272,"83":-0.1007022289912779,"84":-0.04511770793336029,"85":0.0036893353024711165,"86":-0.10986684012129831,"87":0.019082677274913654,"88":-0.0641353163910822,"89":-0.016957954097153744,"90":0.08275774909027207,"91":0.03602671204929548,"92":0.13062805822768184,"93":-0.0158000087756435,"94":-0.052053829328118965,"95":0.08068124206333828,"96":-0.06927680476634815,"97":0.018743015586690653,"98":-0.015043344087741295,"99":0.009503691806375884,"100":-0.06136056517602622,"101":0.12743669995474358,"102":0.08786189984066171,"103":-0.012929945269032128,"104":-0.058390416098889786,"105":-0.00945565345871854,"106":0.06698386554359122,"107":0.026605498777235524,"108":-0.037853375682338784,"109":0.08449115932386167,"110":-0.043399317659968815,"111":0.08989622795213077,"112":-0.023214266006031697,"113":-0.013222450081122794,"114":-0.03467275299560717,"115":-0.032912679904937264,"116":-0.038946939909312334,"117":0.05704231036481367,"118":0.05787319185175776,"119":0.020914118962438114,"120":-0.07570734120237804,"121":-0.036814898785826854,"122":-0.039198950658820994,"123":0.006582847785770624,"124":0.07158287240985899,"125":0.03371184384573861,"126":0.0681931388494877,"127":-0.00009581257499584668,"128":-0.014487551376035265,"129":-0.06752929177060876,"130":0.031973477008876455,"131":-0.011272178386960997,"132":-0.14217101244931685,"133":0.031466405167841854,"134":0.05794054252930958,"135":0.04478725997962467,"136":-0.024517681759445215,"137":0.05999517020295651,"138":-0.025297750890044657,"139":0.03125041778583882,"140":0.08471644295930562,"141":0.12707896165127439,"142":-0.17780235600348618,"143":-0.11025843342096253,"144":-0.0020752909499585004,"145":0.07817589452447363,"146":0.03081485581039552,"147":0.04266522653457051,"148":-0.09794355903659635,"149":0.010429329345226177,"150":0.01619189448728628,"151":-0.00945304735468284,"152":-0.07809517781585569,"153":0.018131548695390864,"154":0.053667793602374045,"155":0.03128408512387946,"156":-0.05827043208784208,"157":-0.00451462347462317,"158":-0.24376105604804374,"159":0.08363765170953802,"160":-0.0032015799228019997,"161":-0.008050697600390842,"162":-0.005149362773301532,"163":-0.09261063172044123,"164":0.10315309590182593,"165":-0.008494115035766974,"166":-0.03238800230428761,"167":-0.16008754434841246,"168":-0.08849153363996537,"169":0.012364888820529104,"170":-0.08608538970920902,"171":-0.02043804508729767,"172":0.04275755469468053,"173":0.030206870986617708,"174":-0.007117485077145796,"175":0.008089215265035716,"176":-0.06253829036403014,"177":-0.01861125890067203,"178":-0.08922013495073083,"179":-0.07521421939400105,"180":0.10461412508388376,"181":-0.05712114366664338,"182":0.10053978020657871,"183":0.02522066725926261,"184":0.013726517695600708,"185":-0.03698984408508835,"186":0.06527347663394385,"187":0.0661864342635269,"188":0.02503654444169461,"189":0.011818688206643996,"190":0.13001817597842788,"191":-0.05757316395548569,"192":-0.004754258393366774,"193":-0.05291253825796101,"194":-0.045792345721124325,"195":-0.029188855164578854,"196":0.08539464613400598,"197":-0.024377337709016,"198":0.01284418156762642,"199":-0.0848760000210314,"200":0.07107288573511161,"201":-0.009693348748075007,"202":0.09178506477808018,"203":0.014846759807885905,"204":-0.03791781046688055,"205":-0.013715184965679207,"206":-0.025491595655333998}},{"sx":1,"sy":1,"depth":207,"w":{"0":-0.0591906999390065,"1":0.053008363235896354,"2":0.004517325439563311,"3":-0.019216738465700423,"4":0.09354293214626644,"5":-0.058330362467233346,"6":-0.015771829338177557,"7":-0.006786515771118897,"8":-0.09277018552041617,"9":-0.07177744084179799,"10":-0.043941292752859976,"11":0.02634109966566539,"12":0.018216805930441657,"13":-0.006273083404011533,"14":-0.10775574370364842,"15":-0.022090134319323846,"16":-0.07817627615813029,"17":-0.1051178688572344,"18":-0.057344525029331996,"19":-0.02164436456464532,"20":-0.04187076836892487,"21":0.0329126400233308,"22":0.017135797060609026,"23":-0.1063653775990233,"24":-0.11347389286351443,"25":0.030322911429859326,"26":0.06937703130673387,"27":0.014656370897840719,"28":0.010810089746894,"29":0.12271317111871553,"30":0.014599586972744275,"31":0.00372396963095421,"32":-0.14170319885740482,"33":0.026062242214030498,"34":-0.0861120109996198,"35":-0.01950258363307599,"36":-0.09039851504023783,"37":-0.05030145789272218,"38":0.07862213723822369,"39":0.05313854232126183,"40":-0.0616001934402715,"41":-0.09505716142753563,"42":-0.18567084997190328,"43":0.07989236519425104,"44":0.17185209759315426,"45":-0.05292996751235718,"46":-0.024250584024794124,"47":0.043969375041831786,"48":0.08846193681487555,"49":-0.11871960647021232,"50":0.020731173967052215,"51":0.015153124326705045,"52":-0.033390589208379846,"53":0.11508499325830338,"54":0.05702131529614354,"55":0.04598844341623893,"56":-0.06757119075692998,"57":-0.03625559140953686,"58":0.022085987075019582,"59":-0.009118005890370127,"60":0.027383866873580867,"61":0.014652638192043118,"62":-0.03164669656141575,"63":0.03092867281633985,"64":0.118118406070947,"65":0.03435416357063208,"66":0.03667428308150117,"67":-0.05968869427612495,"68":0.08488481235367733,"69":-0.02619064644112051,"70":-0.003786640613921909,"71":-0.017826421653982554,"72":-0.01622031396683737,"73":-0.04732224973818982,"74":-0.11544342823892494,"75":-0.07066385777605766,"76":-0.06326353615959812,"77":0.017779604099063588,"78":-0.0848022240804341,"79":0.05819431114873505,"80":0.006695036079919009,"81":-0.14875885403884243,"82":-0.03527424056813906,"83":-0.034486503553503335,"84":0.13591187531212243,"85":0.000026195130694056254,"86":-0.07047367000844866,"87":-0.03884666037517639,"88":0.031025139642576197,"89":-0.010027769977430358,"90":0.0710567496219552,"91":-0.06548879771902921,"92":-0.03578135196263827,"93":-0.028448368302542392,"94":-0.060677407307129026,"95":0.04112443746089924,"96":-0.0749206618153005,"97":-0.09098725564446948,"98":-0.07253086095011915,"99":-0.018305777290132736,"100":-0.012825890534229759,"101":-0.07066565392532227,"102":0.07427685436467651,"103":-0.028123163011013093,"104":0.06778651612269271,"105":0.09843199802286617,"106":0.005195997904619196,"107":-0.0463305466043199,"108":0.06008077743775496,"109":-0.008706369868316511,"110":0.017669347755991605,"111":0.015174159061352057,"112":-0.004269518894041689,"113":0.024923414766571252,"114":-0.08157204705067753,"115":-0.04296980097417129,"116":-0.014164776990114461,"117":0.004974851235026814,"118":0.023437213109112624,"119":0.029886748114696392,"120":0.034107168207277105,"121":0.015113559881677705,"122":0.09398964270855731,"123":0.13190865121508938,"124":-0.10161369348639773,"125":-0.10070509325880743,"126":-0.028266877907029392,"127":-0.0073858329614111574,"128":-0.00503532205774841,"129":-0.05362996858705378,"130":0.017455637008518952,"131":-0.05356043774857447,"132":-0.01356332540762922,"133":0.02762303381732464,"134":0.022417931154771528,"135":0.040650290421955074,"136":-0.06270671857646352,"137":-0.13422151258669632,"138":0.06583249293476597,"139":0.05329308599415508,"140":-0.030529912621048677,"141":0.0556847985164912,"142":0.007565778568802445,"143":-0.11591242906976958,"144":0.08231316959639369,"145":-0.051317981300910614,"146":-0.1195856152005238,"147":0.11244456631128097,"148":0.003583724716275825,"149":0.000292105586601007,"150":-0.028836087966478713,"151":-0.13580990739611332,"152":-0.019075757027262743,"153":0.045883390729155565,"154":-0.10554848476650007,"155":0.01845485931648377,"156":-0.010982365902677026,"157":0.008415528118642986,"158":0.026017753054422166,"159":-0.0697337518015511,"160":-0.01443589909161045,"161":-0.03992041934043515,"162":0.1205742438921136,"163":-0.05457504698623458,"164":0.0748953000743792,"165":-0.023821018391114192,"166":-0.11559407812808642,"167":-0.08800851327331574,"168":-0.06861457184703905,"169":0.09653583030414127,"170":0.10148722384518363,"171":-0.01616738939103171,"172":-0.06117955463250068,"173":0.03806941516436258,"174":-0.02646183234396911,"175":-0.07261065870612128,"176":0.024153860974004033,"177":-0.01987102716098659,"178":-0.014513888382548029,"179":-0.10870162517941268,"180":0.0338713915058557,"181":0.07326257909360706,"182":0.05355703143451405,"183":-0.08995706799977929,"184":-0.06900531826230381,"185":-0.0017300794188673083,"186":-0.09887813578721118,"187":0.008826608030415973,"188":0.08143237749348574,"189":-0.06936961373189891,"190":-0.09397061847782939,"191":0.07213918398640133,"192":0.11050973952722931,"193":0.03201973026923114,"194":0.13002730758030132,"195":0.006290650342831293,