
//<![CDATA[

// a few things don't have var in front of them - they update already existing variables the game needs
lanesSide = 1;
patchesAhead = 8;
patchesBehind = 8;
trainIterations = 50000;

var num_inputs = (lanesSide * 2 + 1) * (patchesAhead + patchesBehind);
var num_actions = 5;
var temporal_window = 3;
var network_size = num_inputs * temporal_window + num_actions * temporal_window + num_inputs;

var layer_defs = [];
layer_defs.push({
    type: 'input',
    out_sx: 1,
    out_sy: 1,
    out_depth: network_size
});
layer_defs.push({
    type: 'fc',
    num_neurons: 100,
    activation: 'relu'
});
/*layer_defs.push({
    type: 'fc',
    num_neurons: 100,
    activation: 'relu'
});*/
layer_defs.push({
    type: 'regression',
    num_neurons: num_actions
});

var tdtrainer_options = {
    learning_rate: 0.001,
    momentum: 0.0,
    batch_size: 64,
    l2_decay: 0.01
};

var opt = {};
opt.temporal_window = temporal_window;
opt.experience_size = 3000;
opt.start_learn_threshold = 500;
opt.gamma = 0.7;
opt.learning_steps_total = 10000;
opt.learning_steps_burnin = 1000;
opt.epsilon_min = 0.0;
opt.epsilon_test_time = 0.0;
opt.layer_defs = layer_defs;
opt.tdtrainer_options = tdtrainer_options;

brain = new deepqlearn.Brain(num_inputs, num_actions, opt);

learn = function (state, lastReward) {
    brain.backward(lastReward);
    var action = brain.forward(state);

    draw_net();
    draw_stats();

    return action;
}

//]]>
    
/*###########*/
if (brain) {
brain.value_net.fromJSON({"layers":[{"out_depth":207,"out_sx":1,"out_sy":1,"layer_type":"input"},{"out_depth":100,"out_sx":1,"out_sy":1,"layer_type":"fc","num_inputs":207,"l1_decay_mul":0,"l2_decay_mul":1,"filters":[{"sx":1,"sy":1,"depth":207,"w":{"0":-0.02476131663007826,"1":0.07413188041694006,"2":0.011672511251332786,"3":0.08246404528563644,"4":-0.09470766337075584,"5":-0.03538834779623906,"6":-0.05318252015551881,"7":0.018547986780297232,"8":-0.00900818185567383,"9":0.031335135875320046,"10":0.00815862839093244,"11":0.0969745318261914,"12":-0.0373894591247847,"13":-0.021387188717414858,"14":0.06598200197932357,"15":0.019015071794188935,"16":0.10835827026298742,"17":0.11735379315556871,"18":0.038329163508570956,"19":0.1067169427484433,"20":0.017057715206586284,"21":-0.19045980856762004,"22":-0.05358751107770931,"23":-0.1374468165715036,"24":-0.03316535586442382,"25":0.0025134088324323175,"26":-0.04775115160825025,"27":0.04014741944512621,"28":-0.024965880267032937,"29":-0.08822609479217212,"30":-0.06370558917181567,"31":-0.11369160308868292,"32":0.049727182917505726,"33":0.09261095700092505,"34":0.0003295706690160646,"35":-0.010781322596080223,"36":0.09855373246653898,"37":0.01415581174449404,"38":0.039177369346189796,"39":-0.07966932728321617,"40":-0.046222182975336215,"41":-0.1411666401808313,"42":0.057118038205443825,"43":0.016100371236267456,"44":0.010757974332542684,"45":0.056122962397710814,"46":-0.023345906945463755,"47":0.00878021076587432,"48":0.016210572321854803,"49":-0.1257077002619678,"50":0.12983841852874206,"51":0.08751544599572454,"52":-0.09854480439166338,"53":0.11071305364924033,"54":-0.037744937378996035,"55":0.008856410299185507,"56":-0.04633946401395078,"57":0.010158577513369276,"58":-0.1333710501491708,"59":-0.028994407756869848,"60":-0.054012192984287936,"61":0.004224387348438143,"62":0.018640466368451604,"63":-0.007588496058986687,"64":-0.00898140686077908,"65":0.028175296084508868,"66":0.07743875997886272,"67":-0.0048414602788894165,"68":0.03539500600512872,"69":0.08729543848814271,"70":-0.06812192406998457,"71":0.023744899826309476,"72":-0.0075762493733769806,"73":-0.04983136761697025,"74":0.0751913838336075,"75":-0.0074756747268141495,"76":-0.08313547580728162,"77":0.03037153724236969,"78":0.048341029405725634,"79":-0.08207764067827425,"80":0.06905156660376027,"81":-0.1100321030827656,"82":-0.08149100486833195,"83":-0.0330661546620719,"84":-0.1518651247901317,"85":-0.025830074697225883,"86":-0.025382551949994822,"87":-0.013403002423426475,"88":-0.04262395501568089,"89":0.09742651284084684,"90":0.14018889986132668,"91":0.017916166235606566,"92":0.10570172415814794,"93":0.12415674725950507,"94":-0.027212018952518284,"95":0.0023403708676742636,"96":-0.057224920752016156,"97":-0.04409373677236839,"98":-0.020502994625815726,"99":-0.045804510934794866,"100":0.10787564323534421,"101":-0.022339099133693335,"102":0.01693196706878778,"103":0.05984738972708448,"104":-0.03573067255611417,"105":-0.0258255748035012,"106":0.10769758877090392,"107":-0.014780186123711977,"108":-0.06048652081069337,"109":0.013009505526930315,"110":-0.047600139969872196,"111":0.0037751791193933906,"112":-0.05610987479972374,"113":0.08708443324263579,"114":0.0017764329507246306,"115":-0.02780394494978055,"116":-0.014183334099360945,"117":-0.09226045845702366,"118":0.0621996259628173,"119":-0.0010874979728979456,"120":-0.05011751921049453,"121":-0.01696114123978227,"122":-0.13429507416525377,"123":0.02550728220296643,"124":0.021378044218842682,"125":0.13768087816191035,"126":-0.16236717297503434,"127":-0.01618934502631416,"128":0.050668049162863715,"129":0.011327613910904187,"130":-0.0825764695758638,"131":-0.04289900591973179,"132":0.08529548986734868,"133":-0.030282319227990892,"134":-0.013820950021673044,"135":-0.05503726213402479,"136":-0.03448169011833927,"137":-0.10698246674851748,"138":-0.026441769698542176,"139":0.042190357982908294,"140":0.003522839841349618,"141":0.03844318120497604,"142":0.07342405450658855,"143":-0.11853611466632405,"144":0.023447871031600846,"145":0.031941182871819455,"146":0.0321324811059152,"147":0.04732375674035363,"148":-0.11302906339379515,"149":0.05179156610112156,"150":-0.02412938952110683,"151":-0.14551621677807683,"152":-0.08306068699997783,"153":-0.03471929388846772,"154":0.06115026800744899,"155":-0.02151025218436625,"156":0.09543691926506005,"157":-0.04067219833676948,"158":0.008667350111296391,"159":-0.1061694297994984,"160":0.0224878729406051,"161":0.0204812986161352,"162":-0.07079651535561172,"163":0.07768833325847696,"164":0.029155860879160833,"165":0.021572962902231367,"166":0.11826375824920309,"167":-0.04479497576601451,"168":-0.026769837267793924,"169":-0.08508933955020888,"170":-0.09701409354310357,"171":-0.013345164486113921,"172":0.02246525689908733,"173":-0.09077971946570305,"174":0.023119291099048898,"175":-0.08593023391965858,"176":-0.025046222751525942,"177":-0.012606563656601179,"178":0.07112388083434933,"179":-0.051522867431164986,"180":-0.00039041955466973194,"181":0.005721547326075231,"182":-0.03638368159246143,"183":0.04025858875529615,"184":-0.008029879519337457,"185":0.09338391050889226,"186":0.024899261605719786,"187":-0.008457480700376422,"188":-0.07582668365733389,"189":-0.005189668775239105,"190":0.040436620370463236,"191":0.12786262880303326,"192":-0.06675924703023493,"193":-0.05877122536383987,"194":0.02373064356460735,"195":0.009090915699823397,"196":-0.08256779454294892,"197":0.12015185382509244,"198":-0.05631993503663498,"199":0.015302352003761887,"200":0.08209930941684385,"201":0.024018321964586076,"202":-0.0225690702360833,"203":0.01833820003715262,"204":0.00713679766321379,"205":-0.034139124073687833,"206":-0.10037941296328257}},{"sx":1,"sy":1,"depth":207,"w":{"0":-0.04609770713538848,"1":-0.1227436478309561,"2":-0.046204142538749805,"3":0.07771848635133409,"4":0.07157725582020495,"5":0.03988911619151601,"6":0.12931092328038324,"7":0.09677537230167271,"8":-0.05045876913587802,"9":0.008797624455329021,"10":0.17181631821968268,"11":-0.034846050763974845,"12":0.01947527420750164,"13":0.02078263107166453,"14":-0.013829428986615816,"15":-0.0013410454523691516,"16":-0.054016142106916236,"17":0.08690107318691616,"18":0.023697353396008876,"19":0.009601557231713312,"20":-0.14167871853469355,"21":0.003878208925545047,"22":-0.08151226452225364,"23":0.001759358887733622,"24":0.03756072882331139,"25":0.17183188741180652,"26":-0.04521042674682921,"27":0.12542876504518255,"28":0.030961186224949838,"29":-0.059004065307564274,"30":0.027732968598581088,"31":0.03392819564893303,"32":0.02143368891139659,"33":0.05314785465982021,"34":-0.11261781291947426,"35":0.09890276553415732,"36":-0.042596403140724694,"37":-0.048738143648231126,"38":-0.036605698955927905,"39":0.04620228687958044,"40":0.005396587965434474,"41":0.056514308817129044,"42":-0.036415534649440355,"43":-0.0969292535666883,"44":0.06754549009435744,"45":0.017015840050508723,"46":-0.08353822786032698,"47":0.012542764679863528,"48":0.08183394005492454,"49":-0.10614916032529423,"50":0.1760415410719206,"51":0.008627866894057635,"52":-0.044810248850819245,"53":0.06382354930923496,"54":0.02851890737237618,"55":-0.057276443423943946,"56":0.003859434031407558,"57":-0.035261495495346525,"58":0.05279281700084074,"59":0.046312294684529264,"60":0.00867705590194218,"61":0.022221894083864928,"62":0.09641336857976822,"63":0.08050547054304318,"64":0.0880016907489613,"65":-0.0027138970945505213,"66":0.06884601870077316,"67":-0.050522064442468914,"68":0.017404629262360777,"69":0.05374012254865983,"70":-0.11573280122831747,"71":-0.02243997488458851,"72":-0.02603809002087264,"73":0.12842107982056786,"74":0.01830129544198452,"75":-0.01847067547196821,"76":0.10507214277321016,"77":0.08508830315219089,"78":0.016889423683324946,"79":0.05712881191052383,"80":0.03375081104164547,"81":-0.048040054106875306,"82":0.0646074752362359,"83":0.043846077257715894,"84":0.0062404921714419625,"85":-0.0076807574764542075,"86":0.02778143660777054,"87":0.030250261342882168,"88":-0.0018837487171749546,"89":0.11747529762304704,"90":-0.009452568907987935,"91":-0.020769551136073768,"92":-0.19914759450291203,"93":0.044696639535196356,"94":0.09035463993598376,"95":-0.04606607782248092,"96":-0.08234656856802552,"97":-0.07469130200811686,"98":0.05827983202231033,"99":0.00813960288377939,"100":-0.128880792394036,"101":-0.10680232071347792,"102":0.023713583289547268,"103":-0.06180697696626113,"104":0.09020902905637618,"105":-0.10845314561435249,"106":0.0017859864809564709,"107":-0.02189992809467549,"108":-0.09817004143865314,"109":-0.03587881187222609,"110":0.01024517379020309,"111":-0.09885336081869273,"112":-0.07874731627597957,"113":0.05420817565679914,"114":0.04240342393060356,"115":-0.09802282673856658,"116":-0.006334442404248896,"117":0.11337395018910866,"118":-0.09807333949631172,"119":0.004893955478656571,"120":-0.03238932047728526,"121":-0.015340755426762972,"122":-0.061411988957539326,"123":-0.009538499127048254,"124":-0.039574576010839725,"125":-0.08313728501665078,"126":-0.07236543711174427,"127":-0.022987203379949306,"128":0.023562139314715496,"129":-0.09508404734949759,"130":-0.06270009497840297,"131":-0.01845971737099247,"132":0.048569232554861536,"133":0.05375737883001937,"134":0.06289463381349852,"135":-0.0192670996747296,"136":-0.0515387298152972,"137":0.11566835749809513,"138":-0.041511063450521926,"139":-0.00549490378804429,"140":0.06187398036329569,"141":0.048548493622881626,"142":-0.05961099921649595,"143":0.13321185913556807,"144":0.10001783803726054,"145":0.005608069467828963,"146":0.08200433139343827,"147":-0.03760378880116641,"148":-0.025150615226278896,"149":-0.025621681185325762,"150":-0.17882191333514483,"151":0.0007434447691412535,"152":-0.0332315651377966,"153":-0.022105917022949256,"154":-0.1503909715545196,"155":0.005616581694493016,"156":0.03889788005945658,"157":-0.05851136937599335,"158":-0.03400666777585779,"159":-0.030120698741333468,"160":0.03183507135703381,"161":-0.027739810042486716,"162":0.06335669800836696,"163":-0.11326677035826296,"164":-0.030018222382865167,"165":-0.03841259474461021,"166":-0.011471698098846777,"167":0.06707172408506326,"168":0.08577565889141109,"169":-0.05799023516030074,"170":-0.04139633945085416,"171":0.1069147596305453,"172":-0.19156647467310206,"173":0.05198843988729488,"174":-0.060103092540706386,"175":-0.05992758134367626,"176":-0.0323206704232843,"177":-0.09034660059436532,"178":0.016278297077686674,"179":0.08441783103157699,"180":0.0710958427230409,"181":-0.02150505439161815,"182":0.07531831010217878,"183":0.020285908224970634,"184":-0.12171451496559933,"185":-0.09009215285985389,"186":0.007591546388019448,"187":-0.13078056051522394,"188":0.028764109186243107,"189":-0.031973521616877915,"190":-0.014187259247422476,"191":-0.09145084463749191,"192":0.111689551725274,"193":-0.0990077514262157,"194":-0.011194265347462864,"195":0.017387996477264356,"196":0.08001307221948102,"197":-0.050212309398314926,"198":0.16746092543697955,"199":0.1827908730488929,"200":-0.048163698975551776,"201":0.08823278628669809,"202":-0.05442484509070908,"203":0.07734419544145438,"204":0.12325220098640041,"205":0.043697192898544894,"206":0.030271938087249914}},{"sx":1,"sy":1,"depth":207,"w":{"0":-0.005732685552399703,"1":-0.10142483965085075,"2":-0.0843956816795831,"3":-0.12136551418195377,"4":-0.06877376683055504,"5":-0.049987237180859435,"6":0.1589671131372208,"7":0.09519358348093471,"8":0.0027024805330890514,"9":0.15029067325958884,"10":0.07276290122886296,"11":0.06879222674319445,"12":-0.05296987416165054,"13":-0.03055188783370283,"14":-0.13582281288223494,"15":0.033710583786473555,"16":0.060530776155832494,"17":0.02661227101923041,"18":0.011342413634523329,"19":0.004546850548223534,"20":-0.015702005472178614,"21":-0.03135251882214652,"22":0.1136980002671563,"23":0.07971966975401959,"24":-0.01012732015689833,"25":-0.06879499741850241,"26":-0.09601122157283153,"27":-0.011297181266579063,"28":-0.004180054452090598,"29":-0.028250625708441814,"30":-0.014603053762222205,"31":-0.12069445095688797,"32":0.04358797910498976,"33":0.014169143372197933,"34":-0.09725779496548215,"35":-0.018734643570005132,"36":0.02994625948570695,"37":0.05902806209698732,"38":-0.026894596978159237,"39":0.06551524166753497,"40":0.042843087197774375,"41":0.03267388753118186,"42":-0.011855736900637385,"43":-0.050168797457448136,"44":-0.09521300160909789,"45":0.1219774707005856,"46":0.16995693719267121,"47":-0.08874625946437581,"48":-0.044844353974087744,"49":-0.04058571452284898,"50":0.06898837218469958,"51":-0.08783097094451293,"52":0.11852318617943101,"53":-0.17216631791879183,"54":-0.05874599762312629,"55":-0.006971921617657171,"56":0.14257335520680509,"57":0.06129975518118226,"58":0.06414676301191224,"59":0.07163934099212939,"60":-0.04410817818969539,"61":-0.1088658336020634,"62":-0.08427338931133667,"63":-0.1060350290937298,"64":0.008303976326248385,"65":0.050662717146426624,"66":0.0071731701125106765,"67":-0.022831218214762108,"68":-0.11010061316319732,"69":-0.12514200817792528,"70":-0.04372906928863171,"71":0.03465050952990133,"72":0.058993121104612585,"73":-0.015093649842530572,"74":0.11724095710543828,"75":-0.0775814080260021,"76":-0.01696632447248083,"77":-0.030829349280016915,"78":-0.03405620307246091,"79":0.12536048225285848,"80":-0.043973182803145466,"81":-0.08744585877337831,"82":-0.07908381407880122,"83":0.029476792464369142,"84":-0.06271517917901583,"85":0.010195574833079674,"86":-0.045206345215351725,"87":0.021202934271048177,"88":0.023432423576641995,"89":-0.03798732469202167,"90":-0.05911101080548754,"91":-0.0608839040030615,"92":-0.008027710172409237,"93":-0.17298026496933183,"94":0.07103995345556542,"95":-0.05443938669864247,"96":0.010110841074779428,"97":-0.08057710191239503,"98":-0.018502346193207925,"99":-0.13142359684844893,"100":0.035414328538826464,"101":0.0957518525956817,"102":0.08357902170645541,"103":0.09748355612467177,"104":-0.0013838318559704977,"105":-0.014450563118727904,"106":0.03673435313056805,"107":0.0042098942706476255,"108":0.01700882343786352,"109":0.02727476040344214,"110":-0.039150004574998856,"111":0.011566579792839218,"112":0.02590143483462977,"113":0.06319324851425892,"114":0.04831817865510803,"115":0.009376924708112256,"116":0.15415167193450896,"117":-0.03711782780610872,"118":-0.08454427344356925,"119":0.00043368438331826763,"120":0.030177975093762077,"121":-0.16405890592132225,"122":0.1275997936232449,"123":0.08101654342026321,"124":0.16757774337059964,"125":0.14501013919812467,"126":-0.015620823247188012,"127":-0.05638479811774759,"128":0.07425358867067972,"129":0.034009126303484495,"130":0.04218722050918384,"131":0.006986521493195278,"132":-0.06769440197637597,"133":-0.058981155642676114,"134":-0.020887895931581392,"135":0.05961709367802592,"136":0.012204261357503061,"137":-0.08061014274713434,"138":0.03820826231093973,"139":0.007827388523024274,"140":0.032772386105883865,"141":-0.1377113969293361,"142":-0.08814620013279607,"143":-0.011321305065425752,"144":0.09848653416295457,"145":0.10701572869572307,"146":-0.047211692672396104,"147":0.08232783105437538,"148":0.07606001509793124,"149":-0.10920499480765436,"150":0.07335953656989337,"151":-0.010791576882762041,"152":0.01614322449975545,"153":-0.020123177945183583,"154":-0.057730518804894666,"155":0.10728731471104817,"156":0.07092384446082832,"157":-0.071086942380406,"158":0.05026902666494477,"159":0.0001966081805963718,"160":0.24952483311476253,"161":-0.05896417728121757,"162":0.0167106503344092,"163":0.0076416376698782785,"164":-0.0366906526962104,"165":0.1356226578187284,"166":-0.00031174075579953723,"167":-0.1147959262310425,"168":-0.03753696880701677,"169":0.08735246303623216,"170":0.11089842220145327,"171":-0.038232388418492844,"172":-0.010129738812670612,"173":0.012794104240921284,"174":0.01326628044925288,"175":0.05840008059295876,"176":0.01367870799428989,"177":0.06036846946348744,"178":0.04888150359215396,"179":-0.06386495930044715,"180":0.023814974318636484,"181":0.11188276520038241,"182":-0.06549246350842877,"183":-0.02866532865244757,"184":0.05270970511188115,"185":-0.026257406176384487,"186":0.015462168852298591,"187":0.11328451861401083,"188":-0.09431396279197198,"189":-0.007991796323367766,"190":-0.04499705192103694,"191":0.18541921261967706,"192":0.07679095968795945,"193":0.01981712035997208,"194":-0.03957178093647413,"195":-0.07322481604195161,"196":0.13259844437205306,"197":-0.03845149441418947,"198":-0.2797207119020499,"199":-0.04325004077587318,"200":0.11454238616873728,"201":-0.01808190340220038,"202":0.04644080405939007,"203":-0.03168016426225517,"204":0.09588099141062417,"205":0.05201804131700451,"206":-0.036695348520316994}},{"sx":1,"sy":1,"depth":207,"w":{"0":-0.013046856545682882,"1":-0.03808628206627532,"2":-0.16372244854278625,"3":0.03174177340603952,"4":-0.07541611761454736,"5":-0.18711023786657005,"6":-0.08967324216518394,"7":-0.04160304097078798,"8":-0.06898018134694789,"9":0.13897693283191145,"10":0.03823776740221741,"11":-0.14137333323091267,"12":0.04988494469288519,"13":-0.036922454382569664,"14":-0.1235524430525744,"15":0.018598787886444156,"16":0.01924221264250205,"17":-0.057210822882026946,"18":0.0036157916070591514,"19":0.05616047828912592,"20":-0.10060079744077817,"21":0.027843662220924364,"22":-0.006111700377064478,"23":-0.0748043597154701,"24":0.08729052186980889,"25":-0.09159964335266668,"26":-0.07092041124288583,"27":0.07691728090779869,"28":-0.08988288258925405,"29":-0.01165649457627412,"30":-0.02613371717744646,"31":-0.026471611759080575,"32":-0.12837816251619863,"33":0.10230208662863974,"34":-0.1354741296926417,"35":-0.07524744647359874,"36":0.07090434210535625,"37":0.08924515022872581,"38":-0.05525970964021792,"39":-0.005808551921159603,"40":0.05657985945377361,"41":0.0805547310012262,"42":0.05022273895043262,"43":0.036638368073476195,"44":0.11302303070239371,"45":0.003907940280018554,"46":-0.009517112137973176,"47":0.09800402358599541,"48":0.044963044351771175,"49":0.01138534277152177,"50":-0.05633773529081035,"51":0.07549897550292639,"52":-0.0040515127994080555,"53":0.036959900512931264,"54":0.021419269347439835,"55":0.11471881047027212,"56":0.05679569484343735,"57":-0.10835017896593235,"58":0.03819476367234026,"59":0.08507537218311059,"60":0.12297648905484378,"61":-0.06176128908197013,"62":-0.02544125413575495,"63":-0.059677519451778946,"64":-0.20319733145082053,"65":-0.12210577647187675,"66":0.05298568065126826,"67":-0.06130603941989324,"68":-0.06836824900283657,"69":0.040132928630834064,"70":0.03531839491099849,"71":-0.11005062549244136,"72":0.08100293728191522,"73":-0.04696357422661189,"74":-0.10676307201376226,"75":-0.022463778531902026,"76":-0.019353897972087725,"77":-0.06899096627591268,"78":-0.016516158481075,"79":0.024469376757610788,"80":-0.045745049208838956,"81":0.040196294331053525,"82":0.027756681829361075,"83":-0.10926669995756054,"84":-0.015152517381560662,"85":0.11820137191571857,"86":-0.01594217548276551,"87":0.03748519086791263,"88":-0.05122352536241648,"89":-0.035970272639230375,"90":0.08511622777727566,"91":-0.049316215246508935,"92":0.05577321149344524,"93":-0.10962578864681312,"94":0.05379762800126726,"95":-0.09928142157432455,"96":0.09724513115685962,"97":0.1571186820396657,"98":0.0969887462110828,"99":0.11351339492832348,"100":0.11109536377951643,"101":-0.035415763325876135,"102":0.03826714983181911,"103":0.02864198252392328,"104":-0.10281542144522876,"105":0.012086853638905506,"106":-0.039924270223091,"107":0.07908867341947927,"108":-0.03577348134748693,"109":-0.010794070055013193,"110":0.012909861077206429,"111":-0.048247561115364435,"112":0.1431171780256394,"113":0.0461776239497143,"114":0.06938761123038581,"115":0.012810508187646544,"116":0.09542079119625578,"117":-0.12212261768268506,"118":0.016972102861037536,"119":0.019086072461663873,"120":-0.0863220733859321,"121":-0.02440219925079285,"122":0.1018227632735385,"123":0.007563932345264516,"124":-0.018796161102170944,"125":-0.029931428709710946,"126":0.045041202622159694,"127":-0.013976558177881081,"128":0.09980114373387458,"129":-0.008867335609379055,"130":-0.025068837339966846,"131":-0.02407822412703043,"132":0.051205769467931594,"133":-0.019689123303325038,"134":-0.107757422566779,"135":0.03566888292783629,"136":-0.016597025746847786,"137":-0.058408520537680954,"138":-0.012753734322233593,"139":-0.042448758690064065,"140":-0.02941860669498368,"141":0.04385230017603172,"142":0.10293578210452228,"143":0.01571170056070088,"144":-0.019260603098455793,"145":0.03857358737399429,"146":-0.013550489041325782,"147":-0.11026123402654077,"148":-0.041261536898817085,"149":0.05689333977937897,"150":0.02996294864840017,"151":0.057198891781082124,"152":0.02657994409468081,"153":-0.04122956428076267,"154":-0.0011373233178717343,"155":-0.09568985735984076,"156":-0.010464083091611566,"157":-0.05001539555896274,"158":0.039687959333103734,"159":0.032365184714256444,"160":-0.13237782015343372,"161":0.06540880725459747,"162":0.018138497920787942,"163":-0.12996821205397224,"164":-0.04836067135271332,"165":-0.024188268173561185,"166":-0.009550063616969896,"167":-0.0963688874882006,"168":-0.07358161686728189,"169":-0.02258463117581198,"170":-0.013801665046975603,"171":-0.0022756224156936637,"172":0.06772750168049348,"173":0.10415560338676744,"174":-0.05909422693023203,"175":-0.04060341962956737,"176":0.08797698003298411,"177":-0.07756284222178614,"178":0.014026361704477689,"179":-0.019546547069745856,"180":0.018231285997448932,"181":-0.048208137237407016,"182":-0.015337123636292352,"183":-0.045952437709573524,"184":-0.047429617920631204,"185":-0.07987930905841663,"186":-0.07908600640353425,"187":-0.001706806173777128,"188":-0.0008866827414704269,"189":0.048871079641568616,"190":-0.042999314635238636,"191":0.01792235764979191,"192":0.04734994183271512,"193":0.024387651312559367,"194":-0.017269318540063874,"195":0.06267875156868771,"196":-0.05744546393210372,"197":-0.04199510843281716,"198":-0.007592619614375537,"199":-0.028487949908854643,"200":0.05571715723933428,"201":-0.09246482773808895,"202":0.06818856818078792,"203":-0.06058426822213477,"204":0.01741234413776193,"205":0.025229906858462294,"206":0.02132529316619752}},{"sx":1,"sy":1,"depth":207,"w":{"0":-0.01029121126508378,"1":0.11807419217070649,"2":-0.03600872363652491,"3":-0.0017519356688818126,"4":0.000508165829148798,"5":0.05729229142938403,"6":-0.04250480830379037,"7":-0.14176119267911483,"8":0.0022379185480387817,"9":0.03381353688310437,"10":-0.06172245192095979,"11":-0.018150916895032548,"12":0.07081828357313534,"13":0.014137073919842787,"14":-0.04000490504960456,"15":0.13838529644935246,"16":-0.058824110817581605,"17":-0.05985347959206876,"18":0.029237736076355842,"19":0.015134298678854881,"20":0.03505975186283579,"21":0.016021542924084132,"22":-0.060476914903459654,"23":-0.03651257700696536,"24":0.06053463505074212,"25":0.03453319078728366,"26":-0.01089524862946698,"27":-0.04463845299899902,"28":-0.011118490297436284,"29":0.023699940764715998,"30":-0.024183956735804472,"31":0.1325123502433704,"32":0.051720597418478606,"33":-0.059807671766496755,"34":-0.029929605021446766,"35":0.11547764674345314,"36":0.0924075616017798,"37":0.010393652742628027,"38":-0.01692971805380447,"39":-0.050955768072406656,"40":-0.08542844241033594,"41":-0.020517506523744237,"42":0.0019880094823526,"43":-0.0024647998800246093,"44":-0.0255282464422787,"45":0.10176102327442164,"46":0.030493571741164103,"47":0.07588282382678081,"48":-0.032149970895753846,"49":-0.06616914084613751,"50":-0.013097219297368965,"51":-0.002617968866203934,"52":0.049829765480345484,"53":0.0031047742745470043,"54":-0.13783054898380595,"55":-0.017471737022351073,"56":-0.16248226524441034,"57":0.008186251397722976,"58":-0.058383501928858744,"59":-0.03232903117374061,"60":0.09459635637875244,"61":0.01326149699106139,"62":0.025762829225368333,"63":0.045980701632175595,"64":-0.08462541333079061,"65":0.043741172208879624,"66":0.014979538709406373,"67":-0.04261401511379336,"68":0.06289819254604373,"69":-0.037307373363094275,"70":-0.013246904563356345,"71":-0.03211700987813669,"72":0.03994061886988308,"73":-0.012331052076755672,"74":0.027271298938143125,"75":0.026322823398298084,"76":0.043654027557808485,"77":0.01165818434053446,"78":0.018819360704252303,"79":0.004278698990613724,"80":-0.08340755293084477,"81":-0.12028818347677749,"82":-0.07607254336617454,"83":0.01184594082236643,"84":0.013296557267625304,"85":0.08596014973084824,"86":-0.00904630571582842,"87":0.0011284113862348759,"88":0.024949098571091212,"89":0.034952099915906906,"90":-0.07412177741880842,"91":-0.08502979946738891,"92":0.10257203903622976,"93":0.21643492408370343,"94":-0.13194893810139458,"95":-0.04499721131096453,"96":-0.017004006447832624,"97":-0.09381104884430758,"98":-0.20211089407177213,"99":-0.03674991405138643,"100":-0.0686411892356133,"101":-0.06973498789645503,"102":-0.11809530820508289,"103":0.02389609716350738,"104":0.015638430376532918,"105":-0.01714773677898541,"106":-0.0455729849615374,"107":0.04191095196683091,"108":0.05258464840881879,"109":-0.03999902490414853,"110":-0.07013768642381132,"111":0.029479546368864584,"112":0.2026586007890699,"113":-0.07798858843772254,"114":0.0931133849414135,"115":0.00643177699973728,"116":0.09743982747564349,"117":-0.022709961391717833,"118":0.008671770758334571,"119":0.0939389988094162,"120":0.038401447231468634,"121":-0.05130684250802913,"122":0.07866445089323691,"123":-0.017790177799747058,"124":-0.07367251214181965,"125":-0.04300826119231812,"126":-0.07595972332652917,"127":-0.01952847900171287,"128":0.028450972883377387,"129":0.01620398784228194,"130":-0.10997802631640544,"131":0.01996213743617596,"132":-0.11898110109132796,"133":0.08485044147082195,"134":0.022810437031507775,"135":0.08865810666221147,"136":0.033567245709332866,"137":0.07928246594805466,"138":0.005876346816844095,"139":0.051683105009350236,"140":-0.032121442928653036,"141":-0.04491289410670051,"142":-0.029212481926231038,"143":-0.08926819405010684,"144":-0.06925101585218332,"145":0.00023350658617230665,"146":0.03633991426317864,"147":0.07407744859924204,"148":-0.08974885862856358,"149":0.04597784855690743,"150":0.040676133142758086,"151":-0.0703327706551026,"152":0.03075862841176541,"153":-0.062376878885544725,"154":-0.13093603444525764,"155":0.0052583224841935864,"156":-0.020920199247664403,"157":0.049576486688326024,"158":0.04462021217246331,"159":-0.15089016204621963,"160":0.046090209163172816,"161":-0.039102933426125204,"162":0.07673906824542367,"163":0.018970863297461567,"164":0.08926800508621054,"165":0.08962106226987196,"166":0.018176419294827037,"167":-0.04475499909585122,"168":0.04448262015042699,"169":-0.03456789206984891,"170":0.06128680439593582,"171":0.007808512874644286,"172":-0.012583631915248762,"173":-0.11513653246384975,"174":0.03836420705756958,"175":0.06423695118994824,"176":0.031243423061894583,"177":-0.045105852291185064,"178":0.002995398688773755,"179":0.02959712420225927,"180":0.0940274478819322,"181":-0.03394081065714281,"182":0.0161253725343647,"183":-0.06756352974626696,"184":0.01888792859261324,"185":-0.0062256393284326,"186":-0.03144356407078666,"187":-0.1071623656558246,"188":0.030491174292570082,"189":-0.07708234345928178,"190":-0.07385784841439519,"191":0.07004093826436188,"192":-0.04731441461840948,"193":-0.13386501905645748,"194":-0.04062085192995287,"195":-0.12378294560478954,"196":-0.05860925376819366,"197":-0.011707712092388026,"198":0.09330557330131543,"199":0.05842824268967246,"200":0.02804885538731122,"201":0.024067304660610744,"202":0.019426356637156653,"203":-0.13684379516208503,"204":0.01810279354461508,"205":0.07620695475792114,"206":-0.03977699971858727}},{"sx":1,"sy":1,"depth":207,"w":{"0":-0.09996797030379738,"1":0.2370684519377741,"2":0.0607724589820901,"3":0.09489996187490916,"4":0.2075744046435691,"5":-0.048579694999145634,"6":-0.01203925477689838,"7":0.15810257513698228,"8":-0.05907661617953466,"9":-0.025338071819014006,"10":0.15003719856204423,"11":0.07436163428234609,"12":0.0961085842576739,"13":0.12186927764669618,"14":0.02538806470046969,"15":-0.016370393196878746,"16":0.027695060910755444,"17":0.01586429210999184,"18":0.009627199068593044,"19":-0.09215677398391241,"20":0.026210463543554385,"21":-0.053120388936595264,"22":0.09880833575500023,"23":0.0650569928945933,"24":-0.02820565180427278,"25":0.0303464086678751,"26":0.039767040449420414,"27":-0.055664495813787664,"28":0.13936337808470972,"29":-0.0014104354433109234,"30":-0.010402102308877089,"31":-0.06480737492155772,"32":0.0780650583894352,"33":-0.07222300966284004,"34":-0.03717677323481804,"35":0.05590266701978154,"36":0.018902657879272842,"37":-0.03510086603689338,"38":-0.1150308423781364,"39":-0.09339256768085054,"40":0.028529909389521973,"41":0.0012303381839732868,"42":0.09985119329983186,"43":0.05249850493519987,"44":0.0883908943375703,"45":-0.0954877027607587,"46":0.028423810127016468,"47":-0.009524530240651263,"48":0.03279396776469017,"49":-0.01184546188239044,"50":0.020296218969897917,"51":-0.04416060894653567,"52":0.18724830473035792,"53":0.01625307657292443,"54":-0.01561039044280774,"55":-0.03135026541239142,"56":-0.028553588126490698,"57":-0.20063240640113503,"58":-0.18164997379473444,"59":-0.0760859778843307,"60":-0.00899615463651335,"61":-0.10173048409990265,"62":-0.005139394602533457,"63":-0.021481860785691118,"64":-0.02254616506069897,"65":0.04524589839132146,"66":0.04534038956519632,"67":0.031179374397951716,"68":0.0973477589113019,"69":-0.07887476255075222,"70":0.003364021074235602,"71":0.035104071679728836,"72":-0.024302286349535487,"73":-0.057800764719079356,"74":0.005757306961433877,"75":-0.042451167698737774,"76":-0.10860541711243366,"77":0.10420373453636114,"78":-0.11383753294754227,"79":-0.021022213471885414,"80":-0.07471700597922112,"81":0.02822134669231966,"82":0.023579448837493012,"83":-0.006630311042828106,"84":-0.10773344381753315,"85":0.0006788131629315165,"86":-0.03818073675708931,"87":0.007925519250531804,"88":0.049510694077417344,"89":-0.03250100379755802,"90":-0.027427461006910764,"91":0.05026124587605672,"92":-0.0668517546516339,"93":-0.08264019522689067,"94":0.07739104422426954,"95":-0.05916152469274752,"96":0.017066769594204112,"97":-0.019080779501379916,"98":0.07215355797323574,"99":-0.08721272782615817,"100":0.13806963955029097,"101":-0.04300981324395143,"102":-0.028652997266433552,"103":0.06747732365730416,"104":-0.0021795433886396456,"105":0.12378088325821542,"106":-0.022380695922611354,"107":0.038902341617558275,"108":0.06120046353626818,"109":0.09383208072249691,"110":-0.09528489539813345,"111":-0.11653848423463792,"112":0.15253466329642698,"113":0.08794934740717608,"114":0.04624513822654478,"115":0.11358023128216033,"116":-0.051444417566771046,"117":0.06411072585845565,"118":0.003232750222979431,"119":0.02351040966131565,"120":-0.0032632885006056594,"121":-0.05240319381337014,"122":0.02593875864848555,"123":-0.05912466293146497,"124":-0.02426966061863456,"125":-0.05165049991603654,"126":-0.05729942560352586,"127":-0.002757690167518239,"128":0.094253650245295,"129":-0.06596075817980082,"130":0.06247754759684136,"131":0.04442514598993135,"132":0.014655348397556582,"133":0.10191836955486121,"134":0.10635522570197053,"135":0.04677805286201422,"136":-0.014205359968752943,"137":-0.01255530080613567,"138":0.031199001754612897,"139":0.06338020040628668,"140":-0.08032593239284447,"141":-0.1499687930268762,"142":0.06146804204833013,"143":0.046404896312353484,"144":-0.041297099678867105,"145":-0.116398843319576,"146":-0.024248525105667714,"147":0.0004526097398026685,"148":-0.089382764817899,"149":0.06198236652981236,"150":-0.0006129473119179267,"151":0.04125835817382471,"152":-0.059703664658971964,"153":-0.03955009496896489,"154":0.049425370627197485,"155":0.017723044350706662,"156":-0.00200254055717003,"157":-0.041124617285333315,"158":-0.05161005495781188,"159":-0.04042664780289798,"160":0.04533716025912427,"161":-0.046821472555344114,"162":0.03463337066654931,"163":-0.0398308167617433,"164":0.01964947623642914,"165":0.166786794626834,"166":0.13034990174726294,"167":0.01044299010523973,"168":-0.041537440904565626,"169":-0.022195442263216875,"170":-0.1907345131489919,"171":0.05453642486009497,"172":-0.05232696310453081,"173":-0.015195738577645753,"174":-0.06288133004456964,"175":0.02474341581427138,"176":0.08434259646004916,"177":0.18678793371321806,"178":-0.08144703025072311,"179":-0.010214838768986087,"180":-0.0028562579149307484,"181":-0.017983476995035445,"182":0.0669291579806921,"183":0.08132800197282862,"184":-0.24521295934393747,"185":0.039633384202071034,"186":0.07895292889103028,"187":-0.020121333692450317,"188":0.004253119790397303,"189":-0.07445761578985573,"190":0.012523588511473904,"191":0.056942276103163,"192":-0.05730689420336016,"193":0.0647416352184397,"194":-0.029521059455750877,"195":0.010629953589010756,"196":-0.07527055891715698,"197":0.10305434832924411,"198":-0.044280974859646195,"199":-0.016299750326656124,"200":-0.03755661949192722,"201":-0.06380766831971639,"202":-0.08740500033809996,"203":0.002885796217936305,"204":0.043732587140671256,"205":0.09676948303327551,"206":0.00010798076423308169}},{"sx":1,"sy":1,"depth":207,"w":{"0":-0.028151563336539214,"1":0.1108652821609513,"2":0.04975920735481278,"3":-0.04198939987248128,"4":0.10718688095703667,"5":0.042683351996997465,"6":0.02663726487092125,"7":0.006926082232817426,"8":-0.03701549792853128,"9":-0.10077132728313831,"10":0.05487459946765932,"11":-0.002537388730349674,"12":0.012874704871726234,"13":0.08384625406429247,"14":0.050319540393914446,"15":-0.05768695850313239,"16":0.028474928680190893,"17":-0.06675734287843103,"18":-0.029928893537836766,"19":0.03148312447920823,"20":-0.20272224099166336,"21":-0.017712882548224222,"22":-0.006546248361585585,"23":0.026267329094226074,"24":0.022525451612388,"25":0.033715715023712026,"26":-0.01024428212123607,"27":0.014842757561434071,"28":-0.05243051549267294,"29":0.037528489885762656,"30":0.007224750951881581,"31":0.14372413725554245,"32":-0.12183346328817522,"33":-0.08687455800518754,"34":-0.06955565485428415,"35":0.031101989624106204,"36":0.08649708575267936,"37":0.10797190672830409,"38":-0.010083283834665164,"39":-0.06815477753740525,"40":-0.08468852858333635,"41":-0.08130074925635679,"42":0.06280220262611011,"43":0.011596106498973828,"44":-0.05126444278459633,"45":-0.06149480097635668,"46":-0.06885674796024659,"47":0.025042324341251327,"48":0.06310648317285882,"49":0.11115145149964877,"50":-0.047799025980171994,"51":-0.08909024762384435,"52":-0.07594431466488072,"53":-0.14352490374121155,"54":-0.0016949866863448806,"55":0.04058064440577517,"56":-0.04710948714536496,"57":-0.03321910478293499,"58":0.030933492894626,"59":-0.11810968831779457,"60":-0.0018867194375956882,"61":-0.09094306091673696,"62":0.028892974886876203,"63":0.004551711333051161,"64":-0.06035072309320787,"65":0.0029217948392563694,"66":0.03634571801215543,"67":0.03021444569185755,"68":-0.1385493887543968,"69":0.019466243232769107,"70":0.006708465550442181,"71":-0.05303240729214595,"72":0.020477279248181924,"73":0.06351234746398128,"74":-0.011190838028607479,"75":-0.12884089058461873,"76":0.032411062507632614,"77":-0.04890752531771942,"78":-0.044671476416368705,"79":-0.177085627376363,"80":0.071121958979796,"81":-0.0416656851887306,"82":-0.01791732617578076,"83":-0.07040819241108855,"84":-0.048584058909762154,"85":0.014430339016887046,"86":0.1420357925049452,"87":0.052446201658712825,"88":-0.0001976286028629117,"89":0.06619877895319067,"90":-0.05350075371544253,"91":0.05218183230797735,"92":-0.12575966419181833,"93":-0.028051086546316176,"94":0.06926370523786816,"95":0.0930907280993568,"96":0.015323915424487397,"97":-0.01022494825396537,"98":-0.014412785429198058,"99":0.002433115268475053,"100":0.09156457792847059,"101":-0.055781382280716565,"102":-0.07249300263527524,"103":-0.06891514674595337,"104":0.04056877436032719,"105":0.0966154012994553,"106":0.019496029507537614,"107":-0.04671986427259118,"108":0.18277478242072076,"109":0.0837667335944496,"110":0.018225695892427594,"111":-0.1090428985059096,"112":-0.02128328079486925,"113":0.008673397179246842,"114":0.036219569672738074,"115":0.010648142953610069,"116":-0.038559029769386334,"117":0.05620069241007782,"118":-0.010573199751255107,"119":-0.08563220361529236,"120":-0.029696609977183507,"121":-0.014613759193934794,"122":-0.01964349312323275,"123":0.11670461064744103,"124":0.10419219425226871,"125":-0.052910456238164115,"126":0.008034085775454492,"127":-0.012682360177436071,"128":-0.10811804647409305,"129":-0.0562904677847885,"130":-0.0384522352707433,"131":-0.0185426931800503,"132":0.027584390555427604,"133":-0.07226598194595095,"134":-0.002390532637765344,"135":0.09733991712110153,"136":-0.03666306439089983,"137":0.11742643001508535,"138":-0.011374251686519924,"139":-0.023597474963877138,"140":-0.11410219597638913,"141":0.028365719799271487,"142":-0.009335989145397598,"143":0.021021980904116257,"144":-0.06631156012660458,"145":-0.019621375042964736,"146":0.033476739850139804,"147":-0.022541703417624355,"148":-0.05993930591323108,"149":0.06621660215286197,"150":0.06919792794597399,"151":0.01978700882622237,"152":-0.06818370683136388,"153":0.05086918096594169,"154":-0.05336839141945443,"155":0.011816852018029955,"156":0.0669310184719628,"157":0.023822398168887243,"158":-0.014738284443872452,"159":0.06185908724737902,"160":0.0432808168967691,"161":0.05621025485432484,"162":-0.0010527014896886857,"163":0.011893836228414096,"164":-0.014109046712728264,"165":0.08876164415912201,"166":0.03798486424965919,"167":-0.0023660722768850694,"168":-0.052087080548253076,"169":0.023365205874820348,"170":-0.03845520592466542,"171":0.06677396833622253,"172":0.06873147212550756,"173":0.1333171754048684,"174":-0.0049293423122905135,"175":-0.023526970808349503,"176":-0.14023450925507228,"177":-0.11481027706527562,"178":0.08327514362434724,"179":0.07934729976207419,"180":0.1158032990218976,"181":-0.060841732304229075,"182":-0.07993723851193203,"183":0.01989223717512782,"184":-0.09977535834640155,"185":0.026080274793840008,"186":-0.050532897281814614,"187":0.05299386230676577,"188":0.017487823693510977,"189":0.10754707089535216,"190":0.04187668607388774,"191":0.08008124099946033,"192":-0.011967390057550127,"193":-0.055140219603366396,"194":0.004540993884460034,"195":-0.09871041000811158,"196":-0.012126196858358728,"197":-0.003810381137053634,"198":-0.008194090491856624,"199":-0.0005252425832506392,"200":0.06108002790481714,"201":-0.14716570320581612,"202":0.09137402341156554,"203":-0.06124106167790512,"204":-0.015832051011719882,"205":-0.029858404621584046,"206":-0.004600958494265806}},{"sx":1,"sy":1,"depth":207,"w":{"0":0.001094119786378453,"1":0.027230372722831103,"2":0.026972128817396364,"3":-0.0911592075220408,"4":0.018766125652369414,"5":-0.07120609393600877,"6":0.09095646475227209,"7":0.1072758970307987,"8":-0.07139830625498575,"9":0.11967998126008549,"10":0.018773811921464982,"11":-0.09352173265340405,"12":-0.044668426503872566,"13":0.06296078626451596,"14":0.0012724598509797867,"15":-0.0177524676538582,"16":-0.005352703903243548,"17":0.03713538234202722,"18":0.031939347721920835,"19":-0.03452444097743567,"20":0.005567692944772668,"21":-0.03406047899742818,"22":-0.13261037950263455,"23":-0.07459333899676142,"24":-0.0013213311941887853,"25":0.08691050125950153,"26":-0.14069624765683494,"27":0.09431090127666868,"28":-0.08964783959549116,"29":-0.014134274484048229,"30":-0.11569845065956759,"31":-0.042355524695974325,"32":0.042709190620804735,"33":0.016083383783675194,"34":-0.01836875135954615,"35":-0.03204880335688286,"36":-0.03733867190363131,"37":-0.0847819636257584,"38":-0.10765329944755607,"39":0.14851346372724442,"40":-0.12484850855861322,"41":-0.04174922986000937,"42":-0.1252137469389759,"43":0.10324876411450425,"44":0.0700005500793761,"45":0.0884737679334127,"46":0.00029695849796822693,"47":-0.041639914631011354,"48":-0.0863039942968618,"49":0.05325082865287186,"50":-0.0893670947298621,"51":0.010360669559899336,"52":0.13184979576190434,"53":-0.001596438061680121,"54":0.0007955842214622936,"55":0.0689232169846538,"56":0.020006645674620994,"57":-0.005369668312293922,"58":-0.018421401664111083,"59":-0.07455790847005685,"60":0.063223320030724,"61":-0.06688904135832718,"62":0.022072685880176256,"63":0.023118191644201595,"64":-0.023091640031554336,"65":-0.020667751843783864,"66":-0.044861996425098194,"67":0.028041857579477057,"68":0.0776413185746762,"69":0.043620847100887046,"70":-0.08998446914259385,"71":0.019653349574539788,"72":-0.01737438994802749,"73":-0.036545526958760795,"74":-0.1227089104866452,"75":0.17683744258295944,"76":-0.04832466284069398,"77":-0.006033682321754586,"78":-0.13381134410279177,"79":-0.051098097367454395,"80":0.02278601981393013,"81":-0.06334447183730338,"82":-0.17078216457758602,"83":-0.006696351143835427,"84":0.0397780095798946,"85":-0.12400462451968079,"86":0.012969295299818826,"87":-0.10973764820646109,"88":-0.009339216848365117,"89":-0.005909717146827586,"90":-0.02951584802730086,"91":-0.0048528015799404805,"92":-0.0013546407919959736,"93":-0.005340731080178222,"94":-0.02152081689356762,"95":-0.03812733145664062,"96":0.10108056298842644,"97":0.01843228936355493,"98":0.026637533116490954,"99":0.06806840028869023,"100":0.00028714597676617146,"101":-0.1415750350663274,"102":-0.04879965860558247,"103":0.021563399549567614,"104":-0.03595400813752098,"105":-0.019373682124214864,"106":-0.020313120664591344,"107":0.037521885285436984,"108":-0.0714275669623993,"109":0.04862533143219309,"110":0.09712098122523671,"111":0.0005702168088838979,"112":0.04162863104436901,"113":-0.002377736221473721,"114":-0.018103749190825375,"115":-0.024099015181999535,"116":-0.026717296405654564,"117":-0.017597891359477782,"118":-0.004728264037724439,"119":-0.029970665045579468,"120":0.07502520221904166,"121":-0.13195697656283056,"122":0.03350264062277086,"123":-0.057073773986803814,"124":-0.04093124181643762,"125":-0.07389554676896182,"126":0.020349874229663438,"127":-0.0723249538832382,"128":0.04672738142401361,"129":-0.08784146105489242,"130":0.03193611633223906,"131":-0.05935242226007375,"132":0.062419301525774504,"133":-0.032155614958862495,"134":0.0024058926845639456,"135":-0.09912176089926569,"136":-0.10807550407685174,"137":-0.10139150313017048,"138":0.030741195030128836,"139":0.024340294593151436,"140":-0.1492517416934128,"141":0.002633191207505241,"142":0.004484365659346064,"143":0.08324344335639082,"144":-0.05336624131369084,"145":0.03233735760732695,"146":0.029458256898756377,"147":0.12220116890722774,"148":0.06091286279535322,"149":-0.12640323149605687,"150":-0.014173386928939375,"151":-0.08236833442691106,"152":0.02054770971661793,"153":-0.09956994666552575,"154":-0.13101427342633734,"155":0.06813077644317336,"156":0.018064380267340033,"157":-0.1715918705017928,"158":-0.06387995724016422,"159":-0.025884974447024697,"160":0.057412240094324864,"161":0.0026480645595275726,"162":-0.10513800425763181,"163":0.022919048414966118,"164":-0.15194858002456768,"165":0.013623084603297498,"166":-0.0966192253670244,"167":0.005047828426850021,"168":-0.007714204357625829,"169":0.07303312971235862,"170":0.03689002395938071,"171":0.11815931728754758,"172":-0.06923151105222194,"173":0.00928228639740732,"174":0.04869130553640407,"175":0.12955985909387502,"176":0.09021205495041706,"177":-0.06701033927294842,"178":0.03553758683850855,"179":-0.10073540975849633,"180":-0.13467820270986858,"181":0.10672612862392543,"182":0.0491712107656299,"183":-0.084921745601991,"184":-0.11755358336429514,"185":-0.06694148442717004,"186":-0.11517469176152767,"187":-0.021778481719411904,"188":-0.04103553267266961,"189":0.04425243110534236,"190":0.027705154254473903,"191":0.08616923090323814,"192":-0.12018975424672648,"193":0.12413041982457992,"194":0.03159356869950522,"195":0.15796559412265723,"196":-0.13002415958922334,"197":0.008897295688028741,"198":-0.00016715079772966376,"199":0.0468842682538776,"200":0.060938065367231065,"201":0.10380523001100267,"202":-0.05263583544688611,"203":-0.0001449417632120172,"204":-0.019128800944749277,"205":-0.10884740533475243,"206":0.01384850875033695}},{"sx":1,"sy":1,"depth":207,"w":{"0":-0.002752787930326747,"1":0.029591251102929136,"2":-0.004661191957852997,"3":0.0646136476653394,"4":-0.01686287674559653,"5":-0.09086443089651296,"6":-0.09718329135241811,"7":0.01796175853611785,"8":-0.10140573702352189,"9":0.04481775877591546,"10":-0.06713280565056619,"11":0.15252507027390008,"12":-0.0523184251168737,"13":-0.0496984648698639,"14":0.02784781243487477,"15":-0.04924473162894462,"16":0.07816777177637028,"17":-0.014223766725460713,"18":0.04712126281625662,"19":0.12504113899979336,"20":0.07382224122663178,"21":0.020497596610449698,"22":-0.03934723039254816,"23":0.05059484340502145,"24":-0.07869436139138643,"25":0.00820393063628274,"26":-0.0502759143607887,"27":-0.0425519392093185,"28":-0.09796761085664912,"29":0.07248941470603444,"30":0.020741626870760397,"31":-0.018875099240341354,"32":0.0063008277227238375,"33":0.06062138069260216,"34":-0.03339770769129701,"35":0.0945286302678949,"36":-0.02869094542271662,"37":0.08921010340267853,"38":-0.06518785867428241,"39":-0.044575642286016924,"40":-0.0076994036338947,"41":0.007527628755282733,"42":0.09920130609816939,"43":-0.04237549401482203,"44":-0.09091780788214834,"45":-0.052254133568906944,"46":0.06991534897167488,"47":-0.12194155409028933,"48":0.05047792462579326,"49":0.02863964936840869,"50":0.05463676129381289,"51":0.012887393380390457,"52":0.011920821711945504,"53":-0.004866421390931037,"54":-0.10882932336519258,"55":0.10305370524053738,"56":-0.03337948637021466,"57":0.030185425300200373,"58":0.0440401277766829,"59":-0.07535567969636746,"60":-0.04933828151335631,"61":0.011374480416545,"62":-0.07793373632899898,"63":0.04229272229033304,"64":-0.00809550981721444,"65":0.011821923101866133,"66":-0.04076247404143726,"67":0.02151300652108458,"68":-0.0001600483948974072,"69":0.09407388304569685,"70":-0.012016429384897753,"71":0.012256713729968175,"72":0.014761127358945678,"73":0.03814323273556823,"74":0.11381520319082089,"75":0.00993792624670003,"76":0.027557580298256067,"77":0.07167001478438652,"78":-0.14986528768058485,"79":0.02101011896402321,"80":0.048860149799883824,"81":-0.0055415685567882815,"82":-0.016743400254300184,"83":0.024033335056605976,"84":-0.08108429887357894,"85":0.028202677892716462,"86":0.027859047446600352,"87":-0.10236427719360139,"88":0.03072395830737974,"89":0.03788467101189194,"90":0.007617646747873594,"91":0.013275735345195374,"92":0.07677903500018063,"93":0.02041910312680061,"94":-0.15539133467010152,"95":-0.006499701049228785,"96":-0.038780067545503574,"97":-0.04485100270476197,"98":-0.00532896728410818,"99":-0.01614876073007214,"100":-0.005947169833078645,"101":0.13806040464939615,"102":0.03781307161792395,"103":0.1650873233317701,"104":-0.1139107111678748,"105":0.009606387520219051,"106":0.10759316200874958,"107":-0.08314722075659133,"108":0.12104310391937562,"109":0.003603584876954823,"110":0.04494348064940315,"111":-0.003421846560160045,"112":-0.056072562113683666,"113":0.1560327710995787,"114":-0.13167466479988182,"115":-0.030932536498265842,"116":0.032651229052709514,"117":-0.12559762603941363,"118":-0.09621709449946222,"119":-0.04707379999016198,"120":-0.05638340813445395,"121":-0.11225777971842144,"122":-0.0545041996320884,"123":-0.089384369564197,"124":-0.0075835429418256006,"125":-0.16618367145161997,"126":0.08360762052422352,"127":-0.014584634239879614,"128":-0.10149690731805344,"129":-0.03172222873938236,"130":0.023930161532252827,"131":0.0720588888060163,"132":-0.10563829948854166,"133":-0.07472028852218221,"134":0.08840579757860358,"135":-0.013912919116659346,"136":0.05997908175679473,"137":-0.0427707507704624,"138":0.011442610575000886,"139":0.10441835615946124,"140":-0.13083654351743165,"141":-0.021461169714343857,"142":0.06765432510467281,"143":-0.09605856532030632,"144":0.018803524314576346,"145":-0.15213776102681906,"146":-0.03781912636856576,"147":-0.0009686584349054654,"148":0.06917293182869472,"149":-0.04715021752607477,"150":-0.1458348324344365,"151":0.07136163228271078,"152":-0.09876680929566334,"153":-0.0009449481612767167,"154":-0.08335642590224016,"155":-0.048034952512294074,"156":-0.07046028193466666,"157":0.0923607608911541,"158":-0.019932702762796194,"159":-0.14328125705041606,"160":0.02669573681773546,"161":0.01456087392219935,"162":-0.11248329120453357,"163":-0.0017119626750109922,"164":-0.048234925097942805,"165":0.04035987501555477,"166":0.007054571706262279,"167":-0.09252418478682654,"168":0.09518741637522812,"169":-0.15252241845790093,"170":-0.051371190442817904,"171":-0.14569482117635396,"172":-0.0638262007887055,"173":-0.028625995110827224,"174":0.10864169642948453,"175":0.12792013189706672,"176":-0.0034441291287910973,"177":0.01928900805560929,"178":0.011194641781246267,"179":0.032646548214560284,"180":0.062436425149317465,"181":-0.024603836960109638,"182":-0.054407511506020745,"183":-0.1621527091091921,"184":-0.1047734875216649,"185":-0.053428883636401074,"186":-0.02438975318723007,"187":-0.02113814013998688,"188":-0.13295078574396085,"189":-0.08024373601562455,"190":0.05218956142088506,"191":-0.01200745533160764,"192":0.03882447127573134,"193":-0.02005176755087176,"194":-0.006563733879951481,"195":-0.017278959481445547,"196":-0.0232672642581566,"197":0.0957375772812505,"198":-0.07267542815573,"199":-0.0979739523940929,"200":-0.050997135067067045,"201":0.04255796267909554,"202":-0.01919299299026701,"203":-0.07452313006098445,"204":0.05359606274183959,"205":-0.07386060434256472,"206":0.027871341880478878}},{"sx":1,"sy":1,"depth":207,"w":{"0":-0.050767698408231345,"1":0.00003091540671611013,"2":-0.07612925526723367,"3":-0.052834098566827734,"4":0.0013134403379971979,"5":-0.04971816559802714,"6":-0.07737112893148608,"7":0.06998686831288425,"8":0.11695512161555044,"9":-0.1978453577820496,"10":-0.012565851542149668,"11":-0.0172648352613779,"12":-0.006188405199038834,"13":0.0352505624894899,"14":0.0416707921175475,"15":-0.17478564956892362,"16":0.0036037367834998034,"17":0.045852564505920394,"18":-0.062231961143729204,"19":0.049350465386320694,"20":-0.02426860346573041,"21":0.0003154822591810763,"22":-0.06715062352287433,"23":-0.033256935434038404,"24":-0.010746901980488253,"25":-0.06539188944093806,"26":0.035938837145885374,"27":-0.07393658447785671,"28":0.017346325948545797,"29":-0.03532835984878791,"30":-0.04398599258336136,"31":0.010671494828745196,"32":0.05424586984493164,"33":-0.019196904689309048,"34":-0.010616998366660078,"35":0.02478414519519121,"36":-0.0968594500181095,"37":0.03909097836581037,"38":0.03262369157643205,"39":-0.03568955071790613,"40":-0.003883907295406766,"41":0.028845404596492805,"42":-0.1368843698258795,"43":-0.057375112597826516,"44":0.0008460233153953034,"45":-0.053985617049232854,"46":-0.12273957653922077,"47":-0.0435131117726127,"48":-0.039627855322379536,"49":-0.019202196352936546,"50":-0.09128668638038011,"51":-0.06913752189463195,"52":-0.0367256806720718,"53":-0.05610137032084784,"54":-0.05259955936917869,"55":0.0855681826653013,"56":0.07720569555179707,"57":-0.07762317537404877,"58":-0.013762140150198806,"59":0.041122030066858446,"60":-0.1277663861495527,"61":0.13393072329103975,"62":0.0005884415111966487,"63":0.0853551369334747,"64":0.006220875396805355,"65":0.08291847398448048,"66":-0.14552136836216914,"67":0.013183407667495069,"68":0.11812462302690714,"69":0.021964141694721002,"70":0.10303720918352473,"71":0.09563915949112768,"72":-0.009675335231324763,"73":0.02239844819977628,"74":-0.06090659926742708,"75":-0.0758026969599305,"76":-0.047429020287181524,"77":0.08377624730044587,"78":-0.023405021253758908,"79":0.00419594525170048,"80":0.0671128796418388,"81":-0.014212516911937567,"82":-0.11888968329044629,"83":0.02160683538606656,"84":-0.03696173046479679,"85":0.03028055768920965,"86":0.001510738047251699,"87":0.0515937229461872,"88":-0.011905009961697148,"89":0.08233343674677829,"90":0.024776331675570668,"91":-0.027067226941379915,"92":0.12402458879042179,"93":0.027484424277367976,"94":0.015789547136544964,"95":0.062451391831462526,"96":-0.05055840324032508,"97":0.026487149895322887,"98":-0.07519122185227138,"99":-0.008677293871455872,"100":-0.012434782587313953,"101":0.07593491343737716,"102":-0.012121154458951766,"103":0.0012051560048530257,"104":0.08141140856592978,"105":-0.08829099155330077,"106":-0.11973879587189208,"107":0.10135603586238603,"108":-0.011555090811825671,"109":-0.0451221645019486,"110":-0.08156496698487918,"111":0.04930994292185501,"112":0.04124580615611403,"113":0.024293334054478685,"114":-0.11654669976690012,"115":0.11389350333142373,"116":0.058483742791371966,"117":0.11221317904919573,"118":-0.06026888667935798,"119":-0.04327911503339702,"120":0.055682203458753826,"121":-0.0050913771388964345,"122":0.05632688577323282,"123":-0.05271750796536728,"124":-0.047537042767193435,"125":-0.0358819278534695,"126":-0.005501002769948165,"127":0.012783082109294311,"128":0.06775248032112806,"129":-0.03447519616203196,"130":-0.049447902912148615,"131":0.04238003183966881,"132":0.019226213595602833,"133":0.17051370876673466,"134":0.04323301386728616,"135":-0.01466290609574052,"136":0.02148759710660044,"137":-0.016579878203616432,"138":-0.0148945132069746,"139":-0.0393350515013653,"140":-0.06090971987958417,"141":0.0017112831493507935,"142":0.012934189349003951,"143":-0.1260511046634592,"144":0.007275730889837457,"145":0.07217216081764702,"146":0.09551668378046302,"147":-0.08594493843494039,"148":0.10598885610978379,"149":0.06580760609078869,"150":0.06445176861711978,"151":0.1327222523274103,"152":0.09664687354693081,"153":0.11220146666121379,"154":-0.15289713313591768,"155":-0.055148825318657085,"156":0.05442008859575412,"157":-0.04521331345600695,"158":0.044078003606722455,"159":-0.015545698133945424,"160":0.004182779126411498,"161":-0.08939035747355094,"162":0.05847673661822422,"163":-0.0035375769398521,"164":0.05933789980357516,"165":0.05318238036773796,"166":-0.052325972479769306,"167":-0.0029024728419044417,"168":-0.022234976443300834,"169":-0.07258481977472458,"170":-0.03783119797051475,"171":-0.03856509708684291,"172":0.037052659673402384,"173":0.0019960174527376786,"174":-0.01108940212024004,"175":0.035192401093457386,"176":0.0720255598648586,"177":-0.054656497451803045,"178":0.12372222025620466,"179":-0.06698327210436272,"180":0.032602329939946655,"181":-0.03848469416017718,"182":-0.04521301144974698,"183":0.10102997625138473,"184":0.11117175217394772,"185":-0.05840694646860583,"186":0.0591466384686029,"187":-0.032060190979671783,"188":0.04088362433538051,"189":0.027733519335042846,"190":0.008058556224974638,"191":-0.11302693438145156,"192":-0.03235610116103578,"193":-0.10830342550424128,"194":0.03042343100815598,"195":-0.07171411110049539,"196":-0.024684707882752222,"197":-0.08328037021879876,"198":-0.10116154925577495,"199":0.11168569274121028,"200":-0.15508972174151234,"201":0.009669619606656871,"202":-0.026619650651912862,"203":-0.0019791171138885013,"204":0.05824350841653343,"205":0.04976291665259781,"206":-0.12688995973274966}},{"sx":1,"sy":1,"depth":207,"w":{"0":-0.08458293400992348,"1":0.17608415603120672,"2":0.12731061623852483,"3":0.00707363744050473,"4":-0.003128247144821061,"5":-0.07627069105964078,"6":-0.13249982763175983,"7":0.10551864669756003,"8":-0.04078405771103902,"9":-0.0035452043842448826,"10":0.003309994274023848,"11":0.03700101789005947,"12":0.023988129195515635,"13":0.09727388646207234,"14":0.07265505699795921,"15":0.07188472444285582,"16":-0.011371928358325425,"17":-0.10282590827275817,"18":-0.07819993830889552,"19":-0.06539411711098915,"20":-0.050428962924763704,"21":-0.0037229583941163174,"22":-0.000494300285110989,"23":0.0726479621496021,"24":-0.04972718854042766,"25":0.019652004578821866,"26":-0.009878514811780247,"27":-0.029736094594232106,"28":-0.005420609686689336,"29":-0.10287286539417112,"30":0.09726587193957618,"31":-0.037041497613780276,"32":-0.020943320622771936,"33":-0.09298881547367625,"34":-0.09505564913914316,"35":-0.13163692917222455,"36":-0.006347724288985443,"37":0.09973057370279742,"38":-0.010562090486812377,"39":0.0036011480501314617,"40":-0.04114023210065514,"41":-0.00846059071150778,"42":-0.1484891751190491,"43":-0.06233500491183882,"44":-0.044064375413989304,"45":0.017872847467859426,"46":0.05226170471593013,"47":0.03274856684638766,"48":0.032606568011454944,"49":0.1228969306966498,"50":0.147163502158508,"51":0.06440657552546925,"52":-0.025204556896963996,"53":0.04111427930233222,"54":0.013395127761922096,"55":-0.0670480952205232,"56":0.006972004505560128,"57":-0.0076812398810111,"58":-0.04533354567117204,"59":0.025349139773516972,"60":-0.049349983777838655,"61":0.009240574719294641,"62":-0.06820565733169161,"63":0.007017743711241211,"64":-0.015958692632649405,"65":0.07785930852369535,"66":-0.01451513781155722,"67":0.06602993271905996,"68":0.11061590863544983,"69":0.020113384865999687,"70":-0.07576869868044316,"71":0.04672397318820932,"72":0.04783860797476286,"73":-0.11894367839732385,"74":0.07167929586620102,"75":0.04770325936698276,"76":-0.04329692942458552,"77":-0.07148624201186667,"78":-0.1033586945435583,"79":-0.02132299250762977,"80":-0.0740640766755832,"81":-0.03284589701209672,"82":0.04197618357725219,"83":0.0035712224388741434,"84":0.01052813102812676,"85":-0.02796869245345507,"86":0.026433605172287277,"87":0.049101066338440205,"88":0.05617000746860864,"89":0.011110810569617265,"90":0.10268723044365406,"91":0.08544237208339643,"92":0.15606576685903698,"93":0.04794037522633878,"94":0.020968834590888642,"95":-0.04244859898766125,"96":-0.008750555325940226,"97":-0.02007862933706084,"98":0.038652749760941976,"99":-0.0552875363215648,"100":-0.06873412723713815,"101":0.05293720010474197,"102":0.05371568663326195,"103":0.07581546039501298,"104":-0.03362022578407192,"105":-0.09717821947486263,"106":0.10717545443409746,"107":0.057564806624387406,"108":-0.048356658822394434,"109":-0.13006088217940676,"110":-0.002266541716506139,"111":0.07155764295156182,"112":-0.04290826266473043,"113":-0.07289504077420521,"114":-0.008526604285529774,"115":-0.02758139529323661,"116":0.0036156298598361844,"117":0.030889484722662806,"118":0.031042454291690252,"119":0.08035220721242164,"120":0.04078427807292794,"121":0.14731562673851387,"122":0.0035609176263444783,"123":-0.037022440573604806,"124":-0.03566620374369902,"125":0.07950437937966437,"126":-0.05173946890134979,"127":-0.05753701106307715,"128":0.004107457203686045,"129":0.04596577288968591,"130":0.06629013650916558,"131":0.004748482397561925,"132":-0.00252706749180163,"133":-0.04342052255090278,"134":-0.11555995661383778,"135":0.03706583202342232,"136":-0.07498827489155822,"137":-0.03520385909128651,"138":0.0002906668900527146,"139":-0.08943036753648381,"140":-0.016177060515763335,"141":0.0605859333941306,"142":0.047028065426424376,"143":-0.09937639393962465,"144":-0.028129985073326126,"145":0.011860071245460027,"146":-0.026992530744406933,"147":-0.059608878932811846,"148":-0.027275922176903424,"149":-0.013334522472828838,"150":-0.08880702731054443,"151":0.10450929328241618,"152":-0.0020261877400653454,"153":0.028482405323420532,"154":0.059609373877858716,"155":0.00009794943456191481,"156":0.019810013692563758,"157":0.01674379316235348,"158":-0.0365410754399891,"159":0.050209264708450566,"160":-0.13457805200899456,"161":0.07221066028955046,"162":0.00683201648940698,"163":0.0790260448877541,"164":-0.055302656057506144,"165":-0.0730664890211141,"166":0.047477365912355324,"167":0.1384693312057507,"168":-0.023071005667563652,"169":0.02082543337558167,"170":-0.08466095023679748,"171":-0.024748443776933235,"172":0.020900636490028004,"173":-0.03098431420697343,"174":0.18044164057890605,"175":0.0017937245743476894,"176":-0.06569618248131558,"177":0.02340008477818661,"178":0.13668096831743914,"179":-0.08947169919020001,"180":0.007913212092787437,"181":-0.01395770190794872,"182":-0.06375388608993782,"183":-0.0010749327935919482,"184":0.02151084992699897,"185":0.02612488550499123,"186":0.1386363067086853,"187":0.09446782861843553,"188":-0.07681311412074406,"189":0.04419844388785326,"190":0.12461122378412981,"191":0.061709246322083224,"192":0.04164162099629374,"193":-0.07247416147540871,"194":-0.10341353666151577,"195":0.05092896030448912,"196":0.06331731569445052,"197":0.06360459350890613,"198":-0.06038593382129488,"199":0.1095906256258135,"200":-0.11524654411541896,"201":0.03616328999874099,"202":-0.05159990985112092,"203":-0.012996495014563644,"204":-0.018597678199227915,"205":-0.021652502805319346,"206":0.0008327342751570518}},{"sx":1,"sy":1,"depth":207,"w":{"0":-0.0373836262905848,"1":-0.19599877409592137,"2":0.050914754077689715,"3":0.08532168208350345,"4":-0.09867973217059729,"5":0.029735723941186763,"6":-0.12397713649116662,"7":-0.1714492272790033,"8":-0.13313518496112195,"9":-0.08159200707830695,"10":-0.1746195140154918,"11":-0.11002150666505227,"12":-0.08873701418964731,"13":-0.11976608753252854,"14":-0.06882862086527923,"15":-0.14326842063514048,"16":0.08197124028114082,"17":-0.008476694850662294,"18":-0.048752665420263255,"19":0.11894920847857487,"20":-0.12744069102450223,"21":-0.09989440870939166,"22":-0.022746121232926537,"23":-0.06262187739189089,"24":-0.09550887259903088,"25":-0.00921468697341792,"26":0.02699303126829035,"27":0.03466103283522314,"28":-0.2288256556411941,"29":-0.20068208572874802,"30":0.09419381385775029,"31":0.017228770037850918,"32":-0.06578391793572474,"33":-0.04708776982602639,"34":-0.07939683517375516,"35":-0.07940189385262683,"36":-0.056804460726243886,"37":0.054034761372028305,"38":-0.1004993417233497,"39":-0.06876002854737914,"40":0.0299323882535481,"41":-0.0902372040708935,"42":-0.04870346680700212,"43":-0.03750454414009709,"44":-0.01440240960947961,"45":-0.05128921426022728,"46":0.04295804608795091,"47":0.1077966046258313,"48":0.0010806780806515092,"49":-0.09334117514559759,"50":-0.050769523599667056,"51":0.07299094790865918,"52":-0.05429574922862157,"53":0.09048707925685905,"54":0.10263230576302695,"55":-0.10996790516093637,"56":-0.022054833335902784,"57":-0.015540937159522369,"58":0.10310585774660876,"59":-0.00741026703162072,"60":-0.008959524005823788,"61":0.01652493236165556,"62":-0.07757002081683273,"63":0.05058774726563235,"64":0.12620878947555927,"65":0.022712485259625406,"66":-0.027210665271714753,"67":0.017047531648915454,"68":0.013438335569379973,"69":-0.001751271891955136,"70":-0.05411783015323478,"71":-0.03624074642192418,"72":-0.027612652046851316,"73":0.10884559698480477,"74":-0.15369412965256143,"75":-0.041120706465702234,"76":0.018747467568237308,"77":-0.08783917803953939,"78":0.048048558161379595,"79":-0.08070789359787169,"80":-0.017739329234826087,"81":-0.02526039939624888,"82":-0.11629920343670345,"83":0.0013909553760756217,"84":0.09922678810846196,"85":0.13841645562930116,"86":0.059732600355345215,"87":0.009168559989519898,"88":-0.08706678980608659,"89":-0.014060821302196498,"90":-0.025498760339620823,"91":0.028888001438768244,"92":-0.06387061333158803,"93":-0.015622446586195514,"94":-0.0024311250757023655,"95":-0.0417652631399813,"96":-0.09425936320785311,"97":-0.07607926594380257,"98":0.08377247815632904,"99":0.01800922919426047,"100":0.01565501209385362,"101":-0.09456255193608819,"102":-0.17867493511876908,"103":0.01802826679578001,"104":0.05888172640023733,"105":0.0030229593642117957,"106":-0.04771119381891703,"107":-0.05449917083932853,"108":0.12524769671430638,"109":-0.05083595587278879,"110":0.015480904912928629,"111":0.06205742638688101,"112":0.07977097368250077,"113":0.022816003845921116,"114":0.08206766234784973,"115":-0.04047754480915101,"116":0.09183844061309578,"117":-0.01609148889057846,"118":-0.04742116793679686,"119":-0.012332903963765069,"120":0.07564349586573393,"121":-0.06646125721194608,"122":-0.03252438950888058,"123":-0.10509620540564343,"124":-0.066593226713654,"125":-0.12299300859601796,"126":-0.010114842046539651,"127":0.06503554005972892,"128":0.049602721165958985,"129":-0.1308403461791881,"130":0.04330625174522839,"131":-0.011164592421593546,"132":-0.05585911155570233,"133":-0.008654984936047258,"134":-0.03004709586502847,"135":0.06623288356117067,"136":0.06876658759929972,"137":-0.09164475539124436,"138":-0.0014796118087603794,"139":-0.0781842864322467,"140":-0.11909702952582026,"141":0.03964591532590097,"142":0.024830329833640422,"143":-0.07747667125183398,"144":0.0772526723211967,"145":-0.05880513443543048,"146":0.08183460088076797,"147":-0.09037857171394369,"148":-0.04175676365533739,"149":-0.00484996327076598,"150":0.07228205024378594,"151":0.05826450840425979,"152":0.07742220786297022,"153":-0.015192101382525114,"154":-0.05600152538556926,"155":-0.13847480871587517,"156":-0.11978104738844715,"157":-0.028175819174728684,"158":-0.06161142632242092,"159":0.04827863205219762,"160":0.031115692448228757,"161":-0.051982465302510175,"162":-0.007530832325985624,"163":-0.09083268697098885,"164":-0.07124552426634988,"165":0.11758168050862386,"166":-0.05010821480631074,"167":-0.11160846193692822,"168":0.14790017756302717,"169":-0.023629498641473227,"170":-0.06060556625745806,"171":0.0219464071314257,"172":-0.07903284380669287,"173":-0.02252332072977113,"174":-0.007510515814912298,"175":0.06943729208810016,"176":0.027468253439559626,"177":-0.041845017750162194,"178":0.03807625593778655,"179":0.054318466779282724,"180":-0.05670817514155181,"181":0.0975877504271303,"182":-0.0037285008334240343,"183":-0.014964539007532463,"184":0.016849208028214505,"185":0.025889092007499597,"186":-0.0653212181223527,"187":0.0014406558472776563,"188":0.059712710843606964,"189":0.09491956286723777,"190":0.004866043157754973,"191":-0.026909970963103932,"192":0.07193244449153123,"193":-0.05070884304784874,"194":-0.031578587084547326,"195":0.0009189138082061408,"196":0.006690272334888793,"197":-0.11191758197540554,"198":-0.04141042864398572,"199":-0.008148745265529812,"200":-0.05487791058114887,"201":-0.0663281399965647,"202":-0.03237700297794636,"203":0.08963766428701055,"204":0.038544149837110575,"205":-0.00894563866248569,"206":0.08497192122312754}},{"sx":1,"sy":1,"depth":207,"w":{"0":-0.03942222276546153,"1":-0.11456883415015495,"2":0.0575399767479993,"3":0.005778946986151609,"4":-0.1408662626214736,"5":0.026668117090499373,"6":0.15523703191389182,"7":0.029540478677144988,"8":0.12037370197307236,"9":-0.1811943956182859,"10":0.001315217805081831,"11":0.06001675885265251,"12":-0.03695385268523619,"13":-0.011723011054048547,"14":0.06688946324803137,"15":0.009700525140702297,"16":0.1504241557932337,"17":-0.02865597308252064,"18":-0.0041832000198449,"19":-0.0008511078934484234,"20":-0.046476116327568574,"21":-0.07923636563408473,"22":0.013307894493699395,"23":0.02269246744903177,"24":-0.021660529181840443,"25":-0.027920274007996182,"26":0.042750919472022524,"27":-0.08107313981310058,"28":-0.0004627794152786519,"29":0.07640651637671704,"30":-0.07282663335623095,"31":-0.006352336725550102,"32":-0.020659602384936967,"33":0.009148167738562227,"34":0.005182654135600657,"35":-0.04665034958147568,"36":-0.012042550077012036,"37":0.07736060099275059,"38":-0.06997672159342583,"39":0.07881860261675429,"40":0.11114586416855667,"41":0.01560028756418248,"42":-0.03321352489265329,"43":0.0350911181793391,"44":0.052360911048441226,"45":-0.13738091250370782,"46":-0.03388926228423672,"47":0.07242259483416115,"48":-0.025480725710189875,"49":0.07593837100787115,"50":0.028411226863485788,"51":0.007599679078234824,"52":0.028451652196523677,"53":-0.023801154471889022,"54":-0.01161885642082627,"55":0.011846680825446751,"56":0.011137609375795096,"57":-0.04242445116450587,"58":-0.08238560901986376,"59":0.06442269517759991,"60":0.01503587939763253,"61":0.05495317297874878,"62":-0.0052634104573928975,"63":-0.06943503227528292,"64":0.04351237698882549,"65":-0.01229398233877745,"66":-0.02885301865725176,"67":0.023567482967371305,"68":-0.001985771097596717,"69":-0.04118590407968548,"70":0.00044823231720882525,"71":0.10486851301216671,"72":-0.022234906521701882,"73":0.025544394486572246,"74":-0.0406422257689167,"75":-0.0056872057489700725,"76":0.1027954341252345,"77":0.07112025539345575,"78":-0.0319054477486428,"79":0.07384941789577336,"80":-0.002797397328599243,"81":-0.03139345213325222,"82":0.030862301979740117,"83":0.06368016848074576,"84":0.07173454652665726,"85":0.070995239078484,"86":-0.071447397682698,"87":-0.041661543560201186,"88":0.00046296577645706864,"89":-0.06007274341730889,"90":-0.09528226854712873,"91":-0.053650501697517575,"92":-0.08863957459979566,"93":-0.0940971852476451,"94":-0.01014029544102767,"95":-0.025590418112226027,"96":0.025571055495946057,"97":0.09739488423022559,"98":-0.030832086647293925,"99":-0.006678338251178505,"100":0.04020587615351666,"101":-0.012599618914275546,"102":-0.02153710221810506,"103":-0.021759718596833618,"104":-0.04826554320625786,"105":-0.047276263747633836,"106":0.017632044007295778,"107":-0.089369620556618,"108":0.10837481566809155,"109":0.05791626929371371,"110":-0.11184153609086679,"111":0.1074273304718432,"112":0.08716683922732557,"113":-0.050250627205969504,"114":-0.001768904639956285,"115":-0.08787282340984084,"116":-0.045056936778486226,"117":-0.018556656140968093,"118":-0.04030361539762244,"119":0.027243259945012248,"120":0.13921163411997542,"121":0.025608225906829162,"122":-0.019812300939083066,"123":-0.011441421868995535,"124":-0.06305124330453798,"125":0.0020805967180782784,"126":-0.02854948973179774,"127":0.029652792006403587,"128":-0.06661500744915728,"129":0.00594071822305108,"130":-0.028483304177271893,"131":0.00008737912903976987,"132":0.02513748040332986,"133":-0.1036650114243918,"134":-0.11562332735516827,"135":-0.10171360831149355,"136":0.034381645960926736,"137":0.09561713446611367,"138":0.04753593960033958,"139":-0.05906223194964248,"140":0.09242433129168359,"141":-0.10256933348559445,"142":-0.1321168197901237,"143":-0.02379816143160549,"144":-0.07836063955608305,"145":-0.03800000159149653,"146":0.14955744633781776,"147":-0.004331161656614711,"148":0.046487954447923086,"149":0.0459333192371754,"150":0.023529157397308542,"151":0.12433783091660598,"152":-0.10216287553046399,"153":-0.07807920319757906,"154":0.0941241979298746,"155":-0.030094177528001153,"156":-0.035925860328060784,"157":0.04947390233189741,"158":0.11609995373049294,"159":0.029850112852683873,"160":-0.007564107258494802,"161":0.014326388290354215,"162":-0.06364169162863004,"163":-0.01960987368710118,"164":0.10890917823936415,"165":-0.02135622743676875,"166":-0.03719231001121095,"167":0.034717812388657066,"168":-0.06772546066308069,"169":-0.0449912831312571,"170":0.0023903979662480185,"171":0.0680178304338164,"172":0.06942885382804102,"173":0.09427153900007955,"174":0.04527250587692601,"175":-0.07352296041657173,"176":0.016737200983159093,"177":-0.07418607648648588,"178":0.03558476793415841,"179":-0.01317640108616876,"180":0.019214812861856525,"181":0.02499025503000417,"182":-0.026134885424329853,"183":0.06582838118800237,"184":-0.029929733732142923,"185":0.06340679891101571,"186":-0.2201315104252312,"187":-0.06974210785203812,"188":-0.08223515647027217,"189":-0.0581842898199636,"190":-0.0368411135571953,"191":-0.19142714579227607,"192":-0.061046954666952355,"193":-0.017025472674902474,"194":-0.07593316931350372,"195":0.08577531871142764,"196":0.09141119974016604,"197":-0.02027974696352231,"198":-0.02001297478543801,"199":-0.14062778410961702,"200":0.035511150554423304,"201":-0.025198141372458488,"202":0.026321958830029517,"203":-0.0008798939599980974,"204":-0.05248019615178415,"205":-0.019775339564185992,"206":-0.01815179896755765}},{"sx":1,"sy":1,"depth":207,"w":{"0":0.21723503366264493,"1":0.5198148585181516,"2":0.25322565574802713,"3":0.07850183833876527,"4":0.6328357304933167,"5":0.09778088621157328,"6":0.0724443099415243,"7":0.34702442442542414,"8":0.2006331959600244,"9":0.09740195011463787,"10":0.33587688192426957,"11":0.2194722077272417,"12":-0.04400235605010465,"13":-0.09002232866329112,"14":0.01451861004791638,"15":0.02409532940183659,"16":0.06574526345021664,"17":0.24018325857899994,"18":0.14814480702033345,"19":-0.04427405285812423,"20":0.0953245026714563,"21":-0.14309826481088206,"22":-0.009369555658676658,"23":0.08872781845693072,"24":0.0010462985178794923,"25":0.19562871652784466,"26":0.07594760372663796,"27":-0.02250055768080452,"28":0.07647807367785547,"29":0.12204318971600679,"30":0.08330303377945082,"31":0.027591638236267757,"32":0.0805285927392269,"33":0.00386727135245538,"34":0.06558130889435265,"35":-0.005336466302130012,"36":-0.06541738786734877,"37":0.004164724267567079,"38":0.09858129047394666,"39":-0.07018040647088648,"40":0.06508280023226998,"41":-0.13572561860863763,"42":-0.1888763446044598,"43":0.045707633345894644,"44":-0.057776718067129786,"45":-0.14386086114203306,"46":0.012046231600192399,"47":-0.09406495469465762,"48":-0.021677301511091124,"49":0.06401697166965777,"50":0.02873311328102314,"51":0.013449723589314377,"52":0.08056093909312724,"53":-0.017015245662034165,"54":0.06757059837629141,"55":0.03485758067789518,"56":0.06757308565910985,"57":0.039905464889411824,"58":0.027448858510016345,"59":0.10441813156512537,"60":0.11002316119595283,"61":-0.03609761406509579,"62":-0.06875959555686628,"63":-0.03049553668211682,"64":-0.14653202948184887,"65":0.16738412973254316,"66":0.053637223719348495,"67":0.10891605056061024,"68":0.1566828161080689,"69":-0.07201810165342099,"70":0.025580191386408126,"71":0.0754631406042847,"72":0.053286583206721166,"73":-0.0277251230247637,"74":0.07278036533295634,"75":-0.017610284284883437,"76":0.06457317301018095,"77":0.046049035364143086,"78":-0.06737793229139329,"79":-0.03297682517052973,"80":0.1145455086023636,"81":-0.0963252868910381,"82":0.012736391036077486,"83":0.04829738456579448,"84":-0.17031847790957047,"85":-0.03604835871895639,"86":-0.011123215309848751,"87":-0.14978649550079728,"88":-0.035900188846024146,"89":0.15709739427805994,"90":-0.10856267801681667,"91":-0.013722817403504175,"92":0.002635239975925369,"93":-0.03286165240152151,"94":-0.027010131033812182,"95":-0.11496381596819266,"96":-0.006849047958939414,"97":0.09712030481681647,"98":0.03159496197926446,"99":0.04178963058054561,"100":0.03532822511874014,"101":0.03018762752403555,"102":-0.039193814994403935,"103":0.08966945476758091,"104":-0.03873350280263713,"105":0.03401539958247173,"106":0.09538112664726263,"107":-0.11203450544552447,"108":0.0425919724110114,"109":-0.08271232054912048,"110":-0.033284760194774755,"111":-0.03600924454931425,"112":0.0751298038738925,"113":0.08852402518544515,"114":-0.006533620698156045,"115":-0.02025676595546838,"116":-0.0018172998193033937,"117":-0.05173199087336658,"118":0.008775467673341218,"119":-0.01369274270528502,"120":-0.02930005017581243,"121":-0.02580043813985243,"122":-0.0058923610787958505,"123":0.04323159854498591,"124":-0.014868542083488943,"125":-0.03732452647821254,"126":-0.11060388043411108,"127":-0.06747640659903506,"128":0.06326079688607454,"129":0.11200795910394164,"130":0.1801382952055127,"131":0.04966070286989367,"132":0.0657400476390795,"133":-0.03081766658629208,"134":-0.062148482794344935,"135":-0.0037988886796232993,"136":-0.04075314000061672,"137":0.031093424071423858,"138":0.012224177670442036,"139":-0.0678114817439509,"140":0.02093322907007523,"141":0.00837996213532905,"142":-0.06306167733194558,"143":-0.006671677022668608,"144":0.11157878191050853,"145":0.06546717577078287,"146":0.051659866708318576,"147":-0.04390330879663123,"148":0.034004290958993266,"149":-0.059188902586342844,"150":-0.06282710577436143,"151":-0.03671656178503343,"152":-0.04693899047201457,"153":-0.08004788715775706,"154":-0.05631232899548121,"155":0.03044759594191755,"156":0.0025408814099590993,"157":-0.02547475022611751,"158":-0.06559014779190042,"159":-0.044714468430108664,"160":0.10297496479713711,"161":0.05199355064072438,"162":-0.02822535097694312,"163":0.07597023444143504,"164":0.006550548297609982,"165":-0.051295842086386274,"166":0.04530455546997806,"167":-0.02003629523036477,"168":-0.05340960331009218,"169":-0.10408796618034902,"170":-0.024688095988127476,"171":-0.09177479327535305,"172":-0.03719827205462636,"173":-0.12660196389683254,"174":-0.022141022533424363,"175":0.10101157966836041,"176":-0.03730776811842883,"177":-0.0672400466675801,"178":-0.02837109432623241,"179":-0.13103337939453116,"180":-0.07441011160888175,"181":-0.0740533773516325,"182":-0.006843985341596018,"183":0.08386867534729027,"184":0.04429580851321579,"185":-0.00947780974640184,"186":0.025678528628080358,"187":-0.04122770675215916,"188":-0.0015969027624646026,"189":0.059279705844627356,"190":-0.012211723013061521,"191":0.018300835737519464,"192":-0.059339648601907276,"193":0.032463814713732095,"194":-0.0043947359057175134,"195":0.03452547472599278,"196":-0.04970758797321684,"197":-0.01898649382635839,"198":0.04676181163298334,"199":0.08874131035954569,"200":-0.030870636948224804,"201":-0.04979800566454205,"202":0.005088285013764713,"203":0.01295151737668039,"204":0.02392668851020964,"205":0.03590172391611505,"206":0.03987151559767}},{"sx":1,"sy":1,"depth":207,"w":{"0":0.02517470804357284,"1":0.012989517039498645,"2":0.03578167425385199,"3":0.04641217244437593,"4":-0.05951450519845097,"5":0.0203419301367507,"6":0.012479004982307211,"7":-0.0149578331065239,"8":-0.03350173714617046,"9":0.03448920528467729,"10":-0.017001255344231175,"11":-0.06529451004774178,"12":0.10159101713926001,"13":-0.08012793320607382,"14":0.060233518794349857,"15":-0.004526479523938312,"16":-0.14258376681544319,"17":-0.042061297929377614,"18":-0.017564693921676172,"19":-0.08327881121936992,"20":-0.0189588657102644,"21":0.1390917674347668,"22":0.06413103275764075,"23":-0.1097293929323069,"24":0.012551386739946182,"25":0.05928222236564658,"26":0.006331287958135551,"27":0.017539302919212074,"28":0.00298476965721194,"29":-0.033427979615625186,"30":0.12257249989683432,"31":0.049781217490972536,"32":0.07679718562624287,"33":0.05634036563136435,"34":0.00024795882341983666,"35":0.0877437822451538,"36":-0.08813970919499835,"37":0.0067835539670254765,"38":0.055877041605995555,"39":-0.04454022052035729,"40":-0.021322608163367125,"41":-0.01719375717339977,"42":-0.002055415367242259,"43":0.0002824342205499023,"44":0.04530141276230081,"45":0.11910071817206193,"46":-0.003835010480515236,"47":0.036077434040029215,"48":-0.10101656187297418,"49":0.003666870359698989,"50":-0.08671598900256007,"51":0.0693855459946897,"52":0.05658941974166505,"53":0.06350994239788021,"54":0.05330441563726769,"55":-0.05538068254767494,"56":-0.016309380296195088,"57":0.07790319012115303,"58":0.03663606153146891,"59":-0.05022488861073637,"60":-0.07191268561778343,"61":-0.03086976973269332,"62":-0.01117308830518994,"63":-0.032359910853652106,"64":-0.04702103734778798,"65":0.08779024974733333,"66":0.09686177877049834,"67":0.00702494385522305,"68":-0.020886194119599053,"69":0.00278941854052566,"70":0.009646785808027305,"71":-0.055471332395554206,"72":-0.11151908618883861,"73":0.04237815095125371,"74":0.05704401392242053,"75":-0.1149447459726513,"76":-0.05541092649583019,"77":0.05090134908124084,"78":0.02271902556717563,"79":0.1303484042092147,"80":0.04112685598508403,"81":0.0463034068239701,"82":-0.10311583173156695,"83":-0.09617874487673893,"84":0.1426507678932116,"85":-0.03084716131968045,"86":-0.040494564151070854,"87":0.0169733763323264,"88":0.09847962957670565,"89":0.012699200943459983,"90":0.021900486544043432,"91":0.003153902997335423,"92":0.06103847020857475,"93":0.07445280775581,"94":-0.012796872803172394,"95":0.09235244253979638,"96":-0.022494891931265904,"97":-0.08311768928558069,"98":-0.06434344437818282,"99":0.1462456871800468,"100":0.010211490516600339,"101":0.08922579377357916,"102":0.050971749767875864,"103":-0.051394611263368584,"104":-0.13916977047113244,"105":0.13380545443169642,"106":-0.07904546607349597,"107":-0.020819034557818517,"108":0.020185030408313945,"109":0.009425776268479687,"110":-0.13899513688664444,"111":0.0066555933130022175,"112":-0.03824881871728815,"113":-0.08877291146070337,"114":0.0020167650295239495,"115":-0.0022577551642710436,"116":0.09528747065488732,"117":-0.14043162084770872,"118":-0.008731760151658411,"119":0.041301219709378466,"120":-0.09152097918657942,"121":-0.01856586754986897,"122":-0.028762123040888817,"123":0.04293069695821858,"124":0.036117897708571545,"125":-0.1696659257167407,"126":-0.01487558389703026,"127":-0.028832578830913277,"128":0.03121325036531558,"129":-0.004025066671101195,"130":0.07438845027225689,"131":0.02249211964392911,"132":0.02972832514894201,"133":0.05776283242692866,"134":-0.05481781129729237,"135":0.038653218691142514,"136":-0.17281541571157505,"137":0.06874776359140859,"138":-0.02804108092375311,"139":-0.016069396979742738,"140":-0.02736131873507538,"141":0.027565009021166726,"142":-0.02553490687094983,"143":0.0378918510767552,"144":0.06740768260704538,"145":0.05959492444565351,"146":-0.07393123328257709,"147":-0.06016136556969422,"148":0.014358772140618009,"149":0.01869746775316236,"150":-0.057819681605889094,"151":0.0003512631753953917,"152":-0.04356053329007878,"153":-0.08861648921397554,"154":0.05962243068059481,"155":0.01994097699381922,"156":-0.03649960171655038,"157":-0.1327134956243715,"158":-0.06428029219145875,"159":0.002906525627033183,"160":0.10569280781872675,"161":0.013033544616019313,"162":-0.01712416101106574,"163":0.086816232013673,"164":-0.041922933602029824,"165":-0.028699727114660338,"166":-0.1519412122719858,"167":0.026881933264772045,"168":0.0530233011755265,"169":0.02285233625070827,"170":0.08356687040007311,"171":0.006188435746351173,"172":-0.0779791553389339,"173":0.020149923246797274,"174":0.023056138755211827,"175":0.029260797295845246,"176":-0.06540392906472414,"177":-0.009484299974818066,"178":0.035987514293185786,"179":0.07051740363184504,"180":-0.012314759885841686,"181":0.011850207803037166,"182":0.001535150558148624,"183":-0.15708488408700746,"184":0.0403561994984185,"185":0.017685186503616338,"186":-0.03153467456319832,"187":-0.06142710036909695,"188":-0.012890220889346762,"189":-0.12983761229943427,"190":0.10611368619778479,"191":-0.04232735228183253,"192":-0.06395593571989489,"193":-0.10597391430303396,"194":-0.04288445051516786,"195":0.0027688608676420126,"196":-0.03328860560505254,"197":-0.07467958988172722,"198":0.019865967921322426,"199":0.029408394314478663,"200":-0.07082784443332048,"201":-0.02710960195798296,"202":-0.052892431737611656,"203":-0.03402784747791728,"204":-0.0194737518276117,"205":0.05995510671541916,"206":-0.11601979491884401}},{"sx":1,"sy":1,"depth":207,"w":{"0":-0.06810678290530015,"1":-0.03183605413944565,"2":-0.02965224002461322,"3":-0.03889316548029412,"4":0.06619512218034967,"5":-0.06831630083141446,"6":-0.022660849608415797,"7":-0.014512810795477428,"8":-0.10335580972870333,"9":-0.04208523740491597,"10":-0.0834754915774753,"11":-0.005410893699478894,"12":-0.09612561581693822,"13":-0.02528479149925161,"14":-0.06291341683456912,"15":-0.03210997773770282,"16":-0.1033716534734292,"17":-0.1036661656974343,"18":-0.16872616958233247,"19":-0.026212444573971955,"20":-0.07938265822364525,"21":-0.06440073720576232,"22":0.09623217077807762,"23":0.025248970039766956,"24":-0.017253021080959823,"25":-0.05353147794467954,"26":-0.06438411236288374,"27":0.05709489189214311,"28":0.008352589835265678,"29":0.05877278097165829,"30":0.012004379789004203,"31":0.0028915598810368794,"32":-0.042191863801670816,"33":0.048954023327756065,"34":-0.10149814900642987,"35":0.04863429482987198,"36":0.02085906673113374,"37":-0.004031408418605572,"38":0.14792479939701625,"39":-0.06400722516450195,"40":-0.06281155248467438,"41":-0.037631568600489274,"42":0.06744565410596697,"43":-0.15394039652612723,"44":-0.06876210877932355,"45":0.045982313678957616,"46":-0.11302356272659193,"47":-0.12432707978865216,"48":0.007731886514100473,"49":0.05075576741170396,"50":0.11551228926434737,"51":0.020737983137425576,"52":-0.046952005564722704,"53":0.04809600229461865,"54":-0.01588288070038796,"55":0.05040888860179618,"56":0.022995211119575854,"57":0.026332986052774888,"58":-0.010411301158199543,"59":0.06452056888121192,"60":0.21102682351936683,"61":-0.028343049306863658,"62":0.024606821868641573,"63":0.03598152712244026,"64":0.031867725691670186,"65":-0.03548267885385937,"66":-0.06216688753823555,"67":-0.06939030545577246,"68":-0.05442436141667032,"69":0.0468888054715022,"70":0.0011668291623707118,"71":-0.0583235046523174,"72":0.026461160201300276,"73":0.12647858835433773,"74":0.02272772448793835,"75":0.019324131153390635,"76":0.05034877966097302,"77":0.06759633054313247,"78":-0.018893806968615402,"79":-0.031723109742019105,"80":0.04050695884309834,"81":0.11768775967399832,"82":0.13746561638065885,"83":0.012534584175004129,"84":0.024918750157054664,"85":-0.048411176548980965,"86":0.05556552415527808,"87":0.014343297354007079,"88":-0.11422626495092941,"89":-0.0410304995162886,"90":0.020607404208875926,"91":0.06375804846539186,"92":0.1430092825536571,"93":0.04462913777925472,"94":0.013479811244394731,"95":0.06990195601547784,"96":-0.0790807808931953,"97":-0.021665084675656126,"98":0.0371709705359502,"99":-0.05155910620752083,"100":0.07856565086839716,"101":0.0580756472641773,"102":0.017409455593020998,"103":0.04508118243187008,"104":-0.008258157898730308,"105":-0.012480673682729745,"106":-0.03999707946985543,"107":0.1241273171617817,"108":-0.02673427349928437,"109":-0.029577764648921704,"110":0.06606075999556249,"111":-0.018819468852370434,"112":0.09442720279114047,"113":0.24673523255997526,"114":-0.08479901871358579,"115":-0.013426147302694097,"116":0.02799925697423184,"117":-0.052535265408849265,"118":0.05056130692280452,"119":-0.016074682031108654,"120":0.10734739903088317,"121":-0.11471852376216997,"122":-0.025559719379727987,"123":0.041742272209598655,"124":0.008379834147441147,"125":-0.14349624703332994,"126":0.11805898048456205,"127":-0.04779002436068175,"128":0.060290056227754206,"129":0.005140280024573818,"130":0.04448432574955231,"131":-0.10824569107022158,"132":0.0797708942719528,"133":-0.05658217126337182,"134":-0.10055680306532067,"135":0.030809950672531967,"136":-0.02662808705919719,"137":0.05848189184436555,"138":0.029277917552504036,"139":0.045442596969947374,"140":0.006697083585615342,"141":0.026666737079381643,"142":0.17663526268377408,"143":0.08161120565573442,"144":0.03465537241012273,"145":0.11051867410068833,"146":-0.028219429434452086,"147":-0.028907999315667496,"148":-0.0660864778505778,"149":-0.10883242269500674,"150":-0.05188669636046485,"151":0.016160029666674184,"152":-0.08177812771431413,"153":0.01120631170624876,"154":-0.10525637586522227,"155":0.027734081135336302,"156":-0.06797901371491105,"157":0.020058838377734485,"158":-0.056441465372404014,"159":0.0286860138583356,"160":0.045702080186258286,"161":0.10358280737578028,"162":-0.09533332041554807,"163":-0.029134058842255735,"164":-0.06097373509525674,"165":-0.05432077833055269,"166":-0.034758909668243576,"167":0.07582957896078298,"168":-0.010522008038340646,"169":0.01627242883334289,"170":0.06706359094503352,"171":-0.042244017959774206,"172":-0.04064194127305116,"173":0.05388555549187824,"174":-0.073935322215029,"175":-0.10632880761694455,"176":-0.12097261716362846,"177":-0.1844660300066634,"178":0.007122984788691976,"179":-0.021503952035123723,"180":-0.0224553023818187,"181":-0.08846822469741814,"182":-0.04249471267645163,"183":0.1159589063810255,"184":-0.05183859203514812,"185":0.08480075294224912,"186":-0.09142008773049039,"187":0.06916834368753152,"188":0.05659321494217645,"189":-0.009691947761403032,"190":0.015797253735012007,"191":-0.06572452622633371,"192":-0.06010789006637973,"193":0.03044941974218253,"194":-0.0696778838024205,"195":-0.0250289283803278,"196":-0.034455571584227296,"197":-0.0144128746068624,"198":0.03567415021209728,"199":0.062475025452414366,"200":0.10043795195179696,"201":0.02235322879855304,"202":-0.045777808957173274,"203":-0.04084455947678514,"204":0.091957581639215,"205":-0.0075207830579849455,"206":0.03240284469733367}},{"sx":1,"sy":1,"depth":207,"w":{"0":0.11686456838730658,"1":0.19621315873258158,"2":0.011807420523944748,"3":-0.030448717751868137,"4":0.02615339398924222,"5":0.06963300619574785,"6":-0.03727748832578231,"7":-0.0185831894785881,"8":0.04690528601974199,"9":-0.0020241317223984685,"10":0.004163852299070121,"11":-0.03856030905403877,"12":-0.10918093272485956,"13":-0.12483503457300148,"14":0.06809697776976135,"15":0.02521950844827613,"16":-0.05704903550910022,"17":-0.05116771571529264,"18":0.005297942743049273,"19":-0.11817998975966175,"20":-0.036662377188352864,"21":-0.00859492853719504,"22":-0.09683818340440824,"23":0.05826350885658771,"24":-0.04303734538315942,"25":0.02658412674928551,"26":0.02901941615861191,"27":0.0338419641735734,"28":-0.024452279222702183,"29":-0.015304588766262488,"30":-0.05079024357288633,"31":0.015739114642346144,"32":0.17591864849538608,"33":-0.0369273311131659,"34":-0.013967931640525316,"35":-0.061456221760469124,"36":-0.10809748966521851,"37":-0.11717147919383739,"38":-0.0693387286799197,"39":0.03168249774349076,"40":-0.019486757879030512,"41":-0.07597761131423274,"42":0.10684103385154209,"43":-0.028697779318282084,"44":0.0826439171629505,"45":-0.07746206859571131,"46":0.1524397314714381,"47":-0.007367322835869917,"48":0.013831312589557157,"49":-0.05110380040513023,"50":0.04868466597398959,"51":0.008299713499960696,"52":0.03884993632713719,"53":0.05519336498846611,"54":-0.11045990223406175,"55":0.07102525977993322,"56":-0.03497952853005908,"57":0.011902247293383494,"58":-0.04555187923704185,"59":0.12303579666786893,"60":0.08100606494985618,"61":0.023902386988019622,"62":-0.053775064624209355,"63":0.014317364042760728,"64":-0.029095753649142818,"65":-0.033536134504839735,"66":0.04739828760954179,"67":-0.01613132951847259,"68":-0.057711390345219896,"69":-0.045183390220743316,"70":0.1291767577252116,"71":0.013539668222126822,"72":0.02273335046249408,"73":0.10487609872218774,"74":0.05812184122765788,"75":-0.10500473063278123,"76":-0.018046710521830215,"77":0.04891035815097229,"78":0.07351890338667204,"79":0.013939678397400027,"80":0.05974815282728679,"81":-0.10837116018282038,"82":-0.13530450164103694,"83":-0.10031852246462435,"84":-0.04615544284882969,"85":0.004745609784291997,"86":-0.10937677759122823,"87":0.018957599969914904,"88":-0.06444025615081844,"89":-0.01332813780257667,"90":0.08668624572618347,"91":0.036675091197362494,"92":0.13522278366180387,"93":-0.013558460846298892,"94":-0.05339600106072706,"95":0.08598086506186484,"96":-0.0793228180526091,"97":0.05355636735031867,"98":-0.021975670942346617,"99":0.028447754090938568,"100":-0.035495474250370675,"101":0.1301952329203298,"102":0.0880916770414064,"103":-0.012054696537725338,"104":-0.05615659585662903,"105":-0.00907775697228911,"106":0.06899000560352571,"107":0.029297249545489946,"108":-0.03672127979797718,"109":0.08775092401555788,"110":-0.04129479214247869,"111":0.09175589731386606,"112":-0.020622222759160758,"113":-0.01237299991975079,"114":-0.03340716471130473,"115":-0.031231355928944785,"116":-0.03980176240438957,"117":0.05873537377450512,"118":0.060094001743837014,"119":0.020738155180642318,"120":-0.07503595228310937,"121":-0.035259390977611174,"122":-0.04067845691389806,"123":0.007979582617262027,"124":0.07168580379111168,"125":0.03326184432845476,"126":0.07527652971568727,"127":0.0018491705727076003,"128":-0.011894142149158873,"129":-0.06149959228681694,"130":0.031288490380694825,"131":-0.009036370163263007,"132":-0.13672776346802598,"133":0.030771866433332715,"134":0.06150048491356717,"135":0.051681973686594114,"136":-0.02556674227875326,"137":0.06316270081138882,"138":-0.024320966808136522,"139":0.03069079616058771,"140":0.08739936696850313,"141":0.128354228224158,"142":-0.17683021877083885,"143":-0.1098476610408895,"144":-0.001467730944855166,"145":0.08051747480242198,"146":0.03326213972839549,"147":0.04257019685100343,"148":-0.0952109101957968,"149":0.027547695107319716,"150":0.049473041391420704,"151":0.0016093187233439576,"152":-0.06804418676130201,"153":0.00984230580359329,"154":0.05400690032609895,"155":0.03131468660235704,"156":-0.0566100020270646,"157":-0.003425294700600632,"158":-0.24371061569596408,"159":0.08725420703801362,"160":-0.0014921326579698754,"161":-0.0066196658569312936,"162":-0.005199383071765156,"163":-0.09611365763354558,"164":0.10579763122022376,"165":-0.006230358237017722,"166":-0.03654990876575823,"167":-0.15960987537111115,"168":-0.09035641475054192,"169":0.00978475806981637,"170":-0.08556812744541288,"171":-0.022626066239411713,"172":0.04183745187857357,"173":0.03180248168031003,"174":-0.007408630923540285,"175":0.013400267684208265,"176":-0.061774467956641904,"177":-0.021240243645501745,"178":-0.08549524366800679,"179":-0.06253429766462722,"180":0.1043827620146634,"181":-0.054533215964155494,"182":0.11458418143987048,"183":0.024100527446943958,"184":0.015589376456668783,"185":-0.024006350123667985,"186":0.06699004319032624,"187":0.06594075496387515,"188":0.03850158497411295,"189":0.012127440785325082,"190":0.13102762716604877,"191":-0.05703421920693601,"192":-0.0037905390649631814,"193":-0.051919590131097655,"194":-0.04562904666599198,"195":-0.027179642666273887,"196":0.08910867888496665,"197":-0.023099222951316882,"198":0.013991534953971615,"199":-0.08094450824599142,"200":0.07166572204382181,"201":-0.007138569916763521,"202":0.08455951997726491,"203":0.06789721726747752,"204":-0.019255421262935325,"205":-0.02475641741287248,"206":-0.015152710777044012}},{"sx":1,"sy":1,"depth":207,"w":{"0":-0.051771357055994685,"1":0.05632794126523269,"2":0.00169507693904254,"3":-0.0120556418754294,"4":0.0969131591460637,"5":-0.05652456383938437,"6":-0.00786313406672889,"7":-0.0036544525234681467,"8":-0.08151348705541772,"9":-0.06614797471495856,"10":-0.04038202047827733,"11":0.03680926592139158,"12":0.02430181735516519,"13":-0.004666048959243603,"14":-0.09770013062773533,"15":-0.01745665988932376,"16":-0.07825515756463956,"17":-0.09593118042795992,"18":-0.05070708777356468,"19":-0.02136128064814404,"20":-0.03310557994801111,"21":0.040883248399828945,"22":0.017820661864340875,"23":-0.09806126247528035,"24":-0.10837695627172718,"25":0.03351347317884778,"26":0.07973450083182779,"27":0.02142725284317898,"28":0.013849162225023687,"29":0.1338761248730813,"30":0.019756844336923974,"31":0.006708028478199481,"32":-0.13381317097115084,"33":0.03368799643891831,"34":-0.08457613044523857,"35":-0.010881194905191205,"36":-0.08152797537318064,"37":-0.05065173862520322,"38":0.09265191371516751,"39":0.06287327096927228,"40":-0.062083432502291466,"41":-0.09450669098464042,"42":-0.17869964239952818,"43":0.07937877886435919,"44":0.1725953863075364,"45":-0.04455902012549948,"46":-0.025431065569852918,"47":0.04001494076393725,"48":0.09495482720462332,"49":-0.11917419760095445,"50":0.011754203777285917,"51":0.02185769989784869,"52":-0.032375331280430956,"53":0.11254209580456626,"54":0.06342290180741783,"55":0.04880726873870639,"56":-0.06937678878602961,"57":-0.028910277092784646,"58":0.02561925812739098,"59":-0.004053628553714429,"60":0.0332098903484648,"61":0.016969997623448745,"62":-0.023803342208543323,"63":0.03382488371827785,"64":0.1196367037416974,"65":0.04026373037493813,"66":0.0406669844979358,"67":-0.05957457271995873,"68":0.09106464630380874,"69":-0.02228955586533489,"70":-0.003223587578844846,"71":-0.010334204307321054,"72":-0.009378431288031147,"73":-0.039025351080083266,"74":-0.10729495387766706,"75":-0.06553632168356897,"76":-0.055090398887504645,"77":0.027494558867218768,"78":-0.07850274327692086,"79":0.06731039562896307,"80":0.016023285178101334,"81":-0.1441410118116956,"82":-0.026876206730317546,"83":-0.027657689607695792,"84":0.1402109278362113,"85":0.0017022611989294363,"86":-0.06796831111366551,"87":-0.03178734829262513,"88":0.03281421021748831,"89":-0.010386698772486722,"90":0.07705660952437211,"91":-0.06532287848072259,"92":-0.035296738699335646,"93":-0.02164084869427875,"94":-0.06177948677812967,"95":0.04235228575525211,"96":-0.08638962052730774,"97":-0.07190412511209936,"98":-0.08223790026650038,"99":0.005371460691716256,"100":-0.007114647007221168,"101":-0.061394365968082266,"102":0.07589345449280079,"103":-0.02224040585052016,"104":0.07895978464068117,"105":0.10013847689255899,"106":0.010375038751231044,"107":-0.04017391803228934,"108":0.061449817933348604,"109":-0.006308214888585617,"110":0.023230199736642806,"111":0.01577321093927767,"112":-0.0044471328046322795,"113":0.030767073061587255,"114":-0.08159826325070564,"115":-0.044534653323082526,"116":-0.008744298757018525,"117":0.005492515585929477,"118":0.024322892759606387,"119":0.041165534253318245,"120":0.034899069806979904,"121":0.01841635050098627,"122":0.10324139311981326,"123":0.13346480749014147,"124":-0.09489855810780932,"125":-0.09328359144776241,"126":-0.022877018273967417,"127":-0.00020245332663480008,"128":0.000052104000561743754,"129":-0.0484370172318549,"130":0.026838363606600815,"131":-0.05090967888876068,"132":-0.008059313629718545,"133":0.03595225399184327,"134":0.02670894601885129,"135":0.04667465511233498,"136":-0.0535913315859509,"137":-0.13116530898797002,"138":0.06712166209119416,"139":0.06256155280333654,"140":-0.022286886273200635,"141":0.057072994951314134,"142":0.01377906921014337,"143":-0.11010154112403207,"144":0.08371332866046115,"145":-0.045485197568619434,"146":-0.11296301106188571,"147":0.11161753532176646,"148":0.007285364438835692,"149":-0.0012231336603040046,"150":-0.034022822214941996,"151":-0.1368642779111057,"152":-0.015045073576323427,"153":0.07792964511356702,"154":-0.10228955099019231,"155":0.01844403614643513,"156":-0.006030388525687908,"157":0.011517878406012804,"158":0.02943353253027278,"159":-0.06434927422643909,"160":-0.012635980531594546,"161":-0.03650097336005346,"162":0.1257052111275101,"163":-0.04936742722311255,"164":0.07732774135654424,"165":-0.021523774679511398,"166":-0.11000423706998105,"167":-0.08612202909814139,"168":-0.06993936532605967,"169":0.10537954939038438,"170":0.1033510319770645,"171":-0.01848328471701882,"172":-0.052465003928276834,"173":0.03927365562712978,"174":-0.02655018830480988,"175":-0.06879318915978447,"176":0.025120670517879164,"177":-0.018090406155671392,"178":-0.009805542861978721,"179":-0.09156601412695324,"180":0.03724967164430729,"181":0.07516550386816856,"182":0.07195234987221602,"183":-0.08577152950298275,"184":-0.06842087477231575,"185":0.016236013341117406,"186":-0.09438698700608139,"187":0.01313191384663024,"188":0.10017420552289855,"189":-0.06359224153897695,"190":-0.08943911700905584,"191":0.07340529617271353,"192":0.11685927696149888,"193":0.03892102631094647,"194":0.13171941084187488,"195":0.012448276502856844,"196":-0.07461306593187836,