
//<![CDATA[

// a few things don't have var in front of them - they update already existing variables the game needs
lanesSide = 2;
patchesAhead = 15;
patchesBehind = 8;
trainIterations = 150000;

var num_inputs = (lanesSide * 2 + 1) * (patchesAhead + patchesBehind);
var num_actions = 5;
var temporal_window = 2;
var network_size = num_inputs * temporal_window + num_actions * temporal_window + num_inputs;

var layer_defs = [];
layer_defs.push({
    type: 'input',
    out_sx: 1,
    out_sy: 1,
    out_depth: network_size
});
layer_defs.push({
    type: 'fc',
    num_neurons: 100,
    activation: 'relu'
});
layer_defs.push({
    type: 'fc',
    num_neurons: 20,
    activation: 'relu'
});
layer_defs.push({
    type: 'regression',
    num_neurons: num_actions
});

var tdtrainer_options = {
    learning_rate: 0.001,
    momentum: 0.0,
    batch_size: 64,
    l2_decay: 0.01
};

var opt = {};
opt.temporal_window = temporal_window;
opt.experience_size = 3000;
opt.start_learn_threshold = 500;
opt.gamma = 0.7;
opt.learning_steps_total = 10000;
opt.learning_steps_burnin = 1000;
opt.epsilon_min = 0.0;
opt.epsilon_test_time = 0.0;
opt.layer_defs = layer_defs;
opt.tdtrainer_options = tdtrainer_options;

brain = new deepqlearn.Brain(num_inputs, num_actions, opt);

learn = function (state, lastReward) {
    brain.backward(lastReward);
    var action = brain.forward(state);

    draw_net();
    draw_stats();

    return action;
}

//]]>
    
/*###########*/
if (brain) {
brain.value_net.fromJSON({"layers":[{"out_depth":355,"out_sx":1,"out_sy":1,"layer_type":"input"},{"out_depth":100,"out_sx":1,"out_sy":1,"layer_type":"fc","num_inputs":355,"l1_decay_mul":0,"l2_decay_mul":1,"filters":[{"sx":1,"sy":1,"depth":355,"w":{"0":0.010018353979056652,"1":0.051230687430004064,"2":-0.06667369822303566,"3":-0.0781661122569858,"4":-0.005524651055721312,"5":-0.08965387998492441,"6":0.0030173054224950932,"7":-0.010066929911011813,"8":-0.03817676873912315,"9":-0.058626878245670255,"10":-0.006184666194099008,"11":0.08429102867037966,"12":-0.013867473964405672,"13":0.06040799594834392,"14":0.02224843212209885,"15":-0.004953092119118514,"16":-0.04168355603720559,"17":0.05138092129411685,"18":-0.08206592445497508,"19":-0.025268626821884917,"20":0.0664837249230254,"21":-0.020262035760902436,"22":-0.10666744376845277,"23":0.011850894864932257,"24":-0.13147167672105162,"25":-0.01978976365912955,"26":-0.06247791703470068,"27":-0.01630775148268202,"28":0.09950506594944453,"29":0.09880978009179586,"30":-0.006418810232918847,"31":-0.0049292249474148595,"32":0.05673007095220901,"33":-0.01760360898131622,"34":0.02070688896533704,"35":-0.07690920613700997,"36":-0.09003416773532752,"37":-0.047742426408528695,"38":-0.03745681091968304,"39":-0.03574673639394739,"40":0.010192231404718583,"41":-0.08212449411462026,"42":-0.019723385859503267,"43":-0.030107817522526215,"44":0.07185199286558484,"45":0.04180290317241123,"46":-0.019846252886262496,"47":-0.033371803521702804,"48":0.008955106583878828,"49":-0.0007382381105446317,"50":0.04284841679662257,"51":-0.07209360532626684,"52":-0.043666783502417664,"53":-0.04315078755070847,"54":-0.038374575728205934,"55":0.032221745891786745,"56":0.060899199442084,"57":-0.03632532077526715,"58":-0.0021977843662656666,"59":0.11829485794222112,"60":0.12485047408572182,"61":-0.039018361222369825,"62":0.06559139339782183,"63":0.019503350598236,"64":0.006112015857404045,"65":-0.03801640032910158,"66":-0.00517323911695012,"67":0.016637852739985585,"68":-0.056891747825665806,"69":0.05710071876979138,"70":-0.022805001944990987,"71":-0.017984190672818746,"72":-0.009774539417888835,"73":0.09695430777802608,"74":-0.01855025995065631,"75":0.027607496855031836,"76":0.00788590185277347,"77":0.0681118217351975,"78":0.054979967955645546,"79":-0.0357106782210265,"80":-0.05175678504219476,"81":-0.011220202637562677,"82":0.0069699243870311595,"83":0.03763441151788258,"84":0.006190506305890319,"85":0.03420994092598224,"86":-0.0644343177903486,"87":-0.059047897357130175,"88":0.12467808066995113,"89":-0.027482757567736937,"90":-0.011237570900807195,"91":0.014321138480094696,"92":-0.03750862264076678,"93":0.05127948516973092,"94":-0.025268502264509475,"95":0.04890495159293059,"96":-0.020143632271271597,"97":-0.01661241230944952,"98":-0.01588176614615977,"99":0.027864485491533638,"100":-0.02722476637605839,"101":-0.009698502509892067,"102":0.04409563261396972,"103":0.015393773561501,"104":-0.06286036053992201,"105":-0.055240065833008105,"106":0.0011091777264981945,"107":-0.0039938595610994575,"108":0.026048130723543315,"109":-0.03703565770941367,"110":-0.049423557636321676,"111":0.05825725425843182,"112":-0.0377622154029654,"113":-0.00021491954725627523,"114":-0.04770813667898178,"115":0.0507828006045901,"116":0.021505926954314292,"117":-0.12837741142680553,"118":0.008115936846282125,"119":-0.0784038803668341,"120":0.008086624533316638,"121":0.033758040534146876,"122":0.07898115411118803,"123":0.12822965649388227,"124":0.03267363112957523,"125":0.047842255804776225,"126":0.02603588102547394,"127":-0.038934114028735346,"128":0.009067778040296787,"129":-0.0009176821400019067,"130":0.048065815155917534,"131":0.031025865933242497,"132":0.00419659185671457,"133":-0.043131672329658366,"134":-0.01765430814773408,"135":-0.03230187575259853,"136":-0.04118157822770328,"137":-0.03500651650963669,"138":-0.053354159415392635,"139":-0.0018188900031387565,"140":-0.04845534172974235,"141":0.008341574347874943,"142":0.019172923685297626,"143":0.03057831202606949,"144":-0.03487305485297262,"145":0.06659679075873971,"146":-0.03818359832890711,"147":-0.03526966769556633,"148":-0.017509166474768596,"149":-0.0008015597267869081,"150":0.047852717411996266,"151":0.03224307169654244,"152":-0.1079323381992369,"153":0.015670063455934538,"154":0.0036564212201867664,"155":-0.02449378117460752,"156":0.004407800970130561,"157":0.021011360854764207,"158":-0.09493398243493531,"159":-0.03319054833938742,"160":-0.060196867256466446,"161":0.057931968353256376,"162":0.00210905937431918,"163":0.09868680137096048,"164":-0.06988697448587237,"165":0.016018162496771047,"166":0.04618988632410021,"167":-0.0009247654821481169,"168":-0.015927958342383038,"169":0.05852845180515555,"170":-0.05913661281927505,"171":0.09779137971906109,"172":0.06365171153837669,"173":0.013348556486802141,"174":-0.101181073837176,"175":0.10238432559290478,"176":-0.03317621887699369,"177":-0.04971530789835592,"178":-0.00005057846209774853,"179":-0.013784054984374653,"180":0.037228420485884865,"181":-0.02046581029126092,"182":-0.05975008385369762,"183":-0.1273092649961699,"184":-0.0006724550672445201,"185":0.05219483755708069,"186":0.024941471709605013,"187":-0.061338005869761,"188":0.014401414772914132,"189":-0.003051578200573109,"190":0.00840539788985351,"191":-0.020440355124237548,"192":-0.004591903861775016,"193":0.038488840605728804,"194":0.055031674248626705,"195":0.04515898842511792,"196":0.009091800043229922,"197":-0.04028042421455888,"198":-0.049143817121595414,"199":0.05404724877570456,"200":0.004502257172453859,"201":0.11138973612915139,"202":-0.04923061370321645,"203":-0.026250389348839977,"204":-0.008245314548946423,"205":0.07138376642711651,"206":-0.016982216006366922,"207":0.004592598569093922,"208":-0.010056207376162456,"209":-0.0907799675639658,"210":0.1304662994638426,"211":0.034428092421061283,"212":-0.03539082841735275,"213":-0.0706389956307998,"214":-0.033662601595929355,"215":-0.05054539722785538,"216":-0.09523652567136051,"217":0.04260514033443283,"218":-0.044662252938257437,"219":-0.034342422816008786,"220":-0.0033333835795437373,"221":-0.023344331903422413,"222":0.02156454023979407,"223":-0.0621854020673812,"224":-0.04824173503479142,"225":0.0025250210632660067,"226":0.0015632423644532597,"227":0.005215103230866572,"228":0.024976917502421182,"229":-0.06122106598286995,"230":-0.028215731772279113,"231":-0.007386694451761336,"232":-0.005174317000228889,"233":-0.0680466514211708,"234":-0.012823259704774374,"235":-0.035189676518802816,"236":0.0011930796901194016,"237":-0.04735339571663671,"238":-0.011531828118971922,"239":-0.06756962776969251,"240":0.045294214060909964,"241":-0.019336725579019234,"242":-0.02454601159351312,"243":-0.05104310622005302,"244":-0.059415337574626935,"245":-0.04969581831429104,"246":0.014426361655099744,"247":-0.008838421632982518,"248":-0.0617732534694979,"249":0.06284374016098153,"250":0.005184832795610794,"251":-0.01715577997187335,"252":-0.037188758100942694,"253":0.02343075049448085,"254":0.08015769143372171,"255":-0.016680675851502836,"256":0.0661587961109187,"257":0.06097506582342014,"258":-0.027615040906128985,"259":-0.03380346858651803,"260":-0.06037603026238924,"261":0.06519297732082834,"262":0.08288124195064722,"263":0.033530739877124995,"264":-0.04557590876008696,"265":-0.06556938086820942,"266":0.022048930225727226,"267":-0.09394104220876945,"268":0.006191905143166493,"269":0.06411273150775092,"270":0.11047681694821677,"271":-0.05826416207992242,"272":-0.012452369397077084,"273":0.050076693785997765,"274":0.019488103430907004,"275":-0.02931954067545435,"276":-0.04916355460311328,"277":0.022662941249494833,"278":0.015556253871135909,"279":0.00851206849693226,"280":-0.02921185143290948,"281":-0.06743762988749179,"282":-0.011086363157640581,"283":0.007216863883696548,"284":0.005893163507197227,"285":0.06736683748062092,"286":0.039252802827932656,"287":-0.08140051551468683,"288":0.007234332080403307,"289":-0.07819754690168579,"290":-0.003888355001316823,"291":-0.0581322278939884,"292":-0.123697031337562,"293":-0.09008094775490103,"294":0.012356666916979547,"295":0.06187661264600608,"296":-0.07070537722708979,"297":-0.03126630550383712,"298":-0.0021983802581987764,"299":0.02296351575520218,"300":-0.0146037017910984,"301":0.0525649458597467,"302":0.014701660200978395,"303":0.03234348427790846,"304":-0.007903284389670629,"305":-0.03501208704016795,"306":0.04478324173383427,"307":-0.03286790764064626,"308":0.0031682636107451976,"309":0.03996390310066422,"310":-0.0067655029106976575,"311":0.00956700504413014,"312":-0.013156547623267624,"313":-0.0555522043912586,"314":-0.03949235100580628,"315":-0.03093095308236051,"316":-0.00784724600798845,"317":-0.006159386243924117,"318":-0.011639133470184427,"319":0.05444252014434157,"320":0.05873795141326403,"321":0.09147762956788431,"322":-0.08176020200568503,"323":-0.019909253675997746,"324":-0.002685440791289616,"325":0.0819920020557167,"326":-0.0447218258319523,"327":-0.05116945314288126,"328":0.026905158811780825,"329":-0.10035666483114108,"330":0.08539865834537641,"331":0.07799720683003909,"332":-0.05457842991631172,"333":0.061888397499200436,"334":0.023417040434771507,"335":0.05463005058488977,"336":-0.0016030254526203046,"337":-0.002601827947029908,"338":0.009324729160429734,"339":-0.03372670122892805,"340":0.036688640193414356,"341":0.0042773027699955805,"342":0.004958022920569002,"343":-0.001992257288522152,"344":0.07903687187052585,"345":0.01757990033069476,"346":0.05609454046251477,"347":-0.05176629238940919,"348":0.034109958456209996,"349":0.035091287319288955,"350":0.015378352680019719,"351":0.05298747758914292,"352":0.01860628762598212,"353":0.01659987517350213,"354":0.037048663763250826}},{"sx":1,"sy":1,"depth":355,"w":{"0":0.002393984136682798,"1":-0.008495663862311617,"2":0.21432330399391977,"3":-0.021682323687112762,"4":0.044226443880368255,"5":0.010743289599997902,"6":-0.0627020101402525,"7":0.14383759592819415,"8":-0.043444240379199944,"9":0.0018457509495131072,"10":0.04377196181511044,"11":0.024159877191446397,"12":0.24483711294986085,"13":0.03150605827569553,"14":-0.01724602243758883,"15":-0.05021316166898708,"16":0.027505718012513617,"17":0.18426819201014535,"18":-0.004369708312165729,"19":0.029524981295853753,"20":-0.028363253901686217,"21":-0.04447526376313408,"22":0.19699959101481834,"23":0.07026426546272595,"24":0.03549803196217299,"25":0.029865903939708217,"26":0.09108479459800256,"27":0.19923489331101035,"28":0.0019133049318383031,"29":-0.04837003648290386,"30":-0.043055311755238135,"31":0.07513566065145798,"32":0.23262034957752384,"33":0.136544699094275,"34":0.040109274451640385,"35":0.032512063950655846,"36":0.12077065381163969,"37":0.6221084697684787,"38":0.029079994526392358,"39":-0.003801682806644358,"40":0.1118446424595346,"41":0.13057280454113324,"42":0.5745747579995387,"43":0.0010166116220978164,"44":-0.0031981343058715165,"45":-0.0036267426199077203,"46":0.09416577028949392,"47":0.5679011934599332,"48":-0.09545827799818189,"49":-0.0870654504269526,"50":0.020853165469718816,"51":0.08352947192261806,"52":0.41606936422909485,"53":-0.03830014852190811,"54":-0.06939071051577585,"55":0.011316684622670591,"56":0.09388214368655347,"57":0.014569129427213043,"58":-0.013206434617358846,"59":0.090534307728559,"60":-0.01299792860265718,"61":0.08660989946557814,"62":-0.019862138160321903,"63":-0.042024938959463826,"64":0.05595894271259429,"65":0.04048796564982771,"66":-0.0020343834816437976,"67":-0.013215214313216947,"68":0.029860621593397158,"69":-0.006919122687618225,"70":0.03954797990839159,"71":0.09593242737443353,"72":-0.06441195103046021,"73":-0.015090786094254334,"74":0.06149786057663059,"75":-0.020995614934660223,"76":0.03380334444917685,"77":0.27792038609659586,"78":-0.049858321781427205,"79":-0.006374247659915084,"80":0.001173739068029641,"81":0.002258589991354847,"82":0.23723470010846265,"83":-0.04247175661947617,"84":-0.03871242501319082,"85":0.048607672885449794,"86":-0.06434330916435685,"87":0.24450330832630054,"88":-0.1647699965889161,"89":-0.037611548521939625,"90":0.05935008706358793,"91":-0.061959364226546146,"92":0.17248862909239673,"93":0.01624334503805331,"94":-0.04508595977862921,"95":-0.10594874639782612,"96":0.05898807987642621,"97":0.09024232862820425,"98":-0.021357323585501208,"99":0.030001354040405798,"100":-0.050956612114705105,"101":-0.07259142857329519,"102":-0.03588494854261462,"103":-0.1676649928648116,"104":0.02935518320601227,"105":0.08990142586896523,"106":-0.040167796328229435,"107":0.04100254268365877,"108":-0.029015717908475125,"109":-0.06027438805706219,"110":0.03961795878547562,"111":-0.07028203093328737,"112":-0.017553317608342434,"113":-0.10289914201821104,"114":-0.044519603132030794,"115":0.11105170192986084,"116":0.07361883368879553,"117":0.16894602898412808,"118":0.01816244500076277,"119":-0.046913695695355015,"120":0.08462555976808032,"121":0.08937460683447156,"122":0.1868748857381282,"123":0.06735287236673446,"124":0.04867857235573485,"125":0.013068681840649705,"126":0.029094130426170338,"127":0.1575554302630666,"128":0.022135664333847303,"129":-0.10387761758011473,"130":-0.05070413761811806,"131":0.090534408404598,"132":0.07559057946121885,"133":0.0895283679075873,"134":-0.07058375243886725,"135":0.0009588768813264596,"136":0.013597485332132231,"137":0.16540008583326565,"138":-0.031357251643601786,"139":-0.029527479574312766,"140":-0.008245247428534023,"141":-0.018007053934124027,"142":0.18892724428433608,"143":0.04409356148258834,"144":0.01647302359351451,"145":-0.09617008752714834,"146":0.0017655758681331959,"147":0.11703479917545052,"148":0.09242809201961998,"149":0.050539066496830466,"150":0.02306798470596589,"151":-0.045597292212012114,"152":0.0641864650082791,"153":0.021993536017279647,"154":0.03562083571585046,"155":0.019922857269609545,"156":0.02979706713813697,"157":-0.03748844394661123,"158":0.04144694450460007,"159":-0.04203495827632184,"160":0.09917112940606387,"161":0.039260687301345625,"162":-0.0004927174901449356,"163":-0.14987085258419383,"164":-0.0365611513336317,"165":-0.06784258472827077,"166":0.10694758345037744,"167":0.05021934101177022,"168":-0.003675194035611432,"169":-0.013685801780665946,"170":-0.004657257870103335,"171":0.10334651217371171,"172":-0.019875509010359362,"173":0.04794604418293823,"174":0.05365741193145703,"175":-0.028324170317637426,"176":0.10093037202790248,"177":0.03639204534988394,"178":0.012444129686144351,"179":-0.0839405935521285,"180":0.06357020675688543,"181":0.013368014561338895,"182":0.06032791060323683,"183":-0.03713763880155773,"184":-0.11036033513735029,"185":0.02449687111627596,"186":0.13558765448321064,"187":-0.033964032636537814,"188":-0.057312055460306516,"189":0.07113785212132356,"190":0.03350854776653181,"191":0.13403266888641927,"192":0.0932767499028117,"193":-0.16678770819948735,"194":-0.032601651020217524,"195":-0.1013194334951655,"196":0.0019162324042751682,"197":0.03610217050625779,"198":-0.06665208406021446,"199":0.010207002673365797,"200":0.00027082205049532444,"201":0.06986146293582474,"202":-0.023595880487432077,"203":-0.12615215918107278,"204":-0.010752348327775406,"205":0.026432540690946065,"206":-0.032325689181874034,"207":-0.016629254663870427,"208":-0.09053583810090744,"209":0.050788864647678504,"210":-0.06570279128193351,"211":0.080556075304583,"212":0.12398967310795513,"213":-0.1275690927743418,"214":-0.053218327314451516,"215":-0.1315458769339206,"216":-0.034196592441744486,"217":0.013963789638248462,"218":-0.08430643514794041,"219":-0.006358868587583561,"220":-0.010390468081126206,"221":-0.12697286896085758,"222":0.10308052132799116,"223":-0.0008902764602548507,"224":0.012862689673338425,"225":0.11936901919116277,"226":-0.03178566804499667,"227":0.08204661389404562,"228":-0.10933461974892486,"229":0.011165984720623747,"230":-0.07844968124884993,"231":-0.005698351975178023,"232":0.01503883832474146,"233":-0.02618727770213968,"234":0.0037192868887665513,"235":0.04514856465499267,"236":0.04230106731986677,"237":-0.04079158330456935,"238":-0.016180192277947102,"239":0.0006014538135578441,"240":0.03989747621165368,"241":-0.010758112270809712,"242":0.118965350702372,"243":0.031250627754915626,"244":-0.01632877923814295,"245":-0.019130084712586263,"246":0.047768913303746885,"247":0.02313060496621363,"248":0.06901860661185986,"249":-0.0008800154956064796,"250":-0.00020242423246417653,"251":0.04865104580562044,"252":-0.001680463209291791,"253":-0.03866104561612287,"254":-0.0060898718215426344,"255":-0.037645720113911,"256":0.06938956605563265,"257":-0.002827157302512519,"258":-0.015425188909029369,"259":-0.09254207192598013,"260":0.10370800180745599,"261":0.076526954828753,"262":0.027027257659767653,"263":-0.06926793720309468,"264":0.04453318497412466,"265":-0.029849694116121747,"266":0.08888275566059944,"267":-0.09759835684069705,"268":-0.023713022397528004,"269":-0.02497804667982663,"270":0.1038250684854104,"271":0.018860163022779323,"272":-0.015237124890451982,"273":-0.002338977258485294,"274":0.05590004611910892,"275":0.01838020104283507,"276":0.02212944605127775,"277":0.03329438805338109,"278":-0.10332990742816034,"279":-0.048296376728957535,"280":-0.03233016570596002,"281":-0.07518159793451337,"282":-0.022965039688806064,"283":0.10255007107442449,"284":0.059350891582842534,"285":-0.01706598081738802,"286":0.0996728848142319,"287":-0.053278716301641556,"288":0.025686461599902084,"289":-0.06953125510855983,"290":-0.006157401938669616,"291":0.07806676305080303,"292":-0.10295881287168149,"293":-0.01170340413596201,"294":-0.04534773199058474,"295":0.0411105607865774,"296":-0.013017651766488404,"297":0.03360032470149021,"298":-0.045264114293566464,"299":-0.055709838660366176,"300":0.03884832886452724,"301":-0.007938912999472953,"302":0.07348861517987744,"303":0.018967375239748452,"304":0.07241891311384994,"305":0.04260683984029073,"306":-0.05056547149550298,"307":-0.04020746758347385,"308":0.03467859283219622,"309":-0.01391518374678446,"310":-0.06502416205115735,"311":-0.015139346361558214,"312":0.06487393133740585,"313":-0.02010238884502507,"314":-0.0035405699869119896,"315":0.012453842081841958,"316":-0.04470336718956689,"317":0.12739730747362568,"318":-0.023785266308571907,"319":-0.044980888885961696,"320":-0.012389833091432377,"321":0.025272674680356138,"322":0.04892557354885755,"323":-0.02619068460228882,"324":-0.03822200915654269,"325":0.010995244839558245,"326":-0.02450978087758502,"327":-0.03978870192391755,"328":-0.07944398387804111,"329":-0.03488710437830164,"330":-0.028044167620592583,"331":-0.040226488147264844,"332":-0.08075457405785673,"333":0.12551244419584087,"334":0.014024683122502875,"335":0.08262261099157882,"336":-0.005812747537062718,"337":0.04516487532588977,"338":-0.05774975103810479,"339":0.02814764908595858,"340":0.02571173156725281,"341":-0.04309389126746347,"342":-0.04922984777873915,"343":-0.10650203322697555,"344":-0.07695831143407336,"345":0.06508580438487997,"346":0.071464007925307,"347":-0.022581521228847195,"348":-0.03510079397072448,"349":-0.021337875854834272,"350":-0.04956586154831729,"351":-0.02439264095844851,"352":-0.016144373544039685,"353":-0.021522437469808916,"354":0.007196552139286956}},{"sx":1,"sy":1,"depth":355,"w":{"0":-0.11151205661500237,"1":0.1370026385323775,"2":0.05557510240516083,"3":0.02878241928558299,"4":0.05384397697776947,"5":-0.016229206710149473,"6":-0.028516486638982635,"7":-0.001462593111607576,"8":0.009061115593253429,"9":0.04688527117601611,"10":0.05350004069175705,"11":0.04196739605650148,"12":0.08839696161210797,"13":0.031019556171161908,"14":0.039204269333059476,"15":0.029731606299435838,"16":0.04447588127671399,"17":0.10304141204764795,"18":-0.10073557923115994,"19":-0.010465562224111848,"20":0.03921132240490668,"21":0.06399442552006988,"22":-0.032021302491882904,"23":0.0010369510357524795,"24":-0.0011968051259794046,"25":-0.0013151938070528198,"26":0.012052312394460155,"27":0.1149066731652007,"28":0.10882036796490609,"29":0.05035206741431369,"30":-0.04104671929581992,"31":0.05430545098667831,"32":0.09469301767024342,"33":-0.010077228235191247,"34":-0.03333178320791217,"35":0.03355052330821137,"36":-0.010476375856935767,"37":0.2192325822003056,"38":0.05579048528304673,"39":0.0037644848909950306,"40":0.0028376190585777047,"41":0.04481697769447171,"42":0.21723125175661798,"43":-0.0973503181410638,"44":0.007879599235729543,"45":0.030885218524978424,"46":-0.02444150830787776,"47":0.19381935935245181,"48":-0.030642398199669164,"49":-0.06911491230479778,"50":0.04951704362331973,"51":0.05755982471066206,"52":0.1113958951002569,"53":-0.08045876301885399,"54":0.020539761724125808,"55":0.05144471041924128,"56":0.058166585362467466,"57":0.014039980276101979,"58":-0.09343503638032803,"59":0.0017306992595415712,"60":-0.10092263806721542,"61":0.09317583878126508,"62":0.06261579739814276,"63":-0.1196357176551884,"64":0.009601367539377379,"65":-0.0321393080964062,"66":0.15607249341620283,"67":0.008351920735945179,"68":-0.01505170237257387,"69":-0.033963545610730526,"70":-0.1106898481194642,"71":0.1274029184116608,"72":0.036115786312205994,"73":0.0026892466478294678,"74":-0.05112776726546546,"75":-0.08943984743906547,"76":0.05701089502223848,"77":0.07534087059273374,"78":-0.041585885633775216,"79":-0.04993269635458925,"80":-0.08235569582206874,"81":0.10460799727211727,"82":0.08221435918162001,"83":-0.0007604028790855768,"84":0.001973933398797272,"85":0.03818133986858147,"86":0.04984948545049415,"87":0.10142491484427504,"88":-0.1015417825954073,"89":0.05581648313014874,"90":-0.07847459503548526,"91":-0.012951023094218434,"92":0.07553947663937682,"93":-0.07874329289324113,"94":-0.08553499489144216,"95":-0.042763512526143195,"96":0.08296036921525361,"97":-0.0012208744301839632,"98":-0.054877244075537394,"99":0.03599168134662332,"100":-0.11077413938106535,"101":-0.0026064555960574995,"102":0.01853851317902008,"103":-0.05914994488381547,"104":0.009218532961797131,"105":0.13701187364589296,"106":0.03989131156879453,"107":0.10440209189222499,"108":-0.03675437706903719,"109":0.09655744542227479,"110":0.05723827379685066,"111":-0.06238305190642779,"112":0.04089273674015977,"113":-0.021652158501361606,"114":-0.05207774758566452,"115":-0.12101038670707316,"116":-0.06936999692348071,"117":0.0926446063979641,"118":-0.03137680822662133,"119":-0.006627811941270582,"120":0.045260814068805555,"121":0.00196598508857879,"122":-0.05434026547561057,"123":0.05683404328094182,"124":-0.020913665692371766,"125":0.021100073944869846,"126":0.04680782825433693,"127":0.015755739727324875,"128":0.03128209380349449,"129":-0.04423466134897527,"130":0.00780467033122577,"131":0.0663639525800558,"132":0.00523696484198633,"133":0.10283084968820899,"134":0.02568657986870251,"135":-0.017055744920219433,"136":0.1264120373123238,"137":0.0650024090955707,"138":-0.06531962502896622,"139":0.025670388828710963,"140":0.0791068438706655,"141":0.08601158642248019,"142":0.01560435416804752,"143":0.009011729613556462,"144":0.002875558406804411,"145":0.04064714204041906,"146":-0.031105262713452594,"147":-0.0048811119935137145,"148":-0.00026549232789946196,"149":0.057377519403064334,"150":-0.0414771624378211,"151":0.01171043264355647,"152":0.03767778129242067,"153":0.05034994564478541,"154":0.013814892917541755,"155":0.0407508714858979,"156":-0.07137599865567057,"157":-0.02260355948556049,"158":-0.06686401048297609,"159":0.029475643658092944,"160":-0.07336955163189991,"161":-0.08829651468818807,"162":0.03492717904068348,"163":0.017804789641702158,"164":0.02123985314585619,"165":-0.022014844525388627,"166":0.02262267743681493,"167":-0.03520183988393255,"168":0.014251656178003053,"169":-0.06007177127193811,"170":-0.06015295310785755,"171":0.07781978848743855,"172":-0.04656033843358379,"173":-0.05212111655648105,"174":-0.09399978330020524,"175":0.05355329078274696,"176":0.04905301547921294,"177":-0.01989814173154173,"178":-0.0017987837095334214,"179":-0.03946480829980258,"180":0.04249916007401158,"181":0.08994072083115273,"182":0.06097646610956526,"183":0.08191805845889746,"184":0.0776860186750291,"185":-0.1370452262474756,"186":0.03377035242546535,"187":-0.02596177203649494,"188":-0.07689378244602606,"189":0.0583471948112865,"190":-0.010985492984663909,"191":-0.007205721868809449,"192":0.08738745908098793,"193":-0.10138864037435721,"194":-0.04185870167087242,"195":0.0034681540343244883,"196":0.07048825337412948,"197":-0.03528552375711826,"198":-0.0571303744191787,"199":0.026882985053669487,"200":-0.06361439567020827,"201":0.10900483257568526,"202":-0.008705820819239513,"203":-0.041602267356622646,"204":-0.05057150216751914,"205":-0.03393250154030218,"206":-0.0008610589426098796,"207":0.03369606430364768,"208":-0.13422522694208983,"209":-0.010628848190267355,"210":0.04285570847229391,"211":-0.025963276473869656,"212":-0.0046370624318464925,"213":-0.02093494387764891,"214":0.03142669755637608,"215":0.00025560698679847797,"216":0.07252211708333557,"217":0.0009004209118285496,"218":-0.0006696249588211893,"219":0.014383608930667615,"220":-0.12482248636309341,"221":0.011577103811015564,"222":-0.011200119660619616,"223":0.004819951258089168,"224":0.01133062629064918,"225":-0.06384877513564254,"226":-0.013770705141222256,"227":0.03071135072812687,"228":0.022980071044768183,"229":-0.043181768242638155,"230":-0.04146584382468399,"231":-0.11125664028044345,"232":-0.015407685751799172,"233":0.011927103531135543,"234":0.00220775036395693,"235":0.007982331179460053,"236":0.005290594295819352,"237":0.06573145373651251,"238":0.04177151325036053,"239":-0.02072037570766115,"240":-0.058999425621974744,"241":-0.13118122014385564,"242":0.059936607593435484,"243":-0.10695117291905923,"244":0.08804940944602296,"245":-0.017054419296135565,"246":0.06609160334159028,"247":-0.00450876425040291,"248":0.06292951883182642,"249":-0.010740958010307207,"250":0.07114183492635562,"251":0.06842602875773614,"252":0.0047979261901190725,"253":0.032997151635249,"254":0.03249419649039837,"255":-0.006378900324665578,"256":-0.05798063443739868,"257":-0.02662816000816023,"258":0.0010612326566789454,"259":0.043941246198247574,"260":-0.11266313993553928,"261":0.0051838596489028575,"262":0.04045947816475658,"263":0.04948194945334221,"264":0.005303108194287965,"265":0.005318306437415284,"266":0.009263116276889327,"267":0.13857266788813274,"268":0.0103902555639028,"269":-0.0023528419466160026,"270":0.05195889745228468,"271":0.005741429118096443,"272":-0.019000155944768525,"273":-0.01033437564970584,"274":-0.015778400231928343,"275":0.0008474165417197962,"276":0.09625630041911386,"277":-0.06022497681690994,"278":-0.007678897564798298,"279":0.02757828362780306,"280":0.07686780936621677,"281":0.00008791487060592357,"282":0.011058499918172504,"283":-0.07487992789951373,"284":-0.007263142139229543,"285":-0.04454780133360505,"286":-0.0621786975980325,"287":-0.08453261126463005,"288":0.011827736662464162,"289":0.014737205085311199,"290":0.009769409868213548,"291":-0.020253017126174888,"292":-0.017328952627678917,"293":-0.025475328027011135,"294":-0.07281769951688565,"295":-0.021419152348342144,"296":0.09464124572490447,"297":-0.06692450810264017,"298":0.06494513701066279,"299":0.06378674254575788,"300":0.0378112282999376,"301":0.053579564092678666,"302":-0.03929065963081378,"303":-0.11507726153640373,"304":0.035195177650593296,"305":-0.057298967712081504,"306":0.043757181824209415,"307":0.0049215930456261835,"308":0.030392337149478352,"309":-0.03974623426417924,"310":-0.003870575771076278,"311":0.015748853874755248,"312":-0.004258727656133922,"313":0.039118598867526194,"314":-0.01478964705282971,"315":0.0601360039834711,"316":-0.0022344276478893743,"317":0.03981641155222024,"318":0.009429990738800728,"319":-0.024585979853129887,"320":0.024567845501229604,"321":0.04033731312844699,"322":0.07656692731996555,"323":-0.022384218853421716,"324":-0.008850541334537065,"325":-0.04813688371889068,"326":0.12353492102429703,"327":0.06691585689649558,"328":-0.006527264140437747,"329":-0.09870638323807579,"330":-0.11600387424118433,"331":0.027236748084794635,"332":0.026406180732383853,"333":0.0585681490191203,"334":-0.0416183267373075,"335":-0.039568851465241986,"336":-0.0015922521563662365,"337":0.007469903707890827,"338":0.05398940770465106,"339":0.028204366349773205,"340":-0.0024896906547566865,"341":-0.04131046591259182,"342":0.0781152130943163,"343":-0.0326171231684388,"344":0.03002551351550735,"345":0.013946858366041252,"346":-0.13422977881857645,"347":0.0025890425924853257,"348":0.02568054227202756,"349":-0.06156079859667297,"350":0.02176214289940703,"351":0.018768199078614125,"352":0.0017008420044570093,"353":-0.029918356873611135,"354":-0.03155597668808542}},{"sx":1,"sy":1,"depth":355,"w":{"0":-0.05723668620850098,"1":0.027192611142697633,"2":0.04402824686113482,"3":0.03560769043300392,"4":0.019972026151503904,"5":-0.011418098630223762,"6":-0.05527254154004559,"7":0.06282446015319106,"8":-0.008463324871538783,"9":-0.02827352549509881,"10":0.06398672133220108,"11":0.05627980050341668,"12":0.023571099140113242,"13":-0.0341863042308054,"14":0.011957552705743928,"15":-0.05830838214553362,"16":0.0666253594899493,"17":0.07717507481395255,"18":0.04065240158733252,"19":0.0340396264403846,"20":0.015028601201817697,"21":0.05003231650573601,"22":0.006256560937018287,"23":0.03224889789317213,"24":-0.0817438414974076,"25":-0.065490931922671,"26":0.020217308246753357,"27":-0.014770048757259424,"28":-0.05102112249000525,"29":-0.06465261019710064,"30":0.01935161525046168,"31":0.011845833175744495,"32":0.07553641396970408,"33":-0.03049942150769696,"34":-0.09370121400096605,"35":-0.015580089892377387,"36":-0.06456400824333618,"37":-0.012360900325906157,"38":0.011913704273446039,"39":-0.08009570249649921,"40":0.01848981518210348,"41":0.1035303299614108,"42":-0.06916902420735137,"43":0.024708268338096313,"44":-0.07056602988566811,"45":-0.020051595602522922,"46":-0.02606460586935112,"47":0.02108139132441343,"48":-0.007406799493728224,"49":0.018586264997053615,"50":-0.007444795416593074,"51":-0.09321618305539796,"52":0.06284009195260577,"53":0.06103542344979582,"54":-0.06385875616390793,"55":-0.041674551169128354,"56":0.04461603560043681,"57":0.08562951830314836,"58":-0.05950143248425439,"59":-0.005466447854537333,"60":0.024857051216047404,"61":0.08788698965241169,"62":-0.03604150377849776,"63":-0.09166555410676079,"64":-0.003869635850003192,"65":-0.01992430569890691,"66":0.011371408343052494,"67":-0.024347013581077832,"68":-0.04872864924240216,"69":0.0366463628333106,"70":-0.025064400314055758,"71":0.09296381419130602,"72":-0.035076291910172155,"73":-0.04949237404570927,"74":-0.05885281833279883,"75":-0.04531375095217289,"76":0.0752800060554652,"77":0.022083469432836098,"78":0.022314553893836894,"79":0.0653122987137859,"80":0.048616661553169335,"81":-0.024643794389068437,"82":-0.06340608572104342,"83":0.014011564703633843,"84":0.0702556968316937,"85":0.1054869625449236,"86":-0.00026064147968222616,"87":-0.026872043824019174,"88":-0.027343189887420752,"89":0.008102576262061765,"90":0.01329460742487492,"91":0.007567973769971093,"92":0.012856227509953277,"93":0.07047298462950669,"94":-0.00878085860926697,"95":0.09708352371359705,"96":-0.07244230102218123,"97":-0.015373409013876892,"98":-0.024789429283805394,"99":0.014810381550104524,"100":-0.08376194653475062,"101":-0.07763320884467681,"102":0.09198583360948735,"103":-0.129079863591522,"104":0.08797472852264186,"105":0.04372155922545923,"106":-0.07847589043351016,"107":0.04148030900272037,"108":0.029896701813416887,"109":-0.03865020374627733,"110":-0.10518821844787603,"111":0.0548976866381692,"112":-0.028309010412548442,"113":0.05447175115981561,"114":0.054737641291009,"115":0.005640719891362252,"116":0.05063380751982755,"117":-0.049803355602207514,"118":0.013156755230885019,"119":-0.03238426557465721,"120":0.013025528373717385,"121":0.021592320719482694,"122":0.03915637138041058,"123":0.08122953745832741,"124":-0.05095209970374618,"125":-0.03348178703004077,"126":0.020754849353607652,"127":0.08936031623251485,"128":0.03926392692554379,"129":-0.022045354362121187,"130":-0.04434318651438378,"131":0.04528102502827119,"132":0.0019409908927965252,"133":-0.08537277657992719,"134":-0.010288299592662191,"135":0.08377590922125087,"136":-0.006041030630105259,"137":0.03152261779206045,"138":-0.009727863554019863,"139":-0.04672677926211146,"140":-0.008983709504587205,"141":0.017549128108632094,"142":-0.09064656035982432,"143":-0.033882639277132434,"144":-0.0428039880070208,"145":0.00410665841347156,"146":0.018137458437552604,"147":-0.023368870991343663,"148":0.04792553982210287,"149":0.058846266493283075,"150":-0.05987684375553957,"151":-0.06285848876862334,"152":0.0030153347473728985,"153":-0.053913168519546494,"154":0.03524507342058399,"155":0.08587526829367645,"156":-0.05323012740819343,"157":-0.1381885313640376,"158":0.007901797520398103,"159":-0.053873868963451796,"160":-0.004623479355143501,"161":0.031115789860988265,"162":0.0770162964877815,"163":0.07763999416509393,"164":0.00937995153263035,"165":-0.11497591518899836,"166":-0.07188912189306651,"167":-0.018772298985660664,"168":0.03150842873680517,"169":-0.0037541209053204637,"170":-0.08071571196581133,"171":-0.0841136843049689,"172":-0.023601634865874264,"173":-0.0017556509353142524,"174":-0.02045867836492217,"175":0.04287313045804382,"176":0.06137369790694124,"177":0.06056494302901748,"178":0.0034237624762991047,"179":0.0867997020070415,"180":-0.06893043668969101,"181":0.0235397566164627,"182":0.036271217425028215,"183":0.017711324964023677,"184":-0.01999165428096994,"185":-0.05046616696177058,"186":-0.03300290787604518,"187":-0.04982521987579082,"188":-0.015281725303549732,"189":-0.041065864972629144,"190":-0.0793571916642331,"191":0.012084604467320098,"192":0.014339536060579606,"193":-0.03881786780027931,"194":0.017158368259077846,"195":0.034081087322120666,"196":0.023712120857704303,"197":0.06687082998739009,"198":0.05172311619505501,"199":-0.04731870293269508,"200":0.10271914608440862,"201":0.04694507313249034,"202":-0.05818050659053396,"203":-0.009221416677117273,"204":-0.06354877746266677,"205":0.02861608477289975,"206":-0.02107549307777247,"207":-0.04390276346074635,"208":-0.04999626232119466,"209":-0.08809282531130112,"210":0.08095803661086419,"211":-0.011409166950115847,"212":-0.037947898841385275,"213":-0.025909842260939838,"214":0.00143302748739251,"215":0.013012530340441484,"216":-0.011461139806838381,"217":0.01596855986751917,"218":0.026506584782325638,"219":-0.0667301744492169,"220":0.029941558601032862,"221":-0.05826892985219032,"222":-0.006047736627383008,"223":0.018380461237350352,"224":0.011334805216453967,"225":-0.07952586031996524,"226":0.09900286833451423,"227":-0.02239623688856352,"228":-0.09400885754560911,"229":0.060474425334033244,"230":-0.118249504902648,"231":-0.027959685360615157,"232":-0.0958414759699805,"233":-0.038892315532150244,"234":-0.13293011274434188,"235":-0.023942817100116025,"236":0.006924231338946692,"237":-0.08934996842573184,"238":0.0004387472476530627,"239":-0.05885529990558728,"240":0.055861238465412605,"241":-0.014188643166644851,"242":0.039779226640645426,"243":0.07284476209293808,"244":0.006774440665383107,"245":0.07462392461498484,"246":-0.022983649617387632,"247":-0.06571627795706325,"248":0.09227302063675312,"249":0.03304411850274303,"250":0.0006255763075541552,"251":0.02645754967635727,"252":0.05819541405927053,"253":0.03157265852084803,"254":0.008697042289813923,"255":0.041982274435038526,"256":0.06779237346440832,"257":-0.007903199286160489,"258":-0.050412959092295595,"259":-0.002965856725230993,"260":-0.006653436815756146,"261":-0.053755229153265194,"262":0.07251826052372912,"263":-0.014687017058405326,"264":0.017957768577532916,"265":-0.03690797345167104,"266":-0.04306651743996626,"267":0.00041512062509734514,"268":0.03062300349239673,"269":-0.01888839289941281,"270":-0.04688050209910798,"271":-0.04348741757030471,"272":0.08098115488897656,"273":-0.09376790459571581,"274":-0.04731072690830751,"275":0.035518452404625075,"276":-0.03050916538662085,"277":-0.06154514047317733,"278":-0.0378890335697292,"279":0.06201530149465288,"280":0.005534825237442377,"281":-0.14434609845992974,"282":0.03336117710347408,"283":0.044361335261943795,"284":0.04296147225866535,"285":0.0034066564264038043,"286":-0.05585653109787527,"287":-0.0602129468182747,"288":0.0064031531076647755,"289":-0.007784540622833935,"290":0.05104109114787208,"291":0.09314120510571992,"292":-0.030222105315168665,"293":0.002892183270122324,"294":-0.11289209208031191,"295":-0.10525272407379296,"296":0.038084013684492414,"297":0.032862374155938574,"298":0.02363738940739121,"299":-0.014677846002337399,"300":-0.011699117804177053,"301":0.047523225940084804,"302":0.11963314368435411,"303":-0.03688158512253572,"304":0.06993103328465258,"305":-0.029927774013090706,"306":0.009907173772849786,"307":-0.02315651511361099,"308":0.02498121662959247,"309":0.09373464979660229,"310":0.005260161631586133,"311":-0.007128845550977664,"312":0.02321219505320746,"313":-0.01141497494746619,"314":0.02872838944528247,"315":0.07143501354227103,"316":0.02143300244939441,"317":-0.05496117257312128,"318":0.003760606996597701,"319":0.05596866078251645,"320":-0.07934855121852098,"321":0.02344516340566734,"322":-0.02014669138429582,"323":-0.02326926008746097,"324":-0.004626440575110414,"325":0.06580979020072183,"326":-0.03280918714966619,"327":-0.0512850186685543,"328":0.0636834866976824,"329":-0.028062123798755625,"330":0.0304193902199828,"331":0.04776724388445785,"332":0.05879273399575028,"333":0.059215685379193736,"334":0.019118018568338002,"335":0.10526326946208407,"336":-0.037946824514011844,"337":0.014079874252992895,"338":-0.02648216505704942,"339":-0.0210112142684239,"340":-0.10844672403012692,"341":0.022911607099082906,"342":-0.044189191575091324,"343":-0.076701293766464,"344":-0.0033499409754261344,"345":-0.026313983290794818,"346":0.059406942503907746,"347":-0.0632920764623345,"348":-0.09143696040446789,"349":0.0743594163630717,"350":-0.06873830239039673,"351":0.02059011043474811,"352":0.02148235736545403,"353":0.023887696544402117,"354":-0.026386858472653776}},{"sx":1,"sy":1,"depth":355,"w":{"0":-0.041892758520390296,"1":-0.08246712875311292,"2":-0.06273045829520457,"3":-0.007933892974518223,"4":0.03136540755558416,"5":-0.06047697892118114,"6":-0.12786489381154056,"7":-0.025405060879230362,"8":-0.044621227256693444,"9":-0.01736524836713906,"10":-0.056932783446418556,"11":-0.07561549265245573,"12":-0.08512936423595738,"13":-0.011916634859430756,"14":0.018241444054868314,"15":-0.02361374504814669,"16":0.08548281501655607,"17":0.01564972847764898,"18":-0.03755810891719139,"19":0.01994855844815282,"20":0.01871079014011711,"21":0.051771771022243944,"22":-0.09413523061802112,"23":0.07779196102059052,"24":0.060591576039243575,"25":0.02991405305223731,"26":0.031646898795767014,"27":-0.11747329812224017,"28":0.015893053256376126,"29":0.0372592694105795,"30":-0.06505404953573816,"31":0.05548591044828816,"32":-0.01543984743856052,"33":-0.021774970854929084,"34":-0.06518739693328565,"35":0.013465000441058325,"36":-0.013876898803318926,"37":-0.15668918326628564,"38":-0.011948378996719487,"39":-0.05092062303332287,"40":-0.03172358939662823,"41":-0.037694528352787963,"42":-0.04604013235768302,"43":-0.03760432537961458,"44":-0.05349750134598392,"45":-0.08552370940226045,"46":-0.019635545405712964,"47":-0.09027470102381492,"48":-0.08504006353744677,"49":-0.014414399406459034,"50":-0.03782863630911418,"51":-0.08373943593902843,"52":-0.08039387323565506,"53":-0.13166619144160172,"54":-0.03747198440880647,"55":-0.09234876661914183,"56":0.011834187698345417,"57":0.03900952857463012,"58":-0.03614706151985545,"59":0.044778538744838,"60":0.11145138755449764,"61":-0.1009845677736521,"62":-0.07704901367654271,"63":-0.14420802969986374,"64":-0.0028088760740693822,"65":0.024060915388918268,"66":-0.054609117400879946,"67":0.10778145080286167,"68":-0.025183509326254665,"69":-0.0990536587942128,"70":0.1686463332812435,"71":-0.04574636663654485,"72":-0.06926400812185585,"73":-0.09754859614045955,"74":-0.1581818398343564,"75":-0.05867928722210253,"76":-0.013518578164386046,"77":-0.045292730134931326,"78":-0.09355331001636374,"79":0.00193914454835869,"80":0.05768765478565499,"81":-0.07567603867620724,"82":-0.09338661594806638,"83":-0.003117789579672377,"84":0.031439115985755474,"85":0.11202200464292136,"86":-0.021056132473095082,"87":-0.044885823030462214,"88":-0.03541881507425718,"89":-0.05069619921606661,"90":0.0352181868765569,"91":-0.01996534013046451,"92":-0.007333538636664714,"93":-0.026294884916720086,"94":0.0353267678536643,"95":-0.03316771438209587,"96":0.008091698763728714,"97":0.016358750366044686,"98":0.0010122675958065142,"99":-0.010723074605760042,"100":0.10733968104622434,"101":0.03658672819279119,"102":-0.023316385799982475,"103":-0.0004999595399655465,"104":0.03665208260404687,"105":-0.02870081790324744,"106":0.021432337995691494,"107":0.059666289790659716,"108":0.04057879132764435,"109":0.032357202888751345,"110":0.08697539622388924,"111":0.08034182002803915,"112":0.016387738821677742,"113":-0.04043964198455645,"114":0.034165402791042306,"115":-0.013115176898275023,"116":-0.04870461864327572,"117":0.016162220964507548,"118":-0.0432037714122514,"119":0.19039619968553867,"120":-0.13853056986914236,"121":0.10296105138512296,"122":0.0505447155749189,"123":0.08595105619821017,"124":-0.026365625226283596,"125":-0.025445568607143563,"126":0.043473788243945426,"127":-0.12347428668289953,"128":-0.047904758571406754,"129":0.05758009626847393,"130":0.03382824368209845,"131":-0.09021160544322855,"132":-0.02428295527562501,"133":-0.05752297412889376,"134":-0.0012882183543974038,"135":-0.06740972284867162,"136":-0.010477147496477912,"137":-0.024422070736540787,"138":0.03928351525684031,"139":-0.014026584665545514,"140":0.03360572516123867,"141":0.05684980318068809,"142":-0.007365269765566486,"143":-0.05639325243036937,"144":-0.016457763779585,"145":-0.06934298469700445,"146":0.06132196556296452,"147":0.03963243884074895,"148":0.023305436538952062,"149":-0.041001000001933414,"150":0.020538568488833932,"151":0.03275683235532381,"152":-0.015551749761050518,"153":0.045564638275700536,"154":-0.03798966449877768,"155":0.05139188522140977,"156":0.023238149474544074,"157":-0.0197080588357461,"158":-0.07326365303839642,"159":0.032477234449779964,"160":-0.05168170816098539,"161":0.03666891458420902,"162":0.03909610684828512,"163":0.007679420222955765,"164":0.028675569074214355,"165":0.016043230743984786,"166":-0.02771217037391776,"167":0.07767419415457953,"168":-0.059500653606891045,"169":-0.0895489067452864,"170":0.0005700106797445735,"171":-0.04656229404233371,"172":-0.020800182155729496,"173":-0.04580873865568184,"174":0.054630379645232256,"175":0.026273966272799196,"176":0.04306077720946755,"177":-0.012054761087545275,"178":-0.09960357168951958,"179":0.000030664938457826853,"180":0.09676388398475116,"181":0.031921623527101255,"182":0.04609153317501839,"183":-0.02054823067105859,"184":-0.00786394282167101,"185":-0.013676643238002793,"186":0.027377775739742746,"187":-0.02003771042572162,"188":-0.035962261702885696,"189":-0.020462222094049975,"190":-0.005174088046649471,"191":0.0056154634518490384,"192":-0.0011250794016689476,"193":-0.005295897832348965,"194":-0.028898132949413353,"195":-0.05452461722494778,"196":-0.08645988354155804,"197":0.030909373963962313,"198":0.011096412394953634,"199":-0.08080063931932466,"200":-0.021430353712975924,"201":0.013906062003261393,"202":0.05351128007929543,"203":-0.07366811799122137,"204":-0.045767104396219525,"205":-0.09131037931937086,"206":-0.03401246907066168,"207":-0.08854234528553039,"208":-0.009358080837252354,"209":-0.03342848875016273,"210":-0.020381129450432484,"211":-0.030188298227965035,"212":0.06980516438507696,"213":-0.021052778562506202,"214":-0.0616757602449575,"215":0.03525778634069016,"216":0.06706116299667841,"217":0.01286070493789085,"218":-0.05785359494681298,"219":-0.01975973207950477,"220":0.031346211949398295,"221":0.08928435579592937,"222":-0.09148514720034248,"223":0.034558822142131,"224":0.015067827348298563,"225":0.06391733688687923,"226":0.014925492562722522,"227":-0.04977095586937565,"228":-0.014167667353273072,"229":0.07374758503937683,"230":-0.016922906404931694,"231":-0.010309809246070785,"232":-0.022356373302048448,"233":0.08691884281340631,"234":-0.042328722634914155,"235":0.03936883954362121,"236":0.008723822373665105,"237":-0.001694847286713477,"238":-0.057319374657521814,"239":0.020051566988430553,"240":-0.11120544733581068,"241":-0.05276956965522266,"242":0.025743881534293717,"243":0.014954778569214022,"244":-0.07073745562221051,"245":0.016545282552670154,"246":0.08096130912529184,"247":0.03734770023268178,"248":0.030578806957667508,"249":0.014746865338133432,"250":0.002905861282403447,"251":0.07804592329402263,"252":-0.06898096121919332,"253":-0.05453743219350586,"254":0.010438079397861828,"255":-0.03821579855994336,"256":-0.029933770939209826,"257":-0.05315071899139982,"258":-0.021902185627813046,"259":0.04320252706471338,"260":-0.0036597952057905673,"261":0.021353729712137545,"262":-0.10825212816645925,"263":0.012160821898335733,"264":-0.02764746437355251,"265":0.06521143917191873,"266":-0.1306213110436459,"267":-0.05535929204805301,"268":-0.007771149527597412,"269":0.01660696477674756,"270":0.017997312967031807,"271":-0.02584579403521299,"272":0.006268338144248806,"273":-0.014237826993614219,"274":-0.06939671509564392,"275":-0.04859689847255004,"276":0.006049249073770301,"277":-0.00046990539648608345,"278":-0.04181419443574524,"279":-0.0436839709949715,"280":-0.03711825442186143,"281":0.052703849883885934,"282":0.09592560373574768,"283":-0.06433650796442245,"284":-0.01875590601687267,"285":0.027719899877804603,"286":-0.03446559702434121,"287":0.0010142381596138683,"288":0.03347084170218654,"289":-0.015009375913916856,"290":-0.080606750911311,"291":0.011368470919283986,"292":0.08488239725799,"293":-0.09946018755880538,"294":0.0521972043121536,"295":-0.0007585039804034963,"296":-0.07542843531131183,"297":0.07575504809276344,"298":-0.04405500359796357,"299":0.014164088186771367,"300":0.07703057979938478,"301":-0.04023979956833621,"302":-0.025577645009824748,"303":-0.13136329699486846,"304":0.02779598972218404,"305":0.05230030914347634,"306":0.08302601117670293,"307":-0.008129223475698501,"308":0.06330510236625228,"309":-0.011780244354000763,"310":0.05812819343633332,"311":-0.02693674027334732,"312":0.05263248600010427,"313":0.07886456652526705,"314":0.0946144973152513,"315":0.010472853891120452,"316":-0.021362539431190476,"317":0.03371320900685566,"318":-0.057428267661430284,"319":0.0035157236614888174,"320":-0.039930439301617986,"321":-0.05984184103099571,"322":0.1199238805558273,"323":0.012451199809588663,"324":-0.007788840184139489,"325":-0.0033841397012732036,"326":0.08608338445775644,"327":-0.011202491656978777,"328":0.019401701279241262,"329":-0.004864715538336228,"330":-0.03545248372579875,"331":-0.028102505611349166,"332":0.044145418073150214,"333":-0.0028915245186392794,"334":-0.06539422032050271,"335":-0.04780985484730086,"336":0.04818137419245542,"337":0.00846294213171317,"338":-0.05078650497722483,"339":-0.010827252749995473,"340":0.058003526731196874,"341":-0.029862807454485808,"342":-0.0172570606609398,"343":0.006100780487768741,"344":-0.07607446944871012,"345":-0.05453548620780425,"346":0.015128605010024035,"347":0.07381303018069159,"348":-0.03775701187611759,"349":0.10519746986737537,"350":0.05529765176355108,"351":-0.007092956647676259,"352":0.09449716263747931,"353":-0.08657026445084359,"354":-0.006308668896773801}},{"sx":1,"sy":1,"depth":355,"w":{"0":-0.008712860564485139,"1":-0.003953906413811931,"2":-0.004031384025811065,"3":-0.03462578559785159,"4":-0.07412139863697688,"5":0.007248216064180732,"6":-0.07118953901496763,"7":0.004547425782963504,"8":-0.05689514690447505,"9":-0.06610200765422876,"10":-0.08204298019776052,"11":-0.026802026024127505,"12":-0.027115405781484355,"13":0.11697130909024503,"14":0.07650139661443625,"15":0.02479311353622921,"16":-0.13784486447958957,"17":0.019094735797623934,"18":0.04149838066507344,"19":-0.0111619102800224,"20":0.06396602093951988,"21":0.020967486072130646,"22":0.04111293137440073,"23":-0.07705014465277776,"24":-0.104465014593347,"25":0.06805216750665576,"26":0.09748118854239157,"27":-0.027689736095399778,"28":0.04695493127062564,"29":-0.02832245078059618,"30":-0.008912547294489821,"31":0.03338097352053416,"32":0.01137580506508302,"33":0.06573471921120731,"34":0.05688622526733811,"35":-0.045052871065581895,"36":-0.023663081023168057,"37":0.01611607646517788,"38":0.049310145392061744,"39":0.02363713078935042,"40":-0.0363814111299721,"41":-0.08732344107215942,"42":-0.0033153241432731188,"43":-0.07666114282727389,"44":0.007298695900107289,"45":-0.044001512859048755,"46":0.019455529256632638,"47":0.14834134864790302,"48":0.03136671908490262,"49":0.03261022395237521,"50":-0.049439327078412414,"51":-0.07229969282362192,"52":0.12019268694361245,"53":0.11875047636170856,"54":0.03192225818250475,"55":0.03259054734564064,"56":-0.004079547847422235,"57":-0.05269473915425817,"58":0.07425903604804933,"59":0.1764175469907273,"60":0.021902344699055044,"61":-0.03507831543516202,"62":0.004438363496790445,"63":0.03246473804067696,"64":0.06327779059565464,"65":-0.05220001979229471,"66":-0.02184654065859391,"67":-0.012734459193188071,"68":0.037824836994335795,"69":0.14706093947639431,"70":0.08897510083377409,"71":-0.024843898722158014,"72":-0.006643857676671375,"73":0.10422613906498265,"74":-0.0642180867725541,"75":-0.02608085353078172,"76":0.03827735851248462,"77":0.08632447343395315,"78":0.05760154902992393,"79":0.008684236155441578,"80":0.02797192666523934,"81":0.0844324717859202,"82":-0.035612792047977765,"83":0.1330516332074,"84":0.026446815794319928,"85":0.009574456603329447,"86":0.029902376539101234,"87":0.006644469204736882,"88":-0.010214730102888073,"89":-0.009886909878369082,"90":0.0033074065782445336,"91":0.09316428762607144,"92":-0.007068663128040636,"93":0.12457383185367575,"94":-0.05843325091919704,"95":-0.023726851461197258,"96":-0.08123547532095553,"97":-0.06898431848975498,"98":0.04987975185490807,"99":0.0594638825937658,"100":0.0012194695489015364,"101":0.02393212930874069,"102":0.02211510448577449,"103":0.05167297372918582,"104":0.023043980219620428,"105":-0.04848295142649046,"106":0.09898500369778168,"107":0.013866925275662238,"108":-0.14835415670394902,"109":-0.034246946128829725,"110":0.05578063664536933,"111":-0.02168312678981717,"112":-0.06673408600745681,"113":-0.02929825117503014,"114":0.028603814539037927,"115":-0.0775824109741491,"116":0.03941064185907723,"117":-0.051678243250865154,"118":-0.015606343154479544,"119":-0.06797624903008946,"120":-0.0598505175114577,"121":-0.05028437458928009,"122":0.01679810897894552,"123":-0.04090198362708478,"124":0.056152838177991396,"125":0.03434489165084278,"126":0.08291049794313839,"127":0.15303663795497122,"128":-0.025191573517543392,"129":0.025166928859472967,"130":-0.016071705138584406,"131":0.13236233077816242,"132":0.004966010468198171,"133":0.07759771458145115,"134":0.03118175856524811,"135":-0.009170150737680611,"136":0.013615900234466969,"137":0.030578717924169677,"138":-0.02579091901693386,"139":-0.08756237624707151,"140":0.04176441594196448,"141":-0.0223953117662658,"142":-0.009627120266477437,"143":-0.01921718003061428,"144":0.05187059571521164,"145":-0.0025486881772331664,"146":0.03755722338987203,"147":0.011862719577350104,"148":0.03150280055384436,"149":-0.049964666654539934,"150":0.008066046242194279,"151":-0.019735673390504156,"152":0.02102064947290474,"153":0.04106868709987408,"154":-0.020495754571708463,"155":-0.023797606908193037,"156":-0.02636162016676411,"157":0.08095333850701633,"158":0.00468557547757918,"159":0.12521740451204666,"160":-0.028584511704265722,"161":-0.11566280172738712,"162":-0.018600265837716692,"163":-0.030995273438119995,"164":0.015898997491141546,"165":-0.011129193942509637,"166":-0.04635189810457878,"167":-0.007155750509392926,"168":0.10777373158200544,"169":0.03529911437132277,"170":0.01689133386981581,"171":-0.03153610735186135,"172":-0.008941490387913089,"173":0.047624010228151874,"174":0.09168019856629238,"175":0.059242794837431376,"176":-0.027413868959203655,"177":-0.053466106030898734,"178":0.0022670929346272333,"179":0.06791076598235557,"180":0.0009091651399152013,"181":0.009751370040688954,"182":-0.009031212904257613,"183":0.0540141811611746,"184":-0.03237218530688239,"185":0.014195126519224251,"186":0.042238542817899315,"187":0.1148096204454945,"188":0.050616908008041625,"189":0.012241496332191737,"190":-0.002435002338797837,"191":-0.010478892661757139,"192":0.035659349026328446,"193":0.06035118757406596,"194":0.018800903418252756,"195":-0.04328782435478087,"196":0.08713706816535989,"197":-0.045951705587676195,"198":0.015635768145038063,"199":-0.0030646142087417064,"200":0.013695191889757572,"201":-0.01752144142312681,"202":0.07019869336985483,"203":0.008923510981313202,"204":0.031695800812336306,"205":-0.1187241966572361,"206":-0.11215778051901708,"207":-0.025898065188255465,"208":0.07143193346988068,"209":-0.03703176365042839,"210":0.007063717481842875,"211":-0.06739394550545592,"212":0.02384557508880478,"213":-0.10788345766325598,"214":0.0049990157499860246,"215":-0.009937810664950846,"216":0.0778862966804503,"217":-0.06842205131345097,"218":-0.011185536989400446,"219":-0.07775720767558626,"220":0.03989894030604824,"221":-0.04910339176034382,"222":-0.03152141362775302,"223":-0.05224583167321687,"224":-0.007075223325700045,"225":-0.018774315827655087,"226":0.06640203175708771,"227":0.06810275022545244,"228":-0.03769797221712051,"229":-0.04448324359117331,"230":0.0025831404235680307,"231":0.010037424070730357,"232":0.033223205299358106,"233":-0.009687458939343311,"234":0.010405889653603829,"235":0.06468312301927644,"236":0.060609907160759376,"237":-0.03192978687691166,"238":-0.027570721114576317,"239":0.03383593345959647,"240":-0.09883726473460126,"241":0.013907951561926918,"242":-0.03193945671856414,"243":0.10430722400212084,"244":0.03549984900800689,"245":0.0771452761031967,"246":0.0439394374418185,"247":0.023312728834387297,"248":0.01108383884647555,"249":0.021634688935965485,"250":-0.002121008227981321,"251":0.01310727109651889,"252":0.028511288863498754,"253":-0.03165601633766805,"254":0.029929334306995153,"255":0.09013568071633055,"256":-0.018193364459311752,"257":-0.03442134467948094,"258":-0.08732600517072761,"259":0.04005357963688372,"260":-0.03971682666743175,"261":0.022542633172869878,"262":-0.07641021248899467,"263":-0.0006427606613818423,"264":0.032519164473894656,"265":0.017532810188032606,"266":0.03452542433145552,"267":0.0037665833186697976,"268":-0.013200343371424197,"269":0.08709082124183894,"270":-0.06345971609381246,"271":-0.008213641599578521,"272":-0.0008499335997656837,"273":-0.008124009332553814,"274":0.03932157031042811,"275":-0.0313106171866726,"276":0.11131990352962168,"277":0.07741015069260572,"278":0.018996444632424135,"279":-0.02116049785533872,"280":0.027475007821244388,"281":-0.004923856714121442,"282":0.022238249909357122,"283":-0.08912083087213574,"284":-0.061219444096505364,"285":0.030622766327139922,"286":0.04359815563217544,"287":-0.02430214314446149,"288":-0.0016489474822207366,"289":0.04605089437243432,"290":-0.03560885344824891,"291":-0.07653977462352797,"292":-0.03590084543588556,"293":0.04787223238017359,"294":-0.004606825319063873,"295":-0.027045940131284398,"296":-0.05082160510905001,"297":-0.03205101054965673,"298":0.01667952029957728,"299":-0.04283393134973138,"300":0.013285002106187159,"301":0.0348709721901723,"302":-0.044179744723738784,"303":0.05228683905926518,"304":0.005487309746877537,"305":-0.007282258235476514,"306":0.021238598998961706,"307":0.01774383730783013,"308":0.1036156155535507,"309":-0.01250740459937896,"310":-0.034696439320910585,"311":-0.05006227587906963,"312":-0.012407238926159534,"313":0.032124909058516976,"314":-0.07410375016607286,"315":-0.0038331000750276355,"316":0.0013465349277811023,"317":-0.022776709607367183,"318":0.0037994005543165667,"319":-0.015661100808095216,"320":0.05714198782659954,"321":-0.022090215616009247,"322":-0.14974004738686036,"323":0.06841450142298358,"324":0.03003758859048538,"325":-0.008183696092540209,"326":-0.056494734276396515,"327":-0.0524776330743894,"328":0.038998036118916064,"329":-0.0027480946036409094,"330":0.0005896351879084378,"331":-0.06509804975570022,"332":0.041238832844114295,"333":-0.07559952085756808,"334":-0.04996473255910015,"335":-0.028840722557164016,"336":0.0063287431587510145,"337":0.0237893467799692,"338":-0.06495892684007142,"339":0.01878252392735555,"340":-0.04743357289352152,"341":-0.007768943225169795,"342":-0.04555912026490871,"343":0.045340836383564426,"344":-0.006811821663921803,"345":-0.007906192180479488,"346":-0.05109163657272211,"347":0.02710720093260694,"348":0.03813787562047654,"349":-0.0208880170456358,"350":-0.09293872530185723,"351":0.0006654014165535874,"352":0.05910365594139948,"353":-0.07025714499238517,"354":0.03823141953449623}},{"sx":1,"sy":1,"depth":355,"w":{"0":0.004729355209861487,"1":-0.024400953069169642,"2":0.031454821754275386,"3":0.06513961560731277,"4":-0.1047634065477438,"5":-0.046759756524458296,"6":0.00882685608247265,"7":0.027513145009301857,"8":-0.054275069026143014,"9":0.09401950763002623,"10":0.003866385570614447,"11":0.00340603999041006,"12":-0.0804813859144467,"13":0.011817453178909827,"14":-0.09154990794283607,"15":-0.023730823728492893,"16":0.040525116159014045,"17":0.0036144779692886876,"18":-0.04557280304028222,"19":-0.06050421981708106,"20":-0.07899181835005151,"21":0.0036438393912808704,"22":-0.054690369610005556,"23":0.07471446520395819,"24":0.019519694986192698,"25":0.0574545238745791,"26":-0.04195483858486068,"27":0.017007847966262386,"28":0.00650764077039034,"29":-0.02677008771389018,"30":0.09083596573028738,"31":-0.0035296239405877322,"32":-0.13520043457244182,"33":0.016791193097718968,"34":-0.030365941822062592,"35":0.00308605382811023,"36":-0.008829409326676675,"37":0.02648435851828598,"38":0.025762968992136103,"39":0.05422900554978841,"40":0.013874010978736504,"41":0.015341447762144357,"42":-0.010478091718624575,"43":0.05912172431356766,"44":-0.028256496775980532,"45":-0.008641742126931522,"46":-0.01652971494450492,"47":-0.006767290999657502,"48":-0.05909225707222738,"49":-0.06283702490725676,"50":-0.0027001444671638595,"51":-0.06406803279945764,"52":0.06590456277752794,"53":-0.07091431982740523,"54":-0.024897409482781598,"55":0.009689202890937691,"56":-0.055915285858872114,"57":-0.052813582556842854,"58":-0.010954670303570726,"59":0.04983209471714751,"60":0.08869579570867095,"61":-0.024883644928636577,"62":0.008819773926264327,"63":-0.06640643642391061,"64":-0.014537518256600492,"65":0.03187752063755194,"66":-0.09552708233208268,"67":0.09957789443041967,"68":0.024581502082589378,"69":-0.0012499853862992054,"70":0.0361085162144376,"71":-0.023538234759911347,"72":0.02417759555144115,"73":-0.008572349228273737,"74":-0.0023871020090903516,"75":-0.03622988402690949,"76":-0.0015528046418452025,"77":0.036083845423022204,"78":-0.08252479578591349,"79":0.042058696766946194,"80":0.02455123368476282,"81":-0.00999493343769874,"82":0.014838103385177373,"83":-0.000015101435617443762,"84":0.11136208495481867,"85":0.042704175794950554,"86":-0.011626920865727587,"87":-0.04783618402679611,"88":-0.047127660696101366,"89":0.016008511181189063,"90":-0.18498989637149688,"91":0.034122359876092655,"92":0.003088328025860562,"93":0.0157377948842228,"94":0.11529996461804201,"95":-0.05185664895059734,"96":0.0006231666495670005,"97":0.0995440986595204,"98":0.027254674594168273,"99":0.10622739673367747,"100":0.09701349844342753,"101":0.029775881032030712,"102":0.02360347190056527,"103":0.002916298726231815,"104":0.06314166079977802,"105":-0.022191000655710766,"106":-0.013458806098989055,"107":0.03479439058409142,"108":0.05997049765837417,"109":-0.0016909114736884156,"110":-0.00707039892795894,"111":-0.010875929409957305,"112":0.0422416904781365,"113":-0.002311361482672306,"114":0.04527236064002472,"115":-0.01921161856970595,"116":0.03912709708241218,"117":-0.05445587909652538,"118":-0.0018103429634721447,"119":0.023414347018141768,"120":0.04232106606903273,"121":0.040623417074360374,"122":0.022121208595141398,"123":0.09473884921075458,"124":-0.002991039292449531,"125":-0.09445601328223377,"126":-0.039213551206375555,"127":-0.04205362409886797,"128":-0.07269384703214846,"129":0.012563076601937085,"130":-0.026268461624607452,"131":-0.02733626825950132,"132":0.03768109965909232,"133":0.012054178814094263,"134":0.07279429519746447,"135":-0.08859437258405901,"136":-0.01401157460864727,"137":0.10539290435731734,"138":-0.00480340461268782,"139":-0.0638920798272261,"140":0.01813348034301319,"141":-0.03696865327825312,"142":-0.06077125757059609,"143":0.04208420148011997,"144":-0.06182979296967536,"145":-0.03418333885492484,"146":-0.008155489317285665,"147":0.02238975000981424,"148":-0.09431746450517903,"149":0.019649279264866572,"150":0.10562260670710687,"151":0.067463068767308,"152":-0.014776851934256059,"153":0.03403665209398007,"154":0.05092504324690722,"155":0.06394236739940172,"156":-0.024085549867995566,"157":-0.0014467792708559928,"158":0.12853185180990695,"159":0.016004815600420868,"160":-0.033073373882041665,"161":0.05753879706525394,"162":-0.09600004760874281,"163":-0.023911080896445815,"164":0.07309037574825011,"165":-0.054438674771695894,"166":-0.010013900890086237,"167":-0.03284395402646142,"168":-0.015028277103345538,"169":-0.10194020538165079,"170":-0.06908672349631582,"171":0.010236753670695238,"172":-0.04626234501746575,"173":0.083504639977787,"174":0.03618900313437794,"175":0.04166230364621618,"176":-0.01389951589441174,"177":-0.05378426149201333,"178":-0.04463900077337007,"179":0.0189230092121485,"180":0.016414810193535558,"181":0.050773868191712854,"182":-0.007142962437063625,"183":0.04191457617522095,"184":0.026334094910193586,"185":0.042871408737620506,"186":-0.013612925757183246,"187":-0.059406523254143084,"188":-0.06557017825252082,"189":-0.06581542003156991,"190":0.1527836584337195,"191":0.06419788717399412,"192":-0.1061023901846679,"193":0.031760431359368735,"194":0.014974023510699595,"195":-0.01550030960893888,"196":-0.013814514685694664,"197":-0.031566161791414415,"198":0.056974205286934324,"199":0.019096505482405775,"200":-0.011388648326364258,"201":-0.06637657048334085,"202":0.04278616026682117,"203":0.02777746008209913,"204":-0.0027477958540515915,"205":0.0695976188343166,"206":0.034745187173258786,"207":0.06664674778964759,"208":0.02289553336640172,"209":0.02240801006909477,"210":-0.024151533319282173,"211":0.012466083576743406,"212":-0.06142688381160359,"213":-0.02929305381385687,"214":0.01296304724550481,"215":0.03431878758657872,"216":-0.06180035232255806,"217":0.05217349076275299,"218":0.08612857753971101,"219":-0.017448037511694846,"220":-0.04636736545613603,"221":-0.09330547084343752,"222":0.07638993140881202,"223":0.060773734078918694,"224":-0.04230876851369875,"225":-0.03983262269288922,"226":0.0266650810173738,"227":-0.08820154795315366,"228":-0.011134934578225706,"229":-0.01220571931005882,"230":0.07423464424081101,"231":-0.11584948640954,"232":-0.0062852051858186915,"233":0.01667886275844421,"234":0.000822514635287989,"235":0.024152357042790413,"236":-0.0052695431648569005,"237":0.011602794860695329,"238":0.042849909000690765,"239":0.0458043928074388,"240":-0.007868953587381291,"241":-0.022031446218353342,"242":0.019779875467912277,"243":0.04712848023360147,"244":0.043381562819872,"245":-0.012196582370334764,"246":-0.1083674651087997,"247":-0.011335116204488816,"248":-0.029444512453417736,"249":-0.0836578458434728,"250":-0.10165913131340071,"251":-0.0052827986083182656,"252":0.03956248247678358,"253":-0.08324048759913535,"254":0.007972716650145763,"255":0.08152145016044794,"256":0.06862914952524209,"257":0.01612697151501205,"258":-0.0399536806001354,"259":-0.051169206852180155,"260":-0.06575071927377898,"261":0.001875999263251722,"262":0.021366657243714057,"263":0.141079537195718,"264":0.02986635419988383,"265":0.009319228476413392,"266":-0.10809096397629674,"267":-0.03337214025370425,"268":0.009098438386913642,"269":-0.038799495272774764,"270":0.0004305111138992962,"271":0.07710970583628111,"272":0.03723335498149797,"273":-0.04167032562767647,"274":0.024231510114539286,"275":-0.060738038372437506,"276":-0.021863912029210928,"277":-0.021659274430352263,"278":0.007601977502232745,"279":-0.015498025579059329,"280":0.025476735335307383,"281":-0.038269539241952186,"282":0.000901616187955721,"283":0.02734316441853928,"284":0.0885702176090971,"285":-0.01013121040209766,"286":-0.029060958191492337,"287":-0.02932809093946458,"288":0.037793509568651726,"289":0.03227826717148039,"290":-0.05855642965078433,"291":-0.006934462549347973,"292":-0.11844712408811192,"293":0.02445911390363445,"294":-0.025201258329621057,"295":0.01385332833466184,"296":-0.038217898311197804,"297":0.08848809678900904,"298":0.09819318853652961,"299":0.07585848584286511,"300":0.05917564117749714,"301":0.04466069316019532,"302":-0.15563492761038894,"303":0.03488949342648279,"304":0.002163603676931892,"305":0.06012643443470948,"306":0.014179437045168003,"307":-0.07096350355687477,"308":-0.029628769752972205,"309":0.04474715854803663,"310":-0.008960343244722255,"311":-0.018407260419751558,"312":-0.04412783595905617,"313":0.050511665424266626,"314":-0.04234594716609858,"315":0.04280010296852962,"316":-0.010150613984627249,"317":0.0027400321104396204,"318":-0.04909790948011186,"319":-0.08587648551387334,"320":0.008134456098384724,"321":0.09140506749067163,"322":0.04567638809578615,"323":-0.06901139163126972,"324":-0.06932126314505051,"325":0.04804874380587092,"326":-0.015258030302497628,"327":0.014246514542437014,"328":0.016791629398668108,"329":0.031906294991648536,"330":-0.025558890444673136,"331":0.004646202240720507,"332":-0.029925245807412088,"333":0.012734706931751168,"334":0.022734551246213815,"335":0.08831096048028723,"336":-0.09973833895094819,"337":0.07705564187451114,"338":0.06640092448838911,"339":0.05177402641692598,"340":0.04825359054286936,"341":0.08655078643677058,"342":-0.1337763288518927,"343":-0.010076282431946387,"344":-0.010957724907054487,"345":-0.0661173967482428,"346":-0.02492931412495181,"347":0.061784798110945754,"348":0.004562261163376586,"349":-0.0652132492054379,"350":-0.0027778810084804813,"351":-0.10152479049602144,"352":-0.02277818856648694,"353":-0.07949245984867107,"354":-0.044156738589064486}},{"sx":1,"sy":1,"depth":355,"w":{"0":0.031518161709880234,"1":0.020566887562428644,"2":0.01141453064700056,"3":0.039338883689955265,"4":0.005969162765805656,"5":-0.006785995552644532,"6":0.032135799462114784,"7":-0.03585852928428666,"8":-0.0883107560542788,"9":-0.035895526961959225,"10":0.055968552724371574,"11":-0.002085314589695532,"12":-0.03382009246258389,"13":0.07304309207733516,"14":-0.04258711387602586,"15":-0.059237123743996555,"16":-0.029887813946428404,"17":-0.0024109039502354652,"18":-0.020070360885522956,"19":-0.0006255973364958183,"20":-0.0011475293652806362,"21":0.013594660880933149,"22":-0.08327112153939432,"23":-0.02010704168171054,"24":-0.040242045970705825,"25":0.11262049036680859,"26":0.052015375292679786,"27":-0.02316609671511151,"28":0.06927538880830954,"29":-0.04599340734094907,"30":0.0740472566545514,"31":0.019996308220432267,"32":-0.03583246055523381,"33":-0.026966937162526544,"34":0.0025151833098611552,"35":-0.0015382199784466375,"36":0.009181629097986846,"37":-0.09596342947266119,"38":-0.12048496956736848,"39":0.06428737439604508,"40":0.02230378102074326,"41":0.034017613060656565,"42":-0.14969633744246533,"43":-0.07201728775132081,"44":-0.03153544644045678,"45":-0.011699104985873041,"46":-0.06744644589378583,"47":-0.07379956229062867,"48":-0.06522510796672855,"49":-0.04126135681863098,"50":-0.03263852898737646,"51":-0.04894064822165043,"52":-0.05485298245224013,"53":-0.054634576374856476,"54":-0.05903397837391645,"55":-0.005143385153181072,"56":-0.03200623979767103,"57":0.014864418836615899,"58":-0.0432478835961266,"59":-0.06668237073329172,"60":-0.07380914737886297,"61":-0.08355525630898762,"62":0.02393086293157549,"63":0.02351228804199757,"64":0.0044196366595742305,"65":0.06359477810122512,"66":0.05174705653993085,"67":0.08309234584039578,"68":-0.03984722176521041,"69":0.08541427195162515,"70":0.049832943608934456,"71":-0.12227472757265694,"72":-0.009290084671059688,"73":-0.050095898193425734,"74":-0.08309979823182756,"75":-0.0231557536493118,"76":-0.0353372076111404,"77":-0.05628043397220114,"78":-0.09182482109958352,"79":-0.018894792577070735,"80":0.03454511209292225,"81":-0.045477157698319406,"82":-0.004652452455440701,"83":-0.08334863572667729,"84":-0.029105888884142065,"85":-0.036282793130850956,"86":-0.09429034269988151,"87":-0.022045805276682994,"88":0.041019035710985786,"89":0.026680034455816008,"90":0.01177425968125058,"91":-0.12454095373938599,"92":-0.01683123450883592,"93":-0.027001271114538407,"94":-0.019251638387093598,"95":-0.05908065630808005,"96":-0.1621510854296374,"97":-0.03569827939539934,"98":0.015501724624993572,"99":-0.02735439050963081,"100":0.004988250076407512,"101":-0.02108180356194084,"102":-0.02843509730649837,"103":0.016260042570397124,"104":-0.02850405879774736,"105":-0.0521719132384268,"106":-0.0016197578840583195,"107":-0.02051245330437838,"108":-0.06499280622155591,"109":0.026019891527499707,"110":-0.024131855015905524,"111":0.07365325819254986,"112":0.005209431940085543,"113":-0.054594703850540535,"114":-0.0925907198686315,"115":0.08679639770084141,"116":-0.009651260689391618,"117":0.02332080298362338,"118":0.03889488455339055,"119":0.0060879348173345366,"120":-0.010997846105133246,"121":0.025554735500972977,"122":0.05792187911526964,"123":0.0617333595476563,"124":0.027726198733920404,"125":0.11478706000078448,"126":-0.09217824256694065,"127":0.012922958203617862,"128":0.015430329089923627,"129":0.09477650252905588,"130":-0.017555630915320624,"131":-0.022553611846256625,"132":-0.021343062940119957,"133":0.06463210819918246,"134":0.01593661101823959,"135":-0.0005166658432341038,"136":-0.007474425525863786,"137":-0.0038203549168912055,"138":0.03519187515951923,"139":0.006825543699366342,"140":-0.004798017451575919,"141":-0.0154872248870909,"142":-0.02455672826279493,"143":-0.10977450727350624,"144":-0.04361958806138832,"145":-0.04733736829509799,"146":0.009118132322308401,"147":0.03806320507624685,"148":0.025048878130992085,"149":0.013138772690868961,"150":-0.055677239230726275,"151":0.010738555189209409,"152":-0.09633279066354274,"153":-0.05970410296822384,"154":-0.018452527697277447,"155":0.06155411621533482,"156":0.05799667086771612,"157":-0.047025844294349965,"158":0.036627048359337125,"159":-0.013676954685445986,"160":0.029132330443028244,"161":0.031300758717160364,"162":0.0012320925147502966,"163":0.002547989038841325,"164":-0.05543901856706357,"165":0.06916535222847353,"166":-0.07901008275771898,"167":-0.06120999086395983,"168":-0.06945095522569193,"169":0.042169970625939114,"170":-0.04490726805091462,"171":-0.03212022307126378,"172":-0.11839296751071979,"173":0.058927606055894165,"174":-0.049031272630223395,"175":-0.002433170083760206,"176":-0.12922929196733862,"177":0.09459934153789318,"178":-0.10017643679208814,"179":-0.06568322103742874,"180":0.044624178837441415,"181":-0.026873473521914697,"182":-0.03693992083369015,"183":-0.06848657516853052,"184":-0.05859467082520111,"185":0.05481281899738078,"186":-0.018779780956335763,"187":-0.033479649630913856,"188":-0.034042431639268685,"189":-0.004027678628959354,"190":0.002920321951310324,"191":-0.05638473584870319,"192":0.035817193372999066,"193":-0.008930978525486051,"194":0.07529974706439085,"195":-0.0036320293241389186,"196":-0.039916319215270384,"197":0.02138115689255142,"198":-0.13393198144908416,"199":0.021700942965439347,"200":0.030560507854773825,"201":-0.06921277101675047,"202":-0.07597257958397652,"203":-0.01876415771230284,"204":-0.0038421321122893083,"205":-0.01594211477030735,"206":-0.017410809355167433,"207":-0.07734160386329247,"208":-0.009577131382569345,"209":0.027987722966998314,"210":-0.10501687914292987,"211":0.00595972272482295,"212":-0.009632185541235702,"213":0.10196476707185614,"214":-0.023368993606443577,"215":-0.01727550451296964,"216":-0.06267914851047066,"217":-0.06147957003123483,"218":-0.04905035403557428,"219":-0.11267567455329561,"220":0.00870284148722054,"221":0.0035764305759044364,"222":0.04111904635362335,"223":0.05192152305170291,"224":0.007348884425428625,"225":0.014636382649454863,"226":-0.07527767015397178,"227":-0.03260261346900619,"228":-0.04561054128112028,"229":0.059316651848311426,"230":-0.013361539815087267,"231":0.034159555539223854,"232":-0.08067028413502887,"233":0.023520685150412515,"234":0.03473733296328869,"235":0.053321370500154903,"236":-0.0640233450440785,"237":-0.03311139802034623,"238":-0.043958048893988584,"239":-0.05505046920326569,"240":-0.02029523467090638,"241":-0.02407814386298098,"242":0.02381729304977974,"243":-0.05287140157421766,"244":-0.0756339122558321,"245":0.06041673179653109,"246":0.056377566812295665,"247":0.08803234168921917,"248":-0.03795703212970878,"249":0.002559142765663893,"250":0.06494722878848364,"251":0.03149521856442552,"252":-0.06692077657377238,"253":-0.040391990932815584,"254":-0.020409447866559117,"255":0.05542409229764736,"256":-0.021630329517276503,"257":0.02867392850839166,"258":-0.10085848565088722,"259":-0.029298219807670715,"260":-0.004621531892974819,"261":0.026375123419587237,"262":-0.04643823794571363,"263":-0.18630040250702878,"264":0.06600609598236727,"265":-0.03875213852013839,"266":-0.04531921254805993,"267":0.011714751228068837,"268":-0.021511213412826625,"269":0.007265012885508091,"270":0.07122830780092938,"271":0.030711368538288056,"272":0.008377139158002742,"273":-0.03665906499553974,"274":-0.008608756805811132,"275":0.046482871611350306,"276":-0.010888553757648894,"277":-0.10270594797801423,"278":-0.054554169362507905,"279":-0.03400243720545944,"280":0.06927222294287047,"281":-0.04079443995969315,"282":-0.07777845825888367,"283":0.035251967574708054,"284":-0.01888344930058813,"285":-0.013618829709006585,"286":-0.060666581684475716,"287":0.0572634907662294,"288":-0.05662322142634776,"289":-0.0626900953515521,"290":0.050250153777806714,"291":-0.016148646433590996,"292":-0.009400163207080878,"293":0.012498192159551221,"294":0.05307851457732205,"295":-0.02501197684018069,"296":-0.06117159389335204,"297":0.012081808712766911,"298":0.0007741625667240002,"299":-0.01359156269865777,"300":0.07340793593554969,"301":-0.07452910950828376,"302":-0.11597374025122247,"303":-0.11787860836831603,"304":0.009432781327152018,"305":-0.030891365984090903,"306":-0.06368696446501129,"307":0.00459189859576257,"308":0.1006957678756518,"309":0.04235704516028267,"310":0.019668534702934167,"311":-0.017749270467876808,"312":-0.05845300639664311,"313":0.021038892171765,"314":0.019482581105084863,"315":-0.05936653696674286,"316":0.027723847760455902,"317":-0.03228434817146204,"318":-0.02422127149983792,"319":0.0039716224162490415,"320":-0.09568031186433487,"321":-0.062018572694826794,"322":0.01859047855646532,"323":-0.017157559148897376,"324":-0.014439202263444133,"325":-0.005983024376756048,"326":-0.08172632409053844,"327":-0.03573442847900185,"328":-0.027447709415024883,"329":0.011698618226125054,"330":0.012861740281383826,"331":0.07510448557621463,"332":-0.006852280847814623,"333":0.0916558293067352,"334":-0.018445014157731726,"335":0.054091293067781064,"336":-0.0004247638253551275,"337":0.007294783195878743,"338":-0.039179635380605385,"339":-0.04220258966132852,"340":-0.09388492166537696,"341":0.06788159385057109,"342":0.05954353320968307,"343":0.03046926713335991,"344":-0.0026060480548059073,"345":0.06328134472636576,"346":-0.007996640064356691,"347":0.07847408299990714,"348":0.058629140479431935,"349":-0.045579703265641494,"350":0.0027375921201475742,"351":-0.024530600775826316,"352":-0.060768163171261345,"353":0.006748546336564918,"354":-0.09539566478579554}},{"sx":1,"sy":1,"depth":355,"w":{"0":0.06432415229114219,"1":0.05611058024324086,"2":0.006328074383702038,"3":-0.0046695709965443736,"4":0.047260987918176615,"5":0.025618036216433396,"6":0.06861245443423585,"7":0.14422280296436285,"8":0.020010759081934212,"9":0.05464506244949671,"10":-0.014598239432685409,"11":0.05136893802494193,"12":0.01692751796782853,"13":-0.00976948764961299,"14":0.13295206246227212,"15":0.13281356132471148,"16":-0.07517158556548668,"17":-0.01851509098248633,"18":-0.07789875005031471,"19":-0.06877203419314133,"20":-0.009494038908610935,"21":0.015803548024655157,"22":0.03180168394272356,"23":-0.015656344402813546,"24":-0.01602869413687741,"25":-0.019810291237059723,"26":0.03249088207060028,"27":0.012214177281959757,"28":-0.0051804639517714565,"29":0.03710837128167427,"30":-0.0025637262540595483,"31":-0.008684389398875987,"32":0.03804513327364119,"33":0.024490395910702477,"34":0.02857119953040757,"35":-0.03909577491102852,"36":0.0017870058617538045,"37":0.09182685614009234,"38":-0.003388610296423743,"39":0.026152199620192416,"40":0.0126841156947245,"41":-0.04171493736588566,"42":-0.02498124882434287,"43":-0.011959737841718764,"44":0.03158426484906071,"45":0.009737119638886209,"46":-0.01226698613363848,"47":0.038127600330879,"48":0.037523668814006955,"49":0.08133935403145609,"50":0.050491143762191285,"51":-0.008082645750463089,"52":0.009174123604736992,"53":0.06959558965007806,"54":0.03600443474634993,"55":0.08309581977905482,"56":-0.05952480980491627,"57":-0.05154766356803348,"58":0.005493504179414241,"59":-0.0513413335124598,"60":0.027680242562453338,"61":0.024697784888737924,"62":0.11193225430294106,"63":0.06613065402212734,"64":0.07644440809799118,"65":0.07773818817444772,"66":0.04644871890953639,"67":-0.031733293152218504,"68":0.046715800265874075,"69":0.014977654877225298,"70":0.000649219729885914,"71":0.02194482067206358,"72":0.008280691579697979,"73":0.08092089952953402,"74":-0.03374317451987926,"75":0.022869093287851285,"76":0.037622181489538456,"77":0.05145467660173765,"78":-0.047738310337720614,"79":-0.0010472548659424393,"80":-0.060002614287172615,"81":-0.032864587020606975,"82":0.0720179669959016,"83":0.08107841415015662,"84":-0.009096651832349324,"85":0.051737394664931886,"86":0.01620259311889017,"87":0.10688395626117878,"88":0.07008381308769501,"89":-0.028560696144122957,"90":0.0006462491301841597,"91":0.018919362371186247,"92":0.10930129193622841,"93":0.046114835753984375,"94":0.10012757930096436,"95":0.02382270858143406,"96":0.013722090657948544,"97":0.07384100108175924,"98":-0.01915658061234305,"99":-0.0036168055315258683,"100":0.01576041132997455,"101":0.036462221997717266,"102":-0.04333916263457939,"103":0.037762757587403474,"104":0.04689588634199963,"105":0.054342126035451285,"106":-0.03098034048672868,"107":0.023245745519429515,"108":-0.05315197093807153,"109":-0.039926211153249784,"110":0.044497085413706366,"111":0.00037293222525225356,"112":-0.027559719689636327,"113":0.10079182832435475,"114":-0.025158126861744942,"115":0.12365071884126337,"116":-0.030139764567515936,"117":-0.08861433261609693,"118":-0.012355849063981855,"119":0.0017420429575279346,"120":0.03523612808655312,"121":0.000980611256269059,"122":-0.08286595976655914,"123":0.007887374227584064,"124":0.04977234149892599,"125":0.021946333382846836,"126":0.0163422389296859,"127":0.07869958123957925,"128":-0.04764642024949272,"129":0.04543359938182669,"130":0.07021941311397052,"131":-0.014981764285381343,"132":0.03148938627904062,"133":0.004716333873805861,"134":0.08553102816613939,"135":-0.0003663389424141368,"136":0.004520891872337657,"137":0.00181259795500391,"138":0.026988884528347086,"139":-0.04044323866222226,"140":-0.05141647331527985,"141":0.10421230288011973,"142":-0.00579920851952969,"143":-0.09588379848917378,"144":-0.007814389387863697,"145":0.0244144087400181,"146":0.015552641991021307,"147":-0.035208214202551685,"148":-0.007373690405623272,"149":-0.00917189907739537,"150":-0.033171581134976036,"151":0.07604256863277692,"152":-0.01216876250479043,"153":-0.09225646102552296,"154":-0.012993914911814008,"155":-0.043406585636704395,"156":0.007811002562682892,"157":-0.05964584620261199,"158":-0.10088328692885187,"159":0.0878549022156828,"160":0.06425405308313811,"161":-0.03600897256043656,"162":-0.04520954747070532,"163":-0.013331259346469468,"164":-0.02814691271399464,"165":-0.05321530984652852,"166":0.0478468651594044,"167":-0.027098201641583705,"168":-0.01541656357934906,"169":0.025430105509804204,"170":0.02881193497802118,"171":0.08718429475832029,"172":-0.0273762697282268,"173":0.010904287750536715,"174":0.014432188911884417,"175":-0.09069912121172226,"176":0.12077783941130184,"177":-0.02161728097330047,"178":0.03486269431110274,"179":-0.009367716564362583,"180":0.07323447706829173,"181":0.15767318201876176,"182":-0.03014290175068391,"183":-0.03775706749176102,"184":-0.11075931230830215,"185":-0.015391024174451146,"186":-0.05036264314646313,"187":-0.013919324919551187,"188":-0.12478281184939943,"189":0.008164275081184133,"190":-0.046851185331068426,"191":0.07687142299174139,"192":0.013673498614329599,"193":-0.06658420819533195,"194":0.03171407110682522,"195":0.09458149508129689,"196":-0.025040650744973865,"197":-0.024696574875719718,"198":0.08687076972527734,"199":-0.0011989259838598026,"200":0.025162384942186897,"201":0.055778644917880656,"202":0.051559747838835865,"203":-0.006127792228760081,"204":-0.043045165249998726,"205":0.02710097335078995,"206":-0.016846199029723667,"207":0.11199012614371293,"208":-0.0023995492912726925,"209":0.04306341259360119,"210":-0.039542063045024646,"211":0.029944817749070533,"212":0.06743963426537632,"213":0.026475160373967476,"214":0.051056747306263,"215":-0.051944066623070974,"216":-0.01911118483477596,"217":-0.06184003150715281,"218":0.07039629400732879,"219":-0.06205308464226789,"220":0.040365165103292674,"221":-0.02566567368738137,"222":0.008288476160459902,"223":0.01673003948403867,"224":0.011200678649718966,"225":-0.004172606209743265,"226":0.02828352384469497,"227":-0.06387766738907058,"228":0.0799158999012461,"229":0.05563100441607043,"230":-0.06309010948454132,"231":0.07205794948250781,"232":0.022625526922966908,"233":-0.13553918751543642,"234":0.03684708190103076,"235":-0.02845071356373102,"236":0.017414283449084505,"237":0.013538264604096188,"238":0.05333584876494236,"239":-0.011494758319907452,"240":-0.022776381270341976,"241":0.007754751590690868,"242":0.0041233143273701625,"243":-0.08757838484608918,"244":0.02842455123098584,"245":-0.0165058941753014,"246":-0.029399366590020397,"247":0.12542598661794135,"248":-0.050583085222456504,"249":-0.01573174111452806,"250":-0.03458996687495101,"251":0.019515739641307393,"252":-0.08226929779038789,"253":-0.12619373284508925,"254":-0.0384433012381088,"255":0.02182326625378791,"256":0.02258418542413975,"257":-0.04134407816028928,"258":-0.020999925526827973,"259":0.03586674313138109,"260":-0.02140786730803865,"261":0.011669845152708759,"262":-0.025152414524124127,"263":0.023694071995388987,"264":-0.047253907869384326,"265":0.023156457969681864,"266":0.036056478934123275,"267":0.05821348632277161,"268":0.016310056748271497,"269":0.0824982895561049,"270":0.007442718443606452,"271":-0.044531249508500466,"272":0.04353686302123986,"273":0.04794424652488956,"274":0.04914468728562695,"275":-0.002270044884212468,"276":-0.0008420148778585229,"277":-0.0091504252078195,"278":0.0035090174917447123,"279":-0.09725176818710077,"280":0.026340441781049356,"281":0.02988785335205882,"282":0.007144557326534805,"283":0.05127609401238567,"284":0.09942613072817727,"285":0.029856401287961718,"286":-0.054194525154716774,"287":0.021192139486563198,"288":0.0579333180767006,"289":0.0464823361046879,"290":-0.07267443180084818,"291":-0.01717733924259802,"292":-0.05079317644772815,"293":0.03629346456787014,"294":0.08902006851091364,"295":0.045882638226704915,"296":-0.027618198518506044,"297":0.02665829168293059,"298":-0.0974297662263693,"299":-0.006227690880272447,"300":-0.008420066765625667,"301":-0.020403534331770577,"302":0.01667297810240795,"303":0.08621775641046202,"304":0.025016682663192822,"305":0.09497801146424015,"306":0.022275999388463835,"307":0.010250888409692214,"308":-0.010006437637512832,"309":-0.09162750705134119,"310":-0.016141771458269737,"311":0.03503010219259915,"312":-0.02432568031537731,"313":-0.03190000819149589,"314":-0.0739244839758703,"315":-0.012313759694115897,"316":0.008601670485348876,"317":-0.057451976697794595,"318":0.003604597671482206,"319":0.079669545697548,"320":0.044437587944852155,"321":0.013981913689590253,"322":0.06586310653108596,"323":0.06618540494182465,"324":-0.028775554202589655,"325":0.0012862971335649979,"326":-0.01982506422861886,"327":0.0002700981134896556,"328":0.05844234173316919,"329":-0.013013497685905213,"330":0.01670652840055556,"331":0.0001858504769941108,"332":-0.12364524487925894,"333":-0.04624000564748865,"334":0.14781676541430547,"335":0.06792575335376738,"336":-0.17358611811704758,"337":-0.026880321806261327,"338":-0.11785598519976252,"339":0.06330435991827577,"340":-0.007028735913930421,"341":-0.002779531364786396,"342":-0.015507043156767009,"343":0.055575194324682706,"344":0.0027673058429629085,"345":0.06942287851403157,"346":0.024563667466893216,"347":-0.0012497610115628599,"348":0.05615980186404636,"349":-0.0432551425968649,"350":-0.04052772639291469,"351":-0.13718766788190115,"352":0.001805073542672015,"353":-0.029795035973906606,"354":0.01884863464103767}},{"sx":1,"sy":1,"depth":355,"w":{"0":-0.07650832370648655,"1":-0.04926661150670053,"2":0.009095498772057647,"3":0.049147690900281385,"4":-0.02120914762318053,"5":0.019386581227417078,"6":0.0018712475545451922,"7":-0.10811430255577796,"8":0.1251162126645652,"9":0.02166378861075104,"10":-0.015033322820209147,"11":-0.043457570935212256,"12":0.0659607738757598,"13":-0.11188827657334499,"14":-0.02982161377173664,"15":-0.01700587723763305,"16":-0.0589871427735352,"17":-0.0552268164339951,"18":-0.06290483989243689,"19":-0.026588163349061618,"20":-0.02992830689235514,"21":-0.07492796207822068,"22":-0.02418844925411351,"23":-0.002272967015402739,"24":-0.00814690091676116,"25":0.09151514711556658,"26":-0.08354957218155605,"27":0.07851303423537016,"28":0.020668013194292623,"29":-0.06330441277716282,"30":-0.023683925301279076,"31":-0.10941932795492249,"32":0.1327663135752206,"33":-0.025514546122221243,"34":0.03560529831864918,"35":-0.06390493369633053,"36":0.012704236502988693,"37":-0.03080587419450109,"38":0.07731567247109869,"39":-0.037177701164487396,"40":-0.03483146682884896,"41":-0.12184499695992901,"42":-0.0240945512388393,"43":0.06316550159094711,"44":-0.024826040343362353,"45":0.010438275464921333,"46":-0.05031089426027474,"47":0.038233120099795695,"48":0.017127363944852023,"49":-0.041249453034937926,"50":0.0044784218003947295,"51":-0.038955030228745496,"52":-0.04711992635341982,"53":0.02174252714999124,"54":-0.01335882616274174,"55":-0.04311395586905906,"56":-0.014123458963776162,"57":0.022405830535288388,"58":0.05578994983188374,"59":0.09727286248892943,"60":-0.0461480928241756,"61":-0.06101953578574748,"62":-0.025989511368742165,"63":0.10168153040839491,"64":-0.029839094034176682,"65":-0.10203408468370954,"66":-0.06670225745070746,"67":-0.01936261110837849,"68":0.011648366322808402,"69":-0.08371519532849903,"70":-0.0342981873832596,"71":-0.009421353451142539,"72":0.02640268051644252,"73":0.050235621157114684,"74":0.012403879254766857,"75":-0.02454593140983761,"76":0.026918082218887234,"77":0.16287333400323584,"78":0.04990953376450826,"79":0.01860202653882526,"80":0.05711711665604355,"81":-0.08899077099543973,"82":0.10555791529381064,"83":0.08046552562352635,"84":0.05409069823619018,"85":-0.040138505330265244,"86":-0.09390720708817688,"87":-0.030804294988654692,"88":-0.012542790114239638,"89":0.0700512560044797,"90":-0.02194000367928796,"91":-0.03271829481401278,"92":-0.05091719914617896,"93":0.08005384127629254,"94":0.08535915191044276,"95":0.01847994586279013,"96":-0.023988789378391842,"97":-0.0014955914500270825,"98":0.06372633449238523,"99":-0.05480158151534314,"100":0.008687263403534226,"101":-0.0237233136099047,"102":-0.05221486960278912,"103":-0.037578726813187635,"104":0.03635235541242693,"105":-0.06889949133317928,"106":-0.007773040049785284,"107":0.01019385388475372,"108":-0.08924716407078975,"109":0.04365666370730007,"110":-0.06734847855087761,"111":-0.010335559162165062,"112":-0.051342252457509584,"113":-0.10496143690264619,"114":-0.08717428081250783,"115":0.014492651495347324,"116":-0.1852332054391741,"117":-0.01748839736772431,"118":-0.053294586279495106,"119":-0.037802169524370266,"120":0.020122163645502726,"121":-0.07982823647297317,"122":0.05088490160979402,"123":0.049189511260581756,"124":-0.002171352078546491,"125":0.09211370951927295,"126":-0.04437389967309549,"127":0.032119474369589236,"128":0.10725995141732354,"129":0.028394659088650173,"130":-0.007437478727864059,"131":-0.027134890009221747,"132":-0.05665269743656568,"133":0.016270862640247397,"134":-0.06536577351878191,"135":0.008047400148975177,"136":-0.025646768000835894,"137":-0.005929484930468687,"138":0.03465646402220308,"139":-0.1066592119425194,"140":-0.12019736140031707,"141":-0.054288414853545845,"142":0.009325199552410995,"143":-0.0207925106981073,"144":-0.05226326861674099,"145":0.04397617145415615,"146":0.012693880882741867,"147":0.07646583152589444,"148":-0.03696064254869731,"149":-0.08253951125327338,"150":0.08953518086675877,"151":-0.09923842555157297,"152":-0.07753027063552373,"153":-0.01627675052003531,"154":-0.05144166935626724,"155":-0.07215488760689515,"156":-0.055464835966199166,"157":0.0011178222014822901,"158":-0.02568379586355,"159":0.005659083477006829,"160":-0.019265527368932334,"161":-0.027330238705812995,"162":0.04080548703321412,"163":0.04200377448142447,"164":-0.011465396968519358,"165":0.030097522579071615,"166":-0.0174009533760803,"167":-0.18525455554690462,"168":-0.019323596328971498,"169":-0.002160769067834388,"170":-0.016549186555242748,"171":-0.019931565908675303,"172":-0.09113048964856547,"173":0.10890980576844056,"174":0.08731427820277908,"175":0.051682307102113724,"176":0.0881880602629955,"177":-0.033270684413862994,"178":-0.0009826336821627984,"179":-0.05481486912406827,"180":0.08094854531679242,"181":-0.04997875112655802,"182":-0.03786972578590566,"183":0.12741933328700658,"184":0.04558486960248154,"185":-0.04102941021061206,"186":-0.006806236201242077,"187":0.06968475261367418,"188":-0.018604222752900357,"189":-0.08212707730680095,"190":-0.06422898453820733,"191":-0.06505670472306499,"192":0.03771614754938528,"193":0.0789874622329642,"194":0.03941312512498606,"195":-0.09391322543957954,"196":0.012432661192358167,"197":-0.011185817804150282,"198":0.014313527171591916,"199":0.02093210638320701,"200":0.02466854686831277,"201":0.0007209185047026069,"202":0.12582704355598812,"203":-0.017272164908346103,"204":0.007994911893388012,"205":0.07672590463308292,"206":-0.009639524787516228,"207":0.032424998671737204,"208":0.020141478972343804,"209":-0.04306396789158643,"210":-0.006121339568430999,"211":-0.04534987322826511,"212":0.009572810141377978,"213":-0.01644215365160042,"214":-0.003034335241883588,"215":-0.02845657160006696,"216":-0.026698622616628843,"217":0.05355694207803208,"218":-0.06977469982223643,"219":-0.1057532189897902,"220":0.09008980173514802,"221":0.02822696239463063,"222":0.030021599766773047,"223":0.02638116395998803,"224":0.010602480177003607,"225":0.005482838751934004,"226":0.03739786632952354,"227":-0.09521601241508439,"228":-0.07040015175472172,"229":0.009591118047789067,"230":-0.011396055296424587,"231":-0.02253767577720854,"232":-0.05896276823357412,"233":-0.06886425474106284,"234":0.00155245780123888,"235":0.05207041315586854,"236":0.08030257513124886,"237":-0.0015485340414470065,"238":0.006444170796920704,"239":-0.043219591299200937,"240":0.08879115491767554,"241":0.010855115049313788,"242":0.011283764893764729,"243":-0.02802566232440367,"244":0.03038150885746458,"245":-0.04463661163678383,"246":-0.022184304611581794,"247":0.021091377510207582,"248":-0.03828820048856235,"249":0.05252190769154374,"250":-0.0036506509576767856,"251":0.027782650453874198,"252":-0.003660277366721015,"253":0.03108915623486236,"254":-0.0047778200506912215,"255":-0.031202692244489575,"256":-0.10543838421362182,"257":-0.08184772482059359,"258":-0.0015700444198856478,"259":0.020719351658964352,"260":-0.008269367094721942,"261":0.023233242846430666,"262":-0.013967406470982555,"263":0.016189581964776528,"264":0.05840675787554032,"265":0.04042962853534232,"266":0.08543651529605058,"267":0.05385462545208989,"268":-0.095729337731549,"269":-0.07373419253507271,"270":0.037615102789009355,"271":0.01713903147671775,"272":-0.019048895312946647,"273":-0.009110045734053504,"274":0.08188943432821497,"275":-0.09228312041656866,"276":-0.03192016400896039,"277":-0.025615958982120886,"278":0.014927489499098126,"279":0.03713434557975015,"280":-0.0925999067920001,"281":0.014559075768982297,"282":-0.013711389258746669,"283":0.09566346771785325,"284":0.08125851136433017,"285":0.02063379950084954,"286":0.02189433888207252,"287":-0.04898382865248794,"288":0.021178361024363625,"289":-0.06290980393098568,"290":0.048112767409494744,"291":-0.0571309277028987,"292":-0.017935260505481616,"293":-0.04205109887554134,"294":-0.033646766505055055,"295":0.026746592778336898,"296":-0.004947184365683477,"297":-0.06067616856046151,"298":0.06716885235178698,"299":-0.09222963170093275,"300":-0.10485355017868184,"301":-0.007641738678514086,"302":0.01024831789853925,"303":-0.03408954614004616,"304":-0.04424223146516454,"305":0.044630524987212775,"306":-0.013308972623306497,"307":0.06577486006140108,"308":-0.12552199207244585,"309":-0.1009985929821545,"310":0.020588873059764628,"311":0.013650267359695671,"312":0.041078961185428815,"313":-0.015038005786060188,"314":-0.1319036877178166,"315":-0.09757660944210603,"316":-0.027275359020078938,"317":0.07221725944911572,"318":0.013371240143026701,"319":-0.11791429880567479,"320":0.03074722763727274,"321":-0.043232053178199545,"322":0.04470107135858278,"323":0.07520233960585115,"324":0.008563375082074744,"325":-0.024320407818755583,"326":0.04887866315391676,"327":0.0016779518704058904,"328":-0.06467352282846801,"329":-0.035471027756319544,"330":0.008116109979030586,"331":0.009513016990611651,"332":-0.026261565048816632,"333":-0.023334618746471036,"334":0.037568640234915664,"335":-0.03209545246639237,"336":-0.0043843520869539685,"337":-0.06851052102008644,"338":-0.08982876211996725,"339":-0.03409716157855005,"340":0.041898150858406306,"341":-0.007918341026590647,"342":-0.019246298389742733,"343":-0.008354128396784831,"344":0.016105515111391414,"345":0.0913873760689163,"346":-0.005904343265717203,"347":0.05029354520974621,"348":0.07058559644586862,"349":0.06654571238173958,"350":0.026524691056277118,"351":0.004659184987598923,"352":0.08429584195719321,"353":0.04195034565958008,"354":0.00933956703075396}},{"sx":1,"sy":1,"depth":355,"w":{"0":0.05744700744684104,"1":-0.047505293326647456,"2":0.04814867239107849,"3":0.009262494481396929,"4":0.04097111513025775,"5":0.013474356211095556,"6":-0.09971186672943821,"7":-0.07501871750965032,"8":0.03622863577718357,"9":-0.029804632106887163,"10":0.011046597273312947,"11":0.009035191495973028,"12":-0.08722812957842672,"13":-0.03287243206108701,"14":0.04167631061989381,"15":0.036391844769252425,"16":0.04421773592489477,"17":0.049774364086887075,"18":-0.010897687091135679,"19":-0.03514469060714198,"20":-0.004333201862938091,"21":-0.030448501107215645,"22":0.04579534604983259,"23":-0.009590090913458516,"24":0.022614808420030504,"25":0.05173769753904265,"26":-0.017560978020623518,"27":-0.03659684140156462,"28":0.001699797650710853,"29":0.02013026614595917,"30":0.047422187833513416,"31":0.0541973955615247,"32":-0.02063931626285564,"33":-0.07437650967670034,"34":0.08699463890210145,"35":0.015269878084378661,"36":-0.010627947348885081,"37":-0.07028172387595977,"38":-0.08494865977267052,"39":-0.028435671104476166,"40":-0.02039866030612545,"41":0.00900113250897828,"42":0.00937704569564075,"43":0.010810926100854639,"44":0.05712343947450755,"45":0.004389339571189345,"46":-0.08883708330031373,"47":-0.04545244039478228,"48":-0.0746057342963121,"49":0.008745014231941151,"50":0.103546297150125,"51":0.005672016750507891,"52":-0.033566938215541894,"53":0.08155463524704283,"54":0.08016118328349965,"55":0.0055895592856122995,"56":0.03340642311704135,"57":0.026560977456604597,"58":0.028588122213741716,"59":-0.01445384207771289,"60":-0.017032463712298922,"61":0.12195757045380719,"62":-0.04752781222843698,"63":0.0005203936355060253,"64":-0.003188759857539587,"65":-0.04721357356894656,"66":-0.01705299488485071,"67":0.04600347618831286,"68":-0.06943148700681742,"69":-0.10585430587091307,"70":0.01982215815327892,"71":-0.030864921216232796,"72":-0.09193448404493439,"73":0.02113442248952851,"74":0.0010281629555416755,"75":-0.01372258272157602,"76":0.0596419084740681,"77":0.05291363596934303,"78":0.020430174943443864,"79":-0.03913334388172618,"80":0.08950670990438646,"81":-0.030610475304304826,"82":-0.05079005017568958,"83":-0.010889235084505126,"84":0.033327443588805246,"85":-0.03690191046057382,"86":0.012708862706976916,"87":0.03893975033631372,"88":-0.017568014715424636,"89":-0.07528139585689574,"90":-0.03657584161025403,"91":-0.0017472562681993863,"92":0.033961223716045014,"93":0.014705878163437238,"94":0.00616694099329208,"95":0.0025456218676472723,"96":0.0008285615712612353,"97":0.057830234657344465,"98":0.023895601687552014,"99":0.07486629607090894,"100":0.014222215439155007,"101":0.053847692645474184,"102":-0.037894035845206925,"103":-0.009946505795019742,"104":0.00946635876610613,"105":-0.04087915427660947,"106":-0.08499750006657308,"107":-0.05921041857748414,"108":-0.017826525743668532,"109":-0.028899990229706084,"110":0.05311090429060375,"111":0.08787184496986225,"112":-0.06602692029458665,"113":0.014029565917821866,"114":0.03317282852107214,"115":-0.057890322660476515,"116":-0.02645289085252127,"117":0.0017445063772138867,"118":0.002102690905695009,"119":-0.04840687532058882,"120":-0.028773243575824243,"121":-0.004890819150416458,"122":-0.02690348578242019,"123":0.034865426317966575,"124":-0.10874265907558828,"125":0.06543133272960598,"126":-0.02984386874466005,"127":-0.062356634405951586,"128":-0.01212084015064756,"129":-0.06543285537490126,"130":0.050862680890958016,"131":-0.04676778779950006,"132":-0.06684299460570187,