
//<![CDATA[

// a few things don't have var in front of them - they update already existing variables the game needs
lanesSide = 2;
patchesAhead = 15;
patchesBehind = 8;
trainIterations = 150000;

var num_inputs = (lanesSide * 2 + 1) * (patchesAhead + patchesBehind);
var num_actions = 5;
var temporal_window = 2;
var network_size = num_inputs * temporal_window + num_actions * temporal_window + num_inputs;

var layer_defs = [];
layer_defs.push({
    type: 'input',
    out_sx: 1,
    out_sy: 1,
    out_depth: network_size
});
layer_defs.push({
    type: 'fc',
    num_neurons: 100,
    activation: 'relu'
});
layer_defs.push({
    type: 'fc',
    num_neurons: 20,
    activation: 'relu'
});
layer_defs.push({
    type: 'regression',
    num_neurons: num_actions
});

var tdtrainer_options = {
    learning_rate: 0.001,
    momentum: 0.0,
    batch_size: 64,
    l2_decay: 0.01
};

var opt = {};
opt.temporal_window = temporal_window;
opt.experience_size = 3000;
opt.start_learn_threshold = 500;
opt.gamma = 0.7;
opt.learning_steps_total = 10000;
opt.learning_steps_burnin = 1000;
opt.epsilon_min = 0.0;
opt.epsilon_test_time = 0.0;
opt.layer_defs = layer_defs;
opt.tdtrainer_options = tdtrainer_options;

brain = new deepqlearn.Brain(num_inputs, num_actions, opt);

learn = function (state, lastReward) {
    brain.backward(lastReward);
    var action = brain.forward(state);

    draw_net();
    draw_stats();

    return action;
}

//]]>
    
/*###########*/
if (brain) {
brain.value_net.fromJSON({"layers":[{"out_depth":355,"out_sx":1,"out_sy":1,"layer_type":"input"},{"out_depth":100,"out_sx":1,"out_sy":1,"layer_type":"fc","num_inputs":355,"l1_decay_mul":0,"l2_decay_mul":1,"filters":[{"sx":1,"sy":1,"depth":355,"w":{"0":-0.03731435907520731,"1":0.038070846223817775,"2":0.24253612589272483,"3":0.10488157122508006,"4":-0.019094050427450684,"5":-0.004102999865489314,"6":0.048184691123141186,"7":0.3326714356807553,"8":0.1388807330989556,"9":0.0493041175055838,"10":0.029153501933325655,"11":0.04791376930320392,"12":0.2683212614250402,"13":0.06345262109702911,"14":-0.040024812169805614,"15":-0.04725299234757244,"16":0.03131147544222171,"17":0.2369316304890477,"18":0.12551846971147487,"19":-0.08198494655986151,"20":0.05819191933564541,"21":-0.01241187157221376,"22":0.252693577254318,"23":0.07032786994064108,"24":-0.04104562860832062,"25":0.014579371987732834,"26":-0.1256623756838065,"27":0.3268645956177588,"28":-0.01714630785724002,"29":-0.02400255719329972,"30":-0.011838930779876349,"31":0.18912538963763018,"32":0.6100410968468014,"33":0.09749540633675721,"34":0.030544211726357778,"35":-0.02245953581782401,"36":0.12080619429138767,"37":0.9641581628951345,"38":0.15870495682852487,"39":0.024892673976331513,"40":0.046365791966389985,"41":0.08080050754441144,"42":1.018628845832695,"43":0.21107942373350308,"44":0.05678558488474364,"45":0.08184652925962314,"46":0.3172746830440848,"47":0.8135628417356421,"48":0.3290594773132388,"49":0.059731606726493414,"50":-0.045775972575505246,"51":0.14581881395771146,"52":0.5714541572075573,"53":0.29681310277969003,"54":0.06504989373481083,"55":-0.022782746919174715,"56":0.2815880019013483,"57":-0.06336770777843836,"58":0.43912435012280077,"59":-0.06553132368026474,"60":0.08173926329175069,"61":0.3043809740338574,"62":-0.03581268360988629,"63":0.3385521014588285,"64":0.009138743256400994,"65":0.026766028475626695,"66":0.27265311355051775,"67":0.0027496167368656383,"68":0.32865601630619107,"69":-0.004975509791826639,"70":-0.049004292350636594,"71":0.23327711535759932,"72":-0.047682008872093895,"73":0.3890369143748181,"74":-0.045735992727359474,"75":0.03109205773094532,"76":0.28943823160261806,"77":0.2909377156387088,"78":0.2713897404087412,"79":-0.0919391672658256,"80":-0.04891995418946289,"81":0.15104914332496963,"82":0.20624147914627888,"83":0.20036276564440053,"84":-0.038472306383339934,"85":-0.046740053245445515,"86":0.1506480664206321,"87":0.2636321893340297,"88":0.2257717348199944,"89":0.02864393650055048,"90":-0.085450141005009,"91":0.22572497775894587,"92":0.2541116772553373,"93":0.17122669425269274,"94":-0.044797641995865764,"95":-0.024639555793870994,"96":0.14239488706354483,"97":0.06172667054594363,"98":0.2170261421049358,"99":-0.13157050516859453,"100":-0.05196681277182838,"101":0.026976504086575395,"102":-0.031571471137188556,"103":0.06156981005641534,"104":-0.014953750094004905,"105":-0.05968036497716038,"106":-0.07959742094260973,"107":0.05935397989119037,"108":-0.11486695260101526,"109":-0.03334403730198758,"110":-0.09321928588912924,"111":-0.010369837954582278,"112":0.07554440860450967,"113":-0.23706192338310886,"114":-0.003919116960904528,"115":0.08215496293151173,"116":0.16334802875255433,"117":0.3042214745473645,"118":0.16699915318344244,"119":0.06452463949112934,"120":0.08148965407256357,"121":0.062483705053682635,"122":0.15402969309695239,"123":0.05802611067638324,"124":0.022012474108307603,"125":-0.005480973510458347,"126":0.017624627551715365,"127":0.18484131020072853,"128":0.16863099064322346,"129":0.11985571427494006,"130":-0.004276698019676486,"131":0.09585723725592774,"132":0.1297525488098937,"133":0.23168152830932362,"134":-0.02315927031103677,"135":0.10782179533099986,"136":0.1103357779334359,"137":0.18336886089990279,"138":0.0853516427520182,"139":-0.0571544963068795,"140":-0.05622425621418655,"141":-0.05561684891520497,"142":0.23797400809053662,"143":0.06782528091280121,"144":0.09799740793661044,"145":0.054043040671785,"146":-0.009576325002896064,"147":0.24708956578679744,"148":-0.02808023991815792,"149":0.009648684685865844,"150":-0.06741264185928639,"151":0.013542337326830777,"152":0.15054523508806802,"153":-0.003755559901709838,"154":-0.0417202280781382,"155":-0.03972950673270061,"156":0.06296497624956142,"157":0.10853684451269228,"158":0.045690148360696584,"159":-0.05770171275362521,"160":0.05764010598331593,"161":0.00910517410698828,"162":0.058310925776617874,"163":0.10418658082431279,"164":0.04123451208663868,"165":0.03965397751087499,"166":0.08896123320352822,"167":0.10021478569559017,"168":0.20272879523308648,"169":-0.044869082965494196,"170":-0.017860830171557516,"171":0.1802815804716985,"172":0.028539706987569847,"173":0.08791238082668082,"174":-0.054483414286699366,"175":0.00269000455924915,"176":0.1580255020057469,"177":0.013236025258847001,"178":0.3028490877191434,"179":-0.04071636471550647,"180":0.0308050523044704,"181":0.14537754010889825,"182":0.014084865268461045,"183":0.20599772773077152,"184":-0.028268275717793747,"185":0.1104831685059175,"186":0.07472356672578062,"187":-0.04029001490702637,"188":0.19055550976249047,"189":0.02652195504119162,"190":-0.004676383520010219,"191":0.06794303401593797,"192":0.14745509450375946,"193":0.15902637218288673,"194":-0.03913746161120841,"195":0.030156065006618014,"196":0.07481284972395995,"197":0.10265997611608374,"198":0.08081885924895763,"199":-0.03919866470044494,"200":0.05318456673725794,"201":0.10415022218959752,"202":0.03401562426483843,"203":0.06235997848028337,"204":-0.040569450343247146,"205":-0.010669093733402472,"206":0.04724536176244907,"207":-0.012876776049920767,"208":0.15033494886311835,"209":0.025022662457293836,"210":0.07258729899815271,"211":0.05065239312666866,"212":0.0984409664617882,"213":-0.0839933229455701,"214":-0.07704780764179744,"215":0.014234460630389714,"216":0.011716141236707478,"217":0.004461753543490243,"218":-0.039600414196517573,"219":0.07637031089378936,"220":-0.0391883492643371,"221":-0.11197395125670796,"222":0.010747126654003777,"223":-0.051360700944814756,"224":0.0545912351528741,"225":-0.12104761997830787,"226":-0.06949539273080735,"227":0.07757790423043417,"228":-0.1412952512073781,"229":-0.01670093508954486,"230":-0.01739577923718181,"231":-0.04207954110705207,"232":-0.0294507831808086,"233":-0.03673262715635885,"234":-0.05014385444582789,"235":0.0630212753215573,"236":0.01665342662082889,"237":0.14837841158901235,"238":0.012001988027398906,"239":-0.023568807629013765,"240":-0.06372383780210555,"241":0.050678627440179654,"242":0.031188046771639933,"243":-0.003102629552165799,"244":-0.04896699108233971,"245":0.04150984565363702,"246":-0.000782262092822436,"247":0.11014313022377455,"248":0.044979758803228076,"249":-0.013952268120365556,"250":-0.06820094408854141,"251":0.08380479979532658,"252":0.04602975629992275,"253":0.04491572084859313,"254":0.03596922850964482,"255":-0.041228341779382574,"256":-0.04667383997187563,"257":0.08596211555087994,"258":0.07070566952528985,"259":-0.04276402775160863,"260":-0.011820245053656132,"261":-0.0050252757171496435,"262":0.10061393468634927,"263":0.06899222718196947,"264":0.04219343011931671,"265":-0.06688280256237059,"266":-0.005872458209111634,"267":0.025423567928065625,"268":-0.02217156338169387,"269":0.05331982633972228,"270":0.03532870461112401,"271":-0.03178250360510079,"272":0.06677331985599555,"273":-0.048614130427571366,"274":-0.03265005440791066,"275":0.04116358574749231,"276":0.12584589168000104,"277":0.04413853951612843,"278":0.036538207858675495,"279":0.058999703358726924,"280":0.01911425041840044,"281":-0.03298977872511153,"282":0.019169239269506446,"283":0.045725648895834574,"284":0.014052929940077011,"285":-0.0016698570464677885,"286":0.015749066747065135,"287":-0.03604373212536639,"288":0.05795194126244444,"289":0.03530152534269943,"290":0.031578514534971604,"291":-0.021378540345023143,"292":-0.011172597629676347,"293":0.07388315135964477,"294":0.055593904672323856,"295":-0.006842072628016098,"296":-0.014057391186104743,"297":-0.018373144398851585,"298":-0.004524350925038878,"299":-0.008310593393925921,"300":-0.09862664895066144,"301":0.0706984899229856,"302":-0.008361303496643204,"303":0.11200235093026857,"304":-0.026308628492594084,"305":0.02543579569062243,"306":-0.020374386925030883,"307":-0.003198848163496775,"308":0.09119156060944791,"309":-0.05390425646890534,"310":0.036587994775321125,"311":0.030430416285437786,"312":0.07053223250844765,"313":0.022364356733662896,"314":0.0006099235826284615,"315":-0.06351078135461108,"316":0.03270825733814173,"317":0.014712635671674594,"318":0.0074879954535394715,"319":0.0011506374513293358,"320":0.10244173869100343,"321":0.031054333627923248,"322":0.03816480481450778,"323":0.046680263672946434,"324":-0.06507904250053684,"325":-0.042810623683601556,"326":0.039077220120741184,"327":0.07575244993560463,"328":-0.01734829036044417,"329":-0.009201134155516667,"330":-0.0657282356479955,"331":-0.11645246169971625,"332":0.04432102398458817,"333":-0.00023954541374912605,"334":-0.07626281149530784,"335":-0.01476952760869705,"336":-0.05816489286158083,"337":-0.023293390026634823,"338":-0.006205357625954424,"339":0.04265716160406561,"340":0.002868635775021684,"341":-0.0994773539703717,"342":-0.0597131058407905,"343":0.06762025560222089,"344":-0.04397719402977275,"345":-0.03451704400861721,"346":0.04781822744757545,"347":0.058073401581456824,"348":-0.07904420742073553,"349":-0.02657625947695047,"350":-0.08264745452611579,"351":-0.09862273358992132,"352":-0.015399053767626368,"353":-0.08474650459541429,"354":-0.0987925116387391}},{"sx":1,"sy":1,"depth":355,"w":{"0":-0.013035137012973496,"1":0.04931319964799324,"2":-0.01924914554821981,"3":0.08937272412582857,"4":0.11128269135383727,"5":0.0514393873294287,"6":-0.049727365323077456,"7":0.07074112755094353,"8":-0.0006852408297403871,"9":0.11805507928304024,"10":0.03711534767555884,"11":-0.043736468692744064,"12":-0.01948185106760641,"13":-0.0328513242167667,"14":-0.03983960286177659,"15":-0.052716956401604835,"16":-0.022106660532636078,"17":0.014698344135826297,"18":-0.05980185564023973,"19":0.05316279013588076,"20":-0.022543615255973877,"21":0.007263971609271373,"22":0.0962612098839479,"23":0.021781822205212235,"24":0.030730284844083515,"25":-0.053742695480274445,"26":0.014757895883883237,"27":-0.007125284575367099,"28":0.04157267237508909,"29":-0.03409664438628492,"30":-0.012428033828736614,"31":-0.001341271724836241,"32":0.007309757238745305,"33":-0.015468602315056628,"34":0.016596244565316588,"35":-0.06479375476176137,"36":0.025189581386974344,"37":0.0007048268112909703,"38":0.07959967349939802,"39":-0.007496287326482262,"40":0.11051657856394598,"41":-0.001100610863434523,"42":0.045439703915860996,"43":-0.1026007300313623,"44":0.06554160834415997,"45":0.028124871211723624,"46":-0.006168739140493022,"47":-0.001531016628858855,"48":-0.004479498942740834,"49":-0.02434323583117944,"50":-0.007151916376347006,"51":-0.03013553309111549,"52":-0.1663404396828648,"53":0.02793506101715212,"54":-0.016766191879208706,"55":0.006529547041441691,"56":-0.037171440478101565,"57":-0.06117375265073461,"58":0.04215152807554707,"59":0.060000674605357164,"60":0.014971699757501636,"61":0.07922716093310432,"62":0.04276839599970505,"63":-0.014737994389514404,"64":-0.024293357204070994,"65":0.01644188207203455,"66":0.0356499454265843,"67":0.03116793538864293,"68":0.024127322865289305,"69":-0.0049024276912776705,"70":0.021318586188676377,"71":-0.021179582442289582,"72":0.015971221043463983,"73":0.05389668730127928,"74":0.012779904305709458,"75":0.054092157112186866,"76":0.06621119867880411,"77":0.010138984711780713,"78":-0.03517921509384014,"79":0.0599384036979204,"80":-0.08603960174117342,"81":0.0005978388555920461,"82":-0.021975880229868665,"83":-0.014272075606611076,"84":0.04166563496365931,"85":0.034986847535807095,"86":0.023409171699400093,"87":-0.051491623448654614,"88":0.05294411499226247,"89":-0.030980659582859785,"90":-0.06459635028204067,"91":0.054609345201820245,"92":0.010592598294522528,"93":0.06382011881734155,"94":-0.07401934043931188,"95":-0.003553723712585185,"96":0.0653151051934167,"97":-0.044392085755623374,"98":0.08939238768644203,"99":-0.002465280356337968,"100":0.06487435424367236,"101":-0.03173539248990963,"102":-0.023674929547322695,"103":-0.04836677846397819,"104":-0.030297370587097847,"105":-0.05661627774168929,"106":0.08549097330479326,"107":0.006404211893128485,"108":-0.06292134745797233,"109":0.05425552934158493,"110":0.08409406659290825,"111":0.049078734400043816,"112":0.02154495072595301,"113":-0.028078353110012715,"114":0.014188853492015752,"115":-0.006225829307773093,"116":-0.019473680556534916,"117":0.030882975141412562,"118":-0.06100230494763785,"119":0.10266443013644992,"120":0.012429925963931086,"121":0.038855903835004965,"122":-0.052407557433061164,"123":-0.030863757254162114,"124":0.06854771357680788,"125":0.0267179322229447,"126":-0.021248394377483246,"127":0.08331904828868565,"128":0.01907675790610768,"129":-0.004630098653893123,"130":0.04464858169477925,"131":-0.04707155160832796,"132":-0.04697013601301986,"133":0.1015744037775292,"134":0.0767866239799333,"135":0.06761861382546475,"136":-0.0023578837162197544,"137":-0.04020384848788855,"138":0.042534475804279985,"139":-0.04290075536574158,"140":-0.035822804949889896,"141":0.05786554812190203,"142":-0.0029938780961775956,"143":-0.0125542416042126,"144":0.0071315796690523785,"145":0.038682742657687244,"146":-0.09249260372634525,"147":0.03245984454109096,"148":-0.03883914842854743,"149":-0.09044007284518764,"150":0.0065780349758773,"151":0.033555677754365694,"152":-0.047904145113435916,"153":-0.028984348162201263,"154":-0.03852352125062924,"155":-0.029669855467392127,"156":-0.005886970538963294,"157":-0.007675378897965438,"158":-0.009271713463570912,"159":-0.008978542179331282,"160":-0.10500084923595566,"161":0.1313830053664637,"162":-0.04439189655857359,"163":0.025798011550459223,"164":0.019317817989241304,"165":0.022763470102924385,"166":-0.07449909666259247,"167":-0.046305515379417544,"168":-0.0015724302086055925,"169":-0.01975350128293625,"170":-0.06164077970451252,"171":0.03255475051013879,"172":-0.07693146688558056,"173":-0.009224744567888478,"174":0.021581720224976786,"175":-0.05387820814096623,"176":-0.03322778264286549,"177":0.05664150644932594,"178":-0.03631007109322942,"179":0.0147172913132053,"180":0.05085146899812228,"181":0.059052393723551234,"182":-0.002342543576521078,"183":0.029602649788842597,"184":-0.05432545462011647,"185":0.10236916858235232,"186":0.09129691120045717,"187":0.057616335643402614,"188":0.001048236582014452,"189":-0.042567027796476434,"190":-0.03054445574937688,"191":0.04624257772905905,"192":-0.010671806290294239,"193":0.006064727231026094,"194":0.028186038910803228,"195":-0.0615776331876748,"196":0.03342447651752753,"197":0.03368746777658673,"198":-0.033790437665944244,"199":0.03379737917570395,"200":0.1220192205046464,"201":-0.014420932109803846,"202":-0.0003094784584031057,"203":-0.027967371251763136,"204":-0.008301654789904987,"205":0.00557357395367958,"206":-0.01878428388674711,"207":0.023786063769285534,"208":-0.006094019267779528,"209":-0.08055508100739105,"210":0.0406772414680477,"211":0.001727364897826892,"212":0.014372734899440529,"213":0.06964374308797379,"214":0.016015177218795938,"215":-0.04475934036725357,"216":0.13582104093988023,"217":0.07078568799739308,"218":-0.02352899999345995,"219":-0.07798504725531114,"220":-0.043467049365964815,"221":-0.008687574360241423,"222":0.009381833038070723,"223":0.0391574130639541,"224":0.10530353717798809,"225":-0.049520523680607186,"226":0.028005792929341876,"227":0.05857307979668969,"228":0.027155567578212844,"229":0.040672567973381465,"230":-0.017295476169278783,"231":-0.05433337948931068,"232":0.06996454352669707,"233":-0.051829031521988964,"234":-0.008354856817272965,"235":0.022973278221512156,"236":-0.01681139139693877,"237":0.06909177550897005,"238":-0.12017014444838225,"239":-0.09459437614229206,"240":-0.010268215947273387,"241":0.01555136347977304,"242":0.005207029628372122,"243":0.04037200176349942,"244":-0.03708364003462117,"245":0.005328742730166585,"246":-0.0025084812086317685,"247":0.0289870479637412,"248":0.012376071528689778,"249":-0.006308621817903159,"250":-0.05516157843373931,"251":-0.09465699453301729,"252":0.03629678776928182,"253":0.11344984942217735,"254":-0.04758856804877119,"255":0.025194417875037314,"256":-0.014954549816086491,"257":0.07218082728675893,"258":-0.05517221532648127,"259":0.05657485719086204,"260":0.03827028776044578,"261":0.0004812726319805921,"262":-0.04167737821909207,"263":0.04386247773877968,"264":0.06165770782771399,"265":-0.016617047393004725,"266":0.05167807034298105,"267":-0.0356477843007363,"268":-0.043277324754561655,"269":0.0453330540760025,"270":0.1042294437848257,"271":-0.052340346660326,"272":-0.010585228006499478,"273":-0.05857650344728886,"274":-0.05309412454266389,"275":-0.06888898212390386,"276":-0.10650298380655344,"277":0.0026629259543603963,"278":0.07031579756467127,"279":-0.006257671883114583,"280":0.08462374228372165,"281":-0.011754828949122234,"282":0.052766174172246265,"283":0.03269326313072787,"284":-0.0015478497490199247,"285":-0.008159054222320035,"286":0.006998898684068981,"287":0.07568175589565593,"288":-0.005309833019459393,"289":0.026474054786240528,"290":0.034137520438244286,"291":-0.049469682581953035,"292":-0.039466134913113904,"293":0.021201866856228862,"294":-0.05241373418097386,"295":0.10828240006477671,"296":0.042099227360090315,"297":0.040194167769024264,"298":-0.0032413614670449373,"299":0.031402877644425696,"300":-0.07003174906126759,"301":0.013526510507221581,"302":0.07512297777485315,"303":0.016625360999292394,"304":-0.013641592694771287,"305":-0.08381007858144315,"306":0.08865942035161621,"307":0.034978312308256626,"308":-0.06614665337122877,"309":-0.028674978331994765,"310":-0.07094005810045574,"311":-0.011692895845034386,"312":-0.01749824588241022,"313":-0.04672625579064877,"314":0.04678700977134398,"315":-0.15945796653768454,"316":0.005137162255589154,"317":0.03799636711365741,"318":-0.055000281820008254,"319":0.04441957767574783,"320":-0.04999959074740154,"321":-0.026392516271570635,"322":-0.011816646691314988,"323":0.03359782083256939,"324":0.05417083057469043,"325":0.020943137689158352,"326":0.03166870847341926,"327":-0.03494339065713437,"328":0.053893120562124586,"329":0.024752162181343396,"330":0.04334877150721025,"331":0.06731675774785906,"332":-0.06883145011366887,"333":0.11917605751968549,"334":0.1026135625322821,"335":0.024914378586321968,"336":0.07716654744092788,"337":-0.03715407354882193,"338":-0.014434050853959263,"339":0.031893585262978086,"340":0.0376550597542984,"341":-0.04799810238010026,"342":-0.044132739807447356,"343":-0.020991601323062756,"344":0.049103613955421,"345":-0.01827232560037685,"346":0.07880081321836137,"347":-0.010072984240665677,"348":-0.06287818907419836,"349":-0.03668982406622748,"350":-0.0821154228211787,"351":-0.08630530291777676,"352":-0.03565216006285671,"353":-0.04032506513965662,"354":-0.007568976295045369}},{"sx":1,"sy":1,"depth":355,"w":{"0":-0.07442466412871283,"1":0.019788122825585924,"2":0.02641568299412984,"3":-0.021528178116019585,"4":-0.029429248409180875,"5":0.02441850064889937,"6":0.04253485765113527,"7":-0.04219577950624639,"8":-0.0024957415914849965,"9":-0.07811415838719958,"10":-0.011347938502651632,"11":-0.06528276385820443,"12":-0.09226166733616084,"13":-0.039138631892793915,"14":0.10939672887984202,"15":-0.001626744763051111,"16":-0.0797765969793944,"17":0.048876491767918834,"18":-0.077850145537912,"19":0.039228816049083785,"20":0.05400611662381606,"21":-0.016483854095659365,"22":-0.01671088521681205,"23":-0.03915414876833879,"24":0.019619838486624776,"25":-0.0705764639621043,"26":0.04044484630480981,"27":-0.07203065104282504,"28":-0.018866159535472188,"29":-0.008102801378841845,"30":0.04861912085305268,"31":0.041778828694563494,"32":-0.1469072847530963,"33":-0.085211730687526,"34":-0.005739468078144488,"35":-0.17524505528480963,"36":0.0860471242626651,"37":-0.19004399380394607,"38":-0.0070810178364740725,"39":-0.07288191677304383,"40":0.027607405269604122,"41":0.09452730448962565,"42":-0.1044791945576838,"43":0.005924150849226996,"44":-0.015739873926447056,"45":0.040842657639707916,"46":-0.04890811336240575,"47":-0.14395773450905394,"48":0.07204492548457855,"49":-0.006726006061047687,"50":0.015491011649332413,"51":0.030197303487013067,"52":-0.09940987635021167,"53":-0.023242112336835173,"54":0.024704284370935106,"55":0.018427539445671926,"56":0.02890071543879574,"57":-0.007572859312233635,"58":-0.08555535506943847,"59":0.05810068942371178,"60":0.008038927628332132,"61":0.011727913703299645,"62":0.06528008555086767,"63":-0.06820154588226891,"64":-0.06478758832560028,"65":-0.07739188223262405,"66":0.08632039623279246,"67":-0.0643523271882049,"68":-0.06602669542328508,"69":0.013231822161037889,"70":-0.08756739109109758,"71":0.0319054771622512,"72":0.027198867880293482,"73":-0.0396613337448964,"74":-0.033833696916392444,"75":-0.05253063726719722,"76":0.038575514676151584,"77":-0.041567282540604246,"78":0.01737228934874627,"79":-0.0008981460294822803,"80":0.04338760104423351,"81":-0.014802165090614125,"82":-0.16776341981559767,"83":0.09537586050846489,"84":0.02880150586218483,"85":0.07858793678687254,"86":0.054187212294692186,"87":0.021921444115931922,"88":0.09721825614759681,"89":0.04511825112411215,"90":-0.060523650166685816,"91":-0.01806058072468853,"92":-0.06786558269131639,"93":-0.06779228931045755,"94":-0.032229094471488924,"95":-0.06485751601499146,"96":0.0946914823011892,"97":0.02492952909945407,"98":0.06412044191366773,"99":0.04320536600407957,"100":0.03492524774510547,"101":0.001751689876729499,"102":0.006148641634634838,"103":0.041911379091060345,"104":-0.029600121775717005,"105":0.06945770305760293,"106":0.10189455336708822,"107":-0.08249887173069491,"108":0.11518732156177616,"109":0.05505735874894418,"110":0.04730095513516509,"111":0.005271859427781352,"112":-0.05106158275897236,"113":0.03299399737513407,"114":0.039030177025833564,"115":0.04808111310396897,"116":-0.03732737625737198,"117":-0.012579995000026342,"118":-0.022867016681896488,"119":0.02362818489458793,"120":-0.007518780578228469,"121":0.009291434521917805,"122":-0.07368387638311649,"123":-0.023730978273580155,"124":-0.11011550202531631,"125":0.05839317859057144,"126":-0.0444073214205371,"127":-0.03215803410181053,"128":0.02166750922419536,"129":-0.013592344958832452,"130":0.10675711171666999,"131":0.07196477317482992,"132":-0.11719353505156398,"133":0.026475329132564254,"134":-0.09602310055910461,"135":-0.00045926708749837044,"136":0.02409731293968833,"137":-0.059867027718368736,"138":0.042577493657540946,"139":-0.016261460719717038,"140":0.06099379532333623,"141":-0.058722866495221404,"142":0.024222239865669622,"143":0.00597025373254158,"144":-0.020611787098858823,"145":-0.01664079992975488,"146":0.0638942508565782,"147":0.02230374896825712,"148":0.011549744515600032,"149":0.00806259253332692,"150":0.059908298064429974,"151":-0.10169240325439628,"152":-0.08061066012424051,"153":-0.04928858593271705,"154":0.06151153126085375,"155":-0.01779964006767835,"156":-0.008351150053527913,"157":-0.0956818323793998,"158":0.013690510496802762,"159":-0.060210296231553384,"160":0.05224555111926621,"161":0.07059396109367315,"162":-0.05417770957321517,"163":-0.01690012179362391,"164":0.00578226255210295,"165":-0.04139045774403249,"166":0.029006053787664028,"167":0.06101882375041789,"168":0.09245224976547355,"169":-0.06125741906435068,"170":0.1335887882002907,"171":0.09644297200792053,"172":-0.07782414997259299,"173":-0.054285667392473994,"174":0.06360928854694052,"175":-0.001741567829591577,"176":0.046359088716779316,"177":0.09622776283483953,"178":-0.029633004279427357,"179":-0.10660635212509831,"180":-0.07493301876118934,"181":0.03563058748977166,"182":-0.13001253013057334,"183":-0.07970617663302706,"184":0.048771668773120495,"185":-0.09115760155558851,"186":0.0025480133613022845,"187":0.04219543445465096,"188":0.04620940479999698,"189":0.039327726511727994,"190":0.03208322666577656,"191":-0.0068531980530618574,"192":-0.013321025521825803,"193":0.07011045516948544,"194":0.08086729973458748,"195":0.053891776144490276,"196":0.088911229044708,"197":0.004712193542164765,"198":0.047276156180511474,"199":0.04148234192102034,"200":-0.05341816495094756,"201":-0.05065159154407168,"202":-0.041316348095552895,"203":0.05865328897555097,"204":-0.02202070278379418,"205":-0.025500925959585693,"206":0.06845117203296686,"207":-0.04187087192505344,"208":-0.002177187253495389,"209":0.0018048488681908612,"210":-0.09732826676808377,"211":0.057389164445616994,"212":0.04937830287144098,"213":-0.02493631481694762,"214":-0.094564641487957,"215":0.003948258179546861,"216":0.05866378168356835,"217":-0.01872204356240887,"218":-0.0077899705380808535,"219":0.044463309217608445,"220":-0.011917152609945643,"221":0.0987750098145947,"222":0.04527695882177159,"223":0.04191513390521076,"224":-0.06911529305522171,"225":0.05830361573567596,"226":0.07353453270950312,"227":0.0213831893554577,"228":-0.052311050914160044,"229":-0.013955870930517013,"230":-0.08958103795746294,"231":0.04266593057497917,"232":0.10500409540224719,"233":-0.047977753364178324,"234":-0.01970638157502215,"235":-0.0011962189051214645,"236":0.012461124257844658,"237":-0.05889866758281585,"238":0.03043377949697412,"239":-0.03502194540462628,"240":-0.008101698640111359,"241":0.0682753400204206,"242":-0.026806204024989833,"243":0.009903838446872957,"244":-0.03281171696540808,"245":-0.01805734318520821,"246":0.01796374781489292,"247":0.01907740477903011,"248":0.04360340804562298,"249":0.004832395361610766,"250":-0.02353361124762358,"251":0.07302718402381614,"252":-0.03693277481207917,"253":-0.0806215888891391,"254":0.015218156851604823,"255":-0.06857979012358326,"256":0.04815437519930678,"257":-0.029354342252165967,"258":-0.0188827503896528,"259":-0.030689674250702275,"260":-0.09193411909658593,"261":0.06929424636721584,"262":-0.025415372808659336,"263":0.07529289862460396,"264":0.013051991236199262,"265":-0.026319520567381287,"266":-0.09912806934124155,"267":0.06202607257433593,"268":0.047284293633721865,"269":0.010963733295075781,"270":-0.07304676914008501,"271":-0.004958852779014268,"272":0.03287563622645838,"273":0.03662272831785497,"274":-0.021003756352577632,"275":0.08015616969197056,"276":0.005728431617613108,"277":-0.019956211624757435,"278":0.043303507160846785,"279":0.03148344348105662,"280":-0.07182332382694022,"281":0.00884629385680628,"282":-0.05553539173230985,"283":0.007795365695619774,"284":-0.03416412985226795,"285":0.025121519192033568,"286":0.0748758085286832,"287":-0.08839312971495702,"288":-0.0022794828180778422,"289":0.004489516809371113,"290":-0.0492625750231032,"291":-0.03351793514724405,"292":0.0009868870483048325,"293":0.020456138742337704,"294":-0.04310394999453864,"295":0.13057893866551362,"296":0.068902262836044,"297":0.03261283271036638,"298":0.06562929953363747,"299":-0.04051786767095981,"300":0.03423599669377893,"301":0.08394348973522288,"302":-0.03528805329515759,"303":-0.050582149995580875,"304":-0.04839390850203409,"305":-0.009867222945053367,"306":-0.0075594499317166094,"307":-0.00843837799582616,"308":0.019674288402590303,"309":-0.010080790579510272,"310":0.007583487553818611,"311":0.0254662094866424,"312":0.014191809133019971,"313":-0.056099571107874585,"314":0.050449769845990936,"315":-0.022293855409651092,"316":0.07055245059566562,"317":-0.004778510465167655,"318":-0.058835235674868654,"319":-0.019569537393264523,"320":0.022192123446537607,"321":-0.036817323468112825,"322":0.06903329476476788,"323":0.015408545232849107,"324":-0.00027538872080716916,"325":-0.03489764656892438,"326":-0.0252501351852083,"327":0.024952047614834532,"328":0.0407874165645295,"329":0.061028199254451104,"330":0.08298137347549972,"331":0.07114862764222578,"332":0.05256100797218046,"333":0.017874851093481168,"334":-0.015452547296374729,"335":-0.031025207300543065,"336":-0.01604973107285743,"337":-0.01485080419957246,"338":0.016212063730924004,"339":-0.008489290502513304,"340":0.0011041869567711103,"341":-0.017301930936673305,"342":0.09758063178232848,"343":0.012373896360911947,"344":0.08775849251972198,"345":0.011698526475256389,"346":-0.047587256624118,"347":-0.03269534444994555,"348":0.02151308182275623,"349":-0.05246421083840802,"350":0.011667219614760983,"351":-0.03306525784876396,"352":0.000043960029105243016,"353":-0.038537992607583574,"354":-0.09074386030090784}},{"sx":1,"sy":1,"depth":355,"w":{"0":0.013067861533783134,"1":0.037040544391472606,"2":0.032645133397606184,"3":0.10653852949335205,"4":-0.01620212232200483,"5":0.06782065750434252,"6":0.003687672218422839,"7":0.03199320238937071,"8":0.014198791211414121,"9":-0.11137928041795031,"10":-0.0964177144808714,"11":-0.021912849495480762,"12":0.0011128506016592217,"13":-0.0065408749469089075,"14":0.04198120269124353,"15":-0.07919713682015848,"16":-0.07557181753858641,"17":0.014363308344751271,"18":0.04803470800279832,"19":0.03660327889973864,"20":0.02207075965131384,"21":-0.09758383839139691,"22":0.0874124092534699,"23":0.05131540547133189,"24":0.1141193124982848,"25":0.04874576106605556,"26":0.01551857996695618,"27":0.07442812832025258,"28":0.08743678465086929,"29":-0.07404580447367162,"30":-0.09731833738834886,"31":0.04030655784185565,"32":0.01711244573446794,"33":0.1601295362593273,"34":0.07765964362079247,"35":0.11009041445679471,"36":-0.07813704321703878,"37":0.02657873908643167,"38":0.10136437945045146,"39":0.046601589698864486,"40":-0.07606524346730202,"41":-0.021399817384592686,"42":0.10345240057030869,"43":0.05837936694981371,"44":-0.005071992315785864,"45":0.016179969167744793,"46":-0.0509438329504677,"47":0.12187886181350005,"48":0.021851451163773357,"49":0.028127397017202824,"50":0.03613229894383457,"51":-0.028489610262512604,"52":0.04989010812206764,"53":0.03561700335737338,"54":0.054527047699314976,"55":-0.009335982819760955,"56":0.033071960093254374,"57":-0.006312867721199932,"58":0.2078031664522039,"59":0.0002146701053503275,"60":0.047186015018217946,"61":0.12322248282873878,"62":-0.057610129958453445,"63":0.0781267786775784,"64":0.11020424933842853,"65":-0.03051705007857644,"66":0.05537708082777718,"67":-0.047006661463944444,"68":0.14103216076660832,"69":-0.005834545912961758,"70":0.0370052830744567,"71":-0.053256493734738175,"72":-0.12210676601896304,"73":0.19500515447081726,"74":0.04427415614904443,"75":0.02395603141012221,"76":-0.095457998396313,"77":0.04113085468874504,"78":0.1427427549766277,"79":-0.04951687701713984,"80":0.05139396054319536,"81":-0.029389844617957895,"82":-0.038304122686404124,"83":0.07927856066780764,"84":0.10279857972007062,"85":-0.06453865057088824,"86":-0.12789771674142086,"87":-0.05183896258770427,"88":0.07340237902589718,"89":0.006881830084598214,"90":-0.020201351766567947,"91":0.01893743731844235,"92":-0.017522584292657316,"93":0.027763866428243838,"94":0.0234496317679314,"95":0.09125722394844783,"96":-0.03962051098741827,"97":-0.017321548513419802,"98":0.12983180550380483,"99":0.07280515756832161,"100":0.02715158642899934,"101":-0.05746284630831762,"102":0.08061947286687866,"103":0.03241432629983435,"104":-0.04352113216965505,"105":0.09372864816407073,"106":-0.03315634244293076,"107":0.07306898380724478,"108":-0.13050645346940912,"109":0.05835027120201041,"110":0.020604704183612037,"111":-0.044380695790481525,"112":0.06305514554923887,"113":0.01571195055195235,"114":-0.020852795506380147,"115":0.06521910977533554,"116":-0.00454102027911617,"117":0.05894485862019165,"118":0.20875668875681772,"119":0.05092578736316383,"120":-0.04193281517916841,"121":-0.07215008560496348,"122":0.0199000118184356,"123":0.10983946514205101,"124":-0.07669169604617311,"125":-0.029588805858109028,"126":-0.002119584539827188,"127":0.1424380809772575,"128":0.02884465929822392,"129":0.04530027459005592,"130":0.03655548571741669,"131":-0.08193957207471335,"132":0.10771023796630434,"133":0.1255617291559763,"134":-0.005945999643829435,"135":0.024008213399999877,"136":-0.015163081125900613,"137":0.07398601832573917,"138":0.0996017031675882,"139":-0.05647636242212822,"140":-0.019296077569557802,"141":-0.02840857191797617,"142":0.09673180576815925,"143":-0.032921908408621095,"144":0.0003325627877021808,"145":-0.012557283180611946,"146":-0.0495299368663252,"147":-0.057192998093447724,"148":0.12386269551831873,"149":0.00026838111553014523,"150":0.04732122696726167,"151":0.018344691989892227,"152":0.018089849029423025,"153":0.017989436627081523,"154":-0.008760415528263527,"155":0.015529924892736571,"156":0.13603938357051373,"157":0.04735514016849428,"158":0.08810192902495281,"159":-0.0865229537442781,"160":0.07284968590841796,"161":-0.013760872072795475,"162":0.01368985958548523,"163":-0.019984134345633543,"164":0.02827192139719237,"165":0.05000865368034874,"166":0.02855387089915566,"167":-0.08398087382978536,"168":-0.031491084296649666,"169":0.044647706482239286,"170":0.10824386149775797,"171":0.014762756431720201,"172":0.03541516481813366,"173":0.05028824056663998,"174":0.098648794967314,"175":0.00653573443847958,"176":0.0798070975602877,"177":-0.0025788781984854496,"178":0.06322711580437218,"179":-0.07443362226219123,"180":-0.029134871435646793,"181":-0.02064992160907547,"182":-0.08094668462154633,"183":-0.09060576764818558,"184":0.01491975616455349,"185":0.008797542526766775,"186":-0.05948705326369696,"187":-0.10913947089163285,"188":0.08443289613759075,"189":-0.10204855567974717,"190":-0.0014102442811815728,"191":-0.0834694936706595,"192":0.017368811894121476,"193":0.030817011739785197,"194":0.042953454982311054,"195":0.015593096021736976,"196":0.01919748049367609,"197":0.022604759016685242,"198":0.001265206433075633,"199":-0.06059295075419228,"200":0.09980586953155395,"201":-0.08381024164945539,"202":0.040255291696388,"203":0.05016769161131047,"204":0.07014425536942501,"205":0.03991879743726816,"206":-0.010637526068531775,"207":-0.020483768969974173,"208":-0.024207599605764563,"209":-0.0009718448136832163,"210":0.06056733385753998,"211":-0.02472109856219998,"212":-0.037697127957760625,"213":0.013585123666817548,"214":0.046441503460037684,"215":-0.015603122235805575,"216":-0.056762080699011244,"217":-0.06800458284909004,"218":0.09726152117254422,"219":-0.0380404806512224,"220":0.03172618919617611,"221":-0.02757018562186449,"222":0.03752418933422954,"223":-0.035755078567224874,"224":-0.021136632239567753,"225":0.01627477523639818,"226":-0.01075272339177984,"227":-0.01440578689970779,"228":-0.060632005282271084,"229":0.0028287112098655124,"230":-0.03506577032381962,"231":0.008375593292299194,"232":0.08055104907172277,"233":0.03882246947858958,"234":-0.043687008989037025,"235":-0.0934142966975476,"236":0.06068728521215127,"237":-0.009550488685654617,"238":0.020807649565915576,"239":0.09252504105128055,"240":-0.044868558651374485,"241":0.020785508511980303,"242":0.043805408700469374,"243":0.023366717819009186,"244":0.003607442471312623,"245":0.09528679904763536,"246":-0.056062453697424484,"247":-0.011949735787187847,"248":0.04622673178101899,"249":0.019055655984692874,"250":-0.05409028303676379,"251":0.11684020871652183,"252":-0.019121285790238265,"253":0.0671364370070408,"254":0.01386663640435583,"255":-0.023273522661829617,"256":-0.02201614435085528,"257":-0.011652708619500341,"258":-0.04704795961153555,"259":0.010775696735248108,"260":0.010719267124755105,"261":-0.010720319733901518,"262":0.018918773994418592,"263":-0.008196439558093096,"264":0.013997107693441438,"265":0.00489945766028252,"266":-0.03131793791194534,"267":0.014892021973398511,"268":-0.02275536807381498,"269":0.04427793793369813,"270":-0.039008546828964014,"271":0.024887375430570353,"272":-0.03176151319599691,"273":0.030230778194544044,"274":-0.06540915722637086,"275":-0.012015215272602629,"276":0.038257027636916976,"277":0.049644930940621466,"278":0.024898835225061634,"279":-0.028471035627492813,"280":-0.005605678441692412,"281":-0.087825836122368,"282":0.1154939331623793,"283":0.061208631249061125,"284":0.04878124982003543,"285":-0.06315517046431857,"286":-0.00857902825377812,"287":-0.06869176065369305,"288":0.07143186188356289,"289":-0.035993511221107756,"290":0.023593823839742106,"291":-0.0898833183587144,"292":-0.060652905019187554,"293":-0.05634959989872893,"294":0.06984113217061753,"295":-0.0746466543099881,"296":0.013873314140525603,"297":0.04467244868574308,"298":-0.003941378410589253,"299":0.007962143745281753,"300":-0.036113860420190824,"301":0.053990161777250564,"302":0.05707121078456604,"303":0.013225159745189079,"304":0.0031668956931201054,"305":0.006137850163908707,"306":0.012014984026852898,"307":-0.004506472355825735,"308":0.10523458893117454,"309":-0.11288647829820307,"310":-0.030982975228039732,"311":-0.00731021355910073,"312":0.03789470669481471,"313":-0.030876223189995788,"314":0.05271958078442058,"315":-0.004903665774966796,"316":-0.03680882957190683,"317":-0.16773708575894408,"318":0.07933512232594556,"319":-0.03445161681097611,"320":0.07439023374545639,"321":-0.0510499080242849,"322":-0.05755107189152155,"323":0.000738852435240678,"324":-0.00477545906237065,"325":0.004236415360775301,"326":0.052796965852923115,"327":0.03982422232000358,"328":-0.011195867212686342,"329":0.055414693205851,"330":0.008584879598859096,"331":0.024338495271716665,"332":0.02098976469513871,"333":0.05265779955514636,"334":-0.041856165621604914,"335":0.029749461566610954,"336":-0.049529638553813836,"337":0.1169269024175188,"338":-0.01142779157584928,"339":-0.028493249671684453,"340":-0.027432256624125694,"341":-0.021182061982193873,"342":0.03418501958690121,"343":-0.025885082812891546,"344":0.03140885124869091,"345":-0.1365790275218987,"346":-0.013200012423000831,"347":-0.13102989441975882,"348":-0.04283692596603425,"349":0.002944480707978296,"350":-0.04129427289343672,"351":-0.016084198742897682,"352":0.015086047749115284,"353":-0.08418197648843341,"354":-0.038513481527641974}},{"sx":1,"sy":1,"depth":355,"w":{"0":0.01899284059490541,"1":-0.014808729395417873,"2":0.048482001508706726,"3":-0.03869317764746442,"4":0.013817460099152192,"5":0.012567342975377671,"6":-0.0012065541759470587,"7":0.03327966243458612,"8":-0.02300727727228602,"9":0.0019299917845321142,"10":0.07830344111809048,"11":0.0829847472065106,"12":-0.05507201296379904,"13":-0.041443218918204225,"14":-0.034515427370416796,"15":-0.05005742472454218,"16":-0.01727140896617883,"17":-0.01569904116901728,"18":-0.06646351204479858,"19":-0.07315666696927192,"20":-0.08945006199989111,"21":-0.12247830574111838,"22":-0.10070831340815727,"23":0.024441467244067015,"24":-0.010860184435785441,"25":0.0696166543375019,"26":-0.038712402897938765,"27":0.0660826744581668,"28":-0.03253382183808308,"29":-0.054837300382116434,"30":0.04759887961720644,"31":-0.03539352400333314,"32":0.07866108690589434,"33":0.08879250440556191,"34":0.07873432153278465,"35":-0.0535549787958637,"36":0.01998264058253718,"37":-0.03151769849904628,"38":0.012806449958595586,"39":0.013891661469883606,"40":0.07171356737447282,"41":0.011667095297544193,"42":0.02400184846214645,"43":0.023099565361102865,"44":0.060408594929389305,"45":-0.03202156169989565,"46":-0.059456107981569556,"47":-0.0182775990707029,"48":-0.019610975653576446,"49":-0.04778936288469263,"50":-0.006487416980985771,"51":0.0011374726101558658,"52":0.023250533699790743,"53":0.10687028045149317,"54":0.03617674300426686,"55":-0.09041465966653676,"56":0.024120014652337547,"57":0.05103158812198509,"58":-0.03358157884571066,"59":0.12877580753345821,"60":0.0435386071225674,"61":0.04324757283952119,"62":-0.04935004179912321,"63":0.030000242045460115,"64":-0.022309004478222105,"65":-0.05052017129060783,"66":-0.07857938231278332,"67":0.09258290821649255,"68":0.09307209410498071,"69":0.05077291942307819,"70":-0.018594258812261212,"71":-0.009305558610932553,"72":0.06173159399014677,"73":0.02262019183180726,"74":0.029381113372019735,"75":0.03540441801680059,"76":0.03723305495405796,"77":-0.08042056675498392,"78":-0.058151011143733305,"79":-0.03239866078690823,"80":0.060395843322603227,"81":0.03209165182446396,"82":0.051062004428411974,"83":-0.018847707413621666,"84":-0.08364807766508868,"85":0.04339441657458877,"86":0.054380788573592354,"87":0.020129276621647593,"88":-0.07069306483972841,"89":0.034721882144233995,"90":-0.037155624396017016,"91":-0.09050544924941112,"92":-0.032275946706144705,"93":-0.0005832877546369551,"94":-0.014522978267346654,"95":-0.0798568913495126,"96":-0.06297925649983033,"97":-0.059976592927747936,"98":0.117888564936014,"99":0.0023478769265090666,"100":0.13426614281708563,"101":0.0046680266648001624,"102":0.020897991695294865,"103":0.08517606671140408,"104":0.006957125374723042,"105":0.014319265498607597,"106":-0.08614267530817954,"107":-0.06505467517020651,"108":0.02640339479323166,"109":-0.0024990100836929934,"110":0.04657800514619932,"111":0.03483292066760562,"112":-0.06256817644126873,"113":-0.011568277950453353,"114":-0.03422589026383322,"115":-0.054208383874774564,"116":0.11586736971196435,"117":0.017500270183310684,"118":-0.013303060492491605,"119":-0.041582587636330284,"120":-0.005555067053663149,"121":0.05842069921836066,"122":-0.09685440931943805,"123":-0.027600301129419757,"124":0.028656373691081056,"125":0.1044163688535976,"126":-0.05458182171695614,"127":-0.005901671350167871,"128":-0.058848103568839544,"129":-0.03035735826198221,"130":-0.04966769310857823,"131":-0.05476567936573254,"132":-0.07122135118074706,"133":-0.007276666721380916,"134":0.07436335459350162,"135":-0.06365205428902777,"136":0.021854524865563704,"137":0.054291388142109515,"138":-0.01783536457196057,"139":0.03306526917869285,"140":-0.02006117826603512,"141":-0.003581066569295291,"142":0.02755362302254333,"143":-0.02513098669512885,"144":0.04130591800745458,"145":-0.01917786828098287,"146":-0.020816855301369695,"147":0.03933369679786004,"148":0.05931616456510157,"149":0.02381091929152908,"150":-0.0704287254934607,"151":-0.05630808545760987,"152":-0.027390584102899157,"153":-0.048366144403055505,"154":-0.07132527158662265,"155":0.1573733576318472,"156":0.057325137808246884,"157":0.06504480295437663,"158":0.029202926274166794,"159":-0.020338603298094032,"160":0.06565800825095859,"161":0.047691923809472445,"162":-0.019039153396904446,"163":-0.008303366807133925,"164":0.06394098241715901,"165":-0.02701301472372203,"166":0.01103958034200597,"167":0.008556712399136891,"168":-0.002924381868626622,"169":-0.01098044545900402,"170":-0.14457812325829966,"171":0.01871364343637395,"172":0.028305059888789407,"173":-0.07258145693904153,"174":-0.031275199331639275,"175":-0.04943054890497321,"176":0.07439394010300399,"177":0.010058011843730822,"178":-0.10078341515200881,"179":-0.026018372753793373,"180":0.021526938248234116,"181":0.022161220392032197,"182":0.009836629328430971,"183":0.03836809262664527,"184":-0.09746633420935434,"185":0.0009441419291846236,"186":-0.0303505741172529,"187":-0.03784475196257797,"188":-0.06789831946344478,"189":-0.055284345733848314,"190":-0.01702269186783925,"191":0.02991288599857241,"192":-0.011903882274367526,"193":0.0763740462461314,"194":-0.04019453472779116,"195":0.046285569617104776,"196":0.07870884860639325,"197":-0.03521965021412538,"198":-0.12111003902488623,"199":-0.005548204207797652,"200":0.013787614710467211,"201":0.057165909828161936,"202":-0.010894756098695063,"203":-0.09044556757032006,"204":-0.025671540726043933,"205":0.10880549449052805,"206":-0.018230493656124287,"207":0.023730964454233634,"208":0.03444482255129314,"209":-0.0375517279109102,"210":-0.07421483461098768,"211":-0.026439452743197672,"212":-0.03019070352470415,"213":-0.11130177209361378,"214":-0.07772142355292953,"215":-0.05785786630787745,"216":0.03853054233147761,"217":0.01527055930422953,"218":-0.04572188753338544,"219":-0.09423887668309822,"220":0.0628233597014125,"221":0.04604752932758232,"222":-0.022839319819955357,"223":0.0029353509436147837,"224":-0.05921049065658533,"225":-0.02451045204381975,"226":0.07476860565708242,"227":-0.0023351080464254987,"228":-0.07735749482274808,"229":-0.012140866003018854,"230":0.026755868157107964,"231":-0.016493804119087654,"232":-0.030177781138984547,"233":-0.021136418718051248,"234":-0.02640542602927917,"235":-0.01900855582559812,"236":-0.03611045784372373,"237":0.03731495876551451,"238":-0.04993758641965132,"239":-0.040113451677974296,"240":0.05812393496169046,"241":-0.11809207387719026,"242":-0.004823796298238442,"243":-0.03832617336079766,"244":-0.0029435469528170484,"245":0.07314676627321902,"246":-0.04950967799129018,"247":0.006500890957034103,"248":-0.037662132905759635,"249":-0.05183939280060248,"250":-0.06609934522017337,"251":0.041364683891611596,"252":-0.0588599240277046,"253":-0.10947432671658967,"254":-0.04047566548360761,"255":0.03348450421963006,"256":-0.06340229382619617,"257":-0.09988730200743653,"258":0.03917586168769916,"259":0.03258923490327764,"260":-0.0719430861495775,"261":-0.04193957187979842,"262":-0.0166661903225464,"263":-0.014247926346385813,"264":0.04762553178452856,"265":0.016039762603029698,"266":-0.03212732137155907,"267":-0.02957406986237391,"268":-0.0026292349380728514,"269":0.13292008053236934,"270":0.006841665593289375,"271":0.023778547163376015,"272":0.04192596438843656,"273":-0.02610806270632011,"274":-0.00711570302551961,"275":0.027242945699247047,"276":-0.01456323827772998,"277":0.05886866012693163,"278":-0.04390281909191349,"279":0.011346805661747802,"280":0.09245359684276522,"281":-0.015673791034970897,"282":0.017630540930382528,"283":0.0742607432853372,"284":-0.014927075969987522,"285":0.004637044070374115,"286":0.004962099682576414,"287":-0.012539660639437638,"288":-0.0006934074909140533,"289":-0.09469770986208186,"290":0.03803316673192447,"291":-0.004081513634299568,"292":0.04340421720366437,"293":-0.012243144580632978,"294":0.033889867698522154,"295":-0.03170162579762245,"296":0.008266105007812885,"297":-0.08840150593539293,"298":0.049758532038558394,"299":0.008506533267760104,"300":0.00402453145461491,"301":0.06714767956753108,"302":-0.019671411787967823,"303":0.004915701197324424,"304":-0.05308174191971785,"305":0.01646898497428315,"306":0.008826643478812839,"307":0.04436280555574084,"308":0.0011082626343241388,"309":-0.05354357123739939,"310":-0.03779918240072709,"311":-0.02065338360218478,"312":-0.06814274509082091,"313":0.06173632142451857,"314":0.0013154882579498482,"315":0.012977729252318378,"316":0.014487664148632675,"317":-0.03599088813469649,"318":0.059003902236043675,"319":0.04718711784680055,"320":-0.05203784801060034,"321":-0.04169267217713133,"322":-0.024434505690768805,"323":-0.07686486889660576,"324":0.007313902337820711,"325":0.027413039149791783,"326":-0.03180430831222701,"327":-0.0333521908086002,"328":0.013925455997540834,"329":0.06381790626804991,"330":-0.020632644286127273,"331":-0.016834723181123074,"332":0.07154780257697468,"333":-0.009589221464018655,"334":-0.026758481769007993,"335":-0.015775567259671698,"336":0.0047658724191020525,"337":-0.04408690214342803,"338":-0.03955237468107378,"339":0.030869734552965673,"340":-0.02828349066124505,"341":0.0938462274953701,"342":0.08438567368540063,"343":-0.03735192926773143,"344":0.04194014609950428,"345":-0.0356396648690295,"346":-0.016277640848451166,"347":-0.04279704399445902,"348":-0.021849983049387733,"349":-0.026983244647422522,"350":0.012301383959593666,"351":-0.07830401586125488,"352":-0.05816769107242847,"353":0.009340849899651178,"354":-0.015244733282776332}},{"sx":1,"sy":1,"depth":355,"w":{"0":-0.021529766774316006,"1":0.1139063349399711,"2":0.02044897692484441,"3":0.03829487913394626,"4":0.053054053083403704,"5":0.04285118554277622,"6":0.03003761917548178,"7":-0.06397629814396893,"8":-0.024576858709466985,"9":0.009934706387709045,"10":0.0476020486836298,"11":-0.02516232710119744,"12":-0.01348723099755722,"13":0.024179827014850497,"14":0.039712300599306985,"15":-0.07482319183477881,"16":-0.04751290533398893,"17":0.045381761757800176,"18":-0.040152990353137005,"19":-0.058560575812643206,"20":0.00368568174559686,"21":-0.08537969712186545,"22":-0.028883772570755164,"23":-0.058817430138169556,"24":0.031973441073956825,"25":0.007221427645644295,"26":0.07089501934652699,"27":-0.06613445384984716,"28":0.05549668744863254,"29":0.025789044926786443,"30":-0.07062541907316455,"31":-0.05929333182313819,"32":-0.05194903429741176,"33":0.07551491404282705,"34":0.027752358270137605,"35":0.08251869281295098,"36":0.09925887266608872,"37":-0.08352049339699268,"38":0.01966310933240398,"39":-0.05951922751861586,"40":-0.013190973263848799,"41":-0.026662145059250127,"42":-0.03257512625651986,"43":0.04976832808641656,"44":-0.11277142959556409,"45":-0.034321738551625756,"46":-0.03668472907710951,"47":-0.026962169640577033,"48":-0.013044539017379375,"49":-0.005248989567051845,"50":-0.04668485309499848,"51":0.10139652207300351,"52":0.020646729590637226,"53":-0.02012291104837085,"54":0.058667355931869766,"55":0.01820766340491729,"56":-0.027327020871395137,"57":0.0547576888307465,"58":0.08991627502811386,"59":0.07493752405377324,"60":-0.025888334443712174,"61":-0.000979653069532906,"62":0.015713698935064628,"63":-0.010399973336385732,"64":0.009962293213182927,"65":-0.021332555676350298,"66":0.02112700182299226,"67":0.046061580813882556,"68":0.05557561626092558,"69":0.007455448479782122,"70":0.03257534170289585,"71":0.012174308607350937,"72":0.03525541739513586,"73":-0.041732301174816834,"74":0.023074788478472386,"75":-0.04643647290447544,"76":-0.07519177570397234,"77":-0.06284508169919059,"78":-0.01669011608224713,"79":0.007787824393141594,"80":0.010933024804734579,"81":0.02572283167670744,"82":-0.0362816288694817,"83":0.026844756487112292,"84":-0.036979437913106386,"85":-0.014436334324909586,"86":0.05952148439812377,"87":-0.09689650322718028,"88":-0.011709681927378326,"89":-0.03051605702442014,"90":-0.045190761983155976,"91":0.035179376047601296,"92":-0.026714283415482577,"93":0.08553932482787736,"94":-0.04233628410573215,"95":-0.0411386739034168,"96":0.033691634564744215,"97":0.02718811386355336,"98":0.030234129865157458,"99":-0.008428669771799497,"100":-0.011130825515302601,"101":0.05040169559570918,"102":-0.021270151748809245,"103":0.03293912908473569,"104":-0.07388148329802613,"105":-0.05474441467398695,"106":0.07689166513306689,"107":0.002402598668824692,"108":-0.03958875400786084,"109":0.002223254116267133,"110":-0.01737528391608806,"111":-0.04666533922286735,"112":-0.02486937693520792,"113":0.002221471971165781,"114":-0.052799434249667786,"115":0.11934221255694143,"116":-0.05297654673291626,"117":-0.04574113910367344,"118":0.044206766673310534,"119":0.041937594492289704,"120":0.016564456618456753,"121":0.040434190898393604,"122":-0.009253084418717904,"123":-0.002128754664746071,"124":-0.09587929753206427,"125":0.00170066637688215,"126":-0.017259179378856074,"127":-0.039676053904472694,"128":0.0887128456181463,"129":0.028974302138848575,"130":-0.009450838721846603,"131":0.08721932199627193,"132":-0.009152253029650696,"133":0.046237892092320786,"134":-0.08186162713082143,"135":-0.0005389973251728054,"136":-0.0037228619172913254,"137":0.058767555906058894,"138":0.08293453465501999,"139":0.04005128150310167,"140":-0.05150403468543415,"141":-0.018294906797387895,"142":-0.08081730349976876,"143":0.020478226709479755,"144":-0.03601006702949907,"145":0.04450924182506788,"146":0.04215644726063418,"147":0.06155890158851928,"148":-0.02104334896857052,"149":-0.048673791376083304,"150":0.05718789362799401,"151":-0.029828764404547577,"152":-0.004387881480524977,"153":0.00786199362860551,"154":0.025496296822577952,"155":0.092904717043692,"156":-0.0682369516925056,"157":0.01059683152698861,"158":-0.0017430641208594883,"159":0.04533523681306377,"160":-0.001178729759041447,"161":-0.049421574461674805,"162":-0.05726639892716243,"163":0.06605019378452466,"164":0.044543184039804444,"165":0.10396206178528479,"166":0.14118017735613198,"167":-0.02133593199588232,"168":0.07894393211613178,"169":0.011552765111478168,"170":0.009038704915110881,"171":0.010265607312114225,"172":0.06865196763364564,"173":0.07016370341935749,"174":0.04145372390125598,"175":0.06398139699934131,"176":0.0798056328963113,"177":0.05911765315885037,"178":0.057352084434056566,"179":-0.1253353955982743,"180":0.04896114896934308,"181":-0.08246271060022792,"182":0.05092785597832836,"183":0.03997497120125788,"184":0.01498928291938362,"185":0.019092259012856633,"186":0.0714737933055721,"187":0.010575342501946725,"188":0.04053908058616684,"189":-0.11288954203547284,"190":0.08212153376749487,"191":0.03149865392554335,"192":0.04248020836854432,"193":0.12028455900078071,"194":0.031968783665273955,"195":-0.00919442540078512,"196":0.060192545063640523,"197":-0.03176006277615373,"198":-0.022125874500493525,"199":-0.0418132882589371,"200":0.06115175279147565,"201":-0.08428771573653762,"202":-0.07857218621607576,"203":-0.005388304048068976,"204":0.032552688560026376,"205":0.007713148870673186,"206":0.030278917802547628,"207":-0.09887400202498162,"208":-0.03281766715297196,"209":-0.0796375254727894,"210":-0.023570507051945116,"211":-0.02816061804106829,"212":0.02755349458863423,"213":0.0524376544168977,"214":0.06337695830782641,"215":-0.08693028258401755,"216":-0.09741097568011839,"217":0.02501826000653811,"218":-0.008251765583327608,"219":-0.05820433282126526,"220":0.01133886291392956,"221":0.009570654429802858,"222":0.05702956478656961,"223":-0.01817715036170938,"224":-0.025648491090835484,"225":0.0014130481300632068,"226":-0.0336188164345943,"227":0.029149505531512934,"228":-0.0066530110612350885,"229":-0.03801970440906046,"230":-0.02140881668108898,"231":0.023388984928326344,"232":0.03866277102104515,"233":-0.05175794644438174,"234":-0.043881185033804115,"235":0.012634753963098237,"236":0.07712457727094384,"237":-0.017915680095245176,"238":0.017772642636004095,"239":-0.04698802797695538,"240":0.051554003708609256,"241":-0.005403501038933991,"242":-0.018117565639519786,"243":0.0730144280093372,"244":0.08290637017329425,"245":-0.018981525425683307,"246":0.0024492792666980104,"247":-0.0020477118477626208,"248":0.06373196927898676,"249":0.01859570631089653,"250":-0.10951319121097781,"251":0.0008894299023407822,"252":0.05670322707272767,"253":0.0910903060399009,"254":0.11096523423122993,"255":0.044568368964276565,"256":-0.01325071668468448,"257":-0.05381477812261555,"258":0.0303265710199064,"259":-0.011364281983465629,"260":-0.11983396046957125,"261":0.1028020305157196,"262":-0.07534150302071907,"263":0.08047266842488404,"264":-0.017510612685277583,"265":-0.06446271485154056,"266":-0.017398330119769694,"267":0.026276171224644228,"268":0.010765573411420724,"269":0.08313776793911389,"270":-0.016895692500979977,"271":0.03440945493339712,"272":-0.02761384122279553,"273":0.12845585249571131,"274":0.025616535332418505,"275":-0.021429588312082276,"276":0.047789289254404205,"277":0.009248201563413506,"278":0.01226001218678008,"279":-0.010868951658464828,"280":0.003240811457667391,"281":0.0010557337341576612,"282":-0.030400222137055108,"283":-0.056505727463180916,"284":-0.0032802476754365422,"285":-0.031178813218421458,"286":0.06831584076971388,"287":-0.03322402219576258,"288":-0.029279925754021524,"289":0.08239924857917214,"290":-0.009384566959932424,"291":0.06070879210426724,"292":-0.07657095581850576,"293":0.1628401596176641,"294":-0.09475091991583419,"295":-0.041046174306367034,"296":-0.06820715780973102,"297":-0.04777881321600057,"298":0.07086074714150513,"299":-0.01913095655875942,"300":0.12344320819076204,"301":-0.01961654132706254,"302":0.017167527084362817,"303":0.06950513297315027,"304":0.013916253157980764,"305":0.027043082876941602,"306":-0.10755596801896859,"307":0.008506772257916326,"308":0.11920872817030644,"309":-0.036586624587499283,"310":0.046930406056525015,"311":0.11122597002257122,"312":0.1416293625727075,"313":-0.0037745887416336787,"314":-0.04583950926277958,"315":-0.015716680484359258,"316":-0.0825931832637464,"317":0.012994644111222215,"318":0.0846772026664168,"319":-0.026369747221780957,"320":-0.0494705298227829,"321":-0.1197534390664116,"322":0.02792770956469744,"323":0.11898373092026743,"324":0.019583745194937587,"325":0.029972133183033486,"326":0.11786641706053,"327":0.05579501813196865,"328":-0.08440066214976082,"329":0.09902234511376744,"330":0.025514353034883593,"331":-0.029467138529637817,"332":-0.1149528499721549,"333":0.06835162869913576,"334":0.05863690013375571,"335":0.0862415878955328,"336":0.01552565791181351,"337":-0.009726846344128598,"338":-0.021512268262710972,"339":-0.06661404664594076,"340":-0.06418005312956689,"341":-0.04901850560608255,"342":0.052488336527656575,"343":0.09994725827304587,"344":-0.09391347439992535,"345":-0.02762015434219436,"346":-0.13369708891699938,"347":0.04572817658963528,"348":0.06601763111758842,"349":0.047080040650752567,"350":0.01488024068092644,"351":-0.01174279312323518,"352":0.03710741612042846,"353":-0.04271913945272835,"354":-0.008901625270158413}},{"sx":1,"sy":1,"depth":355,"w":{"0":0.031244895850117194,"1":-0.06766792320596658,"2":0.04328487931691023,"3":0.033923252848752666,"4":0.032125611173714555,"5":-0.06109635836551245,"6":-0.058027385733383424,"7":-0.06277647226434795,"8":-0.02215625623249119,"9":0.07823967009858951,"10":-0.062394716236882156,"11":0.03781508776218359,"12":-0.030136550175107517,"13":0.0416587853206109,"14":-0.05199966968574073,"15":-0.018635813843387732,"16":0.049252163662839875,"17":-0.05659549304630885,"18":-0.023147577375603134,"19":0.014776081799760232,"20":-0.06967716345611875,"21":0.007875532873817004,"22":-0.03415880726366172,"23":0.027736403430532162,"24":-0.06291863435932744,"25":-0.04912644578033876,"26":-0.03414277966253611,"27":-0.06367479879571998,"28":0.05558236174718779,"29":-0.014397691165898905,"30":-0.003019170295898404,"31":-0.051740738272089554,"32":-0.06093856064035033,"33":-0.03149646656035399,"34":-0.03498714909580124,"35":-0.04763369010295164,"36":0.04496978510184895,"37":0.029560943326773417,"38":0.009230316073402203,"39":0.05543442562701347,"40":0.029062179896669683,"41":-0.0545029351341618,"42":-0.03212576658153717,"43":-0.06791048890801492,"44":-0.034010713211475245,"45":0.05030248698907884,"46":-0.007712054088737032,"47":-0.06695127039644923,"48":0.09685224811744396,"49":-0.025490861305467488,"50":0.01599355449718979,"51":0.053637476021736824,"52":-0.012672817755554481,"53":0.08339952412072968,"54":-0.054505265260789366,"55":0.016637273176256153,"56":-0.05228084839973001,"57":0.018391228819591765,"58":0.05964935350268613,"59":0.044386938072122774,"60":-0.058481843146128434,"61":-0.06014928077726425,"62":-0.06841979468946847,"63":0.03476121025201816,"64":-0.05043322010707029,"65":0.017140802434235797,"66":-0.005246508041839379,"67":0.07194008759553694,"68":0.07166969510780102,"69":0.011685194618205646,"70":-0.015698082942442012,"71":0.011103761147645512,"72":0.046076863182756556,"73":0.08388237567400143,"74":0.00013548331405184517,"75":-0.06426913070097197,"76":0.03489457585779395,"77":-0.05686180141762563,"78":-0.050797306778860345,"79":0.03049916781022844,"80":0.03174260487087601,"81":0.012423459830282167,"82":-0.08821573717332383,"83":0.04815053025479923,"84":-0.028341974767260216,"85":-0.012501263946773557,"86":-0.0199906764738223,"87":0.0060232726083945904,"88":0.017214098482030038,"89":-0.0036640132739386264,"90":-0.015146825405739923,"91":0.0028768421076997837,"92":-0.002558158010918629,"93":0.018851803406364852,"94":0.00526865076410975,"95":0.05138007134420727,"96":0.005982167558622845,"97":-0.10645735143242101,"98":0.009385407158451075,"99":-0.07612861519138434,"100":-0.04845728460546818,"101":-0.021365722366792662,"102":0.002479763760449058,"103":-0.0006907665582407069,"104":-0.0677576801658078,"105":-0.0028259043191441392,"106":-0.027878586123479772,"107":-0.06099820591179247,"108":-0.017964506368805595,"109":-0.02326736786111438,"110":0.00640885405074713,"111":-0.0532126635486494,"112":0.02558443982383585,"113":-0.051763667163955786,"114":0.08402058969573477,"115":-0.08601677958999247,"116":0.061022689378052795,"117":0.0369833047661587,"118":-0.006240211579990525,"119":0.013647166572406796,"120":0.03049696761804169,"121":0.054120399700084885,"122":-0.06622267697873864,"123":-0.010452544577538943,"124":0.03226961660883722,"125":-0.06192703350348739,"126":-0.014287801606630903,"127":-0.06457113257889258,"128":-0.007741194197759034,"129":-0.010573382492926338,"130":-0.031677040006240456,"131":-0.05896768804485204,"132":-0.01784907763987562,"133":0.08093795688536118,"134":0.0596074015989509,"135":0.0762317348548958,"136":0.0019235862147587417,"137":-0.06309616036486154,"138":0.17649766738853398,"139":-0.0682311298009452,"140":-0.08682560726999887,"141":-0.008918265272752097,"142":-0.08194666287266929,"143":0.016012020371394518,"144":0.0035727429107564553,"145":0.010701961364246353,"146":-0.04473340264049471,"147":0.018874046703685584,"148":0.039467363720739515,"149":0.01902139375042819,"150":-0.005409551556504941,"151":0.07479167092306795,"152":-0.024115627879487393,"153":-0.07651776533691136,"154":-0.006741299109223554,"155":-0.04810670592635723,"156":0.06408262878637644,"157":-0.0013862782715457456,"158":-0.014147015145131241,"159":0.06115866093320062,"160":-0.08477014329942452,"161":0.04865735609794026,"162":0.019288108317071458,"163":0.002798449487053134,"164":-0.02841586204164743,"165":0.003647339306595446,"166":0.0585013273621892,"167":-0.0030623945753747816,"168":0.013593966762538849,"169":0.07886274792751757,"170":0.061868399528122925,"171":0.03840459366105075,"172":-0.02069358719978646,"173":-0.002238240615789912,"174":-0.0004883069321914026,"175":-0.1272651633471333,"176":-0.014507926088977842,"177":-0.08518827184284379,"178":0.028147020956457044,"179":-0.012080150257695757,"180":-0.009093349445670933,"181":-0.052627877275119195,"182":-0.05969005660333521,"183":0.09326918261533729,"184":0.08307006278334304,"185":-0.014026309416166609,"186":-0.018281327814276927,"187":-0.02732106050662595,"188":-0.04902814060256372,"189":0.025071618176364892,"190":-0.011894363739085513,"191":-0.08859943019228346,"192":-0.08791301295899243,"193":0.0013342167049857718,"194":0.07000503494664792,"195":0.014888966411127504,"196":0.04295399450248265,"197":-0.10058039844315134,"198":0.012916389490580592,"199":0.0018380849185019594,"200":0.10812054078013242,"201":-0.003908354441356387,"202":0.06559941873891438,"203":-0.051200369704677194,"204":-0.054108591865176726,"205":-0.041653113837946794,"206":-0.04691957191120101,"207":-0.04987144303975548,"208":-0.049261356223430634,"209":-0.04980731910878309,"210":0.04498165345925281,"211":0.0644993683916297,"212":-0.133586442606879,"213":0.005396709415773523,"214":0.016324307438006877,"215":0.059811925932560996,"216":-0.09735160328361915,"217":0.05414511088168414,"218":-0.006587131368563137,"219":-0.09656828586455864,"220":0.0055047286766475466,"221":0.029311877595272005,"222":-0.035327793671682546,"223":-0.008661021609677032,"224":-0.037582701665074304,"225":0.03497990630108917,"226":-0.026948259486777155,"227":0.023946603506538364,"228":0.007379895797718989,"229":0.04695198001941242,"230":-0.0002731912130955975,"231":0.05893575693056939,"232":0.06939995487279313,"233":0.053040640308891655,"234":-0.11145396705870318,"235":-0.017602486008205194,"236":-0.025923051628347113,"237":-0.005920090712648476,"238":-0.008246303169154085,"239":0.04258886968530243,"240":-0.0529010216973981,"241":0.014551610015568574,"242":0.003724932067392505,"243":0.00961442765531341,"244":-0.06400466282504304,"245":0.02096955923881062,"246":-0.02797279898422555,"247":0.08225894343984706,"248":0.022537146865805203,"249":0.12739508056912416,"250":-0.06474741715298611,"251":-0.05789927915631793,"252":-0.11779784788521667,"253":0.026033042404221877,"254":0.06055555414821004,"255":0.007746044019068145,"256":-0.05043192255460938,"257":-0.059316219746164675,"258":0.06298488883340252,"259":0.03754536000269743,"260":0.04494727464915089,"261":-0.03839224054648428,"262":-0.03775325440488757,"263":-0.0034421374473139667,"264":-0.021107298783520287,"265":-0.03319817864017318,"266":0.09997049316947638,"267":0.09973502795269423,"268":0.049631603415582363,"269":-0.08252456959071398,"270":0.019547726411708728,"271":0.05263558356152912,"272":0.02437799331814467,"273":-0.017803769230705736,"274":-0.009979910798572442,"275":0.06735475503091617,"276":-0.028419742695077438,"277":0.04572830809372403,"278":0.04982999363361299,"279":0.03354622666645711,"280":-0.04378139020257249,"281":0.006409566277193729,"282":-0.0456152018322228,"283":-0.08550759864955693,"284":0.06395419161461513,"285":0.01336606895167055,"286":-0.06862638708848091,"287":-0.04057575107445274,"288":-0.07099332488594806,"289":0.10158516304540434,"290":-0.060374903047290714,"291":-0.0073652629119328236,"292":0.09527417364369915,"293":0.017974068151821575,"294":0.047556501174270745,"295":0.03748965111522686,"296":-0.024668845188732816,"297":0.01028028474259177,"298":0.0392920149491925,"299":-0.04267220052156542,"300":-0.0973472720975803,"301":0.08585720668988368,"302":0.04383233672792144,"303":0.04086947029878321,"304":-0.04972288314983278,"305":-0.06583307447283604,"306":-0.06881676099063619,"307":0.024085171250154053,"308":0.041574153619854795,"309":0.047008220176598045,"310":-0.07927417153875105,"311":-0.03116422462834663,"312":-0.03231744485447699,"313":0.005485964846752233,"314":-0.019605349727481736,"315":-0.03929676035032398,"316":-0.004463782219529829,"317":-0.14995285496389849,"318":-0.015328346539407107,"319":0.08719145190309119,"320":-0.08289967209057043,"321":-0.05871598361232034,"322":-0.060706868070119394,"323":0.020592890989716527,"324":-0.011430652097960896,"325":-0.09044740101145472,"326":-0.02986936187933619,"327":0.04096409825656891,"328":-0.037411192300644644,"329":0.07385714341255087,"330":0.11055276915010998,"331":0.09363473905898169,"332":-0.06787398968187912,"333":0.07973092070991261,"334":-0.029901968422138322,"335":0.009605799404090076,"336":0.028897029256310106,"337":-0.10919874271141677,"338":-0.01522331403574093,"339":-0.03038772216108263,"340":0.012584806054629331,"341":0.07876389475523626,"342":-0.036323151591781865,"343":-0.011696550156114725,"344":-0.04578906738750609,"345":-0.08182660070998465,"346":0.006011098800605737,"347":-0.06473530905017005,"348":-0.0024354024350375122,"349":0.02949237566091572,"350":-0.0635371624374871,"351":-0.05518437779605657,"352":-0.09747647409522825,"353":0.004285209971905159,"354":-0.0052274924385319835}},{"sx":1,"sy":1,"depth":355,"w":{"0":-0.024775707608417775,"1":-0.04542458186451853,"2":0.03916423950135146,"3":-0.05687577765823736,"4":0.006578265926999014,"5":-0.026245825385981865,"6":-0.03938079862948495,"7":0.006058854271818684,"8":0.04036351215721963,"9":-0.01859468549888867,"10":0.015570147077962806,"11":0.0039863629595263805,"12":0.004587528122670862,"13":-0.010512778642836612,"14":-0.013170034874868678,"15":-0.05813905619236638,"16":-0.008752883689490438,"17":0.06152374787522791,"18":0.030793815650283107,"19":-0.06285126053119777,"20":0.05281942119283782,"21":-0.006316075787919632,"22":0.012266190385976164,"23":-0.01834370745903171,"24":0.004335361424139909,"25":-0.059925679422486916,"26":0.01693230148074786,"27":-0.06711763446231514,"28":0.06746775136172103,"29":-0.030510463216699705,"30":-0.11936643787882156,"31":0.008093986145001755,"32":-0.007634731975666504,"33":0.011657810680407166,"34":-0.035626314242411646,"35":-0.020474868566069046,"36":0.0762418919994243,"37":0.07271144337201196,"38":0.07437352747640293,"39":-0.036730342328329404,"40":0.01586619508635832,"41":-0.02650501573694417,"42":-0.05277564446265246,"43":0.014277595157548739,"44":-0.023519290697448136,"45":0.03674889351727062,"46":-0.08805485058368216,"47":0.027430722974417683,"48":-0.037361850451457936,"49":-0.006508419803935508,"50":-0.09275749471638378,"51":0.02455262972003753,"52":-0.01995799803149595,"53":-0.020602920714465508,"54":-0.03524761461563054,"55":0.017517553879146136,"56":-0.06875516424751932,"57":0.03228690457685961,"58":-0.08675434695330964,"59":0.02082359060576934,"60":0.05741376512513744,"61":-0.04495781734542971,"62":0.010988917884972861,"63":-0.030079681010473324,"64":0.0838893860978811,"65":0.06691906734520628,"66":0.013449932567498666,"67":-0.029068097352972826,"68":-0.0021161918237222006,"69":-0.06006505646988445,"70":-0.0005286399857455738,"71":-0.07726238212660484,"72":-0.06990200724710353,"73":-0.03514138131488633,"74":-0.055360049384927404,"75":0.0471738872004862,"76":-0.06154786377872439,"77":0.03160857746042109,"78":-0.0067667453887919745,"79":-0.04070829321354141,"80":0.044773514669020506,"81":-0.0838206218350745,"82":-0.09481707139144556,"83":-0.04799404500985891,"84":-0.008664743650083935,"85":-0.010463125845704621,"86":0.06282088475087719,"87":-0.15244092371864418,"88":0.04189220162667033,"89":-0.05518546033965951,"90":0.03888373640108569,"91":-0.034314246771105825,"92":0.024729097634070232,"93":0.07499269134714051,"94":-0.010613814282808746,"95":-0.12648627507250496,"96":0.06129606608185111,"97":0.009220426120739792,"98":0.053381676394237895,"99":0.02521119456968566,"100":-0.028052022075334665,"101":0.004863926326066421,"102":-0.010991224824379857,"103":-0.12790230630036156,"104":-0.01627684423465749,"105":0.0792644545332713,"106":-0.012430163740449442,"107":-0.03130402583494191,"108":0.03508375768363893,"109":-0.004446142431486227,"110":0.024816725557376258,"111":0.0830640849969468,"112":-0.013928391883388616,"113":-0.00895126664848494,"114":-0.015104170530246173,"115":0.006130614556140236,"116":0.014993904053822369,"117":0.02627239632813538,"118":0.06294411433146853,"119":-0.007552089936000129,"120":0.019514052963824267,"121":0.07254118970395085,"122":0.04028419076199543,"123":0.0314607602299212,"124":0.010116359916570937,"125":0.05722137227776603,"126":-0.014704928676123424,"127":-0.02556991320880729,"128":-0.059176942192188886,"129":0.040033855028385884,"130":0.00964986481836316,"131":-0.09033491084527777,"132":0.04477340367159985,"133":-0.03933314019675741,"134":-0.11425465911600034,"135":0.01587030748349841,"136":-0.0047105723998287375,"137":-0.058992215333493477,"138":-0.08548887514059918,"139":-0.05080190722453274,"140":-0.02798491127455319,"141":0.012346477046210993,"142":0.053993070617474034,"143":0.06519586643978045,"144":-0.017926697113597925,"145":0.09379156265919529,"146":-0.01580508216913939,"147":0.012570115234469168,"148":-0.030262014278186696,"149":0.07812261013147108,"150":-0.016958851215475208,"151":0.0579136539413629,"152":0.02660353145641894,"153":-0.02111422016793728,"154":-0.021963223078475157,"155":0.020316074735345715,"156":0.09848557916044658,"157":-0.033469472323384736,"158":-0.08392536492487476,"159":-0.003861375053290658,"160":-0.016030955602766298,"161":0.08269053580927693,"162":0.08890510509910962,"163":0.00360593527533453,"164":-0.07526454704221906,"165":-0.0017875876553059065,"166":-0.061810413384533115,"167":0.08518106603031737,"168":-0.020702127769171175,"169":-0.10977091251073028,"170":-0.01493815377485703,"171":-0.0015494638456357314,"172":0.03072647627633221,"173":-0.07547499392649726,"174":0.14978128955407974,"175":0.02062759497050978,"176":-0.01734337246226132,"177":0.07429367496558963,"178":-0.04994929988902662,"179":-0.020509361000749148,"180":0.017095438902870977,"181":0.008594213536197354,"182":0.10496847208422835,"183":-0.001632174023263877,"184":-0.020652464891685377,"185":-0.01721317387374874,"186":0.07555772244724851,"187":-0.037487359502902315,"188":0.07334759990490226,"189":-0.08071297722824657,"190":0.08688887410238166,"191":-0.051115521338588744,"192":-0.05442076195614797,"193":0.06895415488913724,"194":-0.020165071438006037,"195":0.0167955944044229,"196":-0.04834461197958114,"197":-0.045677581560727556,"198":-0.02760477915094439,"199":0.0341052387239196,"200":0.028297786982164827,"201":0.022507178445132163,"202":-0.07993985075314607,"203":0.051078330830534584,"204":0.09541153192071677,"205":-0.013445884525171927,"206":0.07846306031682582,"207":-0.08936383596700989,"208":0.031953977692456025,"209":-0.08830974818863456,"210":-0.023632249136163266,"211":0.028973209506724308,"212":-0.06660704637091992,"213":0.022858775664324198,"214":-0.07296347205549013,"215":-0.014174905737888672,"216":-0.12392000650321802,"217":-0.013326223949815308,"218":0.009774384270375277,"219":0.070504660655519,"220":0.0786035479105026,"221":0.016019842637568026,"222":0.04226057980975356,"223":-0.03825003444228088,"224":-0.06929344017742978,"225":-0.07842885919034574,"226":-0.05570787217925961,"227":-0.061594295674104155,"228":-0.05755309012250148,"229":0.09821209311897745,"230":-0.07435143044892785,"231":-0.07308461769816699,"232":-0.0783775138024596,"233":-0.0308811228465068,"234":-0.020682486587585095,"235":-0.033597891526646155,"236":-0.009435751340935836,"237":0.034530586776245514,"238":-0.0540281596898472,"239":0.09396843882778871,"240":-0.026816780455660428,"241":-0.030882067171497593,"242":-0.011543936932996686,"243":-0.028247561602522554,"244":0.06481626037334404,"245":-0.009337394920773765,"246":-0.09685061360779623,"247":-0.03664823170423645,"248":-0.01531987360770701,"249":0.022230477630960373,"250":-0.058033355736546825,"251":-0.006793481723644592,"252":0.008559984613184326,"253":-0.09822923157082843,"254":0.02287874756735429,"255":-0.033262901675730566,"256":-0.022879017254336637,"257":-0.04409645401499005,"258":0.01934546507982459,"259":-0.042814771941533165,"260":0.07891893481925266,"261":-0.04950509636189334,"262":-0.054309647308266415,"263":-0.0027820903301681767,"264":-0.03058579279314981,"265":-0.005366382139341887,"266":0.062169975099376426,"267":-0.04615120676666887,"268":-0.0634645763488477,"269":0.013868009696113504,"270":0.00013308515489734334,"271":-0.0306835988785899,"272":-0.015392278566325891,"273":0.01708883982831537,"274":-0.029942658327710547,"275":-0.046450677275055745,"276":-0.04192242519595836,"277":-0.04295524783910149,"278":-0.03780708440719733,"279":0.03353015078294837,"280":-0.09544078070795205,"281":0.0853134660576264,"282":-0.02720512184477108,"283":0.01606214164977419,"284":0.01418338583637012,"285":-0.03095961166343731,"286":0.016053932154469187,"287":-0.09189341399670958,"288":0.014427990482042631,"289":-0.04083264826981255,"290":0.05098621933607168,"291":-0.0075897067162900185,"292":0.012077069717318232,"293":-0.025509324121442127,"294":0.1105916277604025,"295":-0.011810214358876388,"296":-0.06836571625588068,"297":0.061054240293877494,"298":0.11077248048593186,"299":-0.04403092268420604,"300":-0.08810618791353127,"301":0.03381267903589241,"302":0.08764129075806622,"303":0.03128468627545509,"304":0.05980443014247085,"305":0.023342432042222378,"306":-0.03173178042617171,"307":-0.01385320020433002,"308":0.06305340759417222,"309":0.03006141079805654,"310":-0.011215341125205074,"311":-0.0451817390967526,"312":-0.10100513601701185,"313":-0.009815031460604,"314":0.019162654607356784,"315":-0.10534026725007929,"316":0.005494356870268679,"317":-0.015012621853389398,"318":0.09020198426174812,"319":-0.05286891862994092,"320":0.023558321343874124,"321":-0.017680504594385874,"322":-0.09063548075059183,"323":-0.006336730236199817,"324":-0.05125812736659677,"325":-0.025560305094076922,"326":-0.05746695179860202,"327":0.0407739649348608,"328":-0.005937793329617311,"329":0.06487384124108456,"330":-0.04531530084245839,"331":0.014556838405067564,"332":-0.0013240954542881492,"333":-0.04074653841121152,"334":0.021129471987457953,"335":0.033999876339982374,"336":0.040640495580436434,"337":-0.0017007361289317906,"338":-0.15651748310985544,"339":0.1559501278901752,"340":-0.02759402788805552,"341":0.05907897884375904,"342":-0.014645030409847668,"343":0.09226726392653224,"344":0.0017770066696096813,"345":0.008687417561968079,"346":0.04453067737689431,"347":0.03485455168642475,"348":0.06250922565377186,"349":0.04443410422402301,"350":-0.04964670919385902,"351":-0.03328992702249475,"352":0.0926200814280545,"353":0.061205611628189174,"354":-0.07027347840682313}},{"sx":1,"sy":1,"depth":355,"w":{"0":-0.05269270502891657,"1":0.08463653269794849,"2":0.01998053052393728,"3":-0.04032734702455968,"4":-0.016829499853391945,"5":-0.04534051953187091,"6":0.017617711226870884,"7":-0.10132854699552785,"8":-0.06818204565705872,"9":-0.06069694735591131,"10":0.014571894729180057,"11":-0.01532343958558254,"12":-0.03969594997940172,"13":-0.03801607202557204,"14":0.0612701270043646,"15":0.021462095490350917,"16":-0.013648894696381933,"17":0.022894806783812033,"18":0.05425534930240325,"19":-0.019811669543303448,"20":-0.019227237372343164,"21":0.040151100652658804,"22":-0.0015942453308244826,"23":0.05586500367696517,"24":-0.05201058788976919,"25":0.040149422881011004,"26":-0.004276756025730889,"27":-0.14126310782833176,"28":0.07648089221011874,"29":0.009594416570991407,"30":0.03400386681203492,"31":0.010141935457467076,"32":-0.15207622468992468,"33":-0.008367588331793583,"34":-0.06849183268790315,"35":0.10007431817072149,"36":-0.03690402159945948,"37":-0.28465823376379024,"38":-0.022307994261045933,"39":-0.012961947868757057,"40":-0.028767176611302483,"41":0.027351917970074843,"42":-0.21897725433050952,"43":-0.0405616077779771,"44":-0.04294466676198921,"45":0.016199078629933163,"46":-0.043573374176412855,"47":-0.1886993021965078,"48":0.019327722960697544,"49":-0.024794115333103668,"50":-0.029084327727850384,"51":-0.0486811982602159,"52":-0.026016509427527333,"53":-0.014745627213418013,"54":0.03293856750607357,"55":0.07164591543368921,"56":-0.009845681342939137,"57":-0.0892334433925167,"58":-0.048372464426670356,"59":0.12465204120322418,"60":0.023207472445442294,"61":-0.03918619990009668,"62":0.06511548181366633,"63":-0.07488590801937252,"64":-0.025857927649433177,"65":-0.07323582685506237,"66":0.018634291477029823,"67":0.057638179215257566,"68":-0.24392376219000417,"69":-0.0031625717862533427,"70":0.1114318684166989,"71":-0.013166841475118651,"72":-0.0016402287066671734,"73":-0.06618157344832068,"74":-0.006917308000489163,"75":-0.0062953595888249995,"76":0.035258575196206884,"77":-0.07644963420911773,"78":-0.07721997116167499,"79":-0.01034917717516302,"80":0.07504953904574656,"81":-0.040435646073155196,"82":-0.1559867635062385,"83":0.05337193093447473,"84":-0.010468838149863038,"85":0.07720038204035133,"86":-0.12658282114997282,"87":-0.22122516444394794,"88":-0.011486509036777403,"89":0.003855755727980905,"90":0.004406524151628257,"91":-0.061694396740608864,"92":-0.16929381337572255,"93":0.01427672723819262,"94":-0.06231139909300279,"95":0.10049154659099829,"96":-0.06804699665883147,"97":-0.039098106511157395,"98":0.04536658630766659,"99":0.0054470251859092345,"100":0.050231387652930205,"101":-0.13275449439400183,"102":0.020620003243415543,"103":-0.1355441226956707,"104":0.10297938226060302,"105":0.04132250975810743,"106":-0.11375982786883064,"107":0.009695413641927468,"108":-0.026092192696688766,"109":0.020590671214529475,"110":-0.000019003217505691905,"111":-0.06684908100495132,"112":-0.03161300735639315,"113":0.06298073828633874,"114":-0.05424372902872425,"115":-0.022273473900028443,"116":0.010464005273974737,"117":-0.017167909296339767,"118":0.0036360536841004913,"119":0.015915302381232503,"120":0.0036663090300254287,"121":0.0024703141602454948,"122":0.005168991810702236,"123":0.023214785245169175,"124":0.02624016431173629,"125":-0.07930518661452671,"126":-0.011782054452833712,"127":0.027535427696371156,"128":-0.06076502284008504,"129":0.010870057748227229,"130":-0.005859775830964541,"131":0.03933872917154347,"132":-0.03546441168630344,"133":-0.08891274986728637,"134":-0.02694281896993747,"135":0.06303311606548984,"136":-0.06857149870330648,"137":0.025517064207109117,"138":-0.009699845441754248,"139":-0.03846598778936383,"140":-0.024344718308683774,"141":-0.12806524012445725,"142":-0.01867430564596268,"143":0.009183462252125206,"144":0.0443554497840113,"145":0.009569487989185565,"146":0.014372641088422958,"147":-0.09306094130992196,"148":-0.018859425432441512,"149":0.04170940279077507,"150":0.01656183837921625,"151":-0.024290949611915715,"152":-0.15389752783051427,"153":0.02722303323029702,"154":0.03364660896824605,"155":-0.06002401955421468,"156":0.01596053136398903,"157":0.031577278818034175,"158":-0.050942309167200495,"159":-0.00757087951666094,"160":-0.016785487412728926,"161":0.044569064657585554,"162":-0.13898272139210724,"163":0.03537563949620288,"164":-0.026000698220222,"165":-0.02909475782777504,"166":-0.025217760137413538,"167":0.01158329895027724,"168":-0.006938541335840649,"169":0.00023901798393765442,"170":-0.08080615448025366,"171":-0.03478195591948817,"172":-0.09314247489445378,"173":-0.04983925543932245,"174":-0.019892713927152545,"175":0.035799258070717724,"176":0.0020148173225659517,"177":0.09581140081756169,"178":0.005691964202861873,"179":0.026126186185432877,"180":0.07423729557223159,"181":-0.08710130953689386,"182":-0.028799169873043103,"183":-0.1335581854680267,"184":-0.04382164240265282,"185":-0.0010324022199062848,"186":-0.05222106788809336,"187":-0.052756098098798485,"188":-0.040402590475515913,"189":0.08875814907573874,"190":0.0347564220943451,"191":0.07790991686602465,"192":0.046995284918994844,"193":-0.03964504047860092,"194":0.03388788317629855,"195":0.017850207755257697,"196":-0.013406279218959196,"197":0.09725804428542326,"198":-0.047759868567755756,"199":-0.03536619563609045,"200":0.06453237902921774,"201":0.056438999432820575,"202":-0.01282726073256581,"203":-0.09449457683589421,"204":-0.05815408330233182,"205":-0.02383792251272759,"206":0.008524551549981706,"207":0.15541709030915402,"208":0.05604019293833434,"209":0.035493853018003445,"210":0.030049877917159747,"211":-0.0984499323686026,"212":-0.18277297476100288,"213":-0.12769370258153426,"214":-0.02041452195611332,"215":0.0356374976598043,"216":0.10306370140901058,"217":-0.03664615379134965,"218":0.008860446161674855,"219":-0.008673694857281694,"220":-0.0016808954593043957,"221":-0.0031944124148779256,"222":-0.052711204760615867,"223":-0.030123218028105154,"224":0.07232748322679504,"225":-0.016726124077920686,"226":0.0028252460000814665,"227":-0.09182481832461804,"228":0.04065083335498852,"229":0.07884055522884989,"230":0.11413407501627183,"231":-0.0016832995733742778,"232":0.04483244727526917,"233":0.04051587856067746,"234":0.03077309178058003,"235":-0.04432784531462471,"236":-0.09293071655024047,"237":0.006203708452045794,"238":0.011536511446749746,"239":0.0204931190984838,"240":-0.04310837199744019,"241":0.13080531590990274,"242":-0.07802373159583374,"243":-0.0779561638801118,"244":0.002026914022116282,"245":0.06399337940647623,"246":0.03434181525615791,"247":0.06111005424804356,"248":0.03807122911450143,"249":-0.015248054705150225,"250":0.12150905572218824,"251":0.11506479488132387,"252":-0.02763530993013935,"253":0.013036492835985064,"254":-0.04992285328080525,"255":-0.010796064914992496,"256":-0.03326746836180937,"257":-0.06197638367932737,"258":0.0014122443334849512,"259":0.04588385463147897,"260":0.025742370143475895,"261":-0.03676187549476902,"262":-0.06327267838434969,"263":-0.0025969205986176858,"264":-0.04093709281137767,"265":0.023819959294500273,"266":-0.05032585886975087,"267":0.01729716605248404,"268":-0.02957809506970342,"269":-0.03184526071170179,"270":0.05477395765655842,"271":-0.12245573437709792,"272":0.03311008543509196,"273":-0.05863946835451944,"274":-0.11477075924076346,"275":0.06597150306609702,"276":-0.0008364875296333657,"277":-0.008856197593888056,"278":-0.020316827413901235,"279":-0.028104313075106153,"280":0.012877033488107096,"281":0.023177627287410667,"282":0.06938750757713827,"283":0.04618612850950373,"284":-0.04662550622326323,"285":-0.009299557946153027,"286":0.0896845224466091,"287":0.019316320782098044,"288":-0.0364229346192148,"289":-0.029241031110045848,"290":0.049256794105065484,"291":-0.07047948708954241,"292":-0.0030816935914345788,"293":-0.019151982167633478,"294":-0.012146027505280382,"295":-0.0024797796389367196,"296":-0.025188419575685236,"297":-0.08034057947022462,"298":-0.05386186812089094,"299":0.04291967321203122,"300":0.10550061208271423,"301":0.005755102357675251,"302":0.06579830008219897,"303":-0.1492379623099336,"304":-0.017545282032670025,"305":0.05386027768376727,"306":-0.11390461520463638,"307":-0.0076516521372443635,"308":-0.04328530117486752,"309":-0.032764395625713455,"310":-0.06959449496868764,"311":0.01658212039374328,"312":0.02061538075937355,"313":-0.017015692003653774,"314":0.02708428032048813,"315":0.05475171611357247,"316":0.037075538268296515,"317":0.0753427901848447,"318":0.003107724121359438,"319":-0.03507483060493596,"320":-0.016541489782666292,"321":0.016438877599227228,"322":0.024747263252899138,"323":-0.007402290467237593,"324":-0.020026530934583887,"325":0.027888588655373144,"326":-0.00569777947536734,"327":-0.05487739967190812,"328":-0.0007637769100756153,"329":0.008976859336967753,"330":0.01096383459441802,"331":0.03215171742727988,"332":0.05402404027708652,"333":-0.03829829982653688,"334":-0.06731448413670359,"335":-0.0185192362760423,"336":-0.03241227796174105,"337":-0.08524533272331697,"338":-0.03413734409503942,"339":-0.018943137562025134,"340":-0.04325861217802962,"341":0.07747117662087318,"342":0.015009195925035907,"343":-0.02654019947239554,"344":0.022464889666503535,"345":0.028461289975203467,"346":0.004859200435431762,"347":-0.03591473470179451,"348":0.015989417104348827,"349":-0.08058541919426447,"350":0.02043635476141491,"351":-0.025627821115750973,"352":0.09497099205327336,"353":0.018580059297631155,"354":-0.01757800944470903}},{"sx":1,"sy":1,"depth":355,"w":{"0":0.08354882488068624,"1":-0.049222906953301365,"2":0.12576482353111199,"3":-0.016870293130353514,"4":0.037281228460442815,"5":0.04519825734748405,"6":0.02655290132697922,"7":0.02841172736649146,"8":0.02814647930427774,"9":0.004670255181337781,"10":-0.011464148051607477,"11":0.07220273827228303,"12":0.13003092508944109,"13":0.0772539155848131,"14":0.008258645061557907,"15":0.016320316470189264,"16":0.08942411548882157,"17":0.07830842322012334,"18":0.02326092930335819,"19":0.03801203601553807,"20":0.025002112381027092,"21":-0.020228342730714617,"22":0.03497004309902949,"23":0.06600946589295206,"24":0.03445111139703668,"25":0.08808650909818144,"26":-0.03446703876647652,"27":0.07051811797941285,"28":0.002038502623924029,"29":-0.016563124182236016,"30":-0.11122350192183894,"31":-0.03801404348978456,"32":0.15712234986962684,"33":0.08063030660471202,"34":0.10683669048008221,"35":0.045087598223616354,"36":0.05190515849000405,"37":0.3117471740048608,"38":0.03591430991743048,"39":-0.042383001204579905,"40":0.07015564976755151,"41":-0.021161023289821654,"42":0.26846383453500133,"43":-0.01330846446670464,"44":0.032763870891443655,"45":0.04067935408446981,"46":0.06404428521319888,"47":0.2539187979784377,"48":0.010379949133110947,"49":0.05199515270347372,"50":0.015384579342317671,"51":0.1821864461399152,"52":0.17628749179754546,"53":-0.018621540917757633,"54":-0.03261905841455563,"55":-0.03340127790275519,"56":0.01754348949832601,"57":0.03251814397133255,"58":-0.026082313295714456,"59":0.04614063970404808,"60":0.05080316670392412,"61":0.17904829700932587,"62":-0.014164356353480744,"63":0.014374345503839321,"64":-0.025796196443226213,"65":-0.03337210795927457,"66":0.0880102400223405,"67":-0.07472343351547943,"68":0.15405437870355762,"69":-0.015533666267467475,"70":0.03778795044699908,"71":0.19877447134290352,"72":0.043756459180713574,"73":-0.06635150470664691,"74":0.012987996192103756,"75":-0.14111426882861963,"76":0.09329943580980009,"77":0.021762749237035445,"78":-0.01865499837130598,"79":0.03063500790003538,"80":0.00016229274885778193,"81":0.09700902875740564,"82":-0.019280543766531794,"83":0.05377188703194377,"84":-0.021571557589597407,"85":0.06350494977071114,"86":0.10744955758035155,"87":-0.03663406554854654,"88":-0.031079647542696986,"89":-0.008798695823657627,"90":-0.06924968879471845,"91":0.04268832200834532,"92":-0.006916556484331835,"93":0.005405498803574941,"94":-0.006713765174642867,"95":-0.04956968915565938,"96":0.1616832600923606,"97":0.01988968321455027,"98":-0.033653728131734395,"99":-0.0016776201955320646,"100":0.024519013949050848,"101":0.044665900394405836,"102":0.008445493921848757,"103":-0.027082721658536514,"104":0.1580355716004343,"105":0.003899683455217789,"106":-0.0598240459065851,"107":-0.03201135601649993,"108":-0.09013712557382225,"109":0.04376989330729556,"110":-0.007495522542939849,"111":-0.14806844217122256,"112":0.011755506459702013,"113":-0.04429267198796887,"114":0.004891312274962802,"115":0.04359311464967808,"116":0.07961003825859385,"117":-0.03959247775484892,"118":0.06777841747186697,"119":0.0732674940239749,"120":-0.0709040953219065,"121":0.016739238719192404,"122":0.017473118287083558,"123":0.05329881500803705,"124":0.04715922912935417,"125":0.049779147802581254,"126":0.04209944757697148,"127":-0.028356415728076425,"128":0.06430549709923566,"129":-0.05124337108247239,"130":-0.0022185286075563217,"131":0.1553002547472342,"132":0.004372243260139783,"133":-0.05653690215878849,"134":0.045000662394898215,"135":0.01604891879731838,"136":0.012755859958628515,"137":0.06881060541230727,"138":-0.020720080212622966,"139":0.10298587328380092,"140":0.0013816438100843112,"141":0.062182578760256645,"142":0.020123652809991625,"143":0.023033949215547488,"144":-0.022929803331309662,"145":0.006907006960288615,"146":0.014079237934951937,"147":0.07729842174462657,"148":0.03912465204767369,"149":0.09051605842444298,"150":-0.14552889806121494,"151":-0.012938175143838496,"152":0.048896327280104686,"153":-0.009519093658304228,"154":0.025178388068789675,"155":0.016805579430797687,"156":0.04635122848347599,"157":0.03573662566774694,"158":0.019184324261458177,"159":-0.005211394123849981,"160":0.0122338543074465,"161":-0.08131436905334725,"162":0.027894541918043414,"163":0.024731667180777222,"164":0.021317490260512845,"165":0.025574571796474134,"166":0.09137363188179057,"167":-0.005114686251948154,"168":-0.046358636157039584,"169":0.011835614682653638,"170":-0.021283970805760475,"171":-0.013824381852404817,"172":0.051522033653170415,"173":-0.08215071653592147,"174":-0.0625812754884723,"175":0.05084440484241607,"176":0.051117623655080775,"177":0.049535042928277255,"178":-0.06161691490318656,"179":-0.05743430270451944,"180":-0.05858133384409996,"181":0.12761997932276734,"182":-0.043984784259516053,"183":0.05434520871229636,"184":-0.09540144620340651,"185":-0.01571043965417975,"186":0.08886841250129471,"187":0.07614144067291956,"188":-0.0018641285381653628,"189":0.0020268257268327055,"190":0.047381061357727336,"191":0.04089523293102933,"192":-0.019758057199193754,"193":0.0028827082824044643,"194":-0.03877169402133062,"195":0.01896105316752285,"196":0.08536463660265417,"197":-0.01936105232724374,"198":0.13720203974855325,"199":-0.055595003167809895,"200":-0.007978624573945771,"201":0.08074137095686194,"202":-0.05277643786160225,"203":-0.11885591746792544,"204":0.015067691432324504,"205":-0.023555377445219877,"206":0.08006254655306753,"207":-0.04553393789733087,"208":-0.05273501326431784,"209":-0.018867285115568736,"210":0.02587822935772828,"211":0.022828734758029864,"212":0.06721403318994132,"213":0.06518046655016452,"214":-0.060119606028530954,"215":-0.0009180222101832015,"216":-0.06839552261405354,"217":0.039652351101808994,"218":0.011912772124524514,"219":-0.006563905901242972,"220":-0.08872965055755185,"221":-0.0647622960648709,"222":0.018933205021676013,"223":-0.023062441908936377,"224":-0.034450081059114665,"225":-0.0020514152943467505,"226":-0.024157279157162606,"227":0.1311530148581272,"228":-0.0775399420787251,"229":0.058331928347884116,"230":-0.06065539010805608,"231":-0.017835960521704886,"232":0.07745051762677757,"233":0.02251357636400876,"234":-0.03844509884333674,"235":-0.038609702139737724,"236":-0.024530553629099974,"237":0.03678105718544095,"238":0.0018813530276832226,"239":0.05525974240982933,"240":-0.011731518091154088,"241":0.004499977224564679,"242":-0.001271588904940954,"243":-0.07235061636175338,"244":0.0668097431483622,"245":0.042748291011793206,"246":0.09152259470444168,"247":-0.04248809075549508,"248":0.0049947321027771175,"249":0.01885800767339363,"250":0.025061749024303345,"251":0.02346490799592128,"252":-0.11015846219757383,"253":0.037744397338658475,"254":0.018790377852908036,"255":-0.030190211710111072,"256":-0.005775188472608703,"257":0.08725376024813387,"258":-0.02859794349933494,"259":-0.009576650462870137,"260":0.009355088116918852,"261":0.04021244653501183,"262":-0.02309405454393831,"263":-0.0465823993229925,"264":-0.021298887879341383,"265":0.024149510861297418,"266":-0.005138511374217497,"267":0.05400946212709087,"268":0.14351909818960826,"269":-0.09530901569499566,"270":0.019180608381594272,"271":0.042655297567649485,"272":-0.0074712044229874,"273":-0.006551945810075263,"274":0.06172389502906493,"275":0.05108064167128316,"276":-0.06486447938434498,"277":-0.0022735345691714303,"278":0.04909789711689406,"279":-0.08622759756766961,"280":-0.06237739559226912,"281":-0.09663879897329272,"282":-0.021750306466965817,"283":0.04473605570043221,"284":-0.0483496005519917,"285":-0.057884488468292764,"286":0.04070447442956744,"287":0.04704799433542683,"288":0.08359729974691016,"289":-0.027490380170549267,"290":-0.022676500185074812,"291":-0.03997876626389061,"292":0.046625188543732536,"293":-0.0033336426267816946,"294":-0.0517550606420909,"295":0.055605814980131035,"296":0.08486930511329599,"297":0.10579150527360953,"298":-0.020178789015194567,"299":-0.0024124242270442816,"300":0.07204634637118981,"301":0.0135320639886233,"302":-0.0062338523542784016,"303":0.008382221881913142,"304":0.003314167267128571,"305":0.025858238921525376,"306":0.008368829834813006,"307":0.01911849071948463,"308":0.013692906923449773,"309":-0.06422676134675215,"310":0.052467691758820496,"311":0.009486807209131717,"312":-0.014476760827642062,"313":0.041465199273675785,"314":0.0053299740727474326,"315":-0.054568977490952436,"316":0.03817695323195495,"317":0.00871086524382785,"318":-0.01704136803383279,"319":0.0410405292062843,"320":0.011511232008066453,"321":0.06429803470966709,"322":0.026600439260343445,"323":-0.03737285758585014,"324":-0.013029910420745059,"325":0.06952322167936695,"326":0.033071934840707244,"327":0.0403800386483078,"328":-0.07038137326050399,"329":-0.03878027653582525,"330":-0.011088475347551155,"331":-0.0006157460229192556,"332":-0.02615531868507629,"333":0.10565707953438565,"334":-0.06172831253925748,"335":0.004088850398376396,"336":-0.04484288181452899,"337":0.028386499171883753,"338":-0.020221647350869447,"339":-0.04715965614090455,"340":0.018547455187847825,"341":-0.0679717699276508,"342":0.02931405485291623,"343":-0.05808807335608921,"344":0.010369648120158153,"345":-0.05533740597980777,"346":-0.015720317616758097,"347":0.10560612873743898,"348":0.08600816466928536,"349":0.015905858072029655,"350":0.035585477482031225,"351":0.017573112725825568,"352":0.03743892644311014,"353":0.010480746225670273,"354":-0.03231144436407039}},{"sx":1,"sy":1,"depth":355,"w":{"0":-0.015856203060752087,"1":0.020999732657875938,"2":-0.03638457589626857,"3":-0.03822288377158613,"4":0.007489587779095158,"5":0.041747471738513835,"6":-0.07196649275481637,"7":-0.012064536728662463,"8":-0.059175350482503754,"9":0.08760510766683768,"10":0.01660868996469515,"11":0.015453739338766134,"12":-0.05562016262253182,"13":-0.03219398291949054,"14":0.08966687070677709,"15":-0.034718530474174114,"16":-0.09530898052029978,"17":-0.09509152654506797,"18":-0.01138781755364099,"19":0.014968372152469754,"20":-0.0666977063582523,"21":0.033570258346882736,"22":-0.005992116758729737,"23":-0.04581820514717824,"24":0.04842880201003182,"25":-0.11863631102360549,"26":0.03220115546733275,"27":-0.08180942484705077,"28":-0.007883429443745198,"29":0.024155147565193553,"30":0.05422140376048413,"31":-0.022577512034125984,"32":-0.0907458678445343,"33":0.07533015383660763,"34":-0.051693233861399984,"35":0.033732130236343284,"36":-0.0561574323270584,"37":-0.20045400753075931,"38":0.024585946042615627,"39":0.04248626006346493,"40":-0.04404984260526653,"41":-0.01631143675527759,"42":-0.2187468258830462,"43":0.14447478732837163,"44":0.06959738561227319,"45":-0.017444079452816518,"46":0.019332709698519936,"47":-0.2111701005225539,"48":0.11875944137452026,"49":0.04625116655065542,"50":0.09259118244276136,"51":-0.03462986458313005,"52":-0.0724886570708263,"53":0.06740521902103777,"54":0.004664886550414577,"55":0.015626528951604997,"56":-0.10358175446642913,"57":0.034224985369832116,"58":0.119673055926365,"59":-0.02747291253297028,"60":-0.02761259409263132,"61":0.02052739172452172,"62":0.0427232760277696,"63":0.16290749226113663,"64":0.055206488570785216,"65":-0.0050988887412157,"66":-0.018751565469299715,"67":-0.0006577440219381644,"68":0.0540391458425517,"69":-0.06607852768020854,"70":0.12312910129063567,"71":-0.031495309700436167,"72":0.0006106413047234072,"73":0.11796972700732365,"74":0.0842544459272465,"75":0.014421614869543235,"76":-0.09517287937534079,"77":-0.07073329655033751,"78":0.12714829104855052,"79":0.05261083952524988,"80":-0.06785516239108298,"81":-0.04613426683224625,"82":-0.05299263492300173,"83":0.12195653891466707,"84":0.06477692443475591,"85":0.027321150181420045,"86":-0.06576044214163643,"87":-0.16469819130420293,"88":0.09302317648789207,"89":0.10395865412960584,"90":-0.04405515535599063,"91":0.015059591352509732,"92":-0.13816896310249818,"93":0.18286055840907756,"94":-0.03514473763109708,"95":0.06469983288870294,"96":-0.06892996623011559,"97":0.038185034562300664,"98":0.05031509021851148,"99":0.023027088400704786,"100":-0.03291086210060798,"101":-0.08552193883033397,"102":-0.034740230956612765,"103":-0.01494851389532968,"104":0.0751778151963128,"105":0.09277355451045041,"106":0.0738238250032903,"107":0.054677445868504586,"108":0.08715695839942088,"109":-0.004804096072080093,"110":-0.05272379506041654,"111":-0.0017364475011229271,"112":0.027776808860053712,"113":0.022629914670170392,"114":-0.05592255724046699,"115":-0.049747579328761914,"116":-0.046194516795886015,"117":-0.08173189232595152,"118":-0.08685054505203335,"119":0.027123425347712345,"120":-0.030590373757051433,"121":0.0219941892875004,"122":-0.09059310764687846,"123":0.08199441901810678,"124":0.06515329274957728,"125":0.018551721362456444,"126":0.043515554404296726,"127":-0.10637241253722621,"128":-0.0704192371328533,"129":0.09134762344082134,"130":-0.04430301254311722,"131":-0.0106924281516412,"132":0.017381488823143755,"133":-0.08101365772594486,"134":-0.03362493323356686,"135":0.09478130961546405,"136":-0.10632932565959963,"137":0.03181043451636492,"138":0.042554813090377897,"139":0.03205328084834961,