
//<![CDATA[

// a few things don't have var in front of them - they update already existing variables the game needs
lanesSide = 1;
patchesAhead = 3;
patchesBehind = 0;
trainIterations = 10000;

var num_inputs = (lanesSide * 2 + 1) * (patchesAhead + patchesBehind);
var num_actions = 5;
var temporal_window = 3;
var network_size = num_inputs * temporal_window + num_actions * temporal_window + num_inputs;

var layer_defs = [];
layer_defs.push({
    type: 'input',
    out_sx: 1,
    out_sy: 1,
    out_depth: network_size
});
layer_defs.push({
    type: 'fc',
    num_neurons: 100,
    activation: 'relu'
});
layer_defs.push({
    type: 'regression',
    num_neurons: num_actions
});

var tdtrainer_options = {
    learning_rate: 0.001,
    momentum: 0.0,
    batch_size: 64,
    l2_decay: 0.01
};

var opt = {};
opt.temporal_window = temporal_window;
opt.experience_size = 3000;
opt.start_learn_threshold = 500;
opt.gamma = 0.7;
opt.learning_steps_total = 10000;
opt.learning_steps_burnin = 1000;
opt.epsilon_min = 0.0;
opt.epsilon_test_time = 0.0;
opt.layer_defs = layer_defs;
opt.tdtrainer_options = tdtrainer_options;

brain = new deepqlearn.Brain(num_inputs, num_actions, opt);

learn = function (state, lastReward) {
    brain.backward(lastReward);
    var action = brain.forward(state);

    draw_net();
    draw_stats();

    return action;
}

//]]>
    
/*###########*/
if (brain) {
brain.value_net.fromJSON({"layers":[{"out_depth":51,"out_sx":1,"out_sy":1,"layer_type":"input"},{"out_depth":100,"out_sx":1,"out_sy":1,"layer_type":"fc","num_inputs":51,"l1_decay_mul":0,"l2_decay_mul":1,"filters":[{"sx":1,"sy":1,"depth":51,"w":{"0":-0.010982967876889505,"1":-0.16147856520419446,"2":0.22051297025017416,"3":-0.07340091215930054,"4":-0.14052782993538504,"5":-0.23100392562869948,"6":-0.2942348270745461,"7":0.08679449051964257,"8":-0.15375530792100342,"9":-0.02592666668738117,"10":-0.11445215476781913,"11":-0.23667843561557167,"12":0.0022890394241730206,"13":0.19854268949458015,"14":-0.047847968550937814,"15":-0.016529333151993092,"16":-0.017161417847315254,"17":-0.10141834626557762,"18":0.05112683684017501,"19":0.0509519404960996,"20":-0.16092689944413957,"21":0.035490500910315526,"22":0.13067653815432997,"23":-0.18810371286821453,"24":0.04017577087506637,"25":-0.005987684451219558,"26":-0.2575816028741947,"27":-0.32317854203335156,"28":0.06815437283815244,"29":0.17495946389868092,"30":0.2540782038141529,"31":0.021234257534433153,"32":-0.2377711562742172,"33":0.03797600713614395,"34":0.23799010100008333,"35":0.1590967254686123,"36":0.05100441247331829,"37":-0.10367774917854913,"38":0.011226042187123506,"39":-0.11986319435839476,"40":0.06602681324397582,"41":0.18485644278366561,"42":-0.024176994508362817,"43":0.12405403396805652,"44":0.04589700092594735,"45":0.1499139835751617,"46":0.021106148815665266,"47":-0.08823797010932546,"48":0.019122914130743057,"49":0.054792706813859254,"50":0.17333658468373295}},{"sx":1,"sy":1,"depth":51,"w":{"0":0.06723061037589188,"1":-0.04993576247965151,"2":-0.019476895405679564,"3":0.17836826013580856,"4":0.0633319339463596,"5":0.16231034203140493,"6":0.08996553198741523,"7":-0.09133747031767199,"8":-0.21445665767499367,"9":0.04415213191540408,"10":-0.1276261463604316,"11":-0.010605131001787066,"12":0.31000545066309937,"13":0.04312072294358049,"14":0.29365859043538955,"15":0.03745440640566623,"16":0.21314793478666336,"17":0.15499068842584526,"18":0.09624794489192862,"19":0.03033288586057467,"20":-0.1430093651028974,"21":-0.0190327382583945,"22":-0.09364051701500357,"23":0.3267511281318046,"24":-0.11671932047899636,"25":-0.1486912874277919,"26":0.13380964140571205,"27":0.026679791095184008,"28":0.15201885077855093,"29":0.04229349995785052,"30":0.08479294216923158,"31":0.029144519451486512,"32":0.15364782320466977,"33":0.34466156560633726,"34":0.030070686243600757,"35":0.19185832359025626,"36":0.024968278972232763,"37":-0.04234562992049052,"38":0.007204800631022129,"39":0.041821145527990156,"40":0.09999056552690813,"41":-0.02943183621850923,"42":0.055261403103392476,"43":0.08721309182712544,"44":-0.2163447616834202,"45":0.08720690815200742,"46":0.20824866453067006,"47":-0.06622819149252877,"48":-0.0208363756907888,"49":0.09476630745595785,"50":0.08211785444563298}},{"sx":1,"sy":1,"depth":51,"w":{"0":0.061338459227360996,"1":-0.1375696282668087,"2":0.20864127165820526,"3":0.08936208651315247,"4":0.10046177658064238,"5":-0.10448903322355117,"6":0.006076130263736491,"7":0.09219448020138155,"8":0.04465282913544567,"9":0.024181238391639246,"10":0.15251852356110226,"11":0.04429939139762117,"12":0.09413461603822927,"13":0.2611829649841988,"14":-0.13663063704469267,"15":-0.028134127196943158,"16":0.15511816051747557,"17":0.10844588349134153,"18":-0.08865476470331711,"19":-0.3056421597024037,"20":-0.28252123209713154,"21":0.09453155997810951,"22":-0.010660554622481265,"23":-0.034040513281277614,"24":-0.4655585486850159,"25":0.017612238889305448,"26":-0.10189094460638753,"27":0.12243369895652496,"28":0.10959244989511847,"29":-0.009572748345838688,"30":-0.07624055584180023,"31":0.34263024120046964,"32":0.11008645822238138,"33":0.06478765560067405,"34":-0.27955874392535657,"35":0.21568472183241236,"36":0.3625410270134661,"37":0.03496621808023713,"38":-0.12639596551994484,"39":-0.10489452373337849,"40":0.04069404634124616,"41":-0.29187633421195214,"42":0.0770799417269133,"43":0.00804814870715527,"44":-0.26265936860039335,"45":-0.024313227044529984,"46":-0.01877824911616276,"47":0.12879698276359935,"48":0.02482802942146859,"49":0.12054030044182933,"50":0.31090971651502103}},{"sx":1,"sy":1,"depth":51,"w":{"0":0.005923204735311835,"1":-0.20705831020138393,"2":0.029668107182940683,"3":-0.03125449736294021,"4":-0.030803218795156212,"5":0.029956511486813463,"6":0.016183084230417474,"7":-0.05163505822397064,"8":-0.07672391257620612,"9":-0.02498599887276861,"10":-0.20677695871314025,"11":-0.1261453660966691,"12":-0.0007610659380549541,"13":0.12970146794948795,"14":-0.02202188816631612,"15":0.004892148778216906,"16":-0.07403262994690746,"17":-0.041466682770681974,"18":-0.006270667103889769,"19":-0.35427540228878146,"20":-0.0621676302658846,"21":0.10795936627517454,"22":-0.13662671881657149,"23":0.11317830542051466,"24":0.20192746317981988,"25":-0.1516176706963493,"26":0.008307276539793879,"27":-0.1932214708357554,"28":-0.09864430843531177,"29":0.22073871353486613,"30":0.2280918050646129,"31":0.23876448777017914,"32":-0.0784358537053235,"33":-0.14139055862655753,"34":0.009321248327571844,"35":0.04455000185178774,"36":-0.011256062237992904,"37":-0.10755103916851526,"38":-0.07958723743571078,"39":0.11944769568135344,"40":-0.04236480280734207,"41":0.08090428698481027,"42":0.05904061116316392,"43":0.15812451944546455,"44":-0.1734297104239338,"45":-0.15534379305404142,"46":-0.23015500394486832,"47":-0.1053741089014861,"48":0.10498434865803477,"49":0.05093278396299147,"50":0.19041296560970994}},{"sx":1,"sy":1,"depth":51,"w":{"0":-0.05962017105760559,"1":0.02361268267604366,"2":0.03964679168885545,"3":0.13995283040573422,"4":0.04572426708761346,"5":-0.14771566519360846,"6":0.08375835815063343,"7":0.007764143433051885,"8":0.09955223728451194,"9":-0.021670486024534245,"10":0.041876217307671104,"11":0.11364853365943528,"12":0.019539461002355124,"13":0.2603942837069451,"14":0.20229463417593108,"15":0.1612194302215515,"16":-0.13753738855094638,"17":0.07214621967608674,"18":0.17326095122404533,"19":0.1801649789175739,"20":-0.004869318539647085,"21":-0.05995756661504753,"22":0.30755518783703756,"23":-0.3080787699122833,"24":-0.0012656815266869378,"25":-0.12020666000984051,"26":0.037526053644458934,"27":0.03484578161781126,"28":0.0833624772886829,"29":0.015542509985785309,"30":0.036999854326612604,"31":0.18473956014658677,"32":-0.0008229081780447912,"33":0.2209697688303846,"34":-0.008729149224573542,"35":0.15780410680784682,"36":-0.1730338601097705,"37":0.004976336287438734,"38":0.1359743574782499,"39":0.1387952663484737,"40":0.08654855832852278,"41":0.0742086007706222,"42":-0.01862917058070455,"43":0.13908631558418658,"44":0.06511025254941222,"45":0.018316070834676613,"46":0.028715793219301015,"47":-0.06998720243201378,"48":0.11692929463044331,"49":0.0722853558573416,"50":-0.041300490562213694}},{"sx":1,"sy":1,"depth":51,"w":{"0":0.08264270176742472,"1":-0.015084663283352267,"2":0.10802093992360857,"3":0.0018376043418978105,"4":0.021610287561109894,"5":-0.04605610212507191,"6":0.3059905740837856,"7":-0.11981370484047393,"8":-0.0014932352500068844,"9":-0.006848964750245942,"10":-0.011880350956066089,"11":-0.1082923833941204,"12":-0.13845294619872403,"13":-0.06515885622354067,"14":0.006245378746015807,"15":0.02752167822852393,"16":0.17861762872699713,"17":-0.012056986439148626,"18":-0.05390859592453016,"19":0.013010377936340271,"20":-0.036919581232446964,"21":0.10342907771361862,"22":-0.05396521691893381,"23":0.07660486334539365,"24":0.10184986575034456,"25":0.07492124891425703,"26":0.19269668238507737,"27":-0.036354153957416604,"28":0.06993929686628768,"29":0.1480648838714436,"30":-0.17955240306294962,"31":-0.0020737043840591426,"32":0.005647961625637001,"33":0.05206288662936686,"34":0.0066509961376484935,"35":0.018830808804706556,"36":-0.016466763937413156,"37":0.26464246510996414,"38":-0.05150663426737637,"39":0.064232191398481,"40":-0.1462581102615314,"41":0.06587599194072284,"42":-0.020969591439172947,"43":0.14108268520612496,"44":0.1332975629422585,"45":-0.1292107272960461,"46":0.17146500311267537,"47":0.14972775474747047,"48":-0.0052320893686111985,"49":-0.07400812074066064,"50":-0.014496504200029752}},{"sx":1,"sy":1,"depth":51,"w":{"0":-0.1919182289164732,"1":-0.12308657312666615,"2":-0.3003481286462386,"3":0.21593796930888026,"4":-0.1802567763047716,"5":-0.12910164477641237,"6":0.11898726702241907,"7":0.0697543776916348,"8":-0.022961679975584195,"9":-0.07736507012023465,"10":-0.24727334374527915,"11":0.13433731889826145,"12":0.16291370059737156,"13":0.06906701170948755,"14":0.07066079432340272,"15":0.10456554095647871,"16":-0.25216757345977603,"17":0.0012499348853990723,"18":0.05131844937285077,"19":-0.1219665378106134,"20":-0.02868953318773209,"21":-0.059840813210665735,"22":-0.15560018750890262,"23":0.13594778606450877,"24":0.022193101763966324,"25":-0.06602112912417855,"26":-0.27556085478595366,"27":-0.0060077675054616775,"28":0.0775910568939363,"29":0.237326065336898,"30":-0.027042966585623045,"31":0.2578062839900579,"32":0.1668961417731245,"33":-0.04921595045834075,"34":0.08248379769812053,"35":0.18342820549045757,"36":0.003907671363756834,"37":0.03064477222897997,"38":0.011835199957819087,"39":-0.21254105425040837,"40":-0.06019151756710588,"41":0.01752647011222051,"42":-0.11174334555574843,"43":0.13461087210764675,"44":-0.03955048279461994,"45":-0.10726476644897547,"46":-0.0077796000199946355,"47":0.18468100183644903,"48":-0.023862779596363966,"49":0.03888278465573927,"50":0.03784593215639945}},{"sx":1,"sy":1,"depth":51,"w":{"0":0.07466740115597267,"1":-0.03229149961371862,"2":-0.1278639247291728,"3":-0.039719547036069905,"4":-0.030673490894459785,"5":-0.036355725074422564,"6":0.08606547924398218,"7":0.003357958275173992,"8":-0.28420590608786644,"9":-0.22857882400167548,"10":0.2008137971467835,"11":-0.1011933124057699,"12":0.2188394337153045,"13":0.08691801167442766,"14":-0.029634097288297342,"15":0.15136643177235026,"16":0.07409130176715602,"17":0.07740922895017213,"18":0.0684507684599661,"19":0.0005198159641874665,"20":0.1211121097510782,"21":-0.060190209280960506,"22":-0.05216238192716138,"23":-0.18716247537344421,"24":0.19914646905962113,"25":-0.07333300450850014,"26":-0.23285354436722538,"27":0.2857235441891247,"28":-0.08081461519550066,"29":-0.08849663420286354,"30":-0.17483897001298412,"31":0.0401056787530817,"32":0.010541152870079704,"33":0.1951169107365088,"34":-0.08408056092387192,"35":-0.06380754908620247,"36":-0.006542464637887736,"37":-0.10581000921023775,"38":-0.04937261580455355,"39":0.008754930997729086,"40":-0.08404329748060084,"41":-0.0009698589702078369,"42":-0.03818262834980404,"43":0.08232384142925929,"44":-0.00953034033276753,"45":-0.1900558531620699,"46":0.13272626130790596,"47":-0.18970327759236857,"48":0.12247859184512216,"49":-0.08226143302683725,"50":-0.17967479595975444}},{"sx":1,"sy":1,"depth":51,"w":{"0":0.045311329825939765,"1":0.07707651198826176,"2":0.005381156773212528,"3":0.14318811883410096,"4":0.03272938483770084,"5":-0.04953404632407891,"6":-0.010775777331753344,"7":-0.012317388440492212,"8":0.15210232318194639,"9":-0.1329534187968461,"10":0.0477084466485663,"11":0.05469611966980915,"12":0.11814036006168949,"13":0.2261509659666351,"14":-0.28101419526944804,"15":-0.012010273192026846,"16":-0.09143093100641936,"17":0.15008300122515983,"18":0.08202124043814989,"19":-0.030141694514322928,"20":-0.18319192707224977,"21":0.17318015001952924,"22":-0.12896254184674522,"23":0.045876184561644474,"24":-0.011729158425113581,"25":0.11310275999766893,"26":0.017270727118347203,"27":-0.03767318074919112,"28":0.17628356541728946,"29":0.08694725723407433,"30":-0.05047827098901014,"31":-0.05886342314240131,"32":0.3424701518221768,"33":0.07009906255566703,"34":0.13027203815862964,"35":-0.05007508252576866,"36":0.19854186947633495,"37":0.17189852417822554,"38":-0.08769104310363916,"39":-0.027344850327640148,"40":0.052618451704480346,"41":-0.2949984449713949,"42":0.08059111589388454,"43":0.14902048306282437,"44":0.11648098168948855,"45":0.3143422330266036,"46":0.12543553082703127,"47":-0.0793914422985339,"48":-0.10170360843569011,"49":-0.11655479165228702,"50":-0.08895294546111145}},{"sx":1,"sy":1,"depth":51,"w":{"0":0.04077658965093646,"1":0.08599120202722862,"2":0.1273266499390632,"3":0.20740816933710612,"4":0.040409488746921136,"5":0.15057991741365057,"6":-0.08784135447941005,"7":-0.05039746373659821,"8":0.12304054300948741,"9":-0.2906975746642472,"10":-0.10773942511185625,"11":-0.09642929264826407,"12":0.30239553596053653,"13":0.31034297464277844,"14":-0.15267328952653356,"15":-0.04872447257766269,"16":-0.10092904310780301,"17":-0.24552309524956503,"18":-0.11098882195205259,"19":0.20316923324387368,"20":-0.028179211816366345,"21":-0.010934725363591608,"22":0.13189052606249635,"23":-0.086726736083079,"24":0.047893212494306704,"25":-0.1514025370448459,"26":0.1288730832069161,"27":-0.0033117868608436105,"28":0.19506035472243569,"29":0.010692883352255772,"30":0.1614326058945327,"31":-0.08573240693045411,"32":-0.028427260129996454,"33":-0.03560209022204656,"34":0.1406432158689617,"35":-0.032629141260047186,"36":0.09239626753025414,"37":0.09799511619917897,"38":0.09673579038802128,"39":0.15700000515072626,"40":0.10482635920116061,"41":-0.04918860272721975,"42":0.24843510351387782,"43":0.118073740566316,"44":0.04327515709838974,"45":-0.07537805026043866,"46":0.22649674480280352,"47":-0.09423914684181042,"48":-0.1197684286722223,"49":0.04123581793097947,"50":0.1692589765338017}},{"sx":1,"sy":1,"depth":51,"w":{"0":-0.34118969705271934,"1":-0.02649537202558394,"2":0.06190611841069613,"3":-0.26065967126409034,"4":0.0014092431870922398,"5":0.12164242857137957,"6":-0.1364476440656619,"7":-0.1250372546240252,"8":0.24415883800081709,"9":-0.023581654176416632,"10":-0.03191518797077896,"11":-0.007245487907018848,"12":-0.11071788585832654,"13":-0.006063144169829262,"14":0.3400630871114831,"15":-0.013254394106339978,"16":-0.05528029911817741,"17":-0.34705337984002266,"18":-0.08113590398447271,"19":0.027908146202982754,"20":0.03783813892394114,"21":0.13450998191981467,"22":-0.09101052291123785,"23":-0.11743476373254312,"24":0.01084744126310826,"25":-0.23675454680713154,"26":-0.022083899183493474,"27":0.019104945914555648,"28":0.20854212622010626,"29":0.06097023516409593,"30":0.048793524513544295,"31":-0.016159367651380187,"32":0.25114970642110207,"33":-0.12851046468800867,"34":-0.10623214599274751,"35":0.1320501981946241,"36":0.06462048904116648,"37":0.06293875503855238,"38":-0.017797986260651762,"39":0.1075849441805901,"40":-0.11246859124655854,"41":0.07970677359913003,"42":-0.14963248813019442,"43":-0.13792525082730228,"44":0.06921535234943188,"45":0.195730628348568,"46":-0.004014121305109248,"47":0.1148075494173135,"48":-0.23890058910548875,"49":-0.05676156815461524,"50":-0.0915931232124724}},{"sx":1,"sy":1,"depth":51,"w":{"0":0.3395792596351087,"1":-0.017853420180078454,"2":-0.12094846671140355,"3":-0.1419159007526293,"4":-0.11192486941723005,"5":0.01349869617456042,"6":-0.12057301163720656,"7":0.03942118327171124,"8":0.19503147369400095,"9":0.08326635507830049,"10":0.019842425263612233,"11":-0.03431877958956703,"12":0.114142480318066,"13":0.1880217729134145,"14":-0.048223186082049785,"15":0.14262034474880714,"16":-0.03028492765975788,"17":-0.1785153081541925,"18":-0.019285825291796305,"19":-0.05656009518594646,"20":0.13043553011445366,"21":0.1189531212717145,"22":0.16682661244867517,"23":-0.06081176281394712,"24":-0.05738684986166103,"25":-0.020993436745897848,"26":0.06388746623927666,"27":-0.10225668362642738,"28":0.04920674853963707,"29":0.07239757358296604,"30":-0.20646507958300217,"31":-0.07203422339848872,"32":0.034736153537692334,"33":-0.018558841011567323,"34":-0.11248483943930829,"35":-0.18911175433105684,"36":-0.15672073372176987,"37":0.11792357079457202,"38":-0.0030589775117125036,"39":0.0750608687802481,"40":0.13351220671955732,"41":0.013426706053131022,"42":0.22611241573038646,"43":-0.003417392307481203,"44":0.019308313775082752,"45":0.22049057967387764,"46":0.04120751754060381,"47":0.3146785692862132,"48":0.0018089143813455138,"49":-0.011127380911549169,"50":-0.4118403541258114}},{"sx":1,"sy":1,"depth":51,"w":{"0":-0.06510111683959605,"1":-0.20096030024479214,"2":0.33079101043999487,"3":-0.049894014839578456,"4":-0.006403407317587116,"5":0.00009018088212800264,"6":-0.04829446121252629,"7":-0.08285944902107908,"8":-0.03291995877344621,"9":0.10607501337146003,"10":-0.07112617179339638,"11":-0.00487881711461638,"12":-0.09622410633751491,"13":0.0872842903250518,"14":0.05776314153672066,"15":-0.03644445658440411,"16":-0.3338370467306372,"17":-0.28585648973057615,"18":0.04337034153189196,"19":-0.05766764564241488,"20":0.014114253336843623,"21":-0.08399502067154802,"22":-0.178838862841706,"23":-0.15543044539355821,"24":0.21888057106484643,"25":-0.049577468264418,"26":0.11479948563024996,"27":-0.21470710475318047,"28":-0.002501482578362493,"29":0.06702443731984453,"30":0.09982678804665661,"31":0.08510953257296416,"32":0.04908621375631847,"33":0.09491645545408323,"34":-0.03776990451618859,"35":0.21695098722064454,"36":0.2666252096364437,"37":0.10314507017816239,"38":0.08287349418715696,"39":0.10479830420751181,"40":-0.09652839559012684,"41":0.020916079477440137,"42":0.12640129270237055,"43":0.25842880308151817,"44":-0.051030605019711656,"45":-0.1776088995848973,"46":0.12318679749305374,"47":-0.029226564895202985,"48":0.07867625347377127,"49":0.18126642850678526,"50":0.24437170588843865}},{"sx":1,"sy":1,"depth":51,"w":{"0":-0.019063794427485105,"1":-0.031083628195862998,"2":-0.2262859689283239,"3":-0.028414335817263197,"4":-0.08079663269850876,"5":0.19775391832443093,"6":0.14203300222698514,"7":-0.04676866981404511,"8":0.013980468773461015,"9":-0.0714427221662573,"10":-0.21703797520846138,"11":-0.013709653067469706,"12":0.11329098794073633,"13":-0.22732547909235118,"14":-0.07333421768475563,"15":-0.19435792897479529,"16":-0.04904395954447039,"17":-0.09148373192613661,"18":-0.09184849298240264,"19":0.005015983862403975,"20":0.21459757555372955,"21":-0.07756718350352075,"22":-0.013900137646991358,"23":-0.04131329433087753,"24":0.014884288649175468,"25":-0.04533494868028497,"26":0.169794033139823,"27":0.18507426850461425,"28":-0.048742182022711064,"29":0.026613710920532427,"30":-0.07051106390408865,"31":0.09609034583270934,"32":-0.014123998029253843,"33":0.2731344139932857,"34":0.06603714224622595,"35":0.008661830271803402,"36":-0.07350052634046568,"37":-0.12360899209726957,"38":0.268023493724194,"39":-0.1225118673569167,"40":-0.005748265290629546,"41":0.04450437362463158,"42":0.07020187215154781,"43":0.04222298931071244,"44":-0.18841593073071072,"45":0.17921730693453977,"46":-0.12767944124647862,"47":-0.033108829582438,"48":0.050150173943928546,"49":0.16083980790404612,"50":0.006070018277298951}},{"sx":1,"sy":1,"depth":51,"w":{"0":-0.06912578585790977,"1":-0.024348904679314207,"2":0.05806226922890414,"3":-0.0940825224183452,"4":-0.059215058939545324,"5":0.17021440505624133,"6":-0.49511123916906713,"7":0.12895356078115736,"8":-0.0359662264472394,"9":0.26466591137939793,"10":-0.0025330854714152315,"11":0.07416138291748395,"12":-0.20164066530697278,"13":0.04553463411684611,"14":-0.04144177097656495,"15":-0.008594705871627778,"16":-0.1702664445273614,"17":-0.07606981173083419,"18":-0.16594287819158068,"19":-0.01583127087435522,"20":0.1353481482108348,"21":-0.3515070000008277,"22":0.31549220849465837,"23":-0.10239846694472426,"24":0.19524037976303601,"25":-0.11728111262025978,"26":-0.14714485850890613,"27":-0.12820672900682203,"28":0.0363989167186889,"29":-0.0660163409396108,"30":-0.2613168189855408,"31":0.2257726336444131,"32":-0.04870999504136978,"33":-0.0036168738291350666,"34":0.11842050769685307,"35":-0.009518214135367022,"36":0.10304608442238362,"37":0.06545682466036461,"38":-0.15446025684342765,"39":0.18641291852114464,"40":0.13388523652232362,"41":-0.09685797986048751,"42":0.04318873846964703,"43":-0.21070736536824422,"44":0.1676891548369746,"45":0.025000772990313582,"46":-0.2515667572466164,"47":0.12364558126801424,"48":-0.04008848108233896,"49":-0.031813474242964844,"50":0.2004546650587648}},{"sx":1,"sy":1,"depth":51,"w":{"0":-0.09836526881409592,"1":0.040422338404785825,"2":0.16406685925401465,"3":-0.004123708986935243,"4":0.04478492964453476,"5":-0.04419250102882724,"6":0.07141820636263324,"7":-0.1405315038461766,"8":0.4429481957338053,"9":-0.19021417459608628,"10":0.18776883102094052,"11":-0.12937661343085982,"12":-0.009201263207397972,"13":0.23803510435087918,"14":0.13175535932439839,"15":-0.10937639992655511,"16":0.08790034140217418,"17":0.040264376874927434,"18":-0.08615381162990401,"19":-0.0015167131024834428,"20":-0.06855335635025343,"21":-0.09314029813750224,"22":0.05208819695502212,"23":0.3545085613164358,"24":-0.08574383162620873,"25":0.10251259996767687,"26":0.006301259351123023,"27":-0.09414108971820177,"28":-0.12257061246010913,"29":0.21974541595344405,"30":-0.07757028100744927,"31":0.007833346444235579,"32":0.20064425936340824,"33":-0.11996399847767661,"34":-0.20652975407773444,"35":-0.15854509593608415,"36":-0.13165747140679873,"37":0.19903925587264862,"38":0.009611626370848968,"39":-0.052331041617858134,"40":-0.21812690526912967,"41":-0.07500498089165053,"42":0.16393076178245264,"43":0.051026453616637796,"44":-0.3953563133581841,"45":0.11459961370509643,"46":0.22220426598666673,"47":0.03185037856825197,"48":0.1905217347986254,"49":0.0097398683729916,"50":-0.01915105876037838}},{"sx":1,"sy":1,"depth":51,"w":{"0":-0.14291343805671927,"1":-0.17358575292716177,"2":-0.19525966106451173,"3":0.06498487105076015,"4":0.024787761654947466,"5":0.0005931440443463106,"6":-0.09687629131665959,"7":-0.04063481740384649,"8":-0.2166859966997572,"9":-0.010901494982641861,"10":-0.11140976143974612,"11":0.028201701534293234,"12":0.09739727514617146,"13":0.014835704939989746,"14":-0.05891459859744785,"15":0.14908192838382683,"16":0.1529239537270903,"17":-0.13289471024668315,"18":0.1583148778426265,"19":0.10322874667689197,"20":0.20378120915670225,"21":-0.1891730968845295,"22":-0.005761238129898548,"23":-0.17220927524370522,"24":-0.14683839573660193,"25":-0.07709409494718897,"26":-0.12280540100010612,"27":-0.16446033931477375,"28":0.12484627524493096,"29":0.005350900202926945,"30":-0.003358601559814672,"31":-0.18654174755047365,"32":-0.10031728044276468,"33":-0.06744197051239302,"34":-0.09376917446496026,"35":0.010203318349209727,"36":0.006764463108737762,"37":0.08433824848015531,"38":0.21270107851501793,"39":0.2533923188513411,"40":0.07791104043252416,"41":0.09899104558842825,"42":-0.030477898143751687,"43":-0.08996719302185675,"44":-0.16562225941777245,"45":-0.1563357622359245,"46":-0.051917010827304794,"47":-0.08482567646794101,"48":0.0752602467285722,"49":0.05208495101837729,"50":0.04330866287151653}},{"sx":1,"sy":1,"depth":51,"w":{"0":0.1916321963423398,"1":0.13833359015100966,"2":-0.09524955982524043,"3":0.07168336923311833,"4":0.00300373179706789,"5":-0.17472756264265532,"6":-0.31478808317971724,"7":-0.09342797440142932,"8":0.01315031867268632,"9":0.27695136100816764,"10":-0.10449969526893049,"11":0.10089734364974526,"12":0.05213506874168402,"13":0.10955382558409524,"14":0.003487738995138165,"15":0.24759934249963517,"16":-0.04307584726126025,"17":-0.04136233463185843,"18":-0.14223944410549308,"19":-0.0929704449060001,"20":-0.05324592064795893,"21":0.07215596437531528,"22":0.15498133495994837,"23":-0.027800720643604403,"24":0.03833725604455604,"25":-0.023817990238721127,"26":0.08683624778859823,"27":0.2515909992286638,"28":0.1585237711678947,"29":0.05545146700792694,"30":-0.05947884351244566,"31":0.0653777789373954,"32":-0.0963109331446696,"33":0.048870678294587216,"34":-0.010285909444727376,"35":-0.17055143589864402,"36":-0.025356214099063985,"37":0.0014358330590348361,"38":0.0896683185081924,"39":-0.027099185753013268,"40":0.04805181023353439,"41":-0.06276811305263565,"42":-0.04860499030504696,"43":-0.06772316582738337,"44":0.0002396780099511529,"45":-0.08098505095862854,"46":-0.05328390917742994,"47":0.09785821235838393,"48":-0.05087402923714901,"49":0.04073040584128073,"50":-0.1061301578242209}},{"sx":1,"sy":1,"depth":51,"w":{"0":-0.18449556580866447,"1":-0.17153721733460842,"2":-0.14174888267979435,"3":0.16404895596861732,"4":-0.09147853413217025,"5":0.11760618069657115,"6":0.15726567578771372,"7":-0.0036241095919813276,"8":-0.03968056972356148,"9":0.25483033375332437,"10":-0.0303837430706803,"11":0.13384646512125267,"12":0.08193252553731996,"13":0.01000293751572648,"14":0.15252393655285773,"15":0.08225895988357247,"16":-0.013069237702370744,"17":0.11991221843918017,"18":0.13181860268877835,"19":0.1696188295317853,"20":0.13585658687736515,"21":-0.11014602785161347,"22":0.1839640618003658,"23":0.06710990067757808,"24":0.007810910608723091,"25":0.11915072311503265,"26":-0.18715982284303503,"27":0.13268502901105222,"28":0.1362005657359319,"29":0.24821504776072764,"30":-0.12249812846658245,"31":0.17321017266004768,"32":0.06001431542868156,"33":0.11137750337084862,"34":-0.0795469446921472,"35":0.2910469461432603,"36":-0.04973998686019381,"37":0.03917568323637965,"38":0.24117340677747706,"39":0.03345573775445961,"40":0.17777835451417398,"41":0.24299846768280753,"42":-0.05391186771308316,"43":0.03558100618055686,"44":-0.047129048588670924,"45":0.19828565020699196,"46":-0.16269858781522212,"47":-0.07555096814423375,"48":-0.013787128976029153,"49":-0.04867412572715372,"50":-0.006249050238697417}},{"sx":1,"sy":1,"depth":51,"w":{"0":0.07237287059031149,"1":0.09616387676923316,"2":-0.1626683136162332,"3":-0.18553376466249474,"4":0.03250733397301112,"5":0.0003137731143589453,"6":-0.16953024825804747,"7":-0.1576146959743722,"8":0.3108772092023591,"9":-0.06531244960977262,"10":-0.05270542672874844,"11":-0.09752911515805968,"12":0.06860662056530648,"13":0.18645629137965233,"14":0.061709746785870406,"15":0.11000278823860139,"16":0.007664150658744495,"17":0.0017634680905219107,"18":-0.020161157487129294,"19":-0.013797986596922432,"20":-0.20416607036458292,"21":-0.08039442072003396,"22":-0.03387896973066006,"23":-0.1248848955582637,"24":0.2354958733431953,"25":0.04515261928398116,"26":0.1035409621529862,"27":0.27854967234901884,"28":0.020000395998165457,"29":-0.0150790471258036,"30":0.005294201599193254,"31":0.03536875309615341,"32":-0.0800386671861784,"33":-0.002010568122559205,"34":-0.1195234078664778,"35":-0.014453694172039835,"36":0.11152893298737797,"37":0.02233177360264197,"38":-0.0732445634427249,"39":-0.16924406171328418,"40":-0.32390163626497537,"41":-0.16224924283187492,"42":-0.0031106863911739167,"43":0.00639903131934939,"44":-0.24940368680819675,"45":-0.15353896268856904,"46":0.018446802898762882,"47":-0.007118313259174571,"48":-0.02121295229113577,"49":0.047862781673548654,"50":-0.09338227137138917}},{"sx":1,"sy":1,"depth":51,"w":{"0":0.1493434998608912,"1":0.06915513440099505,"2":-0.2051217860565053,"3":0.13597522308111337,"4":-0.13571509712043933,"5":0.002428995429887738,"6":-0.021596855897962494,"7":0.08475458356638672,"8":-0.1885512831379672,"9":-0.04999502912129089,"10":0.039139885592498834,"11":0.05278119988999434,"12":0.18563438002655996,"13":-0.1665500026864197,"14":0.0327105995362044,"15":-0.07756578214151093,"16":-0.14337667324856007,"17":-0.04476957477510527,"18":-0.0848865086347749,"19":0.18373077502317692,"20":-0.1301119947305478,"21":0.15371117746196863,"22":-0.1374499098896577,"23":0.005071176666080825,"24":0.052781962611158535,"25":-0.042918333140360226,"26":-0.15165962988981638,"27":0.1981411069185216,"28":-0.07641051134894869,"29":0.04876571824288186,"30":-0.09525240719519511,"31":0.1619234842520858,"32":0.1095499434404316,"33":0.07138575805811061,"34":-0.05436872326981293,"35":0.13605671395657692,"36":0.1147628982360804,"37":0.05894774476250522,"38":0.08670515142360961,"39":-0.10423523940137001,"40":-0.005293932758221857,"41":0.3303732505370793,"42":-0.033346249004192904,"43":0.03422164342057109,"44":-0.04740082064225705,"45":0.09474998440975221,"46":-0.17579134375453087,"47":-0.09516104565606881,"48":-0.09942296575737551,"49":0.1296688024629247,"50":-0.089857914088894}},{"sx":1,"sy":1,"depth":51,"w":{"0":0.44906287353466934,"1":-0.16476009985575424,"2":0.013401167566785015,"3":0.006593262479693153,"4":-0.05680241896032359,"5":0.05760679814113048,"6":0.3919929729575037,"7":-0.2020970896073111,"8":0.10269774634203452,"9":0.08875465334846157,"10":0.009465806665052447,"11":0.17975234817204383,"12":-0.20205092738477962,"13":-0.22203229993172774,"14":-0.2934024368655517,"15":-0.2004220093657811,"16":0.04951514207329803,"17":-0.011658165847265367,"18":-0.08886133412991752,"19":-0.0888516828856554,"20":0.05477756957130513,"21":0.06065428311813082,"22":-0.10339241584535293,"23":-0.10925528928458911,"24":-0.005095006938664227,"25":0.10953981404636132,"26":0.0531362185307184,"27":0.07676952265364387,"28":-0.17607878294040552,"29":0.006201257673533064,"30":-0.2450734170911476,"31":-0.2168711203518657,"32":-0.12930850023566998,"33":-0.0023416844080609237,"34":-0.20162812546355063,"35":0.1679790613167368,"36":0.12367057189607458,"37":-0.07485264019322567,"38":0.11362449958132217,"39":-0.00004125344558010488,"40":0.03871808003253812,"41":0.11929541276958824,"42":0.006353590109183276,"43":-0.12838263848988332,"44":-0.00045879234876489773,"45":0.03069507535393645,"46":-0.15831236339313315,"47":-0.26277153530901315,"48":-0.03101931085028866,"49":-0.359202180055089,"50":-0.04885157027009999}},{"sx":1,"sy":1,"depth":51,"w":{"0":-0.0461948707139384,"1":0.0068867123838999575,"2":-0.12284680490723324,"3":-0.11637950137716277,"4":0.14487730521790962,"5":-0.10478640678705306,"6":0.2604432178424788,"7":0.008763794282407058,"8":0.04671354882186752,"9":0.009377397489753355,"10":-0.005093328693933285,"11":-0.017842728113631485,"12":-0.10084875546437468,"13":0.1341733199709342,"14":0.1388244658549604,"15":-0.08389353112139754,"16":0.21105671071528737,"17":0.12315597030519455,"18":-0.08437945055383002,"19":-0.025081252319657195,"20":0.15515293715456507,"21":-0.04784408107104828,"22":0.11521321308163712,"23":-0.046877980658550186,"24":-0.0011934566868030934,"25":0.008465004106325448,"26":0.01167347218519377,"27":0.0555910711004629,"28":-0.21598733175005613,"29":0.04080087486439834,"30":0.06850255362368561,"31":-0.29428795597980695,"32":0.13585300601743386,"33":0.01312719889859656,"34":0.05878604716636208,"35":0.12650820068382004,"36":-0.0603832409461885,"37":-0.0156530489730158,"38":0.2577331573688059,"39":0.07684086282011372,"40":0.1980207573109253,"41":-0.1283649208834318,"42":0.010559521179868808,"43":0.1571285948171461,"44":0.23529122187402196,"45":0.20191655214422063,"46":-0.30901554142983545,"47":-0.20533801974775176,"48":0.1650953612073068,"49":0.00039169189364227346,"50":0.028340754395249874}},{"sx":1,"sy":1,"depth":51,"w":{"0":0.010709652794667705,"1":-0.11018194554579652,"2":-0.16255054409281441,"3":0.0935265687666386,"4":-0.1047369777737405,"5":-0.10053130597187922,"6":-0.3003270083447204,"7":0.015062462189523453,"8":-0.0014532468002683193,"9":-0.27376529298869895,"10":0.19016409106697063,"11":-0.017036498619306666,"12":-0.02309261498426677,"13":0.028875315463369904,"14":0.08515363393061309,"15":0.045461945807726514,"16":0.15861196086403967,"17":0.17155356849163877,"18":-0.09742104138377955,"19":-0.1077972861972234,"20":0.19242679883948877,"21":0.28260041261507646,"22":0.14388221885241023,"23":0.14224437130641587,"24":0.0798054345096694,"25":0.07079851997135987,"26":0.11078657322954918,"27":-0.02531286186084861,"28":0.03812149823400299,"29":-0.08309184295304484,"30":0.11074832448194512,"31":0.048837264521994585,"32":-0.05258276394859135,"33":0.28750680629313624,"34":-0.28500431153400346,"35":-0.08227814383524405,"36":-0.11835469078543691,"37":0.06536322383562751,"38":0.06802278576528073,"39":-0.27974195305996596,"40":0.2538026313143086,"41":-0.13408164263372943,"42":-0.132727561317329,"43":0.015866457152617777,"44":-0.08380533054289911,"45":-0.03392153492100683,"46":0.1200989882201729,"47":-0.18583493321922437,"48":0.16416094238975149,"49":0.052763432086162125,"50":0.035428124375349784}},{"sx":1,"sy":1,"depth":51,"w":{"0":-0.08806863158714034,"1":-0.05478647130198674,"2":-0.28675522961052424,"3":0.009739651784528382,"4":0.0817580755757703,"5":-0.12378209343295572,"6":-0.2790654153271892,"7":-0.1332419869048971,"8":-0.24755000514405384,"9":-0.10639370453219135,"10":-0.17060335241240912,"11":-0.002077336973894825,"12":-0.060595833871502074,"13":-0.04056677122088757,"14":-0.16028386309602907,"15":0.1431060872185629,"16":-0.1686794950683006,"17":0.10368529464113346,"18":-0.2915054782046768,"19":-0.04512429188807955,"20":-0.18408023398280574,"21":0.07891988945523816,"22":0.11815471591948806,"23":0.18311352322054322,"24":-0.07115165757698193,"25":0.05338926151560036,"26":0.002144648798541694,"27":-0.31023574041197144,"28":-0.3156664883083301,"29":0.11982459932056919,"30":0.02317265701937537,"31":-0.10374196088084503,"32":0.0868303156873475,"33":0.15383828722831366,"34":-0.08042760969248058,"35":0.2349039942642136,"36":-0.08871658324498238,"37":-0.031538965757142816,"38":0.20216378585688954,"39":0.1381915664421816,"40":-0.0883183884080529,"41":0.10403234723889927,"42":0.017857064424773438,"43":-0.01430519476171618,"44":0.04410706493723071,"45":-0.03238419617302639,"46":0.09106229025299535,"47":-0.07356332858466222,"48":-0.051132644299892775,"49":-0.08338658105286144,"50":0.17830068302850835}},{"sx":1,"sy":1,"depth":51,"w":{"0":0.028612131514964254,"1":-0.05227734270977173,"2":-0.17732602815031134,"3":0.029947324226307234,"4":-0.27356551010302055,"5":0.12291210220399162,"6":-0.05324247190507029,"7":0.04280924644408462,"8":-0.0681430294721853,"9":0.07604851003680026,"10":0.12774010297079358,"11":-0.10266060551683313,"12":-0.12596322364583504,"13":0.1531844118328046,"14":0.007376627406940118,"15":0.07186987057640676,"16":-0.09141654944354022,"17":-0.021489751566851654,"18":-0.030209307042614063,"19":-0.15731719945718214,"20":0.2756260241977841,"21":-0.034055467067368055,"22":0.09769024971217373,"23":-0.22077094688294138,"24":-0.040997387565850446,"25":0.0069767363867476355,"26":0.11471170718883165,"27":-0.09144926852709427,"28":-0.12878395610299356,"29":-0.30628206128418983,"30":-0.27505322579786096,"31":0.08442323641576542,"32":-0.03499610709552918,"33":-0.09653191950795957,"34":-0.17595123820094968,"35":-0.10278152473757532,"36":-0.23487162361505404,"37":0.11296260791841026,"38":0.0627951532172211,"39":-0.2093043553574589,"40":0.032792668340743965,"41":-0.12109633549534078,"42":-0.14267792986746317,"43":-0.24030585442828262,"44":0.1100690337680572,"45":0.2322645038530252,"46":0.20484102574786514,"47":-0.02565552807781241,"48":0.07773169884956459,"49":0.056108232063883795,"50":-0.07252418591818152}},{"sx":1,"sy":1,"depth":51,"w":{"0":0.12621529355053104,"1":-0.042802242008339285,"2":0.05606422475827153,"3":0.18636845770636226,"4":0.197694804025833,"5":-0.17157383900713158,"6":-0.03638508982865191,"7":0.18062389457762837,"8":-0.0474690842921841,"9":-0.10190381504235983,"10":-0.11858073031002582,"11":0.08885512264247437,"12":-0.11567948563079117,"13":-0.04014956514461696,"14":0.11283779534279496,"15":0.03749080751948066,"16":-0.008334236555969664,"17":0.1354465329024598,"18":0.010869276736502424,"19":0.23200367770622166,"20":-0.008474151883396131,"21":0.11652818583741802,"22":0.11779759628838318,"23":-0.09343394717412333,"24":0.056820603756597754,"25":0.2882608573112692,"26":0.16279000035281777,"27":-0.22943786161207097,"28":0.05490207003907379,"29":0.17745204814005394,"30":-0.27262216676659934,"31":0.13876575984023617,"32":-0.033923066156984434,"33":0.1585935217160759,"34":0.05251997609061836,"35":-0.18842609906291058,"36":0.24502090776367538,"37":-0.08859171583945608,"38":0.06828952623653238,"39":0.06237741171276112,"40":0.047247692650683785,"41":0.11308393478362468,"42":0.009401681286060462,"43":0.08290564470958475,"44":0.07255775449827884,"45":-0.06268895619291182,"46":-0.07711652223592941,"47":-0.12477362277867539,"48":0.04745371039353365,"49":0.033008221110791124,"50":0.08549517526083246}},{"sx":1,"sy":1,"depth":51,"w":{"0":0.0900041039292577,"1":0.3867965319849684,"2":-0.021417360953229787,"3":0.10189267701797959,"4":0.24424989724101576,"5":-0.05908818946719403,"6":-0.07775743916889816,"7":-0.05676446665031413,"8":0.04524631843335231,"9":-0.12168289743060182,"10":0.2395813542339208,"11":0.04601574076338189,"12":-0.01973037770777069,"13":-0.17993991626259512,"14":0.20012207258733283,"15":0.037272783519145515,"16":-0.2880005173642482,"17":-0.039138875691399254,"18":0.1261404430255157,"19":-0.1107856056099289,"20":-0.130030406066647,"21":-0.1074292690507352,"22":0.25113574425882595,"23":0.08516075798728252,"24":0.009555943986814426,"25":0.03240663426322368,"26":0.12995406519438804,"27":-0.08563206521275131,"28":-0.28044239332823734,"29":0.1620674595938114,"30":-0.09081165967568697,"31":-0.21057700294570073,"32":0.23625363120571818,"33":-0.08151942945392139,"34":0.16323390753643455,"35":0.3087510297387907,"36":0.17226317955602322,"37":-0.024499222276813466,"38":0.12277555472905008,"39":-0.2082359306587108,"40":-0.13210225464391206,"41":0.2369392745759428,"42":-0.0960944805636787,"43":0.06603368449558707,"44":-0.15262242937998918,"45":0.07056771248361236,"46":-0.08216205544843616,"47":-0.13091672175651015,"48":-0.007985341538091623,"49":-0.18338898580189597,"50":-0.15768417716566538}},{"sx":1,"sy":1,"depth":51,"w":{"0":0.0037637479883104704,"1":-0.10352432884169203,"2":-0.07690595145199484,"3":-0.047621979794957456,"4":0.010892876493704481,"5":-0.047164860931768054,"6":-0.08558116962774849,"7":0.28498175811074095,"8":0.006278406192011048,"9":0.04309190582089016,"10":0.10984483673018484,"11":-0.07600680961321533,"12":0.21750909996357523,"13":-0.1613482229521277,"14":0.10056820751865142,"15":-0.13230520617987795,"16":-0.14722239452983618,"17":0.12477421594799255,"18":0.06404880302463893,"19":-0.07013871964383606,"20":-0.11026508775884554,"21":0.1846441224807985,"22":-0.04363613752428388,"23":-0.0028644834100852432,"24":0.16958500685391684,"25":0.1546390004295705,"26":-0.07541404224368936,"27":0.08539942897515503,"28":0.024677328102134653,"29":-0.037991414707695605,"30":-0.08018302880674902,"31":0.20875044355887343,"32":-0.32401936604150533,"33":-0.1685379878762204,"34":-0.036160442848254884,"35":-0.01828038132101725,"36":-0.038775209881654525,"37":-0.1581360950099753,"38":0.4010267138008695,"39":-0.07265378754916385,"40":-0.01669802852859929,"41":0.0695905959799,"42":-0.032162580287502046,"43":0.16760491563018318,"44":0.3191526236416091,"45":-0.10818134284135578,"46":0.05124467871857956,"47":0.1244391572394983,"48":-0.004476103856830057,"49":-0.14729550907461356,"50":-0.1901600607639794}},{"sx":1,"sy":1,"depth":51,"w":{"0":0.10762789416407682,"1":0.4635671935164548,"2":0.01841351825956543,"3":-0.07789378868579865,"4":0.1867403454854517,"5":0.014548591112769235,"6":0.13718909655863684,"7":-0.2458749713300926,"8":0.051682548931525664,"9":-0.021635229079723997,"10":-0.2077240665386708,"11":-0.15037554230891592,"12":-0.11901735059660742,"13":-0.25187199677716654,"14":-0.1409845200348267,"15":-0.04354376380370424,"16":-0.07025503687768876,"17":0.007660004766068159,"18":0.0954449069730254,"19":-0.144167176851743,"20":-0.021828405025229262,"21":0.008123469932693148,"22":-0.13436707514310756,"23":-0.2973440891292353,"24":-0.13395047550869293,"25":-0.17469664106989252,"26":-0.16944977803447434,"27":0.230345309388489,"28":-0.011303310520481922,"29":-0.0500468596228342,"30":0.14030748068077328,"31":0.07799433540925098,"32":-0.11157914330198382,"33":-0.014718773855264183,"34":-0.20610439350647225,"35":0.22391850740826877,"36":0.001995702090582152,"37":0.18834269562068315,"38":0.015030867161852963,"39":-0.17629886286103666,"40":-0.0060250537490297695,"41":-0.10848170848384506,"42":0.026881405014793358,"43":-0.12902542541671627,"44":0.09420724162260638,"45":0.22084671827900118,"46":-0.13302678860392633,"47":0.04663305407052575,"48":-0.0054299313170130025,"49":-0.09492896214146856,"50":0.04195076124965688}},{"sx":1,"sy":1,"depth":51,"w":{"0":-0.14072086120747593,"1":0.07829240313562631,"2":-0.02350372218832324,"3":-0.01635622964928326,"4":-0.009842979299021911,"5":-0.012044131544464366,"6":0.22688116415480414,"7":0.0022499213971817517,"8":-0.07656750828319092,"9":0.08036280354019004,"10":0.0406551287193484,"11":0.06815270330059506,"12":-0.15761172779234325,"13":-0.04970514664134164,"14":-0.24555084087003126,"15":0.27344931050795906,"16":0.1972031118241284,"17":0.08961145703557052,"18":-0.2175801141985431,"19":0.1472192667493633,"20":-0.010805511325413948,"21":-0.07256946020539319,"22":0.1071312670886846,"23":-0.04391536387014701,"24":-0.12456273095845642,"25":0.11048158170202399,"26":0.005496278740195431,"27":-0.045782485382852796,"28":0.08810435098797875,"29":0.16091987329591964,"30":-0.020845276663619322,"31":-0.12803134106361194,"32":0.11153466488344585,"33":0.1816377834826081,"34":0.26684685179026224,"35":-0.013292189112989917,"36":0.133808522042936,"37":-0.1286638320638948,"38":-0.08142549629234519,"39":-0.1401104647630747,"40":0.042835327795410764,"41":0.0809559013304528,"42":0.28833046611609436,"43":0.10281014044533583,"44":-0.14778177636580028,"45":0.04245342121339028,"46":0.10380600704130849,"47":0.1387234949171126,"48":0.08231967325287709,"49":-0.0027948280754726343,"50":0.36745920501019885}},{"sx":1,"sy":1,"depth":51,"w":{"0":-0.0907744435102252,"1":0.017020144641069535,"2":-0.02292349612479376,"3":-0.09437266015652741,"4":-0.08215596027223586,"5":0.05125270182097517,"6":-0.1278695243598822,"7":0.00635632281486814,"8":0.018150709213067884,"9":0.08780093728774935,"10":0.15997463619365207,"11":-0.1384501954117979,"12":0.00783675584963716,"13":0.11583893413887641,"14":0.20708568926375268,"15":0.000601143536220788,"16":0.1147228569269609,"17":-0.13407107047892394,"18":0.05154143456878893,"19":0.019916486625016182,"20":0.1420852856547705,"21":-0.15988156432980832,"22":0.28155307438625915,"23":-0.19074148798252047,"24":0.0702796289571777,"25":-0.17240728529858967,"26":0.16243843471881309,"27":-0.10494663760066765,"28":-0.1427818270660601,"29":-0.2580486513351132,"30":0.006237083761787193,"31":-0.061377297301112896,"32":0.013470772793798052,"33":-0.35248346189872143,"34":-0.016280991705644697,"35":-0.15788525812887189,"36":0.1387058981287746,"37":-0.08082923936492313,"38":0.21754196820197894,"39":0.05628149369535469,"40":-0.09441585701685254,"41":0.03821126968116795,"42":0.10313069963418557,"43":-0.022531083178183347,"44":-0.13545742547434786,"45":0.16038656664765097,"46":-0.02802615310510978,"47":-0.045731581358271496,"48":0.08124724482100491,"49":0.011002915462114708,"50":0.04003190604406259}},{"sx":1,"sy":1,"depth":51,"w":{"0":-0.10843750763426718,"1":0.20086186455266225,"2":0.026535288733561656,"3":-0.10266400338187975,"4":-0.2799550968682942,"5":0.10719185115951509,"6":-0.1843487964113083,"7":-0.08759225133010454,"8":-0.15784462924241238,"9":-0.00320003916482514,"10":0.12932574672174865,"11":0.07060666842300742,"12":0.10120414500688216,"13":0.1438842182687988,"14":-0.14146303379467218,"15":0.19186367626325043,"16":0.0876045961610145,"17":0.006881465123803291,"18":0.2133833957026659,"19":0.07339394296844297,"20":-0.094176284999061,"21":0.2125793077552701,"22":-0.004148139557484271,"23":-0.184153883050793,"24":0.34933942439685245,"25":-0.22751264395041615,"26":-0.12968511309403577,"27":-0.15037610252265599,"28":-0.25720842098771063,"29":0.003961475045915146,"30":0.07338886996031042,"31":-0.15670390279034843,"32":-0.061302464575705845,"33":0.002476270206251901,"34":0.2414704572205434,"35":0.18036630495527653,"36":-0.3252884212446005,"37":-0.009135027809475718,"38":-0.10519764144223179,"39":-0.09081858636674826,"40":-0.0023131910517258506,"41":-0.2627035841277146,"42":-0.3625952680811839,"43":-0.009554802966583236,"44":-0.2727717961772549,"45":-0.12260365259248325,"46":-0.027295678722141455,"47":-0.06758663810761144,"48":-0.0015032358138250975,"49":-0.0730418923137013,"50":0.18473359193288616}},{"sx":1,"sy":1,"depth":51,"w":{"0":-0.08011504379304675,"1":-0.08136437205044307,"2":-0.263932747008817,"3":0.07654028161681715,"4":0.020984172013810597,"5":0.019374846522700693,"6":-0.006084954606372265,"7":-0.09861445179873787,"8":-0.07733802616992737,"9":0.21619752283415242,"10":0.10798382905292188,"11":0.13117312136182332,"12":-0.05254736224349487,"13":-0.03106618593060331,"14":0.1999176254091544,"15":0.260450470574466,"16":-0.09875010648539745,"17":0.09457789370988999,"18":-0.12076041045812412,"19":-0.04299606701929108,"20":0.2735686721222159,"21":0.12310403521850484,"22":-0.14569334066408918,"23":0.09477246281238377,"24":-0.03428179647884574,"25":0.20409950568446453,"26":-0.2278084446742904,"27":-0.13704095345144457,"28":-0.3832874827885526,"29":0.1353520340143168,"30":-0.2152143167094106,"31":-0.2400301281086041,"32":0.029196744333436483,"33":-0.0817642173100119,"34":0.10376752841917136,"35":-0.07357072784352472,"36":-0.08837429538999121,"37":-0.28878875679358496,"38":0.1305421271097512,"39":0.22063986542855096,"40":0.1372688534320149,"41":-0.04634694513625455,"42":0.06914129978876578,"43":-0.10111032293308549,"44":-0.3873603078359059,"45":0.04662081780340672,"46":0.022274271084163404,"47":-0.434260196994436,"48":0.1875978021984328,"49":-0.10448845092041989,"50":-0.014723094354902672}},{"sx":1,"sy":1,"depth":51,"w":{"0":0.09557753480716553,"1":0.10639710691250982,"2":-0.15704069753256938,"3":0.013674540276934256,"4":-0.015032252310075324,"5":0.1425968624014238,"6":-0.15157548217404546,"7":0.13171825999861111,"8":-0.007516202118523701,"9":0.14783540349076202,"10":0.019310360812195147,"11":-0.25322808592577334,"12":-0.015389835205006667,"13":0.020107931204260035,"14":-0.017687365452589983,"15":-0.04054371626611991,"16":0.02865213384634356,"17":0.008822868558251084,"18":-0.04429206133561034,"19":0.18267913645871525,"20":-0.15966968560258776,"21":-0.07339858945163097,"22":-0.03995871756737464,"23":0.055217323584590285,"24":-0.07764843269109828,"25":-0.010767175188984021,"26":0.21096863957428114,"27":0.18772539728743415,"28":-0.033694742987505195,"29":-0.07358009042687916,"30":0.05073674950554775,"31":-0.07641501784147345,"32":0.37897660293512914,"33":0.21342367001609833,"34":0.04125739992685019,"35":0.05812481445832726,"36":0.08432032800344658,"37":-0.07545868016716535,"38":0.04182203705491496,"39":0.0565076248309348,"40":-0.04439985746254838,"41":-0.16485046145797955,"42":-0.03421175064264241,"43":-0.07293954789917352,"44":0.07414027576074031,"45":-0.09192152944482791,"46":0.08143071486275484,"47":0.2313799570370858,"48":0.14248828476955974,"49":0.09859763719593674,"50":0.03386857965309406}},{"sx":1,"sy":1,"depth":51,"w":{"0":0.14176589293736888,"1":-0.06648447964968952,"2":0.13950858991817677,"3":-0.043655538765304744,"4":0.06117502820416348,"5":0.07565019937639829,"6":0.06542082302956104,"7":0.1711652946133654,"8":-0.04274027785012221,"9":0.08433016066900657,"10":-0.019619793190746315,"11":0.0030886977397301743,"12":-0.03452171901138529,"13":-0.19258447640523024,"14":-0.027914069912581933,"15":-0.036982114084554686,"16":-0.09763393266048291,"17":0.010271663539757692,"18":-0.02270568165849782,"19":-0.12244353767274983,"20":-0.034506877087343325,"21":-0.005558860873359331,"22":0.0001899439188530315,"23":0.2058840453906057,"24":-0.0040505487123932435,"25":-0.20134760620554637,"26":-0.007912888311248655,"27":-0.10146262398624994,"28":0.1012040767556233,"29":-0.11587017176099962,"30":-0.07821881509000396,"31":0.29297601292822256,"32":-0.1815267745435154,"33":-0.06576268683933789,"34":-0.028329649687887783,"35":0.027901509971861985,"36":0.2252737029374132,"37":-0.10929640923193691,"38":-0.07253896731428094,"39":0.05850435064467013,"40":-0.07893000432811664,"41":0.044351308542690225,"42":0.05887929414478433,"43":0.031360011785918546,"44":0.10327662123182257,"45":0.00668227371234011,"46":-0.03351699056098802,"47":0.2031965817412625,"48":-0.22135701394014873,"49":0.21969922085785198,"50":-0.04616358046381558}},{"sx":1,"sy":1,"depth":51,"w":{"0":-0.046184396488343764,"1":0.07412976945564347,"2":-0.1711967316639327,"3":-0.13532161147289717,"4":-0.2550975102865073,"5":-0.09469731422102494,"6":0.23183969345759634,"7":0.09320160253527623,"8":0.02894835544730066,"9":-0.025029051832953984,"10":-0.10587279387853281,"11":0.05118172269544409,"12":-0.10071246526902047,"13":0.09216784982280243,"14":-0.20445414557295324,"15":-0.23365149245990743,"16":0.04382009606075511,"17":-0.031579221203710976,"18":-0.004678205610599218,"19":-0.007661234021961585,"20":0.1994529486628346,"21":0.06523395479188658,"22":-0.02987129433696064,"23":0.0643615548843229,"24":-0.047894356929567596,"25":0.23626454301264255,"26":-0.08592812598055136,"27":0.04623715546969915,"28":0.025754431170601548,"29":-0.26836095364550333,"30":-0.020991792953257794,"31":-0.02389371249808111,"32":-0.01837850793538625,"33":0.15509681330314756,"34":0.23820061997151085,"35":0.0025133578205018877,"36":0.11199485540861576,"37":0.04023501908192293,"38":0.10948434505740204,"39":-0.0592503193395361,"40":-0.2046432070328747,"41":-0.23428807137480165,"42":0.0307862856350897,"43":0.20873583881935598,"44":-0.039709447831825846,"45":-0.10490659350057922,"46":0.14373932093224928,"47":0.147609270616393,"48":-0.08889817320381663,"49":0.06215119705733737,"50":0.259080704197053}},{"sx":1,"sy":1,"depth":51,"w":{"0":-0.08303663482147922,"1":0.03474391808565107,"2":0.09431893616424916,"3":0.005788930952017298,"4":0.002111432389246074,"5":-0.11465469338436662,"6":-0.014843042700793653,"7":-0.08803160733684624,"8":-0.0591530905049993,"9":0.052253723786895814,"10":-0.1048705369585972,"11":-0.05588979215174578,"12":-0.009189971719437013,"13":0.13026899247255735,"14":0.060014039879721134,"15":-0.025537285824616323,"16":-0.3183690837459625,"17":0.170346948397077,"18":-0.16433455646627879,"19":-0.11457413438183893,"20":-0.14477479625205472,"21":-0.10570165955811492,"22":0.09873116822096879,"23":0.10488778277778867,"24":0.02755058576497722,"25":0.0241924664183819,"26":0.18219529715231467,"27":0.061151416688373435,"28":-0.34640243861728476,"29":0.13110516244201553,"30":0.04592377072282309,"31":0.07367172058041913,"32":-0.2874932793910398,"33":-0.0838387704683287,"34":-0.03388409246273413,"35":-0.016947464966186928,"36":-0.1785961824852955,"37":0.07097271091506265,"38":-0.04477582367749649,"39":-0.015564756701838448,"40":-0.03915593636981051,"41":0.023533480319418168,"42":0.20647719693636704,"43":0.13966094682493563,"44":-0.05220570778779115,"45":0.01626670216952619,"46":-0.13020441309872913,"47":-0.04859169949331573,"48":0.15069618638434013,"49":0.002905229531014566,"50":-0.1048519777817211}},{"sx":1,"sy":1,"depth":51,"w":{"0":-0.10591143517019692,"1":-0.14138743541045423,"2":-0.1965675647359426,"3":0.15967153362175715,"4":0.3225304957321339,"5":-0.09980451942266731,"6":0.0933750615623336,"7":-0.02348608545648617,"8":-0.2500344460812106,"9":-0.10276267878386194,"10":0.20126299572421794,"11":0.2067425801574774,"12":-0.041726103183801606,"13":-0.2279277779442291,"14":-0.026079250529531733,"15":0.03297645754696818,"16":0.13626167649098692,"17":-0.24073912462388986,"18":0.049179731903764796,"19":0.2556794024950206,"20":0.1670664534408922,"21":-0.30806542087422156,"22":0.03294299969691495,"23":0.12669375529578403,"24":0.17518348022811303,"25":0.030515637186919502,"26":0.063894921264918,"27":-0.2055998156360924,"28":0.17604571350016066,"29":0.007897446745414208,"30":-0.030315290094288894,"31":-0.17251970479392637,"32":0.255880765217171,"33":0.28178244702746313,"34":-0.039800647621944546,"35":0.0762542475104939,"36":0.14136938581225225,"37":0.09232228669151243,"38":-0.11420691189524397,"39":0.039336788094511535,"40":-0.033982465559931306,"41":0.02794559099289482,"42":-0.24337643245103383,"43":-0.09345076682353243,"44":-0.02295409128132172,"45":-0.04262709680071942,"46":-0.03730723228037635,"47":-0.04487018203046061,"48":-0.00847469753700282,"49":0.028529170702746225,"50":-0.09576739447311661}},{"sx":1,"sy":1,"depth":51,"w":{"0":0.11057728250622517,"1":0.37247032299788574,"2":-0.09477146242202648,"3":-0.11223419889960752,"4":0.15508360468606525,"5":0.037102795397009336,"6":0.08538557438393767,"7":-0.13553373556897436,"8":-0.018402204231226366,"9":0.18305852155767843,"10":-0.018087817182577945,"11":0.0547768018767981,"12":0.14000501281151378,"13":0.07889786674236225,"14":0.01848247459503638,"15":-0.0030316993450883595,"16":-0.0008830609581561166,"17":-0.28523182321007795,"18":0.2691113279379837,"19":-0.12062110505110417,"20":0.0997600711620587,"21":-0.019413235330903757,"22":0.21040341661399656,"23":-0.035981320543435724,"24":-0.11486319758694397,"25":0.054115870734413395,"26":0.003445993069657684,"27":-0.16083498105987767,"28":-0.12171576624398875,"29":0.35399557468079057,"30":0.06869305017522673,"31":-0.010506984041378132,"32":-0.0691379338676938,"33":0.18615925642782175,"34":0.0814698287266994,"35":-0.05096006377679777,"36":-0.00131250844889484,"37":-0.015964992507715152,"38":0.011548326190673941,"39":0.04778857033085392,"40":0.20636604129598737,"41":-0.056411044460770964,"42":-0.17615397811579941,"43":0.11257101518148871,"44":-0.34198821690983316,"45":-0.19999031747352664,"46":-0.018577483677592373,"47":-0.044388442553201755,"48":-0.11364214337084555,"49":-0.10663925203181818,"50":0.06756318582624217}},{"sx":1,"sy":1,"depth":51,"w":{"0":-0.036896914638788046,"1":-0.030122537628331038,"2":0.14071620400961754,"3":-0.148887860278794,"4":-0.0990967446853183,"5":-0.1003164292868165,"6":-0.22286829823008447,"7":-0.015364487668994585,"8":0.062195144217922514,"9":0.11593413209983358,"10":0.05152351185428571,"11":-0.0024598427438328996,"12":0.02537444381215239,"13":-0.23757506056223965,"14":-0.18629693308173093,"15":0.030597863446615248,"16":0.09556703023750926,"17":0.10168281546051837,"18":0.01330501231591835,"19":-0.155838944215493,"20":-0.106485426791025,"21":-0.07737152092260595,"22":0.036740207001158515,"23":0.1951145538098852,"24":-0.006870058938463829,"25":-0.028590876093011825,"26":0.20288827988744065,"27":0.08826549515401796,"28":-0.14535286684407464,"29":-0.13100332405833454,"30":0.16272757073360747,"31":-0.12555016828410553,"32":-0.001830616827650248,"33":-0.041169863647982606,"34":0.24747282452995745,"35":-0.015571361554641786,"36":0.08683514638483271,"37":0.0683864707027305,"38":-0.008958046238172026,"39":-0.08447640506257116,"40":0.025532247392358928,"41":0.08464208862136732,"42":0.27775048641265127,"43":-0.011599892551694444,"44":-0.20583381188141345,"45":-0.007522223489925154,"46":-0.011106333380286203,"47":-0.01791569169502664,"48":0.10671294017031563,"49":-0.1018452762693351,"50":0.1286267731254371}},{"sx":1,"sy":1,"depth":51,"w":{"0":0.08131322454828627,"1":0.02641020247466109,"2":-0.1140991358289085,"3":-0.138308848820506,"4":-0.013139943866219654,"5":-0.12536821691226036,"6":0.045862515834319016,"7":-0.10871224640140166,"8":0.12914277634818666,"9":0.1433052074135768,"10":-0.21594264474617592,"11":-0.14251188749376303,"12":-0.020994988108639562,"13":-0.0039663720049472155,"14":-0.11833408121315087,"15":-0.04004865316682892,"16":0.2304484196088731,"17":-0.021408008336069314,"18":-0.010912543633602083,"19":0.0648622057201997,"20":-0.0690696497331921,"21":-0.0674096530122539,"22":-0.22604892191671294,"23":0.009249514341992473,"24":-0.17625997046014336,"25":-0.08571002432404931,"26":-0.058923585594582696,"27":0.10088693099694794,"28":-0.20555926396805257,"29":0.007196594975246763,"30":-0.1290898258336753,"31":-0.0031930900929730307,"32":0.041378301370082776,"33":0.2345788377247218,"34":0.12615290686621114,"35":0.04486867113712242,"36":-0.06234095057912707,"37":0.13404972136153648,"38":-0.0030962506725763068,"39":-0.0919988684024458,"40":-0.11291921190287287,"41":0.01386411505088734,"42":-0.09844649236226556,"43":0.1332896118973067,"44":0.25925862487326207,"45":-0.23980411471140142,"46":0.16868053086519694,"47":0.06430415412516013,"48":-0.2901342962195256,"49":0.05631048258162556,"50":0.2032693811695022}},{"sx":1,"sy":1,"depth":51,"w":{"0":0.09374811021860183,"1":-0.04497523287166459,"2":0.21042130491758465,"3":-0.006403266714202048,"4":0.09274962559068989,"5":-0.03394828212527992,"6":-0.0904455152781531,"7":0.0972047735930633,"8":0.14751016231568165,"9":0.12069172787619412,"10":-0.015249798819016907,"11":-0.13202010171408726,"12":0.08964484404690536,"13":-0.20318692687989326,"14":-0.11002224686568299,"15":0.08727168987036926,"16":-0.030567283861675676,"17":-0.0530003952905157,"18":-0.1432238747492679,"19":-0.3132101211205998,"20":-0.15782868839678474,"21":-0.15697525527832246,"22":0.08092700722700565,"23":-0.10990829527775424,"24":-0.06107972032789951,"25":-0.20577749383285057,"26":-0.06553162117017557,"27":-0.038908941615899334,"28":0.007150395692632044,"29":0.1454837729922829,"30":0.11308001682581303,"31":-0.3299468280434415,"32":-0.11461125296730346,"33":0.07598533555471641,"34":0.10764036140710595,"35":-0.0722508289218821,"36":0.1539506861949428,"37":0.1356629138544671,"38":-0.0641726106009133,"39":-0.039555084391511786,"40":-0.13326238846837427,"41":0.0423705120614779,"42":-0.06606188619565162,"43":-0.1287848958532534,"44":0.009299540896793588,"45":0.11165871652457672,"46":0.0843290358062834,"47":0.02106283167374186,"48":-0.04929398691386811,"49":-0.11402661327685792,"50":-0.17590673591639844}},{"sx":1,"sy":1,"depth":51,"w":{"0":0.09439346369766728,"1":0.23013182553965678,"2":-0.13159139134188966,"3":-0.0300281923829521,"4":0.07427111470628917,"5":-0.18917706095404638,"6":-0.006581978392016391,"7":0.06734305903867131,"8":0.16850159252938643,"9":0.14666566591467348,"10":0.18479408272505937,"11":-0.19191674221048435,"12":0.018428544429505988,"13":-0.05482278430913181,"14":0.3021241378401668,"15":0.01046027319931669,"16":0.024648404485868785,"17":-0.07890141687636945,"18":-0.14512658428765624,"19":-0.15992469488803196,"20":0.13564500606397498,"21":-0.008128538604030114,"22":-0.07397073592228422,"23":-0.014652976100770872,"24":0.014832429704667572,"25":0.11366659459286374,"26":-0.0062731746673086106,"27":0.17292441670721814,"28":0.15108670410216382,"29":0.05161874762924593,"30":0.10048934617088796,"31":-0.10192294607351389,"32":-0.01270365462759746,"33":-0.0435711299433993,"34":-0.1341283933284714,"35":0.09128657442680739,"36":-0.16716491564017982,"37":-0.025229155056496283,"38":-0.1090997757372998,"39":-0.1507494382911536,"40":-0.03653009038055071,"41":-0.05184040789720288,"42":-0.17627224729923122,"43":-0.298373942674753,"44":0.163360403464072,"45":-0.06390614232587505,"46":0.21017378491115515,"47":-0.00783365519311805,"48":0.1643657522214722,"49":-0.18695703063008343,"50":0.23981187546166707}},{"sx":1,"sy":1,"depth":51,"w":{"0":-0.25477075873246435,"1":0.04632034540891059,"2":-0.01338337781330994,"3":-0.14586628312820596,"4":-0.158359626185469,"5":0.050283859576673445,"6":-0.16013960637470695,"7":0.0036390066129213233,"8":-0.033103679896854164,"9":0.07291914930462487,"10":-0.12101005632163005,"11":-0.0640151918463166,"12":0.19596047616370654,"13":-0.25092947145155614,"14":-0.06135063282686168,"15":-0.02246129040265032,"16":0.03582594285400979,"17":0.07055145801399561,"18":0.11466549514286371,"19":0.17429176656814213,"20":-0.15268114245671974,"21":-0.07750332682390296,"22":0.07690377045236696,"23":0.028071458949465607,"24":-0.2121512503316909,"25":-0.010568774640617083,"26":-0.07235039456992914,"27":-0.07075668093230608,"28":-0.2033297293674301,"29":0.009484087575340392,"30":-0.09233878970523095,"31":0.0483732165437135,"32":-0.04736509577208509,"33":0.023691567773145242,"34":0.13586215155382658,"35":0.14890441989787323,"36":0.18239378500357653,"37":-0.00024369979468738399,"38":0.12736797897646504,"39":0.02431642565002991,"40":0.07629177802485596,"41":-0.07913521850011201,"42":0.12929729456283753,"43":0.23047985186723477,"44":-0.08026659310591219,"45":-0.09630915029409867,"46":0.06850211826452493,"47":-0.031239141314715904,"48":0.24091044614895413,"49":0.10999465868719757,"50":-0.03059598805919432}},{"sx":1,"sy":1,"depth":51,"w":{"0":-0.027592035236271698,"1":-0.1853636411904821,"2":0.21873890688326103,"3":-0.05621740530224286,"4":0.27717083453314634,"5":0.009675893622354033,"6":0.15368579487170778,"7":-0.02619690895340437,"8":-0.017563446490833922,"9":0.11448008369029491,"10":-0.027577585029762815,"11":-0.23199881638658174,"12":-0.1647906351122034,"13":-0.1482324339064759,"14":0.22367786583513033,"15":-0.26141872596536003,"16":0.04828818566046173,"17":0.06766600766401842,"18":-0.2263516968912352,"19":-0.03878385407528587,"20":0.21300333976782043,"21":0.023576036507025215,"22":0.2733881608806861,"23":-0.006482625463296529,"24":0.27763924751208663,"25":0.13401729071249913,"26":-0.08032209663835645,"27":-0.07491077583454517,"28":-0.11389253007433119,"29":-0.22536737360490494,"30":0.06911035440103144,"31":0.09062187724465076,"32":0.3113884029228441,"33":-0.10133439448836774,"34":-0.19070007497269967,"35":-0.026094517304627907,"36":-0.12681769352388184,"37":0.13764846506517592,"38":0.0516297055624963,"39":0.08164491053873787,"40":0.1456245017244269,"41":-0.12604562687885376,"42":-0.04100137848634109,"43":0.04135903521666303,"44":-0.011740245732125025,"45":0.13295336992477472,"46":-0.18321657588924056,"47":-0.17243247633963502,"48":0.21445168392598205,"49":-0.03172935755818209,"50":-0.12219173898141261}},{"sx":1,"sy":1,"depth":51,"w":{"0":0.07748272940731998,"1":-0.2532397785225267,"2":0.09946976094516234,"3":-0.0017321729990147122,"4":-0.000017134826134585135,"5":0.12196444704452988,"6":-0.00835710653897109,"7":-0.21467840508298722,"8":-0.2181277068736708,"9":0.12805730575030222,"10":0.15862727602440588,"11":-0.05613479169165504,"12":-0.10832206225412466,"13":0.04195754641629891,"14":0.23974199208543984,"15":0.26045981383395217,"16":-0.13937118508597085,"17":0.004631933073244614,"18":0.1691722287092557,"19":0.16470110788316694,"20":-0.029443676069881308,"21":-0.07091154406474641,"22":-0.046802346277043896,"23":-0.09462349429716932,"24":0.10988130550117195,"25":-0.1459082524273388,"26":-0.17712175719440926,"27":-0.18879917661007886,"28":0.34122727126063174,"29":0.038399995666918256,"30":-0.06032715565063526,"31":0.022768871647713518,"32":-0.12793254155786504,"33":-0.06677450409036058,"34":0.05427882622378388,"35":-0.05165754593393683,"36":0.0038605968810348163,"37":-0.05273039710453286,"38":-0.015903535907912728,"39":0.046451758685418475,"40":-0.12428582005831568,"41":0.136586316279597,"42":-0.13399068240305254,"43":-0.04919613825620819,"44":0.08245979092772494,"45":-0.13971531816769328,"46":0.1773014672878465,"47":-0.0914293762691629,"48":0.00721281695259061,"49":-0.2518248724276667,"50":-0.10120542667754216}},{"sx":1,"sy":1,"depth":51,"w":{"0":-0.007251751061701567,"1":-0.04495118198984082,"2":-0.046413252637870224,"3":0.0855986042336095,"4":0.12561254856189683,"5":0.1653659791353142,"6":-0.04318158379937107,"7":-0.002007000417342812,"8":0.03740952302149282,"9":-0.09699354341792643,"10":-0.22856692465235562,"11":0.056513030429405704,"12":0.07458518257134564,"13":0.05207758455010277,"14":0.00020239594299691126,"15":-0.19846940716654413,"16":0.16142948911575192,"17":-0.21329350814219789,"18":0.13298668856004467,"19":-0.05292769046460181,"20":0.09863160429412376,"21":-0.02951329550687892,"22":0.07232417143033829,"23":0.015213273766620319,"24":0.1749071120497312,"25":0.2071756700310914,"26":0.016411210775578076,"27":-0.06691160395094096,"28":0.00966896022545141,"29":0.07212761407826125,"30":0.06445737853164056,"31":0.10257597487276035,"32":0.11828429348900847,"33":0.04999803851252313,"34":-0.07138914823273118,"35":0.005510255680060743,"36":-0.08264280072620817,"37":0.054507194657609184,"38":0.05001887286087005,"39":0.01825161737766029,"40":-0.15461808944049016,"41":-0.1550270952392783,"42":0.06972094920642155,"43":0.019274305555583408,"44":0.25628300821849925,"45":0.337664957811857,"46":-0.11029690207867943,"47":0.06610930035866232,"48":0.14046414306411892,"49":-0.034475643819877284,"50":0.21093456196492658}},{"sx":1,"sy":1,"depth":51,"w":{"0":-0.05073526873127335,"1":0.2577624518950824,"2":-0.09958879085965816,"3":0.06496124253903719,"4":-0.04967703315962453,"5":0.07762091476429621,"6":0.1400933575267933,"7":-0.029013651785888075,"8":0.18610064379126556,"9":0.13436681559360864,"10":0.084184803363787,"11":-0.08359479046930848,"12":0.00444718019674983,"13":-0.20185629649902023,"14":-0.0660352491627366,"15":-0.010147968125035205,"16":0.12574392829355524,"17":-0.19404687010479,"18":-0.13738583683813682,"19":0.018849516984913193,"20":0.06118048556025994,"21":0.14494822289584985,"22":-0.2432787988490099,"23":-0.3726543683133979,"24":0.017753425467431087,"25":-0.0640844042464178,"26":0.28032024998330063,"27":0.29409384009706047,"28":0.18903163893488162,"29":0.043097819515588685,"30":0.0890027146788036,"31":-0.07267148659231817,"32":-0.03102318553100735,"33":-0.01656854885381134,"34":0.2992774208814174,"35":-0.01838650895503219,"36":-0.044669869194279295,"37":-0.06328255652852982,"38":0.02084576382659234,"39":0.10245573283718279,"40":-0.08823633204334899,"41":0.08632638398714546,"42":-0.1732513927881517,"43":0.33962545268771327,"44":-0.36098265127339313,"45":0.11447392908501781,"46":0.055854818343777965,"47":0.1876843739583366,"48":0.1561317901824294,"49":-0.1464420034019055,"50":0.09058207565812108}},{"sx":1,"sy":1,"depth":51,"w":{"0":0.3131447100943781,"1":-0.09792654939873298,"2":0.06993212249890263,"3":0.14765034585814912,"4":0.20915422301372702,"5":0.29531288563355673,"6":0.12128198631827235,"7":-0.1050655293816318,"8":0.1011246898618362,"9":0.1039226820068137,"10":-0.10945539810784256,"11":0.05656822075587846,"12":-0.08448174313697196,"13":0.0673713632614182,"14":-0.12533292740568494,"15":0.10017247949536144,"16":-0.08550083492772574,"17":0.2224222132870739,"18":0.10471066206770738,"19":0.02814461043425517,"20":0.012979651053040562,"21":-0.029595900073087364,"22":0.12385458089190242,"23":-0.019776879684942694,"24":-0.18945319439291675,"25":-0.11114208348054555,"26":0.15970536034850846,"27":0.009687790875410074,"28":-0.06966941609356626,"29":0.17628200963587756,"30":-0.1419737242834975,"31":0.025191910368985625,"32":-0.24049307705042172,"33":0.014831876022632319,"34":0.042622345450044063,"35":-0.03695597856800168,"36":0.3325755835415327,"37":-0.11407928889292888,"38":-0.12692313180813522,"39":-0.029206095895319282,"40":-0.07740365329580844,"41":-0.140062258559324,"42":0.08264809766269957,"43":0.10488016395130208,"44":-0.0883221377860199,"45":0.16626547060805966,"46":0.18044738011920833,"47":-0.01639057871350104,"48":-0.0030244716149505136,"49":0.1508385881697896,"50":-0.16943482551226885}},{"sx":1,"sy":1,"depth":51,"w":{"0":-0.07524934879877368,"1":-0.14953173616674248,"2":0.014890464588176716,"3":0.040986880915646916,"4":0.009515988628984458,"5":-0.07024643080127077,"6":0.07310358272843544,"7":-0.1636624550335832,"8":-0.16983164412315396,"9":-0.0076370739768836906,"10":0.017320326399836574,"11":-0.09826187817095261,"12":0.043573021277214116,"13":-0.07423796256686599,"14":-0.20807528253818802,"15":-0.0510656343574004,"16":0.11800708432711071,"17":0.05486374976527607,"18":0.2217564790445282,"19":-0.06821461817374802,"20":-0.3071313881488367,"21":-0.06491520257733864,"22":-0.07118537760646373,"23":0.1527077613342891,"24":0.10768239818537859,"25":0.12793281223017888,"26":-0.11193897555452784,"27":-0.06485940049266707,"28":0.017350735870115357,"29":0.10726263242279564,"30":-0.021648596024315986,"31":-0.22363526368186643,"32":0.18804728441366095,"33":0.0870311939306447,"34":-0.12689853173306878,"35":-0.035558549608151774,"36":0.019610082275306147,"37":0.14250442540105987,"38":0.17040206275365136,"39":0.027121892971892936,"40":-0.17156348673732016,"41":-0.06063482325208414,"42":-0.20844493260669725,"43":0.1876974511810873,"44":0.11441999941359268,"45":-0.35665183718133625,"46":-0.12795387283302748,"47":-0.09526141356656007,"48":-0.011350799723659183,"49":-0.1855357263674271,"50":0.044511698801426816}},{"sx":1,"sy":1,"depth":51,"w":{"0":-0.1541117853743581,"1":-0.10285360089983911,"2":0.3484004645048351,"3":-0.10823521795646279,"4":-0.08698070457971055,"5":-0.12873425531035287,"6":0.06398639512003707,"7":-0.1831743973504527,"8":0.0071357880051820255,"9":-0.1947882618317271,"10":0.09168776659856856,"11":-0.1373757864670681,"12":0.13186963318278394,"13":-0.016613630398459853,"14":-0.023789422296054654,"15":0.13767918629040157,"16":-0.006463719988232615,"17":0.06350194517705289,"18":-0.059042418732088105,"19":-0.10167385851883272,"20":-0.14836137376534525,"21":-0.05023944865019488,"22":0.029349476306219258,"23":0.22308733556529386,"24":0.05918243990585922,"25":-0.06335776370602751,"26":-0.04721794485799169,"27":-0.09050648808823691,"28":0.12391630290294367,"29":-0.08221585676128643,"30":0.09292741460059913,"31":0.01426348662319822,"32":0.18338951008143886,"33":-0.16320447597088222,"34":-0.03281198829640941,"35":-0.01878818722976631,"36":0.04678558481096405,"37":0.14698750635835417,"38":0.06518547681016378,"39":0.3229315455021417,"40":0.028441626588592703,"41":-0.06373346831906843,"42":-0.2912903225927825,"43":-0.01745513147159112,"44":0.2512732112633881,"45":-0.015467617307830117,"46":-0.009253151499713954,"47":-0.06040527363039101,"48":0.20426583604390808,"49":0.2062255833070197,"50":-0.19887820558425184}},{"sx":1,"sy":1,"depth":51,"w":{"0":0.10683073193439308,"1":-0.023579159795968987,"2":-0.11704283519587606,"3":-0.08692510083136715,"4":0.11031365574375968,"5":0.26228068692504775,"6":0.05884802444274731,"7":-0.1408485585887467,"8":0.0722872394977956,"9":0.1477068046064121,"10":-0.09087278613946884,"11":-0.026384392782915527,"12":-0.1750075376029207,"13":-0.30303629617552796,"14":0.19905460388397894,"15":0.05674437224775562,"16":0.16825026904806278,"17":-0.08807699608972659,"18":-0.04572128766291447,"19":0.21125437491827245,"20":0.1422085245692323,"21":0.28194162514651483,"22":-0.03229947810622096,"23":0.07478187781432862,"24":0.004140118529801169,"25":0.06490245091991063,"26":0.14565164293541583,"27":-0.09770958915641406,"28":0.26800033864574563,"29":0.21584912105632917,"30":-0.057653348813675696,"31":0.17821517686919222,"32":0.1916727173438499,"33":0.08617867015732383,"34":0.016819315596010933,"35":0.13865319927836495,"36":-0.15740539060718772,"37":-0.04404924298723784,"38":0.07174125169135508,"39":-0.04745372504845361,"40":0.08012309342759553,"41":-0.21250831688019475,"42":0.18783586834180527,"43":-0.3396216625280323,"44":0.055692568775492154,"45":0.04935728486475861,"46":-0.2546263818936865,"47":0.3617584559533809,"48":-0.06333575995652867,"49":0.05951054706504437,"50":-0.03033391283257629}},{"sx":1,"sy":1,"depth":51,"w":{"0":0.07219859057767465,"1":-0.07157952448490262,"2":-0.1041438187149418,"3":-0.20059135305552467,"4":-0.018507434152013932,"5":0.0849564926916025,"6":-0.08891114126841133,"7":-0.08183540636930942,"8":-0.04854597852035212,"9":-0.20418622735782918,"10":-0.07667464723379377,"11":-0.02406992026204466,"12":-0.008641075884816276,"13":0.1305465888960171,"14":-0.1501118075232657,"15":-0.10346616631849395,"16":-0.0812075402116887,"17":-0.032754458712839114,"18":0.11652289625289813,"19":0.35142372846117453,"20":0.31211412322875165,"21":-0.010233252468753574,"22":0.3340708488664275,"23":-0.004854791976029743,"24":-0.050021649349163554,"25":0.19003584346289376,"26":0.25065762181786283,"27":0.15477440421666144,"28":0.1711142670613484,"29":-0.09754024716334349,"30":0.03347329352242561,"31":-0.0506273712990941,"32":0.154468347195562,"33":-0.05979871985773588,"34":-0.12461390502252019,"35":0.11105861957410282,"36":-0.0029038841418338773,"37":0.1317090999687359,"38":0.0053605714676635465,"39":-0.05780880961642733,"40":-0.10155822176552959,"41":-0.22540929892132971,"42":-0.14638781612904034,"43":0.0902462034187968,"44":0.0013653966568286035,"45":0.11901394729365364,"46":0.08897394056114508,"47":0.03134927085592793,"48":0.08911713564093075,"49":-0.0010650601199890955,"50":-0.12148684180827352}},{"sx":1,"sy":1,"depth":51,"w":{"0":-0.24345170374597924,"1":-0.3190428901245061,"2":-0.07757847753169196,"3":0.14035354373607356,"4":-0.05846441063783522,"5":-0.08097635085273132,"6":-0.09353408270214122,"7":0.10938550151038164,"8":-0.12379650386232613,"9":0.026518430987919756,"10":0.00020052394639443277,"11":-0.1245384268696113,"12":-0.19579674029871147,"13":0.30804770276397986,"14":0.29961707595801607,"15":-0.015496336256955108,"16":0.09812767325862479,"17":0.02876053133560902,"18":0.056798567262610934,"19":-0.15608098302703452,"20":-0.0015413703119470652,"21":0.05418888383461456,"22":-0.003424811095947498,"23":-0.10140010229881666,"24":0.0396888835161112,"25":-0.060175099050829677,"26":-0.061879061699987754,"27":0.09927963236158457,"28":0.09822096247925656,"29":0.017846839688375787,"30":0.02488556245170582,"31":0.1354958761722324,"32":-0.11451204645489918,"33":0.04474965392136781,"34":-0.24997582551124203,"35":0.3256084266444,"36":0.09008253274832594,"37":0.10952096401027982,"38":0.003686967787835245,"39":0.2884042706880612,"40":0.057763648234892224,"41":-0.043058030264644935,"42":-0.07399732395122134,"43":-0.17048256527410238,"44":0.019055112993863296,"45":0.009624690313753941,"46":0.04809785969835345,"47":-0.06948044665565296,"48":-0.06272156397440903,"49":-0.1069210475874047,"50":-0.06559907020812202}},{"sx":1,"sy":1,"depth":51,"w":{"0":0.0559026716644417,"1":-0.12634125700027235,"2":-0.07788015468732899,"3":-0.15170215284616922,"4":-0.09860847415618516,"5":0.13166363734114922,"6":-0.07195121466870387,"7":0.012501729322159361,"8":0.1099694781475559,"9":-0.13646248731092656,"10":-0.020614126138278014,"11":-0.03400635205823297,"12":-0.06871063316080782,"13":0.06533779888825936,"14":0.09849951926119664,"15":-0.05032787275674785,"16":0.0009310972756926521,"17":0.06247063183590823,"18":-0.10319935179024728,"19":0.010004730893737462,"20":-0.0478774112457964,"21":0.04288771699280744,"22":-0.21311390952205084,"23":-0.07540460980723718,"24":0.04656346604744576,"25":-0.03560364676923369,"26":0.08148227469322876,"27":0.06883218209400511,"28":0.14637462075938595,"29":0.11921111545356332,"30":-0.023736381517542687,"31":-0.19439872031188826,"32":-0.01771775377498736,"33":-0.13017241539920893,"34":0.0279529273141492,"35":-0.059557994410685135,"36":0.05810183744822239,"37":-0.0655253325790663,"38":-0.07993170163118574,"39":-0.16085902843272223,"40":-0.03338405393130129,"41":0.1106159181461225,"42":-0.1931286897106825,"43":0.12853531615743266,"44":0.077379408735224,"45":-0.12783843373643408,"46":0.07977496250959891,"47":-0.029274223741894548,"48":-0.03697557203571132,"49":-0.1968837077222451,"50":-0.019264262327283437}},{"sx":1,"sy":1,"depth":51,"w":{"0":-0.025413310920661725,"1":-0.007141897586081017,"2":-0.11578897389603873,"3":-0.13931274425392312,"4":0.08855579145999687,"5":-0.09354311037445003,"6":-0.07353491926888085,"7":0.037037872203145306,"8":0.015966642503623382,"9":0.13402346891675299,"10":-0.10127846314198952,"11":0.13696251066379145,"12":-0.24679449923455188,"13":0.06530447285826507,"14":-0.012124558694419958,"15":-0.10364900933194876,"16":0.19010926291929917,"17":-0.027354978853678266,"18":-0.0696563396748533,"19":0.05414003333619651,"20":0.1160620729460343,"21":0.010881661829576244,"22":-0.08046411150862619,"23":-0.028547871319054976,"24":0.11282435396778548,"25":-0.04721444841850491,"26":0.2230050730293793,"27":-0.26933811510738975,"28":0.20108164474148735,"29":0.017365270641724977,"30":-0.11246793717565082,"31":0.0481778687521628,"32":0.03659801952798354,"33":-0.02544411678011149,"34":-0.15763186443988017,"35":0.05980570290052743,"36":0.10059982046471809,"37":-0.07627625105668318,"38":-0.08149264492842444,"39":0.08805465813061017,"40":-0.0995108369556655,"41":-0.10176069896010193,"42":-0.007857041815819477,"43":-0.07923473760407995,"44":0.3144184949997779,"45":0.15354197125387853,"46":0.016670997123199208,"47":0.09353915081462458,"48":0.020865699760332083,"49":0.06133831513379486,"50":-0.006270696050761988}},{"sx":1,"sy":1,"depth":51,"w":{"0":0.1384417262743669,"1":-0.007001828937592143,"2":-0.09681969142381268,"3":-0.13108726197105636,"4":0.005241820926015185,"5":0.0976010586064167,"6":0.07904069209535584,"7":0.36943902083037217,"8":-0.16352502454369447,"9":0.0787845721606992,"10":0.2924926411341471,"11":0.3073103849051815,"12":0.08664142367991674,"13":-0.02539623373906412,"14":0.03097224762072131,"15":-0.12991158880007275,"16":-0.230717161024241,"17":0.0616136315949865,"18":0.07826117328285968,"19":-0.21806251123330417,"20":0.17368546631596737,"21":0.19568636062262618,"22":0.05317702423866988,"23":-0.18237472229650875,"24":-0.024360480264898114,"25":0.028192479992034003,"26":0.0619185034854549,"27":0.13820986266385096,"28":-0.1385793300261166,"29":-0.23534024591683236,"30":0.10243172673619967,"31":0.24843353669474594,"32":-0.04166123488987768,"33":-0.19143348554555212,"34":-0.04177201874492874,"35":0.03478563264248674,"36":0.11038335063366374,"37":0.09963503086775036,"38":0.041275286904379774,"39":0.13968012708767766,"40":-0.11232627780959753,"41":-0.12101533502728927,"42":-0.25300461674115476,"43":-0.13930273478701183,"44":-0.03205564005408319,"45":-0.09328060796361229,"46":-0.10173791408894255,"47":0.059211961820144474,"48":0.0036476397733878957,"49":0.10754286767695141,"50":0.07976469438079331}},{"sx":1,"sy":1,"depth":51,"w":{"0":-0.07547045485617548,"1":0.12293086254852285,"2":-0.04701334288225246,"3":0.042949583294652316,"4":-0.0009526759943139161,"5":-0.048466173390575566,"6":-0.03885267421897018,"7":-0.05097032966591873,"8":-0.036340707747960124,"9":-0.08651912753915941,"10":-0.08885630359832519,"11":-0.23254258653292725,"12":-0.17388168893754286,"13":0.04718999361794921,"14":0.11998844906120786,"15":0.1463750403756481,"16":0.05419193914381268,"17":-0.10006094064133825,"18":0.10184256855960001,"19":-0.030872146451048958,"20":0.0654626995443221,"21":0.011314309570383676,"22":-0.03554518716387001,"23":0.023101461703782394,"24":0.035573477836351196,"25":-0.0505472928962933,"26":0.1267685544706689,"27":-0.04114275084281834,"28":-0.19694196572276307,"29":0.012891348743191085,"30":0.10656799529836423,"31":-0.19344497407655667,"32":-0.1435845293253953,"33":0.20365630480571595,"34":-0.007355631344909187,"35":-0.019285363005282552,"36":-0.13604421144061407,"37":-0.18146176218749058,"38":-0.06977550007596224,"39":-0.07877343019930882,"40":-0.1296402442773747,"41":0.27593678679546485,"42":0.06689843093490368,"43":0.06612454461542254,"44":0.19839119019458695,"45":-0.15571890047545686,"46":0.080251180907424,"47":-0.12318000264887019,"48":0.09778735452834107,"49":-0.0440155151199411,"50":-0.1817569922192482}},{"sx":1,"sy":1,"depth":51,"w":{"0":0.03798256174360087,"1":-0.29459125706034917,"2":-0.04571525114882485,"3":0.09347423348589255,"4":-0.06057876288651529,"5":0.08911671978774194,"6":-0.36951616220791045,"7":-0.28372479046530147,"8":0.011895016910860205,"9":0.11730357479718675,"10":-0.015064249417703963,"11":0.09819218103453171,"12":-0.1596215081337117,"13":-0.06778185828983518,"14":0.08512736852744637,"15":-0.15457781956072197,"16":-0.11839270349876184,"17":0.019276346706901967,"18":0.11261959104602821,"19":0.24078246455382607,"20":0.05231553136519478,"21":0.1144994283508063,"22":-0.039803511203785405,"23":-0.07237444333406723,"24":-0.11977743549209655,"25":0.22876174155725723,"26":-0.22010952801987538,"27":0.09959949219770454,"28":-0.11319610290122534,"29":-0.0992176148083957,"30":0.17094969972471089,"31":-0.3176600382831532,"32":-0.11359461887486956,"33":0.12936810943512791,"34":-0.003463222791182111,"35":-0.16110812412407907,"36":-0.11557223133879313,"37":-0.03029330351117175,"38":-0.10044643372202644,"39":-0.1863002704916925,"40":0.07770546490512391,"41":-0.03303653201965213,"42":-0.13261333906396325,"43":-0.05928976938292642,"44":-0.1615642852253335,"45":-0.13206187144425216,"46":-0.04629213540444817,"47":-0.058797750069266415,"48":-0.15183065785813038,"49":-0.18342943893500352,"50":0.09459812648804806}},{"sx":1,"sy":1,"depth":51,"w":{"0":0.22839508484960405,"1":0.1054689715027437,"2":0.06620749172417979,"3":-0.12983786166203498,"4":-0.13495427112895592,"5":-0.06325705671511435,"6":0.1093055376387314,"7":0.07888820301778007,"8":0.1887049705971432,"9":0.09428329716066804,"10":-0.04531032411717385,"11":-0.015640276167502794,"12":-0.19264356389807902,"13":-0.01473781416888339,"14":0.0688797812472765,"15":0.010020965655141822,"16":-0.10393614787882133,"17":-0.04305282650761564,"18":-0.2572272588800325,"19":0.07248193545043075,"20":0.06589842999321828,"21":-0.17551586484938692,"22":0.0788089300603955,"23":-0.021738071956441493,"24":0.0016975021583602785,"25":-0.07212232946238711,"26":0.3805670936068293,"27":0.22506939483480543,"28":0.016904506369152254,"29":-0.10887699410451152,"30":0.16999381760758878,"31":0.09253181909695403,"32":-0.12762513809505163,"33":0.10998827198280413,"34":-0.06883065458786242,"35":-0.13804797268035732,"36":-0.010895616647383179,"37":-0.0060401263286889465,"38":-0.07798194808072968,"39":-0.005806102417439795,"40":0.09508334536936643,"41":0.2676539716114677,"42":0.2836575723397479,"43":0.15692554992111557,"44":0.1384271283517997,"45":-0.04538114230201037,"46":-0.03613932796937031,"47":-0.08531455997395027,"48":0.24584920307650682,"49":-0.058630199387025336,"50":-0.09489739393776706}},{"sx":1,"sy":1,"depth":51,"w":{"0":-0.042846147714662816,"1":0.1349201839655802,"2":-0.11740189026160446,"3":0.08282659761057504,"4":-0.0459014626865902,"5":-0.21314017423033946,"6":0.26453569303772434,"7":-0.04814216755716529,"8":0.09327010524013488,"9":-0.0777460163789574,"10":0.19638816426446276,"11":0.13167194089451295,"12":0.06813480049183966,"13":-0.11556452411141513,"14":0.13940632348606802,"15":0.3237753335801407,"16":0.02426480776675073,"17":0.2999405742209347,"18":-0.21561395459450888,"19":0.16797824635806852,"20":-0.012224277341307157,"21":-0.006241464994277779,"22":0.0691127708573905,"23":0.05527855993289085,"24":0.0895703643162166,"25":0.3765288324973116,"26":0.00988046268143211,"27":0.0817766372918871,"28":0.17503368509524853,"29":-0.022032399632508293,"30":0.21883908729264678,"31":0.03683579946279661,"32":-0.26360145809927465,"33":-0.22153292407181607,"34":-0.069811417171781,"35":-0.008734884400151372,"36":-0.18669467369435175,"37":-0.12771365979715116,"38":0.004713001653151978,"39":-0.12394773481363076,"40":0.09067533411225208,"41":-0.14015246755895183,"42":-0.28849029718849173,"43":-0.012784739351409847,"44":-0.24585724050445232,"45":0.012036431745038165,"46":-0.06788080363974713,"47":-0.03231824689784397,"48":-0.3336055422556186,"49":0.04060745290083121,"50":-0.15028268026003833}},{"sx":1,"sy":1,"depth":51,"w":{"0":0.13874896840832626,"1":0.08912879823168583,"2":0.12359970855683626,"3":0.04373128597628588,"4":-0.053404954452137984,"5":0.11427122047143104,"6":-0.14288381693906188,"7":0.009630212983816626,"8":-0.052716536064230685,"9":0.04701548231938563,"10":0.03623060682250718,"11":-0.0518407342746049,"12":0.045699342046352696,"13":0.19530660774740824,"14":0.03624751139249028,"15":-0.1679828494579124,"16":-0.17931820296719517,"17":-0.3768839529753555,"18":0.01103924964457292,"19":0.11166395504809465,"20":-0.308930352894021,"21":-0.0878545167332613,"22":0.013292001048992122,"23":-0.10558963071844829,"24":-0.2240729980906182,"25":0.14748749830690924,"26":-0.1511244810863783,"27":0.14989379921342266,"28":-0.12400417683289353,"29":0.07771507205995526,"30":0.3101948289967961,"31":0.085684143904418,"32":0.08739016422041199,"33":-0.17740811753063288,"34":-0.10697475386176004,"35":-0.04592873388773979,"36":0.0901603442426891,"37":0.07091797590552283,"38":-0.11536386914159395,"39":0.1836070407571203,"40":0.22532586048793912,"41":-0.16717178055032111,"42":0.1839906727840854,"43":-0.10292816585346536,"44":0.09185233830595542,"45":0.02397139072220138,"46":0.2998169290486075,"47":0.14601130724606348,"48":0.0943172936773448,"49":0.016969639818880805,"50":-0.14524296722234756}},{"sx":1,"sy":1,"depth":51,"w":{"0":0.17075702357699638,"1":-0.04062940573672529,"2":0.09540765715181122,"3":0.06589942567680011,"4":0.0019972735837212497,"5":0.0029045500883213347,"6":0.20317177529429947,"7":-0.10552480709626279,"8":0.019984493471802856,"9":-0.11205930688232255,"10":0.2519435829510373,"11":0.29584520611615506,"12":0.16710387558260448,"13":-0.13104253059753487,"14":-0.11733729442767275,"15":0.05928451200323631,"16":0.05622636981141362,"17":0.01392094316050449,"18":0.014654463757571604,"19":-0.1492737197692554,"20":0.08255802590360664,"21":-0.2346472171918556,"22":-0.16867499446866002,"23":0.05527242677130056,"24":-0.04917577403155113,"25":-0.03847619816104974,"26":0.14096148205046224,"27":0.08392036869221778,"28":0.1720642961607958,"29":-0.0725020912954518,"30":-0.36823808536454117,"31":0.07680980193422421,"32":0.051688650139366354,"33":0.013036784799113315,"34":-0.24753684131894982,"35":0.07670085799797711,"36":0.2599399835888125,"37":-0.16068837859001586,"38":0.0036274523167680534,"39":0.20640798245433903,"40":-0.27600901475966133,"41":0.07144476022215886,"42":-0.19260807649905193,"43":0.07021626600563467,"44":-0.09107153493694944,"45":-0.29953120738712796,"46":0.023603284635450417,"47":-0.203077087673454,"48":-0.10274530153736687,"49":-0.07125272302893426,"50":-0.21943713710151458}},{"sx":1,"sy":1,"depth":51,"w":{"0":0.11015585088119713,"1":0.15296508502769746,"2":-0.138306068423801,"3":-0.09871437996376915,"4":0.01020323601140997,"5":0.15815842147988862,"6":0.32253185182872507,"7":-0.09182842352525519,"8":-0.12472953545941587,"9":-0.3261368762073853,"10":0.26698637540405823,"11":-0.004646647660255241,"12":-0.013485210825635615,"13":0.23581790243016734,"14":-0.21149723541120122,"15":-0.04447325806374985,"16":-0.13455567782138014,"17":-0.027141446074424015,"18":-0.0682200732910079,"19":0.03119933029383923,"20":0.10255011484510906,"21":0.00842009766335424,"22":0.3727388598756363,"23":0.1922084746209391,"24":-0.1356759510914485,"25":-0.20801029626350617,"26":-0.10316859123896412,"27":-0.18289608245865754,"28":0.006478932431796414,"29":0.057794627532301926,"30":0.178307968469604,"31":0.017973406263811376,"32":-0.10423094037278485,"33":0.0685231100622806,"34":0.08538549131742826,"35":-0.09357243639264158,"36":-0.19902889851232497,"37":0.0328429917135686,"38":-0.1486289911661613,"39":0.19071086468527243,"40":-0.031174726392870323,"41":-0.03636674226888257,"42":0.25819896824379984,"43":0.06778658174515192,"44":-0.0848524545983143,"45":0.2212274892037535,"46":-0.032644222812002036,"47":-0.03300498695349817,"48":-0.010532072866678758,"49":-0.203490476774181,"50":0.11107128292021586}},{"sx":1,"sy":1,"depth":51,"w":{"0":0.05655559038011095,"1":0.06930053252262237,"2":0.16644122836122133,"3":-0.1280902756529032,"4":0.29850437285713827,"5":-0.22299435029322504,"6":0.05825955813343515,"7":0.2135354485617824,"8":0.010383527765329737,"9":-0.12421250755861077,"10":0.14037711331538444,"11":-0.28811750993412927,"12":-0.0354814219780022,"13":-0.03191438014842486,"14":0.19411912150161784,"15":-0.04500569695081471,"16":0.01687183695531089,"17":-0.07096493643709421,"18":-0.15024688417937698,"19":-0.17617884481684587,"20":-0.009962068180127922,"21":0.13507061847581034,"22":0.005832740355206147,"23":0.20109393810754536,"24":0.006991629529442757,"25":-0.21737266084956472,"26":0.10523339462734012,"27":0.2685187034827567,"28":-0.08846211481670858,"29":-0.21312925315185696,"30":0.044955244547398555,"31":-0.019784196945708307,"32":0.02905896895540705,"33":0.0691661680918628,"34":-0.25197899044183475,"35":0.2813611213505798,"36":-0.12736845492416288,"37":0.10236456007630683,"38":0.18571953948667294,"39":-0.0019145808824210819,"40":0.17060192625673362,"41":0.05046899060979586,"42":0.20405997798082112,"43":-0.0871139871492348,"44":-0.14879077656971207,"45":0.2802570761967258,"46":0.3061404797117676,"47":0.14348079406151676,"48":0.06724136937190013,"49":-0.1792945534398692,"50":0.12047605960980545}},{"sx":1,"sy":1,"depth":51,"w":{"0":-0.06192569285868588,"1":0.19802207459887772,"2":-0.22737147618785328,"3":0.07909017044432946,"4":-0.04169372825377016,"5":-0.01535057626717889,"6":-0.23627510414361394,"7":0.07777733345894954,"8":-0.12411527666625018,"9":0.012610941849013417,"10":-0.06085587794786656,"11":0.21937173569255286,"12":-0.028779396744230933,"13":0.14004959304278186,"14":-0.09711214375680279,"15":0.2041055303429223,"16":-0.07936144725144854,"17":-0.06755272726847876,"18":0.11212659660334837,"19":0.3185247789176853,"20":-0.09939365432212909,"21":-0.21516338794769896,"22":0.014904759225801348,"23":-0.09677651908005402,"24":-0.11967921165959407,"25":-0.08319193994293615,"26":-0.030923497711101422,"27":0.17876599419081105,"28":-0.2009185411670003,"29":-0.2105047717856247,"30":-0.2737768866984284,"31":0.09155237306957208,"32":0.11894932280301675,"33":-0.2231078801974679,"34":0.20793297296106483,"35":0.0041944437143807516,"36":-0.006338228046721048,"37":0.0171289303001898,"38":0.3159505738403627,"39":0.2162774946322787,"40":-0.007190747821062124,"41":-0.11107793732986412,"42":0.013817728462146931,"43":0.10452413279703401,"44":-0.0449047854850196,"45":-0.032125626803184835,"46":0.06350371111799492,"47":-0.18414863801270082,"48":0.016519065620015677,"49":-0.09166407032160295,"50":0.0017062571336779197}},{"sx":1,"sy":1,"depth":51,"w":{"0":0.18310680357272135,"1":-0.11931668099103913,"2":0.02520013796342408,"3":0.10342676113213432,"4":-0.1674099656728811,"5":-0.27383751431161574,"6":0.029646412938387885,"7":0.04593420668355513,"8":0.04342470222686271,"9":-0.21152795709778818,"10":-0.06176568916566607,"11":0.14632841585155776,"12":-0.0496547326590703,"13":-0.003253492553579053,"14":0.007343669140048608,"15":-0.08951270331021237,"16":0.17170370757940379,"17":0.192003144687609,"18":0.16277846807596327,"19":-0.024834151728467948,"20":0.05797273494945247,"21":0.19359296803075926,"22":0.17249909438451275,"23":-0.12019315488477107,"24":0.015142582977706499,"25":-0.09623924192733822,"26":-0.05285226147050692,"27":0.015186585555589473,"28":0.1329337366819866,"29":0.09584680377477355,"30":0.014272448715984569,"31":-0.2245670917021749,"32":0.07250800459916033,"33":-0.07222373624960489,"34":0.20435555499929625,"35":0.043070122858488824,"36":0.04128007837079492,"37":0.07769950611751622,"38":0.05043971135885607,"39":0.14107564267666747,"40":-0.06606158359241585,"41":0.09722941457388962,"42":-0.12329080787428932,"43":-0.044229438673993045,"44":0.03759146439761772,"45":0.01861765829491758,"46":-0.04188739145735526,"47":-0.22772628579385598,"48":-0.0023161458043251823,"49":-0.10259068962233082,"50":-0.12929386565899703}},{"sx":1,"sy":1,"depth":51,"w":{"0":0.02098104051587943,"1":-0.07033173452895103,"2":0.05829857534486286,"3":0.08539604495560495,"4":-0.19471602246136663,"5":-0.06919828003334205,"6":-0.09654638235393594,"7":-0.07729153603436195,"8":-0.23728659529497007,"9":-0.13755196786201473,"10":-0.1792750291519597,"11":0.1550595379721064,"12":-0.005627630296462588,"13":0.03029067277310006,"14":0.02864530834728284,"15":0.215122194939729,"16":0.048572065796404995,"17":-0.08608403669679521,"18":-0.0017480474349854996,"19":-0.10863043205506497,"20":-0.027632288505176433,"21":-0.056590228966393236,"22":0.05264483086631074,"23":-0.07002686243171229,"24":-0.08376718136371296,"25":0.15020760363059607,"26":0.09162552952598009,"27":0.14028316794520693,"28":-0.06333375383148818,"29":-0.1035002451307335,"30":-0.05869996643711887,"31":0.07001964480525166,"32":0.2841144675160186,"33":-0.003396713396838426,"34":0.1925376176298703,"35":0.05371769863506231,"36":-0.09319936839617804,"37":-0.1801080961572599,"38":-0.14977548964710732,"39":0.010866125693402472,"40":-0.12770402023007513,"41":-0.1527409792786104,"42":-0.12175791301667818,"43":0.11420625304147537,"44":-0.011773712960949232,"45":0.08466157977771137,"46":-0.10440925851935247,"47":0.03272492331901842,"48":0.11670870928509601,"49":0.18151490823693073,"50":0.036602458135777866}},{"sx":1,"sy":1,"depth":51,"w":{"0":-0.12137669947780547,"1":0.05353687857242982,"2":-0.2692898443023177,"3":0.013373484228044763,"4":0.023903644170448084,"5":0.1031616468667365,"6":-0.19861684015860798,"7":-0.022614501444783636,"8":0.05714458528724199,"9":-0.33433673585491297,"10":0.08327652141224007,"11":-0.15044694569555614,"12":0.13903882509748547,"13":0.008587611255643062,"14":-0.09497955572333523,"15":0.14946049550431215,"16":-0.10419404652522928,"17":-0.12354886774298524,"18":-0.14047989660312285,"19":-0.12976589274410258,"20":-0.15120994237859686,"21":0.23603506647300057,"22":-0.14850234680594973,"23":0.12473453557697009,"24":-0.27481287005619004,"25":0.28243458038707914,"26":0.13204943724012763,"27":-0.022341949251504345,"28":-0.011785584038539944,"29":0.15462796393188566,"30":0.07492491699827059,"31":0.0464588641376691,"32":-0.12754891160574022,"33":0.38897564006441954,"34":-0.03144722206292643,"35":-0.15658124702884477,"36":0.034815712736661106,"37":0.11084490519870294,"38":-0.13596970201860492,"39":0.11615955852989776,"40":-0.09753524621365228,"41":-0.11625561154173346,"42":-0.06638589975363161,"43":-0.12973469581872538,"44":0.17714229582053162,"45":0.02820498423047351,"46":-0.0451080800569947,"47":-0.08258580552184792,"48":0.07460706422300689,"49":0.10223374970048875,"50":0.17235439922486329}},{"sx":1,"sy":1,"depth":51,"w":{"0":-0.05328192851178404,"1":-0.09432823772752723,"2":0.027144784178210028,"3":0.0479954737795656,"4":-0.06874150327976447,"5":0.0014261568420151842,"6":-0.28749997759790813,"7":0.021251913313205487,"8":-0.14772040577895174,"9":-0.03435003255480022,"10":-0.022023803316952046,"11":-0.07443109558316112,"12":0.07929693908249504,"13":0.2910194418328648,"14":0.09885718694503115,"15":0.10355935671822705,"16":0.028748034840931545,"17":0.04892852997838845,"18":0.11641636250172677,"19":0.1140223771321983,"20":-0.07802308487311756,"21":0.0299488920712114,"22":0.14039136863017979,"23":0.39255626846911595,"24":-0.10709004685704354,"25":0.043266094740916916,"26":0.2351265611232859,"27":0.3167594722298813,"28":0.06288523876578389,"29":-0.11350062719315478,"30":-0.1349153132338196,"31":0.07243371237173174,"32":-0.11398022438506956,"33":-0.04386166801861848,"34":0.2220126494263458,"35":-0.409877136338355,"36":-0.14466264781262586,"37":0.17552654724384678,"38":0.012013705096921531,"39":0.19196812870972046,"40":-0.15135937738093624,"41":0.18369783982632656,"42":0.07301434828043901,"43":-0.019585702606829652,"44":0.16743662818402172,"45":-0.17857332151575692,"46":0.04897980690703844,"47":-0.035815502493085044,"48":-0.15224556746003884,"49":0.10071680107379945,"50":0.0736041487848445}},{"sx":1,"sy":1,"depth":51,"w":{"0":0.044216773342478075,"1":0.019303246828180774,"2":-0.10471307139186993,"3":-0.34722194853862276,"4":0.10741579378058251,"5":-0.1380913591173762,"6":-0.08521059904104672,"7":-0.13437828252100428,"8":-0.13442160293033048,"9":-0.22171117172839203,"10":0.07142529520498533,"11":-0.10993783454171147,"12":-0.03531663332715134,"13":-0.022533589178073434,"14":-0.03804138615912293,"15":0.16873646903876074,"16":-0.03612914059130941,"17":0.03990155593359771,"18":0.10200087446882475,"19":-0.01220534321397192,"20":0.1254312991294562,"21":-0.01775617478164113,"22":0.03710110007601767,"23":-0.26706670848273845,"24":-0.09394982275408356,"25":-0.06974838945954603,"26":-0.106339682506337,"27":-0.02341509104537528,"28":-0.0415819548520958,"29":-0.11585610340625144,"30":0.23240232648232156,"31":-0.011359786333120925,"32":-0.012526688438086549,"33":0.02922850100697603,"34":-0.12304493551131879,"35":-0.06721610531845294,"36":0.06238440346342893,"37":-0.07936363301535246,"38":-0.012272398669606447,"39":0.25193771127712533,"40":0.059685797342420216,"41":0.22862347977760109,"42":-0.07565006638198958,"43":0.24116772345256404,"44":0.07066813600422484,"45":-0.03264659161543473,"46":0.03618140861043647,"47":-0.17777149802675127,"48":0.08882775090825103,"49":-0.4398748443516204,"50":0.22045266927576973}},{"sx":1,"sy":1,"depth":51,"w":{"0":0.2561939559187744,"1":-0.024868188039216137,"2":-0.0068993988288697855,"3":0.05707450729950286,"4":-0.05398121781405801,"5":0.09208050026501921,"6":0.10754643208885142,"7":0.027200501712988823,"8":0.2977194984197565,"9":0.07582330260507686,"10":0.004876975459885702,"11":0.37589129623912987,"12":0.23298408632233147,"13":-0.08778933559529956,"14":0.22720071385714155,"15":0.23923948978541668,"16":0.20705849882407484,"17":-0.01114369887748844,"18":0.06117176350756013,"19":0.06531396249338106,"20":0.06529497443292098,"21":0.06425207275858041,"22":-0.0006005923275577401,"23":0.08042547434536076,"24":0.295518728016956,"25":-0.044934813935071365,"26":0.20683482380634194,"27":0.033634374040912164,"28":0.06094325090990752,"29":0.28375852466684365,"30":-0.07266878360217416,"31":0.08185333563200975,"32":-0.09590742672254933,"33":0.11349802488600749,"34":0.1304051708840642,"35":-0.045245701225976355,"36":0.18503763573587667,"37":0.011893322202098775,"38":-0.21459026693200137,"39":-0.09900554194799194,"40":-0.09158355985454748,"41":0.05497211165379259,"42":-0.07821011488425998,"43":0.11533828724150254,"44":0.2339940508441546,"45":-0.15640867510637507,"46":-0.09610205247914104,"47":-0.07687009619878107,"48":-0.10561679017966086,"49":0.19866857946755048,"50":0.050268219505637306}},{"sx":1,"sy":1,"depth":51,"w":{"0":0.21188185633270393,"1":0.008374227598167461,"2":0.09772360322119622,"3":0.2973926425751714,"4":-0.1226475698299941,"5":0.12015778046174719,"6":0.07757778758129433,"7":-0.00198047758155633,"8":-0.07717591888296263,"9":0.03056832106647361,"10":-0.05662436327576602,"11":0.08576339688659532,"12":0.15141507311962035,"13":-0.027868973657207335,"14":-0.01901347115563138,"15":-0.10931845833788309,"16":-0.05454195525405899,"17":-0.15871605416158807,"18":0.01530268237371004,"19":0.24036657226533462,"20":0.13929638419290735,"21":0.29113368900296394,"22":0.08096646419840034,"23":-0.00003311908862876702,"24":-0.14521771012198684,"25":-0.07111237068757423,"26":0.11474198228130063,"27":-0.007944936505984681,"28":-0.15283466319609176,"29":-0.02415254077872987,"30":0.0945309927261761,"31":0.0972452627802888,"32":0.1592024933309475,"33":-0.04824885516014415,"34":0.11861384254322509,"35":0.14839644351793527,"36":0.03321835490839342,"37":-0.1126593531191358,"38":-0.021933860484483706,"39":-0.09632423898139426,"40":-0.020383380982809517,"41":0.06556751545418114,"42":-0.02330754925180521,"43":0.20023910737123374,"44":0.03391151468967083,"45":0.15420285226803088,"46":0.1049739564127996,"47":0.20235997044588788,"48":-0.12763626292376723,"49":0.024787419337381503,"50":-0.09136086665779278}},{"sx":1,"sy":1,"depth":51,"w":{"0":-0.13224165119030165,"1":0.1903902079637256,"2":0.03489651310316392,"3":0.12135397974683529,"4":0.14639189919591875,"5":-0.19825539740910544,"6":-0.08658651110845265,"7":-0.04555830834186093,"8":0.23761285297944723,"9":0.24378632890993138,"10":-0.1596834478330594,"11":-0.14125478648316808,