
//<![CDATA[

// a few things don't have var in front of them - they update already existing variables the game needs
lanesSide = 2;
patchesAhead = 15;
patchesBehind = 5;
trainIterations = 150000;

var num_inputs = (lanesSide * 2 + 1) * (patchesAhead + patchesBehind);
var num_actions = 5;
var temporal_window = 1;
var network_size = num_inputs * temporal_window + num_actions * temporal_window + num_inputs;

var layer_defs = [];
layer_defs.push({
    type: 'input',
    out_sx: 1,
    out_sy: 1,
    out_depth: network_size
});
layer_defs.push({
    type: 'fc',
    num_neurons: 100,
    activation: 'relu'
});
layer_defs.push({
    type: 'fc',
    num_neurons: 20,
    activation: 'relu'
});
layer_defs.push({
    type: 'regression',
    num_neurons: num_actions
});

var tdtrainer_options = {
    learning_rate: 0.001,
    momentum: 0.0,
    batch_size: 64,
    l2_decay: 0.01
};

var opt = {};
opt.temporal_window = temporal_window;
opt.experience_size = 3000;
opt.start_learn_threshold = 500;
opt.gamma = 0.7;
opt.learning_steps_total = 10000;
opt.learning_steps_burnin = 1000;
opt.epsilon_min = 0.0;
opt.epsilon_test_time = 0.0;
opt.layer_defs = layer_defs;
opt.tdtrainer_options = tdtrainer_options;

brain = new deepqlearn.Brain(num_inputs, num_actions, opt);

learn = function (state, lastReward) {
    brain.backward(lastReward);
    var action = brain.forward(state);

    draw_net();
    draw_stats();

    return action;
}

//]]>
    
/*###########*/
if (brain) {
brain.value_net.fromJSON({"layers":[{"out_depth":205,"out_sx":1,"out_sy":1,"layer_type":"input"},{"out_depth":100,"out_sx":1,"out_sy":1,"layer_type":"fc","num_inputs":205,"l1_decay_mul":0,"l2_decay_mul":1,"filters":[{"sx":1,"sy":1,"depth":205,"w":{"0":0.0929159186832392,"1":-0.032605450221864694,"2":-0.07046940639956543,"3":0.015389772225149046,"4":0.1199154126191632,"5":0.11509219111537833,"6":-0.04520052176100691,"7":-0.034347942056054834,"8":0.09095033677941217,"9":-0.00831767162415998,"10":0.029263517639277876,"11":0.09052913273204828,"12":0.09549252979939199,"13":0.013462708781804137,"14":0.09833291711598754,"15":-0.10626463609496072,"16":0.04688922649894855,"17":-0.028147129620938335,"18":0.07051268557591872,"19":0.018108946248257828,"20":0.034507238762719224,"21":-0.025264905604856336,"22":0.04654958477189795,"23":-0.06578642903595644,"24":-0.10384026290447518,"25":-0.0763007201149562,"26":-0.014743323023259734,"27":-0.06854727469537154,"28":0.013808351939454974,"29":0.020840455367457388,"30":0.04064334017232183,"31":-0.12353857363626912,"32":0.01706141753782886,"33":0.09465465803040395,"34":-0.022279946380594513,"35":-0.03630917763614394,"36":-0.0969528369406307,"37":-0.10084290635324167,"38":-0.017314406023031463,"39":-0.11440492094293928,"40":0.09177712672380457,"41":-0.1061190053550801,"42":-0.09826685289276066,"43":0.05886157519442874,"44":-0.029880988404271166,"45":0.03015555719735724,"46":0.05303137527028327,"47":-0.1481054447090282,"48":0.13478254950557889,"49":0.06864437938424485,"50":0.07243829233337161,"51":-0.11867934870166526,"52":-0.02306867879900566,"53":0.12478726511951407,"54":-0.004942436616273022,"55":-0.07467890729432566,"56":0.043655362578450235,"57":-0.060467116646598054,"58":-0.06530357342393296,"59":0.08601633753013163,"60":0.026975367657095833,"61":0.07691839355671837,"62":0.05741896521326041,"63":0.13487056809239795,"64":0.025821161337564964,"65":-0.01786942282132449,"66":-0.06227591333261013,"67":-0.026068607566827915,"68":0.08428659631945415,"69":0.060874039213849915,"70":-0.013561790927990645,"71":-0.03786357744448411,"72":0.007243731433408447,"73":0.011260377773199754,"74":0.012396419306711372,"75":0.02110951913471728,"76":-0.1358156473073637,"77":-0.08144239130026736,"78":0.024934447920542353,"79":-0.03886336912841794,"80":0.08580866500335939,"81":-0.004811034303813655,"82":-0.04853796848310067,"83":0.057525736889878686,"84":0.10502087846194783,"85":-0.04082567039340243,"86":-0.11027163482343831,"87":-0.06682813161284454,"88":0.08542061942093206,"89":-0.022757693695669035,"90":-0.1057968021996105,"91":-0.017414929676080465,"92":0.041162235005523254,"93":0.1925355428789008,"94":0.12303405734882754,"95":0.029469919116867055,"96":-0.14506248030414826,"97":-0.03273996456630471,"98":0.06311862381756513,"99":0.036360703268016575,"100":-0.007375597406836642,"101":0.014649950022929039,"102":-0.03197303342689312,"103":0.06121707841986506,"104":0.04785429536571313,"105":0.0333933653540236,"106":0.02059251201159202,"107":0.14694499652671658,"108":0.0430677754870903,"109":0.0028332327279083696,"110":-0.031240539596044253,"111":0.1289284398867553,"112":-0.04782497674863793,"113":0.14638731185172552,"114":0.05325685854176676,"115":-0.0666914960082533,"116":0.06661732877145088,"117":0.11339556852352284,"118":-0.10102542355901799,"119":0.024380566054243925,"120":-0.0977207883576877,"121":0.06518310462369695,"122":0.00013401823907989777,"123":0.02344714294401399,"124":0.031330702819229395,"125":0.03442467489038191,"126":-0.056331173260860026,"127":0.002102795603165789,"128":-0.11083627213645172,"129":-0.010626236464151855,"130":0.12057920352525366,"131":-0.056271179813412085,"132":-0.000269651172212749,"133":-0.08599417411060506,"134":-0.004752790382856957,"135":0.06564447249983049,"136":-0.0575006187286813,"137":-0.05131099023466247,"138":0.11048274348185814,"139":0.0634827294027281,"140":0.054838681812429214,"141":0.1164229876681202,"142":0.039024911519111805,"143":0.04102654689221693,"144":-0.004250743564174829,"145":-0.10216061230146506,"146":-0.04068552854510377,"147":0.0015804222329630602,"148":0.0473178547316065,"149":-0.059887113120750554,"150":0.08225540532942927,"151":0.02451234883821199,"152":-0.041555111251927665,"153":0.04036073109836683,"154":-0.03712137867656236,"155":0.0532747253977663,"156":-0.05542206714349825,"157":-0.05352906275683086,"158":0.020429003128628873,"159":0.04347740471142657,"160":0.03198369038195152,"161":-0.03083351383531625,"162":-0.05212322912729355,"163":0.028058760647991635,"164":0.0008862438232192226,"165":0.08051086543405174,"166":-0.13109508867894934,"167":0.04317371879972776,"168":-0.19561253458328356,"169":0.1335913834885334,"170":0.0036780075025062055,"171":-0.11289169184090826,"172":-0.004383060811033573,"173":0.03696903695954759,"174":-0.049909455147467016,"175":-0.09622718497717729,"176":0.02493811689898408,"177":0.0021028131635202185,"178":0.13607086791902834,"179":0.09817486756741318,"180":0.025949880972634863,"181":0.14580857882171364,"182":-0.10619445730276292,"183":-0.01485851444097704,"184":-0.0631767097992852,"185":-0.05250245312843407,"186":0.05530421625523734,"187":-0.011073966317934766,"188":-0.026021598812058892,"189":-0.14058511361984483,"190":-0.06440255960384686,"191":-0.07846762696723006,"192":0.021537216201305526,"193":0.19296028280416677,"194":0.014008674341883682,"195":-0.004046377072660394,"196":0.06267955632496522,"197":-0.00559027103198179,"198":-0.06542740277538245,"199":-0.06522433002986724,"200":0.01746247690982113,"201":-0.0490658302820922,"202":0.053720760787774074,"203":0.02840054112824885,"204":0.024786662150518876}},{"sx":1,"sy":1,"depth":205,"w":{"0":0.026004384128677352,"1":-0.07705771351925288,"2":0.011992280847878343,"3":-0.0805771775704387,"4":0.06160638894546413,"5":-0.023393111565922144,"6":-0.14378904235292359,"7":-0.11141796140887503,"8":-0.0696448971826931,"9":-0.032692908846242055,"10":-0.00889360576846169,"11":-0.014188722663342913,"12":-0.006404853519826278,"13":-0.05743760622839981,"14":-0.03609817794789122,"15":-0.05143305654801056,"16":0.039013866038364674,"17":-0.025789276667784113,"18":0.20205431231962462,"19":-0.09757650948399459,"20":0.03637700815623736,"21":-0.008517866396768835,"22":-0.05082244224974104,"23":-0.015179649536862256,"24":-0.03509397168609216,"25":-0.0007579923020557867,"26":0.10272958038950969,"27":-0.03321487954946865,"28":-0.03557355194928122,"29":-0.16171397709493843,"30":0.002050078842829395,"31":-0.07092450509621244,"32":-0.009906775009123424,"33":-0.033242940536694805,"34":-0.003269633188838886,"35":0.06429218720013362,"36":0.020833019626382447,"37":-0.02685855972219877,"38":0.005204064321062301,"39":0.10709232925924825,"40":0.04416125135712952,"41":0.00684418358760512,"42":-0.059596238531888675,"43":-0.06539525192237061,"44":-0.019240963666536555,"45":-0.029131593437087266,"46":-0.039827469499398784,"47":-0.022531439348178972,"48":0.08917314203730162,"49":0.004786709042059127,"50":-0.040951823792186134,"51":0.013395315585473655,"52":-0.019038672679053806,"53":-0.16090952494606045,"54":0.07797455312500305,"55":0.07260712349858373,"56":-0.06469134992316994,"57":-0.006505243317999096,"58":-0.0032788810474010097,"59":0.09561433435568718,"60":-0.05376271448501465,"61":-0.1466772570457918,"62":0.06080054887526397,"63":-0.10469727765191983,"64":0.06392939554718695,"65":-0.05205836915673868,"66":0.06039177180647689,"67":-0.03247870117987744,"68":-0.004859414037912568,"69":0.0021190197001127375,"70":-0.021232091343002697,"71":0.04721692957530793,"72":0.15642026524625757,"73":-0.10295673666092651,"74":0.04659342818180339,"75":-0.019746635733578353,"76":0.13162881950087568,"77":-0.12181502697477388,"78":-0.029387990351430773,"79":0.02898280036924189,"80":-0.10915406064373083,"81":0.07959427410592038,"82":-0.004992119338003735,"83":0.0027782557079797008,"84":0.014831530639339324,"85":0.06297818331904374,"86":-0.054316258781424404,"87":-0.12061253060945784,"88":0.10958534656058715,"89":-0.017780132762269057,"90":-0.1252152798167501,"91":-0.11428501574948365,"92":-0.0219076326686496,"93":0.009953369486852498,"94":0.03665985070819188,"95":-0.02533173439861966,"96":0.035787101848053504,"97":0.0703941366785143,"98":-0.059830459650951275,"99":-0.0387859196976292,"100":0.054677118150785846,"101":-0.008465695896612616,"102":-0.07064649250347028,"103":-0.11792233695563305,"104":0.043295842556715376,"105":0.011195800064296732,"106":-0.037769653570491495,"107":-0.051745679429573484,"108":-0.049114117806260627,"109":-0.09534227329922955,"110":-0.014586622494235764,"111":-0.07447803450468142,"112":-0.07728772103322332,"113":0.03424941259422534,"114":-0.08468377100974522,"115":0.012449056261134786,"116":-0.01513380822645137,"117":-0.029810430513430818,"118":0.0237234531889859,"119":0.08540943253708716,"120":-0.023063889506470335,"121":-0.06077196770910554,"122":-0.05206652232132043,"123":0.15415020176732647,"124":0.07785489077047587,"125":0.005622768848330723,"126":-0.019002040720969948,"127":0.09640707403841638,"128":-0.14192712283565315,"129":0.0563374655403857,"130":0.047656481391958244,"131":0.11465417728893693,"132":-0.004274870300555927,"133":0.008046790862836255,"134":0.06563212317798907,"135":0.045139549880717854,"136":0.16186725082591455,"137":0.008872690313492441,"138":0.051677157058604116,"139":0.014300772426909433,"140":-0.007889789690071746,"141":0.06951105800723541,"142":-0.009863768270018058,"143":-0.001991496672264128,"144":-0.041365528875533124,"145":0.0619445283781948,"146":0.0013416194152604465,"147":-0.027474614367462014,"148":-0.03397773655964832,"149":-0.0023890960532909618,"150":-0.10044409192304317,"151":-0.04961233112784912,"152":-0.10476085671772391,"153":-0.15169608978033927,"154":0.13565825274000146,"155":-0.024244052419034108,"156":0.035887641631274655,"157":0.12426249523652892,"158":0.006777522358261435,"159":0.03032534536408328,"160":-0.14002297801743818,"161":0.07774626451794991,"162":0.10488219691475,"163":-0.0035672788732214263,"164":0.06838528405411295,"165":0.034693259546033646,"166":-0.0402482582850274,"167":0.034869185821849204,"168":-0.0799170519299904,"169":-0.05749533416255049,"170":-0.07904267109845545,"171":-0.12947449992555113,"172":-0.06287838053812529,"173":0.012378269178089318,"174":0.12269121872783541,"175":0.12577843684348392,"176":-0.04116087397927807,"177":0.20453800173423137,"178":-0.0004903017525221834,"179":0.19976106352094677,"180":-0.13168832756752044,"181":-0.11502813055434656,"182":-0.11616271338247156,"183":-0.06837851483047415,"184":0.06475238778591781,"185":-0.018015707292197255,"186":0.016483790525637403,"187":0.04934961192430813,"188":-0.12854290541650515,"189":-0.07834131028155429,"190":-0.11454442618766503,"191":0.008989171574035946,"192":-0.07607177445276278,"193":0.10658047736804675,"194":-0.036431671027533585,"195":0.05588588573494085,"196":-0.06682374329233988,"197":0.07328579166569157,"198":0.012192645769120476,"199":-0.04949776546672089,"200":-0.02410776359013277,"201":0.038423780463292,"202":-0.08365705697658753,"203":-0.11944394473849419,"204":-0.03951917585822862}},{"sx":1,"sy":1,"depth":205,"w":{"0":0.06279028588545796,"1":-0.071540430178598,"2":0.09073063219803347,"3":-0.01803693840057317,"4":-0.10486943207618647,"5":-0.09895256386481267,"6":-0.034370004682901585,"7":-0.10427078200557881,"8":0.11371605027520627,"9":-0.01298842256392209,"10":0.03831398653107714,"11":-0.0037368351686434377,"12":0.05946544053852781,"13":0.09154589480978637,"14":0.056742724684057215,"15":0.04398742541669525,"16":0.09431207351618624,"17":-0.06605380515343785,"18":0.0870299471049425,"19":-0.055599205467011574,"20":-0.06040190515997117,"21":0.010723090687621914,"22":-0.024513472239981036,"23":-0.09432594956663307,"24":-0.025059024013992442,"25":-0.02767444470539443,"26":0.026791441449383217,"27":-0.05243071828728836,"28":0.1278117327200211,"29":-0.0396116073743923,"30":-0.027440498931836112,"31":-0.06576535093625997,"32":-0.06082735632926607,"33":0.0639139130646939,"34":0.11627150089888474,"35":-0.015511108508011417,"36":0.02048195602759179,"37":-0.1022504255495068,"38":-0.06191140556120713,"39":0.11008363674212428,"40":0.047594490309360374,"41":-0.003611236631952819,"42":0.10692301483532557,"43":0.019825470046430385,"44":-0.01553740685823297,"45":-0.031226168437839333,"46":-0.12216594113322836,"47":-0.11278250986110208,"48":0.02602255342161929,"49":0.05685327116794932,"50":-0.06931620463572241,"51":0.009130569540571008,"52":-0.04780638761964457,"53":0.08384158065968002,"54":0.046505417319543954,"55":0.08153030967551497,"56":-0.08775646984793836,"57":-0.04922471519318944,"58":0.07085113289084928,"59":-0.051424370153593274,"60":-0.08474800408164893,"61":-0.16757460148059694,"62":0.06187237463507785,"63":0.02703122454967352,"64":-0.05754028451907393,"65":0.06275654521517059,"66":0.018443489937319993,"67":0.080599019672737,"68":0.00977171468999603,"69":0.031986576785792434,"70":0.04290195912110052,"71":-0.03314242050548173,"72":-0.03912702054090489,"73":0.11527033864858573,"74":0.04969554792363268,"75":0.11551489621595579,"76":0.022229386941264053,"77":-0.09128607800714879,"78":0.027306991211999334,"79":0.10771604135467547,"80":-0.03557394731950614,"81":-0.012414357774239897,"82":-0.09528041668706085,"83":0.07699097749870984,"84":-0.06414049573340622,"85":-0.08180724311628484,"86":0.013362379062115674,"87":0.019203581196349084,"88":-0.09831077896761176,"89":0.050069934722913906,"90":-0.05707634257012169,"91":0.029759700564570515,"92":-0.0789991872109644,"93":0.02917932276882031,"94":-0.025144439721524935,"95":0.07274017176378368,"96":-0.016937748351875115,"97":0.13703211407390414,"98":0.07679215080155091,"99":0.036730661508145517,"100":0.0007737898762695616,"101":-0.05258181955033436,"102":0.06203875264324129,"103":0.05599242430174199,"104":0.013227076372647155,"105":-0.2048274174167399,"106":0.011105463016884042,"107":-0.11393076106608287,"108":0.14873374623074892,"109":-0.00015612632078809883,"110":-0.020618771838754702,"111":-0.13291855496541774,"112":-0.046350527458805815,"113":0.03685651790159436,"114":0.08740912919804293,"115":0.06268934329521988,"116":-0.06024836913232652,"117":-0.013200592996938886,"118":-0.00976246004701852,"119":0.011897275995932197,"120":0.06443741298331057,"121":-0.016484985941114805,"122":-0.014251029008376805,"123":0.002690041529347523,"124":0.15679345390565164,"125":0.1539136317271305,"126":-0.12240231241629407,"127":-0.06408166149820411,"128":-0.08160781960979185,"129":-0.02844135352488387,"130":0.015951133922080623,"131":0.06867978041988998,"132":0.03340746882299723,"133":0.10440451416706156,"134":0.004635505876104281,"135":-0.0325045912675588,"136":-0.03191425762617222,"137":0.02078697904975301,"138":-0.04875925154701987,"139":0.02857741934670277,"140":-0.10628384122112614,"141":0.021451624372751082,"142":-0.002902259027694139,"143":-0.04145494669970554,"144":-0.08505389986477617,"145":-0.02953732434848727,"146":-0.005186540561525034,"147":-0.05102912181875809,"148":0.11691561359155621,"149":0.06049779719428954,"150":-0.09020416359944962,"151":0.032683862528794835,"152":-0.013718412706329246,"153":0.17960146072443325,"154":-0.04870480914407048,"155":0.034690688155310546,"156":-0.11645757280983068,"157":0.029232431918486748,"158":0.06903783151084204,"159":0.051538442964771364,"160":-0.16616451387666126,"161":0.039552642976718455,"162":0.12487111613763605,"163":0.008732869765694701,"164":0.2034594673509063,"165":0.09300819308626503,"166":-0.05050070561595829,"167":0.07375246722333763,"168":0.08633358699050203,"169":0.011094564617071657,"170":0.062111852887284,"171":0.06002985503465288,"172":0.05455648089311613,"173":-0.05464139615494667,"174":-0.07918913978364146,"175":-0.07821012824960016,"176":-0.06302360736661212,"177":-0.052106506757108935,"178":0.06729032048446337,"179":0.04394624697034296,"180":0.03688543226529676,"181":0.13157469731857074,"182":0.05453019604816888,"183":0.0197053899959305,"184":0.0001999726223311368,"185":-0.08146248360470768,"186":-0.050141813627169206,"187":-0.03296579289605775,"188":0.05065189079378236,"189":0.1439555953552519,"190":-0.017726454799283465,"191":-0.09558317758868443,"192":-0.0392562608688548,"193":0.06667847329409098,"194":-0.07309442655943353,"195":0.041312222737744986,"196":-0.05504947667143384,"197":-0.05752540140293799,"198":-0.03956332621833408,"199":0.0784814647954052,"200":0.032417120574064234,"201":0.0311219754750441,"202":0.025371467732456156,"203":-0.05541427728875934,"204":-0.07929116822494668}},{"sx":1,"sy":1,"depth":205,"w":{"0":-0.04067786146909886,"1":0.06745440927362588,"2":-0.0698998819627485,"3":0.06392738511503282,"4":-0.08434570037888729,"5":0.0952510668224796,"6":0.0508214242578423,"7":-0.028609331376356857,"8":0.0296909324236662,"9":-0.06372149801989184,"10":0.023673307198342687,"11":0.11525268144484768,"12":-0.09975508246797785,"13":0.10849748532240296,"14":0.038840282841624205,"15":-0.026477419858728285,"16":-0.03670852422308899,"17":-0.029351542864988568,"18":-0.06660067772273288,"19":0.045963003100439395,"20":-0.03258600232018708,"21":0.07647212013609223,"22":-0.0705376286671335,"23":-0.04343393476874758,"24":-0.006134574112753661,"25":0.007268287750772925,"26":-0.07078840337855716,"27":-0.06919980961425365,"28":0.015101143835256856,"29":-0.030217033944944648,"30":0.006830702139367216,"31":0.07470735355213143,"32":-0.052394257558321077,"33":0.05413931233000917,"34":0.09868723567363262,"35":0.07839789312757417,"36":-0.049490430067522156,"37":-0.11737126620811525,"38":-0.12638908144500757,"39":0.05960911477305582,"40":0.04388488871559788,"41":0.06743383711817684,"42":-0.098274734543304,"43":-0.027461930159746933,"44":-0.04834852168036674,"45":-0.055899852214032604,"46":-0.001846381662985532,"47":-0.07283421153192703,"48":0.11686728482247725,"49":0.13885631543169452,"50":0.021987522951455497,"51":-0.054830166936413516,"52":-0.002827821831750546,"53":-0.04226363182967278,"54":0.014888639935101238,"55":-0.04148241708124766,"56":-0.09545202951790199,"57":-0.06852637127651379,"58":0.022217870532359213,"59":-0.09267139036512018,"60":-0.009492789012345685,"61":-0.05665365069591975,"62":-0.011002758715732046,"63":-0.0013170371322204788,"64":-0.12981690811046004,"65":-0.06739042799134512,"66":-0.09971090612882724,"67":0.05126503699080021,"68":0.04670119713905566,"69":0.054193195481403965,"70":-0.05535229244695549,"71":0.031470120418656634,"72":-0.04002909233283065,"73":-0.013074095086107206,"74":-0.06397896147485271,"75":0.046620568663613686,"76":0.042456358931888726,"77":-0.04207035564379964,"78":-0.035501199999784266,"79":-0.07489366013765515,"80":-0.061632982532877995,"81":-0.0721004437442187,"82":-0.07214349713395878,"83":0.041762700971872825,"84":0.037084544267505626,"85":-0.05864611755968767,"86":0.10227432665436607,"87":-0.16295545635470945,"88":0.02215008809131035,"89":-0.04128844668480137,"90":-0.013314279055820388,"91":0.0763944646445347,"92":-0.0346170172133349,"93":-0.05434352655440692,"94":0.029288305768519134,"95":0.11701769283734231,"96":-0.016857387907224016,"97":0.010859325752082484,"98":0.0018003287701100564,"99":-0.08074478727180652,"100":-0.041337627829899706,"101":-0.12528074739371814,"102":0.04328424576010306,"103":0.04259149011660968,"104":-0.07718410855780472,"105":0.1306136219144647,"106":-0.03311898910969019,"107":0.03228649705249032,"108":-0.03692668783666994,"109":-0.07123237810424297,"110":0.02536705919016724,"111":0.028335343150713857,"112":-0.10586309971854971,"113":0.13457491467807237,"114":0.013052262766593803,"115":-0.0466522345738774,"116":0.003705960543587702,"117":-0.09735791149547633,"118":0.07826153884515799,"119":-0.05420110149018231,"120":-0.057680819573388345,"121":0.11188846231809366,"122":-0.016778667716224546,"123":0.05185548003688,"124":0.12609720076684577,"125":-0.06492961868420341,"126":-0.08542081076757527,"127":-0.01832674885829718,"128":-0.10688230698880877,"129":0.0756268196420376,"130":-0.01850588192591329,"131":0.07843100842565189,"132":0.02183054928572601,"133":0.10497279516144235,"134":0.044858712787205414,"135":0.04376610790717232,"136":-0.13289658046832656,"137":0.15937767345511836,"138":-0.090090134229618,"139":-0.08412975034283766,"140":-0.023901308972627003,"141":-0.009956789263213077,"142":0.02638195025641221,"143":-0.015471767621851895,"144":-0.033999777287790654,"145":0.07187305268140914,"146":0.04981581868261077,"147":-0.06082179641745266,"148":0.012977069528369405,"149":-0.12825386900996752,"150":0.02590642961119562,"151":-0.0715464650842799,"152":-0.0034884612843744125,"153":-0.1627062015983542,"154":-0.029873273862436683,"155":0.07671937189478047,"156":-0.09425349827044494,"157":-0.03540150252318179,"158":-0.11087914030235396,"159":0.020459358962827634,"160":-0.09407819308572248,"161":0.19976455019104217,"162":0.019445550673773397,"163":-0.09489330322534992,"164":0.012400860207182753,"165":0.02266385826505621,"166":0.023131907421313675,"167":-0.144002253216164,"168":0.035249142281904074,"169":-0.03225072900433033,"170":0.040796854105977776,"171":0.0034297561736715593,"172":0.1003663044577843,"173":0.032874446639108226,"174":-0.10796008428234234,"175":0.008958054041875132,"176":0.01267436865322657,"177":-0.04290789156260663,"178":-0.01442543231773958,"179":0.0062846964827281485,"180":0.09705412401450589,"181":-0.014927068337072958,"182":-0.25381134569156166,"183":-0.017375191499797944,"184":-0.005917765949498314,"185":-0.06963362664027883,"186":-0.030693807047663984,"187":-0.04163850459011309,"188":0.01754225823324816,"189":0.016272183417202716,"190":-0.14382174311011817,"191":0.05360822167930002,"192":0.040696985343056095,"193":0.02277316288187704,"194":0.00366657476186183,"195":0.05782789932460056,"196":-0.0006230085443994243,"197":-0.04039387442654058,"198":0.08232135368341766,"199":0.0054173899155479195,"200":-0.06397496495309117,"201":0.05761179549396087,"202":-0.02164765015307194,"203":0.017776077078194345,"204":0.008971913758165313}},{"sx":1,"sy":1,"depth":205,"w":{"0":-0.03856176048144959,"1":0.02571322601816202,"2":0.13602108605298135,"3":-0.09100955422045197,"4":0.08680886486617931,"5":-0.016684110142272585,"6":-0.04043064506816308,"7":0.10191475266720719,"8":-0.10351951982026045,"9":-0.03632062082189429,"10":0.034375121504087384,"11":0.09719854033028853,"12":0.007359482989718734,"13":-0.025228041895526812,"14":-0.07586031469708085,"15":-0.05157743988268233,"16":0.15025453787343018,"17":0.09021089726618034,"18":-0.05986595116836289,"19":-0.03836569150327543,"20":0.01480314028600533,"21":-0.05551106320591348,"22":0.13097370685949217,"23":-0.0010396559296968469,"24":0.09285654963355533,"25":-0.13129934989011138,"26":-0.009613367299448238,"27":0.12501414551058915,"28":-0.0361156148672571,"29":0.030304484755018644,"30":-0.05236679569025907,"31":-0.03620991087016112,"32":0.24873848539764556,"33":-0.1510536955666916,"34":-0.09254689324505216,"35":-0.05253997612169691,"36":0.03788652716431375,"37":0.4086781909433103,"38":0.11110863982287908,"39":0.026758623699390607,"40":-0.053970422789625536,"41":0.09932083176011136,"42":0.28336216374614986,"43":-0.08164524232345324,"44":0.07202628349357984,"45":-0.02664081364098943,"46":0.0020418699611849415,"47":0.31906580109299404,"48":-0.030790056311230645,"49":0.01727103397571413,"50":0.028260059834429058,"51":0.05446734843877476,"52":0.13461833591002284,"53":-0.09228282680380392,"54":-0.014223404549404338,"55":0.04383499506945502,"56":0.1351033294647029,"57":0.03104499728389664,"58":-0.045448450249121135,"59":-0.06660791529559158,"60":-0.00904785866631135,"61":0.11899867430593368,"62":0.09338788851518783,"63":-0.031044949274933564,"64":-0.0918863205682316,"65":0.04589946389179743,"66":0.2169093965991602,"67":0.06108813789002976,"68":0.015738095151218417,"69":0.05320423933071181,"70":-0.05921902808436697,"71":0.19493891111490538,"72":0.05056447632009207,"73":-0.018467002031682517,"74":0.11949707699886704,"75":-0.06500677076698819,"76":0.08642218713124636,"77":-0.09536752411885174,"78":0.06940749771850593,"79":-0.053076666621411604,"80":-0.030748546193027353,"81":0.048332668291125404,"82":0.023754820566310047,"83":0.052901330928607215,"84":-0.05220695071979219,"85":-0.11551005976788421,"86":0.12496854194141833,"87":0.11101873142036435,"88":-0.01876452655286874,"89":-0.09965152252299274,"90":-0.05146804916629271,"91":0.10639402751465298,"92":-0.052973928727775656,"93":0.05126047314821735,"94":0.09623378880094635,"95":-0.01567272136080177,"96":0.09201728784776532,"97":-0.01963534846261597,"98":-0.05560628296350522,"99":0.047124047288915144,"100":0.0956154955468795,"101":0.03755606013779758,"102":0.08429033535107502,"103":0.030946732729157544,"104":0.099552964910261,"105":-0.022140022161986392,"106":-0.10602825697045291,"107":0.11457107926529954,"108":0.062189045930425124,"109":0.08774424735068154,"110":-0.05509105498109984,"111":0.027178056345062398,"112":0.002246156145517209,"113":-0.0656269219650833,"114":0.03546632717553451,"115":0.03352269621696095,"116":-0.02704728497133419,"117":0.030303940374889253,"118":0.14755682937167486,"119":-0.1513916626557944,"120":-0.08996878278268979,"121":-0.05753837603397978,"122":0.18387308411944536,"123":-0.04504883309096926,"124":-0.08700468492949634,"125":0.04119527353990783,"126":0.062343223626368,"127":-0.010995858460281156,"128":0.07796542530385907,"129":-0.10052204937249211,"130":-0.050076233390822886,"131":-0.007439339826843865,"132":0.0509972802772072,"133":-0.04377908904460479,"134":-0.09301088000057414,"135":0.07535777563013438,"136":-0.022980128024384518,"137":-0.10955995896529845,"138":-0.04635352121342895,"139":0.03643180783221702,"140":0.06641838131998996,"141":0.06849951587620197,"142":0.05657120598711409,"143":-0.047860072047306405,"144":-0.09424659705909505,"145":0.06876088940400531,"146":0.11428002068366011,"147":0.11417445431820872,"148":-0.007783244707102471,"149":0.010279782491112503,"150":-0.0913279722649829,"151":0.01193154742369921,"152":0.008483094204038482,"153":-0.1310972659580445,"154":0.0274245472146972,"155":-0.01686417739458436,"156":0.06414939874038657,"157":0.009275699212992502,"158":-0.13370269442750093,"159":-0.07421629405127866,"160":0.02997429090072796,"161":0.2337856777596548,"162":-0.0564110172363996,"163":-0.11513912818808927,"164":0.013191282028756716,"165":0.08818341640959003,"166":0.05732691945999026,"167":-0.024483632920864057,"168":-0.017291459403095264,"169":0.06764381915884896,"170":0.08616285423905386,"171":0.09616776479766061,"172":0.059188244360157606,"173":-0.2139228698150765,"174":0.028407188455357602,"175":-0.04240458659005003,"176":0.05059442592829321,"177":0.06940610734698685,"178":0.1949227239672789,"179":0.03939920933210291,"180":0.024812925270145336,"181":0.10294701438942007,"182":-0.019877125703905967,"183":-0.03416308616470212,"184":0.0602281304498655,"185":-0.03712211425318831,"186":0.1252563194721376,"187":-0.016916085420390404,"188":0.09682866570202575,"189":0.01563924278498042,"190":0.06478771291234907,"191":-0.03294510442198355,"192":-0.06399605901403918,"193":0.054841254784030416,"194":0.014620856339560591,"195":-0.00435145463353184,"196":0.009370716855865815,"197":-0.07827649718860506,"198":-0.02517483410901876,"199":-0.0006322155381729304,"200":0.05901656862031317,"201":0.020936456546288198,"202":-0.01371613700988313,"203":0.020292385715991016,"204":-0.0028040152638932067}},{"sx":1,"sy":1,"depth":205,"w":{"0":0.007774828656475328,"1":0.0464533376040217,"2":0.02860222413399789,"3":0.16340493913733387,"4":-0.05545349220284983,"5":0.014668312713645373,"6":-0.0009263748685276467,"7":0.1164344246601677,"8":-0.07524698607340922,"9":0.004916929690146452,"10":-0.040145781689525484,"11":-0.06958232514191413,"12":-0.020909325356667265,"13":0.02715241424323262,"14":-0.062075655549930615,"15":0.11434810589031293,"16":-0.1235948877474262,"17":0.07887433100708108,"18":-0.001004824909407952,"19":0.013099577341647501,"20":0.01269959198700197,"21":-0.05850255866747438,"22":-0.05313589336198451,"23":0.027030566927580553,"24":-0.02146216550620525,"25":0.08897002167074881,"26":-0.033960179076685915,"27":-0.07046318744777554,"28":-0.047796586661076355,"29":-0.0028992922770873413,"30":-0.0370730944926226,"31":0.024827810219136607,"32":-0.10022366152806855,"33":-0.02283022434109307,"34":0.0179835555770112,"35":-0.03797674615679025,"36":-0.047559697701143176,"37":-0.04721355975008477,"38":-0.016349862758797858,"39":-0.0054999214543700915,"40":0.054575131515921894,"41":-0.11848083481426357,"42":-0.02549493497990669,"43":0.045692078303363,"44":-0.12645401303338275,"45":0.10011458015285743,"46":0.07698384053282792,"47":0.1368926541884932,"48":0.014396636310961126,"49":-0.05360351902482851,"50":0.08106240403080216,"51":-0.027619881920492122,"52":-0.057913694349707286,"53":0.10944484176992747,"54":0.0562422098870436,"55":0.07342049586069509,"56":-0.03373245149065375,"57":0.1256084203813906,"58":-0.09178754625511751,"59":0.1488589801501403,"60":-0.03626626182990982,"61":-0.10300696220760099,"62":-0.0737451181354328,"63":-0.005704966055333422,"64":-0.02390846974714079,"65":0.062313404811549816,"66":-0.0685127458072144,"67":-0.027741682623929925,"68":0.11135651391015518,"69":-0.017646919510229193,"70":-0.043273991457890806,"71":0.0034175545983693256,"72":0.04699825980104518,"73":-0.10733423795033248,"74":-0.07109711093575936,"75":0.011291580717884747,"76":-0.01586754036342433,"77":-0.10922471045748412,"78":0.07830422772595025,"79":-0.035513676829413046,"80":0.0376841588578692,"81":0.09089802616391907,"82":-0.10169040539279085,"83":0.04762404145967144,"84":-0.01319160481326842,"85":0.0018586596239548031,"86":0.19654753950103485,"87":-0.19761879076223557,"88":0.052463639180685334,"89":-0.08947910077421624,"90":0.005039127679025754,"91":0.06578892269282803,"92":-0.14278243432257756,"93":-0.04083397064172057,"94":0.07219909576895435,"95":-0.03435581671494291,"96":0.04797904237173792,"97":-0.013520517408388263,"98":-0.022257057667908465,"99":0.07874337598547418,"100":0.01328831677710257,"101":0.12867997485050497,"102":0.05321655832510461,"103":-0.00006286515158993325,"104":-0.003525049219705511,"105":0.050685477954568764,"106":-0.05945150125816376,"107":0.09822726969996821,"108":-0.04992429788384675,"109":0.0652177145578847,"110":0.03475424187818607,"111":0.04947837327830462,"112":-0.0016464443589551858,"113":0.006314275410493785,"114":-0.02166805728968936,"115":0.011991853500421193,"116":-0.009047902654943743,"117":0.016853523064047384,"118":-0.03487625625524603,"119":0.09331588547207957,"120":0.07453363121515617,"121":0.14293783716720795,"122":-0.004255697671208802,"123":0.0022295560313053565,"124":0.022220945602376425,"125":-0.02206457010815668,"126":0.014050414274654883,"127":0.031439325455832695,"128":-0.03349931858569119,"129":-0.006618676948290777,"130":0.08651094967591788,"131":0.06619769608416429,"132":-0.047894689170766155,"133":0.02731588920014917,"134":-0.07398722715454951,"135":-0.030621932721722023,"136":-0.024784986054507675,"137":0.022355581834894795,"138":-0.06866014652939198,"139":0.02820725780367321,"140":0.08705092386657974,"141":-0.020686155068863517,"142":0.06693931754422038,"143":-0.08464321621922853,"144":0.014695164245781716,"145":-0.018857517229129286,"146":-0.027739675879801865,"147":0.008393615677417834,"148":-0.05406026007043077,"149":0.013456830391994004,"150":0.04779565463530687,"151":0.11615838160209158,"152":0.1716375184500654,"153":-0.06092855286479407,"154":0.03138955637277954,"155":0.1079138587547682,"156":-0.008403859230986372,"157":0.08413011020953234,"158":-0.043010142088923724,"159":-0.014297523243660461,"160":0.03980705665705896,"161":-0.066204728122686,"162":0.034382701111011944,"163":-0.020551735911177274,"164":0.06603551967315441,"165":-0.1386214807814462,"166":-0.049558550882147466,"167":-0.01048653573685813,"168":-0.09542519570002493,"169":0.10699972284998249,"170":0.08267478688110425,"171":-0.03228699509305596,"172":0.03251733564725487,"173":0.028569222460280628,"174":-0.08932340142776479,"175":-0.024883728815731854,"176":0.022858442350079108,"177":0.12221966758744097,"178":-0.021769324939184327,"179":0.08039728142166573,"180":-0.08190281450508018,"181":0.017438707262846995,"182":0.07885713198841889,"183":-0.1520150424598255,"184":-0.042547852242751705,"185":-0.016407894655083095,"186":-0.0061362777206224765,"187":-0.03074569664890137,"188":0.08795300940032859,"189":-0.07085560982719988,"190":-0.01056141158073196,"191":0.05693738346172886,"192":0.03498515759123952,"193":0.1283787563900491,"194":0.003051140953833442,"195":0.01537316482028273,"196":0.06571545014056036,"197":-0.03976858936550821,"198":0.08828568359508061,"199":-0.10203592908683909,"200":0.04941061357529158,"201":-0.0397326016431512,"202":0.08280697448987247,"203":-0.10165909232067763,"204":-0.05644290779877828}},{"sx":1,"sy":1,"depth":205,"w":{"0":0.1513920077563623,"1":-0.11826390834910508,"2":0.05429947536270598,"3":0.06587781993671757,"4":0.03605408298594533,"5":0.01950232461249035,"6":-0.02553957474972984,"7":-0.1121443916205015,"8":-0.01609635956153675,"9":0.01216300132826006,"10":-0.050142854450011695,"11":0.008117930210028046,"12":-0.03685002913408864,"13":-0.14434231264687886,"14":-0.09160484556078463,"15":0.023795383133062252,"16":0.11293306144141918,"17":-0.12345267747970882,"18":0.11936060656073447,"19":0.11746337668722875,"20":-0.0775544337391281,"21":-0.028654511866002756,"22":-0.04323701781650862,"23":-0.09937304136021852,"24":0.023042963893600405,"25":-0.035678647277486625,"26":-0.13329924433790524,"27":-0.10686801926671341,"28":0.012944678532271043,"29":0.11474771064148741,"30":-0.08429350596272306,"31":-0.08709788198410684,"32":-0.12734709858530144,"33":-0.09194554800350607,"34":0.04677869539751622,"35":0.006992213804481568,"36":0.01858904961857981,"37":0.049208496457545076,"38":-0.03478157705024582,"39":-0.025952987513502425,"40":-0.10187360663418635,"41":0.06762331980870649,"42":-0.09766500773304214,"43":-0.04859521465314311,"44":-0.023247634508253404,"45":-0.036648849609903215,"46":-0.018030740104700214,"47":-0.01113759176599303,"48":-0.05134276130532722,"49":0.026718964360754414,"50":-0.07299058874399338,"51":0.18142354211134037,"52":-0.10791224729174351,"53":-0.022947802823598505,"54":0.05196083980155839,"55":0.04874121517357715,"56":-0.014688475017453215,"57":0.006567339283886588,"58":-0.04056136299906863,"59":-0.010748851909894377,"60":0.018485093736278133,"61":-0.075858702291063,"62":-0.029783753089185325,"63":-0.030883710322193555,"64":0.029483222492051646,"65":-0.031334268789728975,"66":0.09297076002859916,"67":0.06350897593645247,"68":-0.0009893081587269436,"69":-0.06794494958513196,"70":-0.007427573208934353,"71":0.00465995192443361,"72":-0.1368528222340919,"73":-0.08538490132588179,"74":-0.003190373657837301,"75":-0.030951676314938892,"76":0.0457687902875391,"77":0.1303106649001414,"78":0.08315389909698864,"79":-0.0830798077159405,"80":-0.025600687452745914,"81":-0.0011048936702654619,"82":-0.03769974493007022,"83":-0.06402764569920023,"84":-0.1262951064924442,"85":0.007169079235200996,"86":0.06027058370644101,"87":0.05580533442227953,"88":-0.055992250990458105,"89":-0.06826177206030358,"90":0.06642205222518546,"91":0.009565271342963144,"92":-0.06487265283451464,"93":0.00711151088218347,"94":0.016156885157043634,"95":-0.0411646818206109,"96":0.018118505448741665,"97":0.01848695001979428,"98":0.005857306450898944,"99":0.04374047499180624,"100":-0.033374860701209375,"101":-0.02126069788978179,"102":0.037471756990259335,"103":0.020193650921091807,"104":-0.0073156462350011655,"105":0.009493647814355135,"106":-0.10902268829598255,"107":-0.08448704172635084,"108":-0.03943026399220607,"109":0.04121507732803823,"110":-0.03995805764403745,"111":-0.03827928339452336,"112":-0.010447010352972444,"113":0.04157444048048818,"114":0.13975509454639048,"115":0.11334272689646693,"116":-0.0006186914123527865,"117":-0.06791797470260481,"118":-0.03373862534772498,"119":-0.03106254803272701,"120":-0.019950941708213397,"121":-0.11882512939390345,"122":-0.03513116134129402,"123":-0.05106088313373141,"124":0.024427410057184643,"125":-0.02252699878380763,"126":0.04074801177881793,"127":0.12425436268080094,"128":-0.007825980017729568,"129":0.0005441996563143121,"130":0.03291773277368679,"131":-0.0012557519404955849,"132":0.08976487377743679,"133":-0.023417829366145993,"134":-0.14534320111640706,"135":-0.20584709303059,"136":-0.017965716549611585,"137":-0.029822807666116707,"138":0.04478458187697518,"139":-0.062141376793317486,"140":0.11279445040311299,"141":0.1415186811881466,"142":-0.09639775356232705,"143":-0.13150271103358413,"144":-0.03569625522545056,"145":0.14492074684109255,"146":-0.10564521458813493,"147":0.10054375536696884,"148":0.057220263293245525,"149":0.006196473285135775,"150":0.14103908810173366,"151":0.06170722306257873,"152":-0.16747104950811612,"153":-0.06290862160988207,"154":-0.08223652191479278,"155":0.010923628433186965,"156":0.14638627036443874,"157":-0.08693735696735097,"158":0.04356962783090713,"159":-0.04283094539526191,"160":0.023397965509880173,"161":0.10430410967562827,"162":-0.025735987543183392,"163":-0.021221640723865433,"164":0.026278669609973927,"165":-0.004307271017361837,"166":-0.03480779092744239,"167":0.011660590303706553,"168":-0.07699994741607906,"169":0.025349035274428344,"170":-0.21037940844053987,"171":-0.13695286501899442,"172":0.007623767262023856,"173":0.10011684229931177,"174":-0.08196394170594629,"175":0.019327877509469904,"176":-0.018173721077841085,"177":-0.04751026897004057,"178":-0.08946899915657361,"179":0.04631962884183983,"180":0.10053157912391501,"181":0.07805338223485155,"182":0.08894862584528324,"183":0.020993683190351584,"184":-0.06848598719369936,"185":0.08687927959350554,"186":0.020442391301034268,"187":0.07198774444249226,"188":-0.061227530171666336,"189":-0.04202658947575723,"190":-0.026646984090562275,"191":0.029553172883629217,"192":-0.017490967105252705,"193":-0.015555302467368163,"194":-0.027443108210234237,"195":0.07491871967138658,"196":-0.03589973453994602,"197":-0.08559778098785345,"198":-0.023492624594339092,"199":0.019363150395535374,"200":0.10664282960815608,"201":-0.08122485213241451,"202":0.0428763330101457,"203":0.0031920465574696616,"204":-0.011765170073570256}},{"sx":1,"sy":1,"depth":205,"w":{"0":-0.07153113358378367,"1":0.011048711935956667,"2":0.12342474769914011,"3":-0.07888341171613757,"4":0.015588045787093678,"5":0.060939005568060894,"6":0.04216297237273811,"7":0.07709310410929454,"8":0.054203479077112884,"9":0.013157926936469373,"10":0.13870625019929286,"11":0.06383179647828438,"12":-0.057343471918857206,"13":-0.01102999972066747,"14":-0.029347318795769097,"15":-0.010886401612592264,"16":-0.002747290408727319,"17":-0.004635753599292357,"18":-0.0698585961058069,"19":-0.0039589807013590324,"20":-0.030680978023005564,"21":0.17687506741695683,"22":-0.07113262936134845,"23":-0.013527766477619767,"24":-0.05384788250581485,"25":0.00023906764540878114,"26":0.07928906430537262,"27":0.04908552661134707,"28":-0.03296363756374444,"29":0.02475197587582668,"30":-0.1700217041067377,"31":0.0327205285585616,"32":0.01763398850243547,"33":0.15157790604021326,"34":-0.03508548144469831,"35":-0.04918789604645859,"36":0.12320330634176783,"37":0.08016109110369947,"38":0.018242201233519648,"39":-0.00704412407630843,"40":0.03986100530414604,"41":0.014724014389579649,"42":0.05515337071514614,"43":0.029066273900869466,"44":0.01878056785202548,"45":0.035575007533041436,"46":-0.14043215163183093,"47":0.049096628348331214,"48":-0.014472044352116926,"49":0.06714291256547572,"50":0.04526185569718017,"51":0.07591162979944846,"52":0.07505439292879672,"53":-0.09639431188834978,"54":0.016131918699175987,"55":0.10175141298468744,"56":0.15545013891929593,"57":0.009333937630066637,"58":0.03205430754305397,"59":-0.08567360561614981,"60":-0.0056647304064884624,"61":0.046537335332551014,"62":0.050462771173574644,"63":-0.030974715674959803,"64":-0.049922901069467014,"65":0.01258852496888416,"66":-0.08453531376833556,"67":-0.00646402823428187,"68":-0.10700034256426443,"69":0.009602521593613992,"70":0.014548868949481382,"71":0.053854584825921314,"72":0.08325826264594144,"73":-0.06765133285663484,"74":0.012075147278608242,"75":0.05541253086276872,"76":-0.046130492860912,"77":0.017195614533189817,"78":-0.031049627826471755,"79":-0.06067203287751257,"80":0.144991092371284,"81":-0.03126930091903908,"82":-0.026199798641541164,"83":-0.17029149987594858,"84":-0.0015723629547551995,"85":-0.019365004288132263,"86":-0.012428835074580551,"87":0.14006112038522064,"88":0.05197935146301729,"89":-0.08862467597449897,"90":0.06200692671334263,"91":-0.12545021923722263,"92":0.03301488803156583,"93":0.1231817283435521,"94":0.10185710735641462,"95":-0.03611238079450059,"96":0.04560795779609543,"97":-0.012080627114616197,"98":-0.03543553379898639,"99":0.0943515231611937,"100":-0.08191111368028672,"101":0.04288945253321616,"102":0.15210225616158216,"103":0.07232345816409465,"104":-0.085342479379155,"105":0.013601193282015228,"106":0.07127116306707007,"107":0.16135686755893017,"108":-0.052088163910791255,"109":0.08209090934135597,"110":0.031626966806542235,"111":-0.08759644743349378,"112":0.12600085015276036,"113":0.1241039551063123,"114":0.11348402522424234,"115":-0.006148397446730182,"116":-0.08790654824791656,"117":0.027006544865077965,"118":0.013436689460435537,"119":0.02923423438308116,"120":-0.023739956737943546,"121":-0.040110526991100105,"122":-0.028553083483850956,"123":-0.027540575976052722,"124":-0.030245578003504858,"125":-0.08508441265737565,"126":-0.22179027276328617,"127":0.014881041051558842,"128":0.07068995345682776,"129":-0.004363978340177946,"130":0.10781848646935913,"131":-0.01406058176445915,"132":-0.043528919912519254,"133":-0.04722715775405933,"134":-0.030337611298365992,"135":-0.003954288392362967,"136":0.014700344168033974,"137":0.04481301524771801,"138":-0.05699520988294298,"139":-0.08754982217402409,"140":0.05486721257133757,"141":0.008560982202555432,"142":-0.03765745765822892,"143":0.05110118640281699,"144":0.021238723471949203,"145":0.10780332152176786,"146":0.01448204306519873,"147":0.10724822236572021,"148":-0.0020809866220376392,"149":-0.1633484020047214,"150":0.07457291012230183,"151":0.05463817053686401,"152":0.006239255722142347,"153":-0.041026689558137555,"154":0.022584870189229143,"155":0.03442756552243925,"156":-0.03527813265706005,"157":0.0037699165165217376,"158":0.059960315236551286,"159":0.05773589541017933,"160":-0.05285474393293453,"161":0.06548267650855127,"162":-0.029097332818796316,"163":-0.06915320157111401,"164":0.015523355956864871,"165":0.09189740915787958,"166":0.10728025629510334,"167":-0.208408403573613,"168":0.056180369871517866,"169":0.007605792411498608,"170":0.07557181387536872,"171":-0.011795606152149857,"172":0.11130923558196677,"173":-0.08141367994842388,"174":0.08205377771730009,"175":-0.051537678542081536,"176":-0.05921152632061034,"177":-0.02540413891650838,"178":-0.06906913072643749,"179":-0.035880528514466915,"180":-0.07067736774996712,"181":-0.061291752716681386,"182":0.08895943447283179,"183":-0.041382043107377135,"184":-0.05563619932921235,"185":-0.0813386069130768,"186":0.022847206500172277,"187":0.02035280183896048,"188":0.10108282438050117,"189":0.026619025824758842,"190":-0.01719420474760497,"191":-0.03053581958944028,"192":0.13082186905275717,"193":-0.16475900817521633,"194":-0.06577636182787218,"195":0.11085737936408074,"196":-0.10271225373576608,"197":0.08139583274437827,"198":-0.00869707516649722,"199":-0.028530964424368893,"200":-0.08614047872241352,"201":-0.0982188419781447,"202":0.09034450245885266,"203":-0.10139538586777397,"204":-0.0307130165851756}},{"sx":1,"sy":1,"depth":205,"w":{"0":0.0904982398088078,"1":0.09142565007611889,"2":0.07567135256932585,"3":0.03467317810608102,"4":-0.004592037022739365,"5":0.014421249673941058,"6":0.052277477686999155,"7":-0.0565420052651974,"8":-0.003064998903474762,"9":0.04256230914806067,"10":-0.06695979805926991,"11":0.018221791082726906,"12":-0.0636509889864084,"13":-0.019641239357722603,"14":0.040390996905268414,"15":-0.013431375126478544,"16":0.030810128823062652,"17":-0.06363793286775488,"18":-0.00043712242188699037,"19":-0.07701194732537728,"20":-0.044571640804405635,"21":-0.1542986197598568,"22":0.002684455504516378,"23":0.14162386227657636,"24":0.04889160646752643,"25":-0.006435995222706732,"26":-0.06429888171618157,"27":-0.014323310172853907,"28":-0.03366195378730818,"29":0.021138638533478932,"30":-0.13380016964346092,"31":-0.0033473444180190633,"32":0.1101336518023554,"33":-0.059267211084378595,"34":0.1250006030037309,"35":0.004279158171551406,"36":-0.043660688351981065,"37":-0.041290118417662565,"38":0.001325673379418352,"39":0.03204203644854372,"40":0.07752628853403581,"41":-0.025351415417862733,"42":-0.06381933173272568,"43":-0.1870900060833724,"44":0.10253283662685932,"45":-0.023432999805327343,"46":-0.0438286272413116,"47":0.027518158895579767,"48":-0.060050820095760446,"49":-0.07117952738756003,"50":-0.0698980813839526,"51":0.021771405817853764,"52":-0.1216653507224689,"53":-0.09710743054792975,"54":-0.14455668604084695,"55":-0.005391923949218307,"56":-0.06812154868129013,"57":-0.02685571272604664,"58":-0.03679485991218423,"59":-0.10516500727528716,"60":-0.06398335231363583,"61":-0.02923044272061638,"62":0.024308521140463564,"63":0.09236023052624556,"64":0.022509279801014147,"65":-0.0728492426304323,"66":0.00854067747328454,"67":0.021448984154589148,"68":-0.08304755770041382,"69":0.042104176416621224,"70":-0.06683448537092519,"71":0.1567931691603436,"72":-0.02181745469216432,"73":-0.10022335664032232,"74":0.05241695754339796,"75":-0.007118280980738627,"76":-0.061101136322489015,"77":0.16607064389581994,"78":0.00577247963328078,"79":0.05799881993999288,"80":-0.11012450141231939,"81":-0.06333437603557078,"82":0.07871644784292116,"83":0.11091640041968387,"84":0.1001239713156187,"85":-0.1862057551993707,"86":0.027725206852759445,"87":0.05201858567108418,"88":0.014762026984313588,"89":0.0517138943579332,"90":0.05813298477606271,"91":0.1539530651733434,"92":0.1631845549851929,"93":-0.0067529469677863945,"94":0.12975752917098554,"95":0.03224611115648433,"96":-0.06835375038749136,"97":-0.04692388557330957,"98":-0.14443928271963868,"99":-0.03901780735820151,"100":0.06144844469826025,"101":0.08412981527268013,"102":0.03868812608988909,"103":-0.05581757855617197,"104":0.0004909503839401937,"105":-0.08164472022797249,"106":-0.008962177591542464,"107":0.12135866261102918,"108":-0.04841066537436634,"109":0.058929034080366385,"110":-0.09766837499932836,"111":-0.0005249485674125033,"112":-0.01366493596798324,"113":-0.11696842375173964,"114":0.015862497861831353,"115":0.14435431543003638,"116":0.040153354395075905,"117":-0.01846772741162843,"118":-0.08481848657369516,"119":0.0693584971496543,"120":-0.048932941879300425,"121":0.03496526652216072,"122":0.09466893057623735,"123":-0.017978105282573223,"124":-0.08387973888628746,"125":-0.12107423364685684,"126":0.023473304794785037,"127":0.07086403202431225,"128":-0.06758861487187075,"129":0.007707164393906404,"130":-0.1672422193768246,"131":0.01797335982658622,"132":0.13553200610509938,"133":0.0625036018655984,"134":0.09523954997310763,"135":-0.035827592610154495,"136":0.09725470061312201,"137":0.05970185760187955,"138":-0.06244860892576966,"139":0.13016508030315976,"140":-0.04746528715881563,"141":0.03517189028523363,"142":0.06074310334554949,"143":0.052225882938727354,"144":0.09380227042707423,"145":0.048167881332858375,"146":-0.03295651619605662,"147":-0.057450811319168536,"148":0.09689538621492585,"149":-0.05496604683644956,"150":0.035014101391907984,"151":-0.035806774945247546,"152":-0.044971478942150436,"153":-0.05752953662502428,"154":-0.08977270800778563,"155":-0.1359003209002519,"156":0.06933073104771885,"157":-0.022501764011151247,"158":-0.09202765327728288,"159":-0.012333135532361587,"160":0.09967786305000667,"161":0.06869657542500164,"162":0.06728507082446275,"163":-0.04108072435443064,"164":-0.022453929411429287,"165":0.09199123842255966,"166":0.10533832435429592,"167":-0.061258853283622954,"168":-0.0951597187543196,"169":-0.09590684788814276,"170":0.06560894556222308,"171":0.07787267588581581,"172":-0.04490361079126101,"173":0.035285737282736575,"174":0.01356651328908792,"175":-0.02822374452993991,"176":0.05196423842885631,"177":0.07498820032747608,"178":-0.0883028474021726,"179":-0.09653098064450935,"180":-0.05914641480551466,"181":0.15786655629991708,"182":0.012497434247829535,"183":0.0017132562568269816,"184":-0.0585533897884013,"185":-0.010899051496396398,"186":-0.038548781433207065,"187":0.17506494005839765,"188":0.004046406235968187,"189":0.059624216547139466,"190":0.05009182559589489,"191":0.0390205462310549,"192":0.024951692169484587,"193":-0.06464226556575647,"194":0.02495280995240709,"195":0.02064537089967984,"196":-0.08228791695553643,"197":0.017922454865774515,"198":-0.08924041564446644,"199":-0.023144260638017188,"200":-0.12501914375873618,"201":-0.03379687444863931,"202":0.050994487448637583,"203":-0.11266892429115119,"204":-0.010409864710445057}},{"sx":1,"sy":1,"depth":205,"w":{"0":-0.0666817494878788,"1":0.09251703537984382,"2":0.03474244529732765,"3":0.017905393627566473,"4":0.10397949215637971,"5":-0.05513764720455581,"6":-0.0007278226866943882,"7":-0.02075710338088292,"8":-0.138619634435403,"9":-0.040754377742559605,"10":0.08344918249251104,"11":0.003468723149475868,"12":0.04726434718459856,"13":-0.05977700314037865,"14":0.1433739931266499,"15":0.04039473628510619,"16":-0.0821543529338253,"17":0.024855826824573293,"18":0.004657224612125114,"19":0.10256023784778438,"20":-0.08762749933846099,"21":0.033731047559643235,"22":-0.07099996139090133,"23":0.11326247446967687,"24":-0.017681721365393414,"25":-0.029542742231499053,"26":-0.058074805994764604,"27":-0.03115640957075993,"28":0.0722804929686097,"29":-0.10484999581408552,"30":-0.07704883972041808,"31":0.015092560011896154,"32":-0.023202617013369755,"33":0.18311373357562674,"34":-0.007090479644571525,"35":0.02838686955262709,"36":0.009440803342257269,"37":0.018792287505166507,"38":-0.023008656553757976,"39":-0.022350365154533522,"40":0.014775514336322026,"41":0.007650468116338679,"42":-0.044001106884334756,"43":0.035546223713279125,"44":-0.00239306233234,"45":-0.03333107953121803,"46":-0.048177752105613515,"47":0.019290319748726133,"48":0.03260766175364102,"49":-0.0605949785191931,"50":-0.0046476900992557125,"51":-0.04505507570091224,"52":0.05720797411223251,"53":-0.07517940715179092,"54":0.16558774743454824,"55":-0.08094148887766768,"56":-0.05684751098979343,"57":-0.17419138490605915,"58":0.0741296886050323,"59":-0.06790201325292418,"60":-0.01205517769750549,"61":0.022244699449944397,"62":0.06630424464210415,"63":-0.10349376816706408,"64":-0.014510750108150238,"65":0.02561809665775861,"66":0.11233795234386666,"67":-0.03634591800986445,"68":0.08139412506606554,"69":-0.0823663266735223,"70":-0.07102130924967619,"71":0.14555042047609815,"72":-0.01263224573432118,"73":0.12230356115623364,"74":0.03550237819962809,"75":0.056019773860137255,"76":0.030910082596733616,"77":0.01504466251313307,"78":-0.1103118207919756,"79":-0.027412267902216902,"80":0.051453868695550166,"81":0.06504284477724355,"82":-0.05831956691834546,"83":0.04614862997901424,"84":0.09277698752693797,"85":-0.07578882575255738,"86":-0.06434486221555596,"87":-0.01161165925052588,"88":0.0571387286861255,"89":0.11395273262618902,"90":0.07147631534064855,"91":-0.027473667907380782,"92":-0.11013667837946389,"93":-0.043176254202555935,"94":0.024216573379668208,"95":-0.014309063594194394,"96":-0.01913509408492968,"97":0.0003774426275135131,"98":-0.010451267415566056,"99":0.10610287789055868,"100":-0.08783200613275821,"101":0.05701344151643522,"102":-0.14176380550470824,"103":-0.045015913556812795,"104":-0.05370887905994051,"105":0.008587780382759915,"106":-0.04459969497014627,"107":-0.005585214954503066,"108":0.017540861086263355,"109":-0.029451825284410014,"110":-0.0014826031476373582,"111":0.012006840818181182,"112":-0.017178280502585314,"113":-0.01873561767983973,"114":0.1255010705038682,"115":-0.07844027578336647,"116":-0.07508420503363558,"117":-0.04797856442959021,"118":0.05774724135452859,"119":-0.05775637120689771,"120":0.10030438338234825,"121":0.04278489463170142,"122":-0.010982013751453036,"123":0.00291075977433919,"124":0.05262401459113258,"125":0.0010620926024406028,"126":0.04805869263921879,"127":0.008979797100870773,"128":0.06510160434784551,"129":-0.007077915801274974,"130":0.047524509394227504,"131":-0.006955735178364283,"132":-0.01650624912908555,"133":-0.024722705195827963,"134":0.031352677562054364,"135":-0.001164334500586144,"136":0.004542209022457303,"137":0.10331778791586367,"138":0.029763119241706486,"139":-0.06773523648120702,"140":0.05574924631208525,"141":-0.10673468874492996,"142":0.0708754974441307,"143":-0.027572219908783967,"144":-0.03881555600991781,"145":0.041492078282537426,"146":0.09437168697006533,"147":0.06724087292880898,"148":0.05393732395301523,"149":0.03463618357696606,"150":0.036371457357994054,"151":0.039273091698668446,"152":-0.05576357322452677,"153":-0.0012594353357784252,"154":0.03143843848384327,"155":0.12570590032106516,"156":-0.12190148882792728,"157":-0.001490484455746397,"158":0.023239075921854667,"159":0.10718922596240582,"160":0.003559323855379489,"161":-0.15850703477784378,"162":0.059387762689942024,"163":-0.043956449566573345,"164":0.0019359513828304587,"165":-0.016011173534158575,"166":0.05716051265839557,"167":-0.024162039574874113,"168":0.13349076151884592,"169":-0.11572086148378465,"170":0.026237637107747444,"171":0.03524740875721819,"172":0.13489939237942974,"173":-0.03075164031369323,"174":-0.021217054223959694,"175":0.02263610606170618,"176":-0.03529957384832361,"177":0.07669853447133058,"178":0.0975040423047429,"179":0.0756984835052709,"180":0.03084783577148761,"181":-0.07976307827551452,"182":-0.01834790017625178,"183":0.18083208586948246,"184":0.1788866545514404,"185":0.05857778761678155,"186":-0.036520534964496906,"187":-0.07226247477479211,"188":-0.09144077360855536,"189":0.09069663503469774,"190":0.04179605401761547,"191":-0.04262806532508022,"192":0.025616337209670683,"193":-0.0422652563013413,"194":0.09775442258247304,"195":0.006970272983049658,"196":-0.10824912292351947,"197":-0.0734318823848539,"198":0.04102813244772877,"199":0.07252173380733573,"200":-0.07140488553244363,"201":-0.02192063139451828,"202":-0.02673738544593911,"203":-0.05065540852374133,"204":0.022444349400459855}},{"sx":1,"sy":1,"depth":205,"w":{"0":-0.0443232620319237,"1":0.14444918446509553,"2":0.08841954781202097,"3":0.04262720612994617,"4":0.01544417930527726,"5":0.14031538871385113,"6":0.0905717510876272,"7":0.1288273631342775,"8":-0.022995093272643367,"9":0.03879051117010892,"10":0.01541228200864252,"11":-0.007334201669117681,"12":0.2926543815550719,"13":0.1098813772978728,"14":-0.046554057749072245,"15":-0.102971634756582,"16":0.022751847297352502,"17":0.24051280862978283,"18":0.07712869453517829,"19":-0.06924144497951558,"20":0.036933363248447364,"21":0.00004670992098346954,"22":0.10431046723462964,"23":-0.015129700795278814,"24":-0.010111016249182135,"25":0.003225983034356943,"26":0.0764532657857601,"27":0.057287125927285465,"28":-0.08030792264612563,"29":-0.033093633714205706,"30":-0.0065353037486895645,"31":-0.012588976422188092,"32":0.06954204813497786,"33":0.011387235735574165,"34":0.12336428207477801,"35":0.030334297419769136,"36":0.08233486230220678,"37":0.1895645544704793,"38":-0.09191459594483982,"39":0.09120389541751102,"40":-0.0616003718671363,"41":0.0042202232471819515,"42":0.1960436090314745,"43":-0.18565712413256627,"44":0.07166985605330639,"45":0.0730106628162699,"46":-0.016086928068413928,"47":0.10516310122983312,"48":-0.12852221855630727,"49":0.15825810273309165,"50":0.06129690767991772,"51":0.13994211842288812,"52":0.08450817123788514,"53":-0.10333504922398248,"54":-0.03655180799353019,"55":-0.06202375011712676,"56":-0.002546265954087925,"57":0.05129422892219184,"58":-0.17676307471425376,"59":-0.07272153747715537,"60":0.030030201329609388,"61":-0.07872434045410347,"62":0.044889012696829704,"63":-0.14559584566307382,"64":0.025495919107565414,"65":0.006404156725021068,"66":0.05842956008659347,"67":0.01959822240423021,"68":-0.10620275680148024,"69":0.0016038178247623344,"70":0.009252847938205081,"71":0.008904303442065869,"72":-0.0010709457989057341,"73":-0.06617605175177675,"74":-0.028566516780598992,"75":-0.0220903762775865,"76":-0.027816472393276826,"77":-0.04627145830535586,"78":-0.11793700576457408,"79":0.054035721634474676,"80":0.1557893650707766,"81":-0.0941407532529088,"82":-0.08250647137922533,"83":-0.26751810519945407,"84":-0.05729846306840059,"85":0.07746554098359802,"86":0.09187566464373759,"87":-0.06856053818417043,"88":-0.059423610851318344,"89":0.04687946129993011,"90":-0.02265614200302114,"91":-0.05185788735650989,"92":-0.059062438859997055,"93":-0.09282310706231336,"94":0.04407221151745032,"95":-0.07869850219189099,"96":0.08598865206556282,"97":0.1153991138053515,"98":-0.03619305469812602,"99":0.04765769075330227,"100":0.12586810819862213,"101":0.11121960213739401,"102":0.04450222109170676,"103":-0.09613128202529025,"104":0.024488331177631342,"105":0.013184631214020229,"106":0.008495934149767488,"107":0.14329030592273145,"108":0.11676374081061713,"109":-0.0036923361014029555,"110":0.04383816046794031,"111":-0.07304184455313699,"112":0.11628426125017141,"113":0.08509883667328477,"114":-0.05388928444510068,"115":0.040412665314966026,"116":0.057490906853819024,"117":-0.018109830548676827,"118":-0.04290813204474299,"119":-0.00876042255094609,"120":0.02431120156819688,"121":0.026407437111855264,"122":0.004631298798901583,"123":0.022460967091600073,"124":0.16520625142646356,"125":-0.04626950061409494,"126":0.006885158802269706,"127":-0.05354642752093209,"128":-0.11507837162557373,"129":0.044997451918713245,"130":-0.07461665072800881,"131":-0.04829070821269835,"132":0.0030728993614820414,"133":0.0792258355787158,"134":-0.04732506167832138,"135":0.021993500917018884,"136":0.11262696567342781,"137":-0.11317829518571586,"138":0.015648390252064923,"139":-0.11457054856060359,"140":0.03931825489455085,"141":0.04483476064076289,"142":0.17525081258113254,"143":-0.0045572330767867505,"144":0.02673253041652024,"145":-0.0863228771039356,"146":-0.05549780318678705,"147":0.12907281254041703,"148":-0.055953344820256413,"149":0.03620845177927915,"150":0.07776335628168209,"151":-0.022787244339892144,"152":0.0944337478085393,"153":-0.07259297986103018,"154":0.05529973699358151,"155":-0.10055519905173656,"156":-0.20169939290271544,"157":0.05917244739756824,"158":-0.05836735121357344,"159":-0.022708364396337628,"160":0.012628478146298121,"161":0.09375213630814301,"162":0.10021449100737802,"163":-0.031303313961805204,"164":0.12097385501990189,"165":0.0085329389681451,"166":0.010992124223840485,"167":0.13216890252158772,"168":0.0053190593223812754,"169":-0.001692071795492355,"170":-0.014087930315114737,"171":-0.14394332412580227,"172":-0.09433574107227494,"173":-0.08748398363005029,"174":0.014213931620232087,"175":-0.0029668016691615966,"176":0.014575710777062436,"177":-0.05789027555969112,"178":-0.16107663411460155,"179":-0.07471241824786762,"180":0.0017590182874523182,"181":-0.1162964925423685,"182":-0.10906929511262525,"183":-0.12992022638030643,"184":0.04476569234632858,"185":0.0005955346718455076,"186":0.10569602106534584,"187":-0.10296590128062179,"188":-0.12494900012660101,"189":-0.10295728943873139,"190":0.03939327901623359,"191":-0.041182767379122846,"192":-0.04400581495020794,"193":0.029813850418870767,"194":0.009279113619548853,"195":-0.06413520369484228,"196":0.014383421143800052,"197":-0.04971751312386172,"198":0.153973858639305,"199":0.10368790549353814,"200":-0.025452386670691718,"201":0.033884269487289224,"202":0.0643316963070019,"203":0.042146494982344324,"204":0.045082759586866035}},{"sx":1,"sy":1,"depth":205,"w":{"0":0.023468758944905493,"1":0.1116884084804367,"2":-0.0895092442554591,"3":-0.1973236724070769,"4":-0.0071575677768423,"5":0.09894416212746981,"6":0.00889307611815354,"7":-0.09167160860014917,"8":-0.017940122488929896,"9":-0.008276212796153608,"10":-0.07380891997678371,"11":0.04252930221713399,"12":-0.06083613160181434,"13":-0.0833165784662622,"14":-0.060895317570368895,"15":0.1186556190342609,"16":-0.06020059066120231,"17":-0.007137575803988148,"18":0.01892520763846037,"19":0.00025644208462083644,"20":-0.015440549452619773,"21":0.02799310048755554,"22":-0.09142138268762942,"23":-0.07262234123439607,"24":0.12881002473271905,"25":-0.0478519245735249,"26":0.1633770751722012,"27":-0.07879318843763088,"28":0.0012352101401810797,"29":-0.026000032394017252,"30":-0.1321626006767135,"31":-0.11269502506431983,"32":-0.010766095406030752,"33":-0.04222386775670355,"34":-0.0354930417101624,"35":-0.01574786933571416,"36":0.0071171304080173145,"37":-0.08661676025746227,"38":0.020894109341261402,"39":0.14908860576523003,"40":0.02091191707633324,"41":-0.06070183400583686,"42":-0.10162580646276696,"43":0.09827635198425974,"44":-0.0030376209077613383,"45":-0.010965749120297765,"46":0.03874740717136982,"47":-0.1642223529634313,"48":-0.03994116895156406,"49":-0.16900128294859987,"50":-0.02552882321969885,"51":-0.17852376774662232,"52":-0.09230656098124072,"53":0.1372050195230352,"54":0.1846888920048144,"55":0.09109984177250736,"56":-0.046490330903606734,"57":0.10321831682946615,"58":-0.035477637348858435,"59":-0.05713844356165202,"60":0.040726014268207385,"61":-0.1287665693720372,"62":-0.07254950111896605,"63":-0.12676778096549657,"64":-0.016392672600386446,"65":0.08332063147851847,"66":-0.11573179649199111,"67":-0.08086689002949761,"68":-0.011943388523723168,"69":-0.06152842464074892,"70":0.036451349127291956,"71":-0.057714632166760566,"72":0.05129119825458348,"73":0.007141847622854105,"74":0.008657758820207645,"75":-0.032234260095921605,"76":-0.14427680048215055,"77":-0.25254600506457286,"78":-0.011049327399825866,"79":-0.030999861689959093,"80":-0.10817920559971059,"81":-0.01762797504500508,"82":-0.19390436004801367,"83":-0.08120136171663524,"84":-0.043798920119301116,"85":0.022094841825172833,"86":-0.12428387042588203,"87":-0.0923177928738759,"88":0.044425332178823065,"89":-0.044430718492002606,"90":0.07232991832208482,"91":-0.08453020962779714,"92":-0.14231113096529696,"93":-0.005396359781058941,"94":0.09958182379703334,"95":0.10184315848569922,"96":-0.09123298128134268,"97":-0.013835462451338236,"98":-0.1657592021550483,"99":-0.04428258724338048,"100":0.02381618290716648,"101":0.042062277772485425,"102":-0.04229994513114718,"103":0.018939611924587367,"104":0.0017411471945539393,"105":-0.08468842573114972,"106":-0.05673255210282343,"107":0.03125371842550022,"108":-0.0958723132481431,"109":-0.03186156239743755,"110":-0.10730246759013502,"111":-0.0463038989231083,"112":-0.030497435387052216,"113":-0.08594257543139938,"114":-0.059777433718357094,"115":-0.08508051791470209,"116":0.15372093037884574,"117":0.005049092741897925,"118":0.06461344962388393,"119":-0.022047778869081394,"120":-0.04220015965698477,"121":0.0802454479746555,"122":0.00770515874388506,"123":-0.040903746024799154,"124":0.0361598921004624,"125":0.013670355042468147,"126":-0.027410147228171297,"127":-0.10676462636832385,"128":-0.02176652590629191,"129":0.03528507111450866,"130":0.13542549296604472,"131":-0.0008543734911384741,"132":-0.14855160005028648,"133":-0.08507939102566946,"134":-0.04758246892901803,"135":0.10480607909637248,"136":-0.01148703640710866,"137":0.012472791684410369,"138":-0.06348476688448014,"139":-0.09418159769433561,"140":-0.0031305309218812526,"141":0.1293166981425235,"142":-0.05095819083010575,"143":-0.005790746691705312,"144":0.01616431202049355,"145":-0.005477248763463632,"146":-0.08735389964581186,"147":-0.12199258876059058,"148":-0.008198964760110308,"149":0.004092565869707354,"150":-0.016764563961175975,"151":0.022824117407931117,"152":-0.12999207675754035,"153":-0.14788563584839662,"154":0.02274470786072401,"155":-0.03427690863261666,"156":0.033351492192343735,"157":-0.08202539840763082,"158":0.052720840741938564,"159":0.0030279816371626468,"160":0.05676703755385423,"161":-0.008622609131652768,"162":-0.0735145366259076,"163":-0.012063297902745861,"164":-0.026002614026390078,"165":0.025815975516145156,"166":-0.009917204205637142,"167":0.0261421972115322,"168":-0.019749701181590067,"169":-0.05482488755216074,"170":0.06574982963259604,"171":-0.10160513058993507,"172":0.036358787648583024,"173":-0.10040646978385195,"174":0.03673277500466161,"175":-0.05936042392250525,"176":-0.1106901117849335,"177":-0.10670684218280871,"178":-0.133908789769586,"179":0.016745493313132104,"180":-0.08349086156301146,"181":-0.055383055743358986,"182":0.0015934156480574202,"183":-0.018060752040871902,"184":-0.03530969126923143,"185":0.05713167087169427,"186":-0.17979885891412803,"187":0.05433861241646609,"188":-0.07037492756006042,"189":-0.07826199084970185,"190":0.048347207681826855,"191":-0.08867537622070439,"192":0.005626654877927696,"193":-0.0667982311618804,"194":0.04764458772063548,"195":-0.062458127492650124,"196":-0.08399662673141436,"197":-0.06547888169409975,"198":0.042308544739576175,"199":-0.09452352866962296,"200":0.08360937503877693,"201":0.02337786921815442,"202":0.0932932804146681,"203":0.02945932852347325,"204":0.06994315885718323}},{"sx":1,"sy":1,"depth":205,"w":{"0":-0.034433968052641,"1":0.07656642094892237,"2":0.09361160871810131,"3":-0.09588312040931979,"4":-0.03222175599719106,"5":0.018799036381386493,"6":-0.03640172990322147,"7":-0.01466050861878457,"8":-0.12067415161589053,"9":-0.020677833732260124,"10":-0.029680723790979666,"11":0.07621977832363946,"12":0.016665304269311086,"13":0.01881208918013735,"14":0.022389743466612676,"15":0.014735354083258321,"16":0.005509067387986123,"17":-0.038576466506335776,"18":0.08723080746326047,"19":-0.000059844963447744997,"20":0.10880466590834581,"21":0.12242601384868165,"22":0.03816786212104495,"23":-0.03428112950166287,"24":-0.0943940999761531,"25":0.06407126230889072,"26":-0.013378628835700955,"27":0.13312881352769038,"28":0.037898514930831864,"29":-0.011146743655162931,"30":-0.03827883467687726,"31":0.023762424689959514,"32":-0.04413255645806031,"33":-0.047799680628201724,"34":0.0923434180615827,"35":0.0596625730979712,"36":-0.01795678559035043,"37":-0.08144697711605026,"38":-0.13811411239918947,"39":-0.03085196754131141,"40":-0.03333244029228418,"41":0.1539317732462059,"42":0.03149916031704507,"43":0.0016686517634146518,"44":-0.008542828626247464,"45":0.026669756208960928,"46":0.05929817441617319,"47":-0.11651906942313357,"48":-0.0059699891221315984,"49":0.004448113105001942,"50":0.0851052493673677,"51":-0.018051913708576568,"52":-0.0536352390211625,"53":-0.062254867650804534,"54":-0.05858707109020978,"55":-0.13372201558482377,"56":0.10422724767786418,"57":-0.011243589135004653,"58":-0.10250262073721479,"59":-0.031222909817699214,"60":0.025418845715749483,"61":0.023404065860649383,"62":-0.06361550244796943,"63":-0.008649643988567983,"64":-0.02776763037907867,"65":0.11483986255567234,"66":0.148025727834823,"67":0.060015398619062084,"68":-0.1883835125671622,"69":-0.08575637387301373,"70":0.1420604095974679,"71":-0.0015590645947905727,"72":0.10385170805181992,"73":0.13464236448924663,"74":0.05719129024678786,"75":0.023983606829012218,"76":0.03583274000382214,"77":0.01342114679989946,"78":-0.020928799279378563,"79":0.031070605279137128,"80":0.12995306043669605,"81":-0.028791575014535584,"82":0.0438143743509601,"83":-0.020219407701064385,"84":-0.02757993788243848,"85":0.037689078074037985,"86":-0.03322462586781381,"87":0.028215661367497084,"88":-0.08036246958005351,"89":0.004075953243070349,"90":0.11063880820920448,"91":0.05802304337280269,"92":-0.037322093550390505,"93":0.003219111163954472,"94":0.04854483967546011,"95":0.09806734027787711,"96":-0.08965915329293726,"97":0.06107550940622124,"98":-0.0731019485766595,"99":0.04091853568262637,"100":-0.05993823833118514,"101":0.09146042309031348,"102":0.06874325325534018,"103":0.00400688565265013,"104":-0.02619520413405041,"105":-0.10251333261805103,"106":0.0172530651820061,"107":0.15133126790434168,"108":0.00280002300915473,"109":-0.11867204273613767,"110":0.06036574714320319,"111":0.0839560738749017,"112":0.012072604417431104,"113":-0.0799280175507758,"114":0.03920955279248851,"115":0.04613468441951335,"116":0.16743498713896834,"117":-0.09426599045536527,"118":-0.016951977620051212,"119":0.09747138510704781,"120":0.0031634311014829856,"121":0.1625542418919676,"122":0.08918277003754876,"123":0.0985256899245435,"124":0.006580093386126056,"125":-0.07080826237859121,"126":0.054610704199799805,"127":-0.048573771243810765,"128":-0.07729403638414241,"129":0.07558543090003006,"130":0.010925782691308391,"131":-0.11272076236471223,"132":-0.08533763510713128,"133":0.03510881821799688,"134":-0.03660776261716249,"135":-0.05461485660307379,"136":-0.06029192501169994,"137":-0.14374101886078483,"138":-0.06590857759374534,"139":0.02330685372628363,"140":0.0155771771833422,"141":0.002649184133597966,"142":0.12253321943509891,"143":-0.03402203516474367,"144":-0.022837075632862646,"145":-0.03130007092071523,"146":0.1370560722510958,"147":0.044244953914369514,"148":-0.03968176033800089,"149":0.013221402026962766,"150":-0.017004239972241736,"151":0.03665695174162063,"152":-0.008921885690436915,"153":-0.03005430559384116,"154":-0.0487483214519222,"155":-0.030394454489066483,"156":-0.005591179095534996,"157":-0.003498081875582438,"158":0.1362920140284977,"159":-0.0035972087811796567,"160":0.09245500878972818,"161":-0.06642372028039031,"162":0.08807610808610314,"163":-0.0492388473156233,"164":0.02190730014152686,"165":-0.10032543130714339,"166":-0.041347953978350484,"167":0.08079687929995341,"168":-0.11726284432946761,"169":-0.03489315353824919,"170":0.058584174578346714,"171":0.011895662643218612,"172":-0.025876314199458326,"173":0.04088486868670846,"174":-0.0649103415218545,"175":0.05987730287790209,"176":0.11096814742454338,"177":0.12912813048446112,"178":0.08137437563145739,"179":0.10859134878511661,"180":0.1989979031161426,"181":0.0819206153484563,"182":-0.0901780313786138,"183":0.0009625401208938772,"184":0.08436928492131962,"185":-0.015642534514691026,"186":-0.002489637678653555,"187":0.09047072700038432,"188":0.09132845671084402,"189":-0.12332402206597333,"190":-0.06872913252253517,"191":-0.08400303080470016,"192":0.0798269066461655,"193":-0.06384191888173485,"194":0.07431520580069528,"195":-0.027192917289207683,"196":0.12911520132697335,"197":0.01277446922461909,"198":0.06226503198403357,"199":-0.030161990895708604,"200":0.09652635933316121,"201":-0.07470002474738455,"202":-0.03546858834202867,"203":-0.08916479148851059,"204":0.002777838092275081}},{"sx":1,"sy":1,"depth":205,"w":{"0":-0.01417721186518038,"1":0.1511224301185005,"2":0.06985779304296826,"3":0.05293027894334613,"4":0.0011939653566517042,"5":-0.0874952819863246,"6":-0.03866567866371601,"7":0.005980603053710663,"8":-0.08035275450708548,"9":0.023646149470920353,"10":0.04232801437648473,"11":0.013871225054223113,"12":0.021231446841190507,"13":0.10858592006903442,"14":0.01647171298650422,"15":-0.059489957483573844,"16":0.02003405702634661,"17":0.06880544972412356,"18":0.057110095912637174,"19":0.18803279277602836,"20":0.1796277528265863,"21":-0.10269123265360791,"22":-0.004635939899924863,"23":-0.06777884968568128,"24":-0.023476344020016294,"25":-0.011522822450669663,"26":0.12036151504287458,"27":0.039057213570199825,"28":-0.034529837351737584,"29":-0.14473159442577144,"30":0.008087821359367626,"31":0.08323736071754899,"32":-0.040935787696621984,"33":-0.017412481372792773,"34":0.006287516614308868,"35":0.08445343582940992,"36":-0.010031488489029681,"37":-0.004708704657614695,"38":0.08850238306112768,"39":0.03412762169859616,"40":0.11388406532203835,"41":0.04774060699401227,"42":0.03986590009376782,"43":-0.08877161744993754,"44":-0.08870215417966845,"45":0.006609562381865126,"46":-0.00835850286518024,"47":0.09628614704661623,"48":-0.07559848393407659,"49":0.019766843914383193,"50":0.009435962227935293,"51":0.010284635214151273,"52":0.04767579828166685,"53":-0.08990938845376888,"54":-0.03121863103986113,"55":0.1080716256470303,"56":-0.08617192599918538,"57":0.06355016144187545,"58":0.0022203333301082434,"59":-0.07844578641148865,"60":0.08553091822910942,"61":0.03412961102622781,"62":-0.008558445950235275,"63":0.031764757932697174,"64":0.01114968539212986,"65":-0.01802662495164753,"66":-0.007126432212779232,"67":0.037289912797480125,"68":0.010799779412603032,"69":0.025014342718012138,"70":0.0968831469699408,"71":-0.07375167979454177,"72":-0.017947572837932947,"73":0.025766026910250674,"74":0.00837875520500308,"75":0.1272080039243651,"76":-0.011735147707490973,"77":0.0491905328868147,"78":-0.0966552112428328,"79":0.052724445676003255,"80":0.08883711953912284,"81":0.008686589027342604,"82":0.03385318449211999,"83":0.027105281074822987,"84":-0.00787970959657544,"85":0.0623138778649889,"86":-0.0611235870124082,"87":0.1007187645515787,"88":-0.03486157320760632,"89":-0.02869190532901485,"90":-0.037699651402892616,"91":0.003792891127468836,"92":0.02833446920550911,"93":-0.07973439425742722,"94":0.021798240138217042,"95":0.10650720349120595,"96":0.06702879748405213,"97":0.027876055734917176,"98":-0.10340732477378976,"99":-0.06731480328689818,"100":0.10750304999890392,"101":0.027927887225569457,"102":0.03261293156957507,"103":0.09168613011640894,"104":0.04570471247972827,"105":-0.13408196052726923,"106":0.05900926795252489,"107":0.037517731648502604,"108":0.04761940899236688,"109":0.002742281557658171,"110":-0.023515346440208636,"111":-0.05529614668254725,"112":-0.08319134483835235,"113":-0.009704128171252645,"114":0.03168763539000188,"115":0.0036363598979467656,"116":0.02583354427076877,"117":0.00937846992365088,"118":-0.179825908968227,"119":0.040590814310417486,"120":-0.08386011917092186,"121":0.014426433690515082,"122":0.08679675977909876,"123":-0.05077762916535631,"124":-0.08928974067835643,"125":0.04218849995743542,"126":0.10120933507022395,"127":-0.03862813637167522,"128":0.09476782355193372,"129":0.1363592693015473,"130":0.05600356663707249,"131":0.07375375498781171,"132":0.026379227629688484,"133":-0.13145875054924053,"134":-0.03240077732300494,"135":0.12143503744862877,"136":-0.0914611428582532,"137":0.09227672221377788,"138":0.006897630591682381,"139":-0.11556300228474725,"140":0.04965295533612748,"141":-0.011833903598970866,"142":-0.01491582546218389,"143":-0.04182822771606606,"144":-0.047353215299641364,"145":-0.17599713382531615,"146":-0.028709170104096966,"147":0.07891382821376358,"148":-0.013168066722184223,"149":-0.010140516558577888,"150":-0.025953852393706373,"151":-0.06924033466893843,"152":0.10190179225149232,"153":0.13027780250233156,"154":-0.09208149845218264,"155":0.022496035817421607,"156":-0.09515731804935217,"157":-0.041676364853216755,"158":-0.04081508280436273,"159":0.13807311149579538,"160":-0.018709783050399983,"161":0.12926084154483683,"162":0.02926994196141327,"163":0.04134984111976505,"164":-0.015919373795282757,"165":-0.021914365705924352,"166":-0.03132034350708811,"167":-0.050717968575957444,"168":-0.04071093922937353,"169":-0.029188910015061038,"170":-0.02331272341531134,"171":-0.0629163968557342,"172":0.052608886599108805,"173":0.033345164862918365,"174":0.0391870899030525,"175":0.018906095210551307,"176":0.06666857456283735,"177":-0.027629893820607217,"178":-0.030542816148285575,"179":-0.06324611895440745,"180":0.1372780890765908,"181":0.06779343238634951,"182":-0.07198411872124669,"183":-0.04191538033769133,"184":0.06653436306577133,"185":-0.017341048615006287,"186":-0.06988529523021748,"187":-0.1559559301945848,"188":-0.016094240175898195,"189":-0.03255711402241426,"190":-0.004583172292411439,"191":-0.13007825605858536,"192":-0.05728309256360472,"193":0.0024456922880357604,"194":-0.15100907081653972,"195":0.07582642714505362,"196":-0.015859623792200992,"197":-0.09362651186748651,"198":0.03745425542486467,"199":0.00028201003715794867,"200":0.015444819420770979,"201":-0.008088180701140282,"202":-0.04699033702826113,"203":-0.008084690214678792,"204":-0.09242241772047831}},{"sx":1,"sy":1,"depth":205,"w":{"0":0.02483628586340446,"1":0.015100183858297478,"2":-0.008086668987808309,"3":-0.023633720683640287,"4":-0.010117178698693292,"5":0.06268708992085228,"6":-0.08599166733665956,"7":0.03987841308263064,"8":0.11134424570366831,"9":0.02788367562595871,"10":0.080476603736773,"11":-0.061930280995458685,"12":-0.012624294788734476,"13":-0.026592515286391148,"14":0.028107490779930588,"15":0.053170020690916656,"16":0.06447198026362505,"17":-0.05305281371931173,"18":-0.166930535710059,"19":0.02463179094926399,"20":0.02386689741558999,"21":-0.03991208776832444,"22":-0.14707904365446667,"23":-0.07576113804243687,"24":-0.1266249420429879,"25":-0.08338115023561717,"26":-0.0336709021602727,"27":-0.10785714886232388,"28":-0.014038746360662902,"29":-0.06605624258802839,"30":-0.11954383920432997,"31":0.009554840425240262,"32":-0.06858728779392696,"33":-0.12927477724220468,"34":-0.09298105907005953,"35":0.056126245444334255,"36":-0.0565629157736389,"37":-0.013393896112931347,"38":-0.150796406007727,"39":-0.007740092574856156,"40":-0.09777595698736662,"41":0.01037847016602018,"42":-0.05878970311480515,"43":-0.0882293735319194,"44":-0.041186681155767325,"45":-0.04473780185169336,"46":-0.03575804411660927,"47":-0.007410489516012781,"48":0.04163309925753727,"49":-0.059373892895624954,"50":0.0037272578608035204,"51":0.14306604784250032,"52":0.06356817659849191,"53":-0.007804924653821749,"54":-0.018148743879497484,"55":-0.05413004153233216,"56":0.04934165136862303,"57":-0.006434556616843974,"58":0.051721636829551804,"59":0.012339325470311014,"60":-0.02279936664945569,"61":0.014049818972334005,"62":0.0454992296784461,"63":-0.14075135805468794,"64":0.06385304436934404,"65":-0.05707446007775006,"66":0.07245716742855798,"67":0.031326684395932135,"68":0.02822932071271022,"69":-0.08415573887319486,"70":-0.0017132134171197778,"71":-0.029973940595396535,"72":-0.04021273357415158,"73":-0.010919645385575657,"74":0.025828808939348274,"75":0.0336553177794607,"76":-0.04539474056063361,"77":-0.09231199970951831,"78":-0.025778694777821055,"79":-0.13113082696638817,"80":-0.08519752996169908,"81":0.011298586399727667,"82":0.008510138526486402,"83":-0.09610996649816583,"84":0.008966167431096867,"85":-0.06228119833377835,"86":-0.009596283350023523,"87":-0.03587490364250963,"88":-0.03890507522450565,"89":-0.0402494679588469,"90":0.016114121204757758,"91":0.14083108459772067,"92":-0.17676398928851647,"93":-0.00021874249669120272,"94":-0.03190620198942175,"95":-0.015170926893465426,"96":0.12949425864670844,"97":0.027461561884383586,"98":0.13757056535946702,"99":0.03647901604109671,"100":-0.037176021074804964,"101":-0.0295325289770326,"102":0.009222107138936803,"103":0.01812255306060041,"104":-0.04336005226512289,"105":0.031923459126262155,"106":0.1067602214400255,"107":0.11180290008759176,"108":0.033504859963529754,"109":-0.09491726312272074,"110":-0.09994005631660154,"111":-0.046156158436006824,"112":-0.0747743353626917,"113":0.05393342822875851,"114":0.04221109507143735,"115":0.12934225995157067,"116":0.0890159906057554,"117":-0.06379486714736503,"118":0.04885450560639432,"119":0.035954556546635624,"120":-0.09523640051505393,"121":0.0823904430935585,"122":-0.016611063747715742,"123":-0.0317377338899035,"124":0.07397300475843366,"125":-0.002684088266601481,"126":-0.01907908645921683,"127":0.06422594956154884,"128":-0.08512587292887243,"129":-0.054574282554039344,"130":0.01633656089218728,"131":-0.016303359526799694,"132":-0.03642318397673961,"133":-0.03944118332535695,"134":-0.01975738828978496,"135":0.01708706928399614,"136":0.08526820430935228,"137":-0.013695414628277572,"138":-0.014010574281861678,"139":-0.06656077174363602,"140":0.03671316944072398,"141":0.11832082934482498,"142":-0.0057759999692104935,"143":0.046091945678203496,"144":0.05787829852187518,"145":-0.05951132667767917,"146":0.05867284757102,"147":0.07990086131049903,"148":0.09377873563202785,"149":-0.044734257199583315,"150":0.005977242438007817,"151":-0.018838109353375137,"152":0.02829338994372089,"153":-0.08748342397299981,"154":0.08836615152099186,"155":0.012670979963657276,"156":-0.02053815711090249,"157":-0.008511016722841705,"158":-0.04992618686437729,"159":-0.021093068127407816,"160":-0.06250458833489858,"161":0.025596261529764866,"162":-0.08762373015638493,"163":-0.07137115931617191,"164":0.009754545144865998,"165":-0.012837532024192388,"166":-0.05935598828717746,"167":-0.07007354887024178,"168":0.019248002852804962,"169":-0.048168282096621516,"170":-0.060143145233842586,"171":-0.029761983272641977,"172":0.007986174456738441,"173":0.03251887173133046,"174":0.10671872625707196,"175":0.12893682358985306,"176":0.03515941633268084,"177":-0.09849929945508834,"178":0.052696141382674005,"179":-0.06481442612612191,"180":-0.02074053298107039,"181":-0.026192729610675074,"182":0.07266153958024019,"183":0.007908938620767081,"184":-0.03550011046839086,"185":-0.03279291274135273,"186":-0.24653948540354695,"187":-0.0035792807786518923,"188":0.0005738393407600524,"189":0.07327912605276685,"190":0.0011444317734814473,"191":0.0005089521204027093,"192":0.006636329200586713,"193":-0.01945518991975208,"194":0.040169181569615076,"195":-0.19346986560922563,"196":0.05627136555363531,"197":-0.14824370311210466,"198":0.008121358791136736,"199":-0.004260241614019857,"200":-0.05480238001134219,"201":0.0027010741068505895,"202":0.18648707972618747,"203":-0.01134045575081124,"204":0.01618460686902699}},{"sx":1,"sy":1,"depth":205,"w":{"0":-0.035784125321668935,"1":0.07097201224656277,"2":0.010931572033276937,"3":-0.0622209423679195,"4":-0.01289542362465839,"5":-0.07342117679318921,"6":0.0480181116336918,"7":-0.018414377829671594,"8":-0.0267420579475728,"9":0.005710728873923115,"10":-0.034798014732566815,"11":-0.08635401435191362,"12":-0.1093252599895234,"13":-0.009425869405419226,"14":-0.028748580035820082,"15":-0.09066543459288051,"16":-0.01572286663152008,"17":-0.05816062993018349,"18":0.005599575227387509,"19":0.03979856436729136,"20":0.11670067292724677,"21":-0.07775657950161703,"22":0.021606673798937437,"23":-0.017658598555870365,"24":-0.007632218428329373,"25":-0.07396098790918725,"26":-0.044072041515907955,"27":-0.031801681206592165,"28":-0.06960770564511917,"29":0.04700281410706165,"30":-0.013715790798460898,"31":-0.023298790405176337,"32":-0.03508168095791748,"33":0.02694389236553271,"34":0.1359432734527819,"35":0.0016175612806222427,"36":0.059880255212502856,"37":-0.11323580468254352,"38":0.041051462272550014,"39":-0.009243605644889389,"40":0.0922720146872267,"41":-0.05913396544027306,"42":0.07870843508264706,"43":0.16251810480544415,"44":-0.05064976207400616,"45":0.060191315469267155,"46":0.11366620052574618,"47":-0.05879592706546786,"48":0.10432587069512476,"49":-0.03680596811716121,"50":-0.08260638965908226,"51":0.07855270476362416,"52":0.15725552631053183,"53":0.039395126947609,"54":-0.1051751392342107,"55":0.04042823494952625,"56":-0.05871567925174008,"57":0.08997085596772382,"58":0.05762156789831205,"59":0.11832410223295686,"60":0.12009011217669179,"61":-0.06797166827423656,"62":0.027957964161432088,"63":0.043535060583320365,"64":0.018953041699081172,"65":-0.0972986403807408,"66":0.04969547312147711,"67":0.17871921280669653,"68":-0.07610981236814736,"69":-0.01218773592447691,"70":0.020287480781755667,"71":-0.031636831891421226,"72":-0.015337101605642578,"73":0.08477708317363879,"74":0.07235576657496062,"75":-0.1006601963919964,"76":0.014322969715676582,"77":0.0873931728068242,"78":0.035183071754334376,"79":-0.036765252538527804,"80":0.07097369527355522,"81":-0.10008000667479504,"82":-0.12166168870241363,"83":0.08026362368352027,"84":0.029187883272876095,"85":0.12344000850298342,"86":0.026965846965147824,"87":-0.014199923196939955,"88":0.05217236850299763,"89":0.013255755938803371,"90":-0.04960178398770838,"91":-0.09432557252391924,"92":-0.09643591668588657,"93":-0.0013873307206507658,"94":-0.008811191854692563,"95":0.019551027433109443,"96":0.017011833236998265,"97":0.019290243239677207,"98":-0.19651565177390468,"99":0.04323630035142438,"100":-0.04933975188468384,"101":0.015123669174578162,"102":-0.004933098474573244,"103":0.1672479226553254,"104":0.01741572275164745,"105":0.04600381117786248,"106":0.0737320843476707,"107":-0.09397898008013796,"108":0.06376363877989742,"109":-0.05203341089783184,"110":-0.11880104725031113,"111":0.10301637333228424,"112":0.13465209005284748,"113":-0.03319555442542036,"114":-0.10388958792240495,"115":0.02958348459341714,"116":0.001778470322408543,"117":0.006413007557079917,"118":0.04500226899165141,"119":0.11086809125567999,"120":-0.03195713833020772,"121":0.07743664840296696,"122":-0.04059497389852628,"123":-0.07640320947866466,"124":-0.05220828781396474,"125":0.07273974728935295,"126":-0.06720405613363384,"127":0.007594046090562393,"128":-0.04238476662624328,"129":-0.0235017826077188,"130":0.0059064120215238,"131":0.012255135825788873,"132":-0.07585813956406862,"133":-0.13557486456139234,"134":-0.09203463636221286,"135":0.0598908812748854,"136":0.058218400735512536,"137":-0.03962898616895377,"138":-0.05081496294865815,"139":0.02994230957224824,"140":-0.14076224123827621,"141":-0.029620690211528612,"142":-0.002274359613542299,"143":0.040967431648704936,"144":0.014960686205777105,"145":0.05309884836725022,"146":0.019864382007116013,"147":0.03133871276708726,"148":0.0738212284924741,"149":0.0351603011732877,"150":-0.006986056928069515,"151":-0.05889925455798302,"152":0.005313948544447718,"153":0.06874344417549488,"154":0.0758275859811281,"155":-0.024292154302029866,"156":0.03275801356301274,"157":-0.07144465882058171,"158":0.07031637393140168,"159":0.016088880074775318,"160":0.09160331956989165,"161":-0.089312691351753,"162":0.018018701374169756,"163":0.04702466316389421,"164":-0.046304077399074134,"165":-0.027239843787076064,"166":-0.12314128374647026,"167":0.09969022395926001,"168":-0.01901968011752097,"169":0.041736323247883025,"170":-0.04902612712647452,"171":-0.17797547647249104,"172":-0.08006605273445043,"173":-0.020325505821867054,"174":0.09346949497393751,"175":-0.01142909618019666,"176":0.03259868235935151,"177":-0.0010920019152928335,"178":-0.03964039049143272,"179":0.021544682710709827,"180":0.024428741140064644,"181":0.13204441098370195,"182":-0.024524016765843773,"183":0.0752741498589383,"184":0.056423477682953437,"185":0.05905830318642854,"186":-0.008281298060711945,"187":-0.1530874972978618,"188":0.0105981724667874,"189":-0.1546364754596162,"190":0.03696446006955245,"191":0.04852926326850436,"192":-0.01457010550132841,"193":-0.023704086552830583,"194":0.07791825977430471,"195":-0.10022935954841745,"196":0.17365631737905768,"197":-0.10636692250447548,"198":-0.01730733046728959,"199":0.012275110013444003,"200":0.13265275348342134,"201":-0.04403644596237071,"202":0.040716974534003386,"203":-0.07404383999369545,"204":-0.013340839989966574}},{"sx":1,"sy":1,"depth":205,"w":{"0":-0.06054547377567905,"1":0.03315567115838469,"2":-0.17724275816010895,"3":-0.0028159067277491404,"4":0.04918911895612581,"5":0.02677626380411471,"6":-0.044721547601362224,"7":-0.032184347424893095,"8":0.0005618858195380735,"9":0.040457247712298104,"10":0.007576424775254578,"11":-0.038037411121718205,"12":-0.08365621836725443,"13":-0.029829268615494915,"14":-0.06483095752398575,"15":0.0915381581453815,"16":0.004054238116982561,"17":-0.026684024891751566,"18":0.022893776765731424,"19":-0.15402576605553042,"20":-0.0058613594043830704,"21":-0.0013768935175701468,"22":-0.03658827843877037,"23":-0.008087102180650403,"24":-0.10300915416206309,"25":0.0064283206257492774,"26":0.07448987096995424,"27":-0.10556225327412014,"28":-0.00109359587570971,"29":-0.029398012265116267,"30":-0.055627374904284696,"31":-0.023782997678852405,"32":0.004822261127542829,"33":0.02018654385941616,"34":-0.052151061428759846,"35":0.040360087155049386,"36":-0.03465304329581091,"37":-0.07727246274799827,"38":0.11521242029916255,"39":-0.02187957578607825,"40":0.019068044171521213,"41":0.016040517217403363,"42":-0.028627551466036717,"43":0.0012067476918002367,"44":-0.10136323610653251,"45":-0.0017785282826810625,"46":0.14802782990275576,"47":-0.03549444351336991,"48":0.015533192489904125,"49":-0.00422016046252128,"50":-0.10170648633135991,"51":-0.011820095208487674,"52":0.06240609734537891,"53":-0.0009146435263635914,"54":0.023102306416825286,"55":0.03201832370980611,"56":-0.03551550262714238,"57":-0.04454544725558127,"58":-0.03735440294489271,"59":-0.04383051294687003,"60":0.004626667355749709,"61":0.022631608709633228,"62":0.12089081718922993,"63":-0.04352956936779737,"64":-0.11762028326966649,"65":0.1545599811606917,"66":0.02270331265163921,"67":-0.14219982767369693,"68":-0.02747782410701176,"69":-0.013050701413837053,"70":0.0547356086450518,"71":-0.010270171875699926,"72":-0.023977225615539288,"73":-0.12189557032400135,"74":0.001965791414801926,"75":-0.08928908029768001,"76":0.061548146370639656,"77":0.09318010764509312,"78":-0.07674873641188751,"79":-0.014224346553292504,"80":-0.06769982756357959,"81":-0.024392237602179682,"82":-0.037843202981499756,"83":-0.035113458986420217,"84":-0.024618516725825518,"85":-0.07196562841736394,"86":0.04722672440377158,"87":-0.09297074109934905,"88":-0.0813114995044098,"89":-0.0063034131752000636,"90":-0.08511379836326394,"91":-0.0910179177548172,"92":0.04626850910568267,"93":-0.08710011463000136,"94":0.012637847407842686,"95":-0.000719089509285524,"96":-0.0013505011046091504,"97":-0.14436062884601497,"98":0.021638199842998355,"99":0.08731386346376581,"100":0.08394422620544445,"101":0.05130141918275924,"102":-0.1405758619923852,"103":0.005907385075957248,"104":0.08318298836022464,"105":0.04658940104234582,"106":-0.02588973511577847,"107":0.03570371745882801,"108":0.04197376305801409,"109":0.04080089608519526,"110":-0.006406307051662146,"111":0.05167366613215704,"112":-0.030540182970023543,"113":-0.03334455311665401,"114":-0.014488757547648726,"115":0.050597716596975914,"116":-0.010596760723052056,"117":0.10460008509410165,"118":-0.0828170269182285,"119":0.06949449674398382,"120":0.030805050528292223,"121":-0.012417775935730301,"122":0.10381775098106487,"123":0.0805570696169806,"124":0.011742633564403962,"125":0.09573332418618227,"126":0.05582664871889351,"127":0.024299386195604306,"128":-0.03180777350534481,"129":0.045406866694367665,"130":0.0028062538206443917,"131":0.06319951975064758,"132":-0.02217192882287607,"133":-0.03758040865036938,"134":-0.06565195266357221,"135":-0.0978635843049116,"136":0.002429564198175874,"137":-0.12208501897535927,"138":0.04374328390641015,"139":0.037564452954704085,"140":-0.06975462865144985,"141":-0.02439610469838996,"142":-0.00876619160918789,"143":0.10831801603708807,"144":-0.04671667040655313,"145":-0.07496006160165117,"146":-0.042359641071160116,"147":-0.009600304443248678,"148":0.03468156973714971,"149":-0.1600749358607791,"150":-0.021753634072419006,"151":-0.009434506864592112,"152":-0.006448513872260209,"153":0.00619277443068026,"154":0.11786622886887464,"155":-0.01724107128039108,"156":-0.036174530715755625,"157":0.08607527008752465,"158":-0.02842432519077732,"159":0.0019020851181212471,"160":0.005047096789807514,"161":0.1250034395636771,"162":0.0018149684599651186,"163":0.08714202064584295,"164":-0.03208965420169775,"165":0.009112528229595653,"166":-0.026342917833078325,"167":0.10045903687141719,"168":-0.07279944288153647,"169":-0.02808397732690208,"170":0.028245425296193505,"171":0.13538146918008997,"172":0.041195864065000004,"173":-0.060658015102221755,"174":-0.07743563207506095,"175":0.07955911385899901,"176":-0.08848046469137945,"177":0.019832319163347174,"178":-0.04770434061487853,"179":-0.14192979864533073,"180":-0.014736796570170439,"181":0.07461491575270131,"182":0.12143691674466614,"183":-0.01916972108446982,"184":-0.0486996240916438,"185":0.04639424748661975,"186":0.06225669559916371,"187":0.11042286568965609,"188":-0.0032906235652480566,"189":0.03087327845882578,"190":0.08249988747916072,"191":0.029750107839455177,"192":0.14611873619298577,"193":-0.07464268178311825,"194":0.06734498417170123,"195":-0.010050888235908384,"196":0.1044517250405371,"197":-0.049318974514084374,"198":-0.03994763558880695,"199":0.042793914800594204,"200":-0.03181062419267413,"201":-0.07455998466156002,"202":0.021506722978763184,"203":-0.028452489468758328,"204":0.011296021607241441}},{"sx":1,"sy":1,"depth":205,"w":{"0":-0.09460837046159307,"1":-0.06949155457595341,"2":0.027444038055700105,"3":-0.10712258440409204,"4":-0.11897099272007468,"5":0.02636786552866006,"6":-0.0035981633350496926,"7":0.06337194759291755,"8":-0.018562416736390083,"9":0.0334199813364905,"10":-0.033368049846065125,"11":0.00963471658221933,"12":0.04103467092843518,"13":-0.07624437460403775,"14":-0.10232139363397608,"15":-0.09287183367377602,"16":0.1502596125320667,"17":-0.055041611559839124,"18":0.005198353650629979,"19":-0.016518901513696387,"20":0.012758181835211973,"21":-0.0015960734722643834,"22":0.07581598798202316,"23":-0.07971661158077067,"24":-0.10519716452102346,"25":0.10400234516890548,"26":0.05836946536223079,"27":-0.05210800646975804,"28":0.019626991301000395,"29":0.08194842148229779,"30":0.08268577512720739,"31":-0.051407827777469765,"32":-0.04299134151940545,"33":-0.03319656699676972,"34":-0.02506627155997022,"35":0.05319676687768059,"36":-0.047483398757055546,"37":0.047020583245009684,"38":-0.08326135858792932,"39":0.0015594732667121372,"40":0.019582675182150802,"41":-0.07312843233143244,"42":0.027067387100966477,"43":-0.08943212238178244,"44":-0.1632709139581324,"45":-0.025745879014303877,"46":0.04930837058704231,"47":0.06570379420173592,"48":0.04750640761975873,"49":0.08512848238929493,"50":-0.018258075978655322,"51":0.014620346144877045,"52":0.04833030194937339,"53":-0.03917712734625071,"54":0.042059677787908,"55":-0.020946557098232444,"56":0.07045288380784007,"57":-0.02396078930398598,"58":-0.05781488758557521,"59":0.0021794184687518293,"60":-0.004728818377022856,"61":0.1314002599782762,"62":0.022883477859912432,"63":-0.030247676956291353,"64":-0.02221196395203104,"65":0.04512101108817555,"66":-0.017785720992828397,"67":0.061302642870764444,"68":0.04331171841149556,"69":-0.048279535068978016,"70":0.05184787414071737,"71":0.01418286848272171,"72":0.01440607417151031,"73":-0.057170887210348936,"74":-0.058038638336349424,"75":-0.11959003805477103,"76":0.030935340695287774,"77":-0.12579628984253358,"78":0.04091193290404253,"79":0.10144354586184183,"80":0.08774344638050496,"81":0.08968428241394155,"82":0.10237270267402436,"83":0.02422487830768987,"84":0.011567045911464277,"85":-0.12737247846382696,"86":0.0796240132502459,"87":0.17413129418507478,"88":-0.03901414495767491,"89":0.08233373439637087,"90":-0.055574794487804176,"91":0.038058150927708874,"92":0.06274520518745974,"93":-0.012776736424594334,"94":0.07050310012579493,"95":0.045831438059496,"96":0.13691317118228594,"97":-0.05439373235643197,"98":-0.0020987747073439324,"99":0.039973768139904386,"100":0.08615025851170564,"101":0.0057185060147773616,"102":-0.056660069526557416,"103":0.07408466820156853,"104":0.0010021224055953213,"105":0.0047712724911700725,"106":0.013942443671415724,"107":0.11104867652694304,"108":0.05525040066008957,"109":-0.05656036302011273,"110":0.04240137446181913,"111":-0.08265271636493163,"112":0.11134666689911316,"113":-0.052272492683799514,"114":-0.06560798377723691,"115":-0.08914183540283716,"116":0.05538642685932845,"117":0.0177149965515417,"118":-0.0017225175235240286,"119":-0.08018817809319052,"120":-0.008171201273328484,"121":-0.0003401911631180101,"122":-0.01950705500229204,"123":0.08125655678663346,"124":-0.07750956649669272,"125":-0.04808518092971869,"126":0.07305794246795391,"127":0.02054497921414137,"128":0.016863825113741324,"129":0.03354145802992092,"130":0.08414988833956454,"131":-0.005962016147210084,"132":-0.10502859514412291,"133":0.018446809228657053,"134":-0.034673651665851415,"135":0.036723135672606516,"136":-0.13203074953238148,"137":0.008207174916734384,"138":-0.08129987291347208,"139":0.053996439447406584,"140":0.057972228212636576,"141":-0.19209473602516333,"142":-0.011876199605043257,"143":0.07000865680552025,"144":0.007037862313624855,"145":0.036914907338719785,"146":0.04080193226370808,"147":0.05189818355348356,"148":0.08543333258897301,"149":-0.0025893544359778505,"150":-0.06707390065695171,"151":0.026601210334147522,"152":-0.03367137802685888,"153":-0.03657791627397612,"154":-0.09095192257450609,"155":-0.08609664727056479,"156":-0.017251465010804514,"157":-0.04541475254485338,"158":0.01903295368020127,"159":-0.08701905773661885,"160":0.01924921043686699,"161":-0.05296223650210229,"162":0.003146405201561067,"163":0.011392557826575363,"164":-0.028238593789241755,"165":-0.02703508386862484,"166":0.05094182278197195,"167":-0.03464554617252312,"168":0.015248249003369716,"169":-0.0890580574632104,"170":-0.042976563068773246,"171":-0.04388157683091781,"172":0.0619853062382086,"173":0.07391626829900468,"174":-0.02335771836769694,"175":0.04246801415593375,"176":0.0991569124897041,"177":0.11655132925624696,"178":0.03375047277430248,"179":0.07631561261780734,"180":0.032878496288352516,"181":0.013122594059755082,"182":0.06784072601912058,"183":-0.026220868272094876,"184":0.03274772956680405,"185":0.004151811740455322,"186":0.11986373565297612,"187":-0.18484792295931998,"188":-0.08324704761564228,"189":-0.06127852771839841,"190":-0.01739135529639643,"191":-0.10995127713123012,"192":-0.06741649570836013,"193":-0.09929266346110162,"194":0.0009808665491267243,"195":-0.02753164109726299,"196":-0.018628793065975358,"197":-0.04356299520569858,"198":0.07117554057591287,"199":-0.07485257246976451,"200":-0.0265037480646851,"201":0.019246667398726117,"202":-0.08934636183941143,"203":0.00931292197339206,"204":-0.08580469745380409}},{"sx":1,"sy":1,"depth":205,"w":{"0":-0.12539446451230896,"1":-0.08462803372862729,"2":-0.23680655523095037,"3":-0.04009339532909849,"4":0.0325024709482078,"5":-0.0010197092077192146,"6":-0.03613354284383974,"7":-0.040971648355853166,"8":0.018796278983982177,"9":0.050641082913333066,"10":0.04659922714829959,"11":-0.04014674661518947,"12":-0.13344187351715958,"13":-0.03618924064544247,"14":-0.07225048892330588,"15":-0.023663165252533508,"16":0.003992164459752197,"17":-0.11070409665788451,"18":0.11641072444013591,"19":0.0888002887298071,"20":-0.03424212103079677,"21":-0.07946777723855115,"22":-0.07588894187982559,"23":0.08430550469509807,"24":0.11870411091748471,"25":-0.11882347898475688,"26":0.047665297515678905,"27":0.08301809306548906,"28":-0.0006363799195903266,"29":-0.022587747217978158,