
//<![CDATA[

// a few things don't have var in front of them - they update already existing variables the game needs
lanesSide = 2;
patchesAhead = 15;
patchesBehind = 8;
trainIterations = 150000;

var num_inputs = (lanesSide * 2 + 1) * (patchesAhead + patchesBehind);
var num_actions = 5;
var temporal_window = 3;
var network_size = num_inputs * temporal_window + num_actions * temporal_window + num_inputs;

var layer_defs = [];
layer_defs.push({
    type: 'input',
    out_sx: 1,
    out_sy: 1,
    out_depth: network_size
});
layer_defs.push({
    type: 'fc',
    num_neurons: 100,
    activation: 'relu'
});
layer_defs.push({
    type: 'fc',
    num_neurons: 20,
    activation: 'relu'
});
layer_defs.push({
    type: 'regression',
    num_neurons: num_actions
});

var tdtrainer_options = {
    learning_rate: 0.001,
    momentum: 0.0,
    batch_size: 64,
    l2_decay: 0.01
};

var opt = {};
opt.temporal_window = temporal_window;
opt.experience_size = 3000;
opt.start_learn_threshold = 500;
opt.gamma = 0.7;
opt.learning_steps_total = 10000;
opt.learning_steps_burnin = 1000;
opt.epsilon_min = 0.0;
opt.epsilon_test_time = 0.0;
opt.layer_defs = layer_defs;
opt.tdtrainer_options = tdtrainer_options;

brain = new deepqlearn.Brain(num_inputs, num_actions, opt);

learn = function (state, lastReward) {
    brain.backward(lastReward);
    var action = brain.forward(state);

    draw_net();
    draw_stats();

    return action;
}

//]]>
    
/*###########*/
if (brain) {
brain.value_net.fromJSON({"layers":[{"out_depth":475,"out_sx":1,"out_sy":1,"layer_type":"input"},{"out_depth":100,"out_sx":1,"out_sy":1,"layer_type":"fc","num_inputs":475,"l1_decay_mul":0,"l2_decay_mul":1,"filters":[{"sx":1,"sy":1,"depth":475,"w":{"0":0.037522623259045984,"1":-0.07246629541547407,"2":-0.007421598572154916,"3":0.004702817220742684,"4":-0.046891004284954414,"5":0.037867085292396324,"6":-0.044093801338440555,"7":0.004487011561973669,"8":0.0030979009506010144,"9":-0.043679377196080595,"10":-0.0669013371045083,"11":-0.014222228885960394,"12":0.06438601083046148,"13":0.0040548987402041076,"14":-0.013880798644914503,"15":-0.11385068113504719,"16":-0.024075479765986625,"17":-0.0033158168672799706,"18":-0.009264561015380365,"19":-0.03738106135312675,"20":0.03992455475927642,"21":0.07708372705898583,"22":-0.017550428807112804,"23":-0.035716067867734805,"24":0.008037240574402926,"25":0.030779979364726488,"26":0.058080918860323565,"27":-0.0032691238277239775,"28":0.007990571891067605,"29":-0.0030370981501743276,"30":-0.022390645975724502,"31":0.07068747049448189,"32":-0.015838356775355326,"33":-0.04906121484100231,"34":0.13814324331505434,"35":0.0560875292048857,"36":-0.03305387579902549,"37":-0.010622350388954723,"38":-0.010049560792605286,"39":0.14382240373566532,"40":-0.0036755834011946947,"41":0.04717642563910314,"42":-0.009126271177541065,"43":0.054106150070858124,"44":-0.012893016828326677,"45":0.016979407457908203,"46":-0.01167739861586285,"47":0.02220247783119634,"48":-0.006088154999389795,"49":-0.06322387740744247,"50":-0.041760463972031536,"51":0.0019349781455527434,"52":-0.06411027425332019,"53":-0.02030530133868907,"54":-0.01830739574677879,"55":-0.06963604366211835,"56":-0.13976610825959687,"57":-0.051122533140429846,"58":0.05201193056228473,"59":0.09082662197813912,"60":0.03857070999467149,"61":0.0427141961956851,"62":0.021909549879703706,"63":0.02339043129561928,"64":-0.009973395419319998,"65":-0.019506403496627068,"66":0.019472989318977507,"67":-0.03804363596900249,"68":-0.06258912804516496,"69":0.04010192997253292,"70":0.04954312316869546,"71":-0.020605780785930155,"72":-0.04855936517901494,"73":0.04469959517005923,"74":0.046091589032425426,"75":-0.013474949026102537,"76":-0.005996220763197733,"77":0.08365601034604397,"78":0.042864446923600065,"79":0.015159917315371469,"80":-0.08622051040321205,"81":0.044315126289564716,"82":0.0183140131594997,"83":0.06692019997595547,"84":-0.028048480520026065,"85":-0.00677484354500087,"86":0.011715889113318839,"87":-0.020409714759805193,"88":-0.001613884705489869,"89":0.14460519430460658,"90":0.04741485493982393,"91":-0.002638338945812596,"92":-0.0209406390784163,"93":-0.06715622446972683,"94":0.021212352192918105,"95":-0.044995170576283404,"96":0.06686575277408272,"97":0.021808779925001534,"98":-0.038079860508962636,"99":0.0006723079910934802,"100":-0.04299567701647125,"101":-0.018282231502414342,"102":0.005533023218819304,"103":0.010604999282457664,"104":0.034400854095020576,"105":-0.049122327125813506,"106":-0.004934407122695255,"107":-0.05279080940491832,"108":0.07049745447997519,"109":-0.05961568864466689,"110":-0.04559912556699278,"111":-0.013424946248413783,"112":-0.010427261462026709,"113":0.0035618672440640843,"114":0.048754874294099734,"115":0.023456527206657807,"116":-0.04418580739935088,"117":0.051618749663674385,"118":-0.0036589563931850055,"119":0.0942098183177622,"120":-0.017140698780459894,"121":-0.042100535594608336,"122":0.017284226498167524,"123":-0.0028287667179450614,"124":-0.014899432433043345,"125":-0.0244276734732249,"126":-0.04891613346359431,"127":-0.01640408574605944,"128":-0.028476860025545996,"129":0.034264474036482535,"130":-0.026596044531254234,"131":-0.01585559698922408,"132":-0.038793624455781314,"133":0.034246398884720274,"134":0.08071496040661567,"135":0.012247772524905007,"136":-0.04313827582997339,"137":0.05337641601209862,"138":0.029374806690305934,"139":0.013543436050711864,"140":-0.029995898411033135,"141":-0.029997410815329105,"142":0.0007587185609887261,"143":-0.03880998912388073,"144":-0.005007053589527993,"145":-0.08601974536973807,"146":0.04048307954464884,"147":-0.05749710999724526,"148":0.022915841499128498,"149":0.031040516969681388,"150":-0.053014418254052134,"151":0.005345438926812936,"152":-0.051848485856385976,"153":0.06597645040841814,"154":-0.001213786680641654,"155":-0.04930356960272306,"156":0.049234623529365695,"157":-0.001630410468814114,"158":-0.0044666476655783145,"159":0.14263005703864656,"160":0.021625554658688775,"161":0.050172023551102334,"162":0.013766219581879348,"163":-0.052518249919320234,"164":-0.014536467713627033,"165":0.03270085678633588,"166":0.0303701967841974,"167":-0.018561565832247374,"168":0.08706751099011904,"169":0.021603697724130812,"170":-0.09641462357592293,"171":-0.03834606170347431,"172":0.005480610173632273,"173":-0.019409228678749623,"174":-0.014387074656649219,"175":-0.10680489719746533,"176":0.025927525911954935,"177":-0.06804594213515622,"178":-0.007455951225286285,"179":-0.06651614689335139,"180":-0.08288100084519566,"181":-0.008617311843619182,"182":0.11570854174480896,"183":-0.08554424532154455,"184":-0.04648637249050972,"185":0.0341899666218839,"186":-0.0061932000581999295,"187":-0.04552927746234099,"188":-0.07015600742069186,"189":0.01791973776303012,"190":-0.006100423332509266,"191":-0.012214113997984737,"192":-0.010257567582763447,"193":-0.015708745929937904,"194":-0.032816519202310816,"195":-0.10967809540869582,"196":-0.03771660484185281,"197":-0.005334130325804341,"198":0.0002898798855777624,"199":0.040888366769053164,"200":-0.034699369632128184,"201":0.08052574705072515,"202":0.040283278612769174,"203":-0.013298540078217508,"204":0.08406636970126477,"205":-0.0533768096280147,"206":-0.01563704941341193,"207":0.0596101061905682,"208":-0.09302945843439638,"209":0.01422505926013631,"210":0.021177783544122676,"211":-0.03139858622452843,"212":0.0015614759297150984,"213":-0.03381872246391788,"214":-0.03428210564125209,"215":-0.022710181219406114,"216":-0.04674239138400432,"217":0.06306007962644347,"218":-0.0006031579507336109,"219":0.04734795781580844,"220":-0.05170756538050794,"221":-0.05348668813465158,"222":-0.06039700219986879,"223":-0.010516740391718073,"224":0.06897657798254193,"225":0.030356233839168988,"226":0.03789687056707399,"227":-0.0721069142370578,"228":0.014389637761030123,"229":-0.05555778145118429,"230":0.029027849521140958,"231":0.0030436433340862404,"232":-0.03607006535662601,"233":-0.03941938599964579,"234":-0.027343992669655943,"235":-0.04316680242460252,"236":0.09596185177090664,"237":0.04723762712929038,"238":0.050891995291620785,"239":0.15264073803132114,"240":0.043226675485624415,"241":0.02086776095666478,"242":0.025475634028591185,"243":-0.011146511659572816,"244":-0.013966334906537679,"245":-0.04946106675052945,"246":-0.007828265658553421,"247":-0.016579756763524307,"248":0.0002716708884531947,"249":-0.054094605009293265,"250":-0.013619576646403618,"251":-0.07448720060371643,"252":-0.014685689200077411,"253":-0.004484967521136421,"254":0.10023648208497699,"255":-0.007118333493884518,"256":0.021108640029675607,"257":0.018042416141361324,"258":0.02650094149794517,"259":0.0019345001596816262,"260":-0.03538876119992137,"261":0.06987934519376059,"262":-0.06540095067942289,"263":0.05586685803311009,"264":-0.053869023163964656,"265":0.02721894780823763,"266":-0.021892288110683687,"267":0.0012178408427762192,"268":-0.010482887948099553,"269":0.03438408825730815,"270":-0.04533417596534926,"271":-0.08851777319181582,"272":-0.042627950671094116,"273":0.02060252059621955,"274":-0.060630658542631895,"275":0.021077027192630694,"276":-0.017897174599147952,"277":-0.06906683711939886,"278":-0.03549472862894709,"279":0.026582297116576916,"280":-0.004282651085950198,"281":-0.05666356285181693,"282":0.06396328747703507,"283":0.026824284399449855,"284":0.06293780665106583,"285":-0.06609929324149538,"286":0.03958848169630542,"287":-0.03211969884010718,"288":-0.05568583830649685,"289":-0.04393150770536347,"290":0.007929156213808531,"291":-0.011764122379980198,"292":-0.038331621324473694,"293":-0.030978296822478824,"294":0.017690971255244565,"295":-0.07835040590223005,"296":0.049189857386393344,"297":-0.02361052394202628,"298":-0.01826991157519414,"299":-0.046666678499049805,"300":-0.02841090303480029,"301":0.04473000404131342,"302":-0.029926027552060207,"303":0.016479136613218735,"304":0.12312258920748238,"305":-0.04256312030017025,"306":-0.006611229221010943,"307":0.08165287521292931,"308":-0.0042145432510937155,"309":-0.025387052766027263,"310":-0.07639550473117043,"311":-0.05107547211333571,"312":-0.06453808893743845,"313":0.048390069600032413,"314":-0.02910485674229775,"315":-0.11396609860513579,"316":0.05484623908178602,"317":0.058339043304363285,"318":-0.026870938338281955,"319":-0.011329467330077555,"320":0.02872203518943425,"321":0.05317685254841257,"322":0.01635343615701186,"323":0.0005388193474358125,"324":0.015854135207303208,"325":-0.04926534673362386,"326":-0.04233461296406403,"327":-0.05422384192444309,"328":0.029862911089516837,"329":0.04944319047883106,"330":-0.08394376863499738,"331":0.03577022175575743,"332":0.011820406921934413,"333":-0.029751075188675397,"334":-0.06893926766250964,"335":-0.0999035300672768,"336":-0.04869307481244838,"337":0.03861004764906741,"338":-0.055357555795283224,"339":-0.014891660136882432,"340":-0.009607111666401736,"341":0.03002524715180509,"342":-0.046053129428754384,"343":-0.029132024619212705,"344":-0.06991499957066498,"345":-0.06894607907927643,"346":-0.05690765087430992,"347":-0.025129583608573376,"348":0.06871478359195898,"349":0.05049780118265319,"350":-0.03790364462786144,"351":-0.0004198457628377165,"352":0.08072804848726578,"353":-0.030318959324584133,"354":-0.07913606657627113,"355":0.07178872563268296,"356":-0.04607952787708329,"357":0.03596642996938948,"358":0.013573651965840153,"359":-0.011136766241732023,"360":0.04527855806222944,"361":-0.05421030527591919,"362":-0.03155432946905568,"363":0.06502014429631875,"364":0.08929215234470375,"365":0.0628838838065986,"366":0.03919976631971116,"367":-0.02534744776173686,"368":-0.059543127569624404,"369":0.0173201779041547,"370":0.0172266081362179,"371":-0.0033448037343945065,"372":0.04157225900527349,"373":0.03938804374716541,"374":0.0316933408070714,"375":-0.012847734224855249,"376":0.012606270900968186,"377":0.0464423775871126,"378":0.03419712449247571,"379":0.01961041728609149,"380":0.03220869671585687,"381":0.01277168566162173,"382":-0.0675933570821773,"383":-0.047459603914292464,"384":0.016030616050165182,"385":-0.061775701934312574,"386":0.0012437359340874957,"387":-0.08077970206647411,"388":-0.0012891526034949426,"389":0.016181129213053116,"390":-0.029198764821049997,"391":-0.041024881882631266,"392":-0.04037126383653642,"393":0.0713946662584245,"394":0.03539976343506501,"395":0.02847556849694573,"396":-0.012680138513962116,"397":-0.04354124867450169,"398":-0.03146903685069891,"399":0.011459920323013382,"400":-0.022607529902180665,"401":0.006738189524658684,"402":0.04696154316580932,"403":-0.06312775030307081,"404":0.06843400455515934,"405":-0.004747317019510603,"406":-0.021525252731986664,"407":0.09098826832799657,"408":-0.0666809010020786,"409":-0.0010135420094924393,"410":-0.036209022927140476,"411":0.015673297048852192,"412":-0.04144440859555082,"413":-0.031042902840961905,"414":-0.05766835751781187,"415":-0.012902775551065337,"416":0.0798651318152979,"417":-0.027142070352887477,"418":-0.06292815565745907,"419":0.08092865730906658,"420":-0.02249795173962904,"421":0.029374761101561446,"422":0.03139000090362193,"423":0.025271397412691615,"424":0.03918297608850055,"425":-0.0774962988662694,"426":-0.01675917167210333,"427":0.03481431135436787,"428":-0.05082379692039324,"429":-0.0026694812653113046,"430":-0.009532763471024976,"431":-0.08864987365737663,"432":0.07392905132279337,"433":0.033923224651178197,"434":0.06520387679291663,"435":0.016570055218116258,"436":0.0912486826125301,"437":-0.014116688826286704,"438":-0.07957288553692411,"439":0.08394370306195507,"440":0.057523869447416894,"441":-0.009673423930711276,"442":0.007346335927952873,"443":-0.050781108858429985,"444":-0.03223870168069999,"445":0.012437321811280797,"446":0.039248036167130865,"447":-0.0073443148520895875,"448":-0.011927931857872009,"449":-0.0730250554795951,"450":-0.03295680894675287,"451":0.004896625858531789,"452":0.008997981646320718,"453":0.0337661050564814,"454":-0.02865868073609033,"455":-0.052916701971825894,"456":-0.011701425475960911,"457":-0.04317295931114815,"458":0.02190283438425101,"459":0.11169124977983565,"460":-0.05640819169822796,"461":-0.03988056983498837,"462":0.0008262017621765892,"463":0.008090296151399529,"464":-0.010469392819341308,"465":0.007338246611147619,"466":0.004091828241041634,"467":-0.030937639458488222,"468":-0.10761913733729718,"469":-0.022693683904735563,"470":-0.022010763507442657,"471":-0.056546037411142266,"472":-0.031336820877884135,"473":0.0031569005517420538,"474":-0.018098521623235917}},{"sx":1,"sy":1,"depth":475,"w":{"0":-0.0020832193348716815,"1":-0.010239347295242002,"2":0.09196001561577456,"3":0.05295409022025654,"4":0.01661063511197269,"5":0.024932463338751317,"6":0.024972043753587376,"7":-0.0031450328474480664,"8":0.08654915956613794,"9":0.037829502142715334,"10":-0.030503149612031825,"11":0.04105857285611055,"12":0.025951690579000226,"13":0.004489606033102859,"14":-0.06510777888294705,"15":0.05976691936506385,"16":0.050205773138922924,"17":0.009254702874152993,"18":-0.03113813263845358,"19":0.10661452095469767,"20":0.059218141510078544,"21":0.03963448415789203,"22":0.14290838249307786,"23":0.06381630558447715,"24":-0.0321966299960334,"25":0.02265799324641456,"26":0.010397394709926282,"27":0.031723921415797246,"28":0.07313969259019858,"29":-0.10947799607353523,"30":-0.019035604651998772,"31":0.028392857380172897,"32":0.02575415388307576,"33":0.03818143542710921,"34":-0.03482622650514013,"35":0.013816193435154733,"36":0.025573333027342226,"37":0.06900568929559912,"38":0.021916439048842516,"39":0.08023611906808217,"40":0.08025191802659977,"41":0.0187490278305963,"42":0.05866016717391634,"43":0.026482751991611275,"44":0.0006487934565310275,"45":-0.008515454248395886,"46":0.01369889335475552,"47":0.06485752735476316,"48":0.0513254770653372,"49":-0.06488788746302085,"50":-0.020394539945182373,"51":0.03329879634392775,"52":0.038894922195597634,"53":0.006020300992205388,"54":-0.060498827214064764,"55":0.013184699077450535,"56":0.01641644194376256,"57":0.013456762866705779,"58":-0.014461217318928904,"59":-0.060751373766082035,"60":-0.01684114087713991,"61":0.07567782792875302,"62":-0.009050408444854692,"63":0.08095728969275787,"64":-0.007301780044280834,"65":0.04081776519669245,"66":0.051523880249774445,"67":-0.07116413257352443,"68":-0.001627406534198177,"69":0.04357283126273006,"70":-0.029757279022290816,"71":0.044247332783833006,"72":-0.003088919579829065,"73":-0.03334481743531767,"74":-0.13773162221255617,"75":-0.023545988420418548,"76":-0.023818953825393018,"77":0.03924336837834266,"78":-0.0953371682499661,"79":-0.014063435822426905,"80":-0.013379831558068827,"81":0.05863354170842965,"82":-0.007931952909447908,"83":0.12639168175749632,"84":-0.06562639760234967,"85":0.08709607045354598,"86":-0.06900149832406334,"87":-0.03888587705610657,"88":0.017294105988637176,"89":-0.03644074172258691,"90":0.06009581029267842,"91":0.04917462403824421,"92":0.015962868963915026,"93":-0.0502100322097293,"94":-0.024099905648901482,"95":-0.038121260413333614,"96":0.062261489211531226,"97":-0.028860312086562482,"98":-0.031154905714740666,"99":0.013901934365355906,"100":0.011133689284747499,"101":0.004429698304277687,"102":-0.03584240218963642,"103":0.00904550041894294,"104":0.02605339831720899,"105":-0.06124380320606725,"106":-0.0479893084787223,"107":0.006670273434492708,"108":-0.0015489749896677916,"109":-0.07383506333890545,"110":0.022632490413122822,"111":-0.049746404967058594,"112":-0.03996537476799639,"113":-0.0630577613883138,"114":-0.07744251561819357,"115":-0.03657964533917257,"116":0.015034952678206237,"117":0.034592198793138254,"118":0.008193998857166419,"119":-0.03350840619788426,"120":0.07208170365767955,"121":0.010180736042827761,"122":-0.04662981045216472,"123":0.03904219517144115,"124":0.00829442829798201,"125":0.07089012234964623,"126":0.06048812869921171,"127":0.01268546969080731,"128":0.047427515198018806,"129":-0.022094243991131676,"130":0.05541125407928834,"131":-0.019299435309597022,"132":-0.013909977528808742,"133":0.03907173319283646,"134":-0.05933094312430677,"135":-0.0035012542659189037,"136":-0.039968936634547855,"137":-0.02902616571584968,"138":0.035690690558486636,"139":0.0390538760606779,"140":0.0012343958205852288,"141":0.01889797171645131,"142":-0.059920287487151946,"143":0.023499236192478182,"144":-0.030422077726763738,"145":0.029014050686173985,"146":-0.051039128839231084,"147":0.01542811668176352,"148":0.013808210483004795,"149":-0.027238116701565476,"150":0.03229399587244536,"151":-0.011140154218034874,"152":-0.023108846933928024,"153":0.02679036507597717,"154":-0.03389989707479852,"155":-0.007713564592323287,"156":0.08306306886795183,"157":-0.029779299790903963,"158":-0.04395243883525136,"159":0.033208548396770114,"160":-0.01344094244397806,"161":-0.02081290481035938,"162":-0.02569392666429842,"163":0.0279475158719334,"164":0.013661307200999938,"165":0.017032699877733953,"166":0.06477789014400688,"167":0.06218140577174741,"168":-0.07751877487425296,"169":0.06536919109614361,"170":-0.002675305059204058,"171":0.010157568175553583,"172":0.03277052330415864,"173":-0.04525493201410027,"174":0.021848535896582574,"175":-0.004350158133009423,"176":0.014575742719437202,"177":-0.008877622360221367,"178":0.0026772568297152508,"179":0.0011907699493964087,"180":-0.031810783484293455,"181":-0.0030341508128870036,"182":0.06003224862753028,"183":0.07487046673457518,"184":0.0375970277192529,"185":0.06988122441362556,"186":0.0018136116875694633,"187":-0.022774360621476364,"188":-0.0017117243242804336,"189":-0.033767381056340966,"190":0.031151831297791043,"191":0.011604937466908393,"192":-0.039122649339656285,"193":0.03155035600212786,"194":-0.0845521098492786,"195":0.012749815115493312,"196":-0.007316558851492961,"197":-0.05818468747022014,"198":0.011817961835986119,"199":0.018160368254540343,"200":0.03587415927942847,"201":0.006288850186009346,"202":-0.11407104071072799,"203":-0.030879525792923197,"204":-0.08238184236515422,"205":-0.026176082916190172,"206":0.081806297750771,"207":-0.040914494862742866,"208":0.04074597149159651,"209":0.029887427903068982,"210":0.03601152090699869,"211":0.04845755097902069,"212":-0.03817473851190823,"213":-0.01372721127765841,"214":-0.06588547633513973,"215":-0.006653030298786573,"216":-0.014180959177881834,"217":0.06230546947488651,"218":-0.034914435383699205,"219":0.0011233866466023035,"220":0.02686462782672318,"221":0.038145406435581584,"222":-0.026992399769046407,"223":0.015185410870691014,"224":-0.0164542433804723,"225":0.056318823670040624,"226":-0.044555816177837534,"227":-0.026388511251830254,"228":0.02861430394598682,"229":0.020902513498327217,"230":-0.004836954208210926,"231":-0.07761280281928462,"232":-0.00033167347105726166,"233":-0.036347565367071996,"234":0.04171603329847791,"235":0.038340914916450745,"236":0.06937970687938498,"237":0.04362506366612026,"238":0.0072567189260983106,"239":0.08463888833764585,"240":0.03778499448943059,"241":0.09332067585154534,"242":-0.010688482180345748,"243":-0.0813783861122085,"244":-0.0348519289165879,"245":0.017010654329284357,"246":-0.010295183794151223,"247":-0.04423804806926504,"248":-0.018130874253475742,"249":-0.035416307035719505,"250":-0.037971597013512694,"251":0.033445137044894886,"252":-0.05102858791384765,"253":-0.07580550684884414,"254":-0.028426064730965206,"255":-0.04366944022759069,"256":-0.03461273776019376,"257":0.03624062197114543,"258":0.005601267791754163,"259":-0.004454131104587388,"260":-0.0070530238926968325,"261":-0.05812156343988108,"262":0.07010199416673894,"263":0.02906900194376649,"264":0.0159204592755254,"265":0.05654372449824748,"266":0.04425077734953755,"267":0.0672237451660422,"268":-0.01650010064117387,"269":-0.013920310115483569,"270":0.052095653851372374,"271":-0.0504246831848466,"272":-0.0076424612533147855,"273":-0.02712242195477534,"274":-0.041638667021654384,"275":-0.05552745568912077,"276":0.02742682176832683,"277":-0.02540766802775929,"278":0.028826173866007155,"279":-0.025304693481561457,"280":-0.0023667505922917082,"281":-0.007197419836744007,"282":-0.08244943130131319,"283":-0.001764702689014426,"284":0.0299581970051214,"285":0.11109463717647856,"286":0.006680055268296353,"287":0.03324333132910836,"288":-0.04479946040444755,"289":-0.010293187174755608,"290":0.029160569988056183,"291":-0.005928218633309857,"292":0.11868385797702617,"293":0.0014470082411320267,"294":-0.06531297087494801,"295":-0.05818341083075723,"296":-0.019974243141761484,"297":-0.00449484728364402,"298":0.013240201005469278,"299":0.008835815534191778,"300":0.008755837167540028,"301":0.009877781618319906,"302":0.05134880716531446,"303":0.05978710136128536,"304":-0.06974062551667352,"305":0.0015942004168087403,"306":0.01717304998971626,"307":0.0030793971136460763,"308":-0.06794308077832044,"309":-0.04894035976574949,"310":-0.0385324881823943,"311":-0.006127869456810196,"312":-0.017632587674330184,"313":0.024204631954220363,"314":0.005358304690228438,"315":0.015425419999765055,"316":-0.06605320727408184,"317":-0.002936273076847073,"318":-0.013883411140472023,"319":0.04172426932743147,"320":0.05277033286572548,"321":-0.01998153135885681,"322":-0.012005897546522412,"323":0.013993650944971249,"324":-0.08189514436554746,"325":-0.025306819641012435,"326":-0.01038599649999526,"327":0.09087144019887486,"328":0.05475504893833761,"329":-0.13119385891687393,"330":0.00777982439567352,"331":0.04802045829597468,"332":0.026011861903801524,"333":-0.009773701888557484,"334":-0.03072522255332591,"335":-0.006600990795565551,"336":-0.003530938126352791,"337":-0.03415483575104388,"338":0.013330158171073754,"339":0.015323110811274153,"340":-0.0015793666220490408,"341":-0.07484042161016342,"342":0.07149381728027458,"343":0.06820722737705914,"344":0.013598910509746149,"345":-0.03955770429937865,"346":-0.014592446568627345,"347":-0.00024747515332056256,"348":-0.019816930716806864,"349":0.004560278071202473,"350":0.02339595434873891,"351":0.04351316281368979,"352":-0.025240837223330842,"353":-0.033024630805146636,"354":-0.10228301437554241,"355":-0.11197513170476013,"356":-0.004197290965027808,"357":-0.03372653569929221,"358":0.01916670832569228,"359":0.03740408787054744,"360":0.015807029618209283,"361":0.03225775398722246,"362":0.007493907269061095,"363":0.03127846367544556,"364":-0.004058798179333376,"365":-0.03727935174703335,"366":-0.02353336970949194,"367":0.09687600965800701,"368":-0.03391356890346836,"369":-0.0017459698565769864,"370":0.0446005563673839,"371":-0.04597581333757835,"372":-0.040697453673784065,"373":0.034447675452431305,"374":-0.03879118849642682,"375":0.09011979391462448,"376":0.005838108215540363,"377":-0.03817297398249694,"378":0.0716696928305065,"379":-0.07333319554528343,"380":-0.0006637821354198099,"381":-0.04192727662551074,"382":-0.03868031504480912,"383":0.02728509477265686,"384":0.023301182281813215,"385":0.05091613249831361,"386":0.05323073926519483,"387":-0.031564982796875064,"388":-0.008698400926728713,"389":-0.039832749572580414,"390":0.032678285558015004,"391":-0.04702806840318117,"392":-0.0019958826132113337,"393":-0.11784236865477618,"394":-0.06925660440330908,"395":0.03134125246601424,"396":0.104552643519057,"397":-0.02955379903866524,"398":-0.10629816400854702,"399":0.0760244379253657,"400":-0.010420539284698722,"401":0.020325588970842353,"402":0.009323699929234798,"403":-0.05020647896191315,"404":-0.042773457829277335,"405":0.01023861303471588,"406":0.0516369050594967,"407":0.029162369292259516,"408":-0.05817066217718627,"409":-0.0056037726273148744,"410":-0.0008047207316625533,"411":-0.028773143243979837,"412":-0.0058874996136803965,"413":-0.036603736153229205,"414":0.010516115577419473,"415":0.04455560819446772,"416":-0.09277770497948029,"417":-0.015827148020590768,"418":-0.024679586552631878,"419":0.004820288769464863,"420":0.10788678066717722,"421":-0.026276218016304885,"422":-0.052985717594530524,"423":-0.05436385832726315,"424":0.06589864281742812,"425":-0.006360168114957412,"426":-0.06014429656193433,"427":0.011916794369943515,"428":0.030874073395061735,"429":0.073788362726689,"430":0.015982920451439897,"431":0.02596833933028179,"432":-0.005056526663747985,"433":-0.05508551962251196,"434":-0.03473485486461961,"435":0.03022065137509393,"436":0.027835212139644978,"437":-0.021334176540761248,"438":-0.020297855032714276,"439":-0.022819581393136588,"440":-0.003232651289284382,"441":0.007053666199236399,"442":-0.01603857989496043,"443":0.019057003846147245,"444":-0.07015885737608676,"445":-0.02360623080208822,"446":0.005195124384175726,"447":-0.03426592842301122,"448":-0.009397863185381232,"449":0.008889186530485068,"450":0.04009716255600543,"451":0.03225121283570337,"452":-0.0730969101673358,"453":-0.03939656879210427,"454":0.031162923928314774,"455":-0.08078933083301895,"456":-0.011151461421528135,"457":-0.023531729593751122,"458":-0.03540983299651558,"459":0.0031423161589581574,"460":-0.06969199461958582,"461":-0.024032931073154344,"462":-0.023005930626624548,"463":-0.11287837285934049,"464":-0.0756656031258487,"465":-0.02398708093467035,"466":-0.03258027584843824,"467":-0.012487353557037166,"468":0.06547710676330992,"469":0.042650860487211825,"470":0.07599552074383176,"471":0.014960343302140062,"472":-0.10260480358720309,"473":0.015838064401568354,"474":-0.020885139769164864}},{"sx":1,"sy":1,"depth":475,"w":{"0":-0.07101279108915484,"1":0.02863919492077529,"2":-0.013667467006436689,"3":-0.05013264074848344,"4":-0.025715643379686966,"5":0.04308052716345251,"6":0.009519137896846467,"7":0.014090654014632168,"8":-0.040234248946964334,"9":0.01217975023381516,"10":0.0433227261420489,"11":-0.06287599234512588,"12":-0.058187159830647435,"13":-0.02651833249114369,"14":0.0020692719089197846,"15":0.0037982861535086525,"16":0.0006763881010013119,"17":-0.011079950063932826,"18":-0.02336919642088002,"19":0.07683433742069241,"20":-0.004536698935094483,"21":0.027820877486487254,"22":0.020310462806122098,"23":-0.015287456080034623,"24":0.014171574580533197,"25":0.046654421654549104,"26":-0.01387684229731093,"27":0.03146626819167749,"28":0.008629021214487225,"29":0.07006294681326658,"30":-0.00018492259115407742,"31":0.008095896614439943,"32":0.0706918319201094,"33":0.027269882539599742,"34":0.06639233297946996,"35":-0.06940168226773051,"36":0.04135284846116993,"37":0.004063126008284624,"38":0.024106386904955878,"39":0.017831616083545585,"40":-0.02557043674474992,"41":-0.12212564960323354,"42":0.05025735418470136,"43":-0.016672390148507944,"44":-0.052511966029931544,"45":-0.04313667016668029,"46":-0.016687129912467402,"47":-0.03245405524515938,"48":0.047423295117410204,"49":0.036433474408505945,"50":0.047349979250054096,"51":-0.038943145335149615,"52":0.02983120760550412,"53":-0.04502670191549747,"54":-0.0711766514502744,"55":0.01720886794457803,"56":-0.00870232357352586,"57":-0.013930565006811953,"58":-0.06253757406492334,"59":0.03397418760503474,"60":0.019687172161568938,"61":-0.01341970747552376,"62":-0.03504273255000596,"63":0.0021214287132307924,"64":0.026575227921289826,"65":0.05806326152598663,"66":-0.04460514611348616,"67":0.014180715916073552,"68":-0.039653506395112656,"69":-0.009206476014049522,"70":-0.07006462053517698,"71":-0.012903980241943593,"72":0.03571740293180235,"73":-0.07664683665392764,"74":-0.05048901782629077,"75":0.04653173867209699,"76":-0.04340002131204384,"77":-0.15392357629021983,"78":-0.06811611319968737,"79":-0.06953834216068491,"80":-0.0032886998001336117,"81":0.0028823374268749716,"82":-0.1306562040857673,"83":0.0067463616355038685,"84":0.039217933883306084,"85":0.07545524998803425,"86":0.012663942160805812,"87":-0.1500083981211657,"88":0.08000203485660935,"89":0.03863828918423052,"90":0.07438732655048222,"91":0.052478897198907776,"92":-0.12483119597849816,"93":-0.03559939338007234,"94":-0.05546387765511658,"95":0.049118269450920175,"96":0.05795569180724718,"97":0.010355348240720772,"98":-0.0038511633792735773,"99":-0.035238996716242595,"100":0.01074066029182111,"101":-0.015429497277811736,"102":-0.006245375488895963,"103":-0.051070650310397425,"104":-0.07635233645343543,"105":0.016382926675032352,"106":-0.023938457575973654,"107":-0.0009558489809514516,"108":-0.015508305276799328,"109":0.04270503428628709,"110":0.05780058096702848,"111":0.02126912661123595,"112":0.004776423460802412,"113":0.07496111362184152,"114":0.027106949974285397,"115":0.04738196028387873,"116":-0.08259287874123587,"117":0.009350900362649187,"118":-0.09540097915292826,"119":-0.03493630137437128,"120":0.07262050784724162,"121":0.060780050309901704,"122":-0.009603182518687189,"123":-0.025682173604422754,"124":0.019529134286917237,"125":0.012095476863844124,"126":0.02153584214060682,"127":0.011348689069185625,"128":-0.031831950868833905,"129":0.02423053330665537,"130":-0.029076769491881982,"131":0.01643946247301852,"132":0.022897308147352344,"133":0.05072959111408758,"134":0.024582584358627972,"135":0.02456678771979163,"136":-0.07717861108475658,"137":0.08472400741703175,"138":0.08201946224010687,"139":-0.04864738445270467,"140":0.028378246886947754,"141":0.05558391109931006,"142":-0.02558714317850402,"143":-0.003516758591495724,"144":0.055193805850162786,"145":-0.08854467246317513,"146":0.07078628902830342,"147":0.002266442445245366,"148":-0.01333206430234633,"149":0.029847410162894758,"150":0.08343854441773177,"151":0.06630206336144984,"152":-0.008546164267754758,"153":-0.036477292160815966,"154":0.05364539545934511,"155":0.10138976195333163,"156":-0.10730552276127692,"157":-0.07604075698109149,"158":-0.154195183114838,"159":-0.011778367838316027,"160":-0.052235784177980304,"161":-0.11551413993286998,"162":-0.036800026347797755,"163":-0.00824005885696759,"164":0.07823071915440159,"165":0.0014846715836381935,"166":-0.033526730260730914,"167":-0.032011199992745654,"168":-0.05644704992323025,"169":0.009328301506302334,"170":0.012573391462326248,"171":-0.010602595076344035,"172":-0.037604871421466436,"173":-0.025529098189259376,"174":-0.0430195608018541,"175":-0.11604363527728855,"176":0.0075009744082817215,"177":0.039634279189798484,"178":0.030342916209390194,"179":0.04767037678744341,"180":0.012759329424521166,"181":-0.05801222019760506,"182":0.034898637299641024,"183":-0.04850580112236373,"184":-0.05177576453881495,"185":0.0016301896731649316,"186":-0.012161333144317442,"187":0.0025928914637951316,"188":-0.03281672010678765,"189":0.10094405776411217,"190":0.0032988207057344466,"191":0.12581935220218063,"192":-0.0851610852610413,"193":-0.009222781338915582,"194":0.052231760387414145,"195":-0.018578493894648756,"196":0.013443229624034643,"197":-0.20798772328012044,"198":0.03908048107941953,"199":-0.021214013522965026,"200":0.007684069366518239,"201":-0.007465839429901,"202":-0.19618528362594922,"203":-0.0194644774182896,"204":0.045738858051718095,"205":-0.01518518206307352,"206":-0.004777460667174605,"207":-0.07180288618548629,"208":0.03486999543819467,"209":-0.023053874212749504,"210":0.0024209081999710487,"211":-0.04519588269935967,"212":-0.015239839626577503,"213":-0.013430273445750915,"214":-0.05968487685185854,"215":-0.007014114294515583,"216":0.030924141242332462,"217":0.08351664262108535,"218":-0.03745293813469059,"219":0.008812506316033775,"220":-0.00616342336134811,"221":-0.0003929128087820573,"222":-0.06583143517389742,"223":0.03621139943544583,"224":0.029944207791779327,"225":-0.028953787966634437,"226":0.03202258704986203,"227":0.02155351040849199,"228":-0.028881437047987752,"229":-0.10825311828754958,"230":-0.003080692214461133,"231":-0.10020648102446905,"232":0.01866905663157413,"233":-0.03757486322772306,"234":-0.026303641048588178,"235":0.0648809541199948,"236":0.05610028589542667,"237":-0.033072713185067625,"238":0.038459591166955936,"239":0.008140136881364347,"240":-0.06265548329291236,"241":0.0338816299557937,"242":0.0030571537609886293,"243":-0.010134769874632597,"244":-0.027512805863395304,"245":0.024769128320525163,"246":0.01139338136294582,"247":0.06055239927804178,"248":-0.06671844554562933,"249":0.012546929416444186,"250":0.047825189667607744,"251":0.05256237554762779,"252":-0.006903853735535335,"253":0.06868912005934477,"254":-0.06079787084188768,"255":0.01693157445292236,"256":-0.06689062123281822,"257":-0.04279313452519465,"258":0.02881136478644906,"259":0.07954063466792884,"260":0.03502047403444099,"261":-0.041829908030564494,"262":0.04075259283738561,"263":0.011152621197524061,"264":0.002127696877540996,"265":-0.04084665941934672,"266":0.04092026773629148,"267":0.05765916511084322,"268":-0.04331208414403692,"269":0.023502771791938208,"270":0.0184232608214066,"271":0.05039750807578038,"272":0.040310071844530296,"273":0.06638339355172947,"274":0.08052255307540647,"275":0.03643824446947783,"276":-0.011248582155327456,"277":-0.005381888806387608,"278":0.026111457856176995,"279":0.005841348649996689,"280":0.07809976971350484,"281":0.06931618840301512,"282":0.05117895532105768,"283":0.022013977912329553,"284":0.025674331919816554,"285":-0.00959492028793282,"286":-0.065172041929476,"287":0.07594130213403931,"288":0.033668389186467876,"289":-0.0011701243523956702,"290":0.06344901764072608,"291":-0.0282034835783223,"292":0.0685146532158368,"293":-0.018617569921654916,"294":0.05819440606149567,"295":0.09148328006552323,"296":0.04540989344452817,"297":0.03664869512989145,"298":0.03279411027570569,"299":0.02077938763827731,"300":-0.029917269184846083,"301":0.08760455778308697,"302":0.024556359171649594,"303":-0.016186394779657498,"304":-0.03485947385175599,"305":0.031751402443583286,"306":-0.058914833784162665,"307":0.04411395075072414,"308":-0.01081866086841964,"309":0.044033820926357506,"310":-0.02630167431697618,"311":-0.051678286099507406,"312":-0.034335247164359095,"313":-0.0676543618057882,"314":0.06277151394614659,"315":0.042524761310516794,"316":0.002932425080581709,"317":-0.04501874393020962,"318":-0.023203806106989886,"319":-0.0016724795092549658,"320":0.030098417982464275,"321":0.08698701429195033,"322":-0.05749776334722307,"323":0.017355424562656502,"324":0.05385603436968824,"325":0.0437367220298226,"326":-0.023257238571085463,"327":-0.13575716060290538,"328":-0.007533613276498106,"329":0.008167534780194134,"330":-0.008198958690530197,"331":0.00418702687792338,"332":0.01891784691027096,"333":-0.06667118275106648,"334":0.030881824982930753,"335":-0.02351885745817939,"336":0.006191606288717065,"337":0.020083323311136186,"338":-0.059110913378508496,"339":-0.03263523473523466,"340":-0.012093900329464648,"341":-0.013565050147857308,"342":-0.021487477921581094,"343":0.007448925656137291,"344":-0.009012977029380734,"345":-0.0077730479532285455,"346":0.0458922471437917,"347":-0.07298896848574966,"348":0.043274983852716525,"349":0.012533750933710675,"350":0.06406083829716333,"351":0.009325728867067644,"352":0.11063596052902328,"353":0.009173085145254853,"354":0.04039908365629488,"355":-0.017984758484124744,"356":0.04989441726843541,"357":-0.07357069539740226,"358":0.023282159978093298,"359":0.025993376812327763,"360":0.038071698055863606,"361":0.0019773849721366676,"362":0.0031173505006166376,"363":-0.0053725674820204435,"364":-0.07039625291575566,"365":0.003741318609455944,"366":-0.00789407366869326,"367":-0.018541405419943587,"368":-0.04786322910620483,"369":0.003011060065935075,"370":-0.0012733223723629047,"371":0.008345279153721215,"372":0.010930700736280701,"373":0.05518167304515736,"374":0.01597366490543611,"375":0.018390363006264097,"376":0.029294628239973308,"377":0.10535818089796353,"378":-0.03927603879257833,"379":0.08595741954652457,"380":-0.1164660227221305,"381":-0.009194080749657213,"382":-0.05275847700789743,"383":-0.12417205702651601,"384":0.009639276133567113,"385":-0.05903655674146714,"386":-0.04004307529323759,"387":0.03182304036564647,"388":-0.0008881601452194169,"389":0.02286513072678369,"390":0.04152635959495136,"391":0.016881614583090433,"392":-0.060377579620925895,"393":-0.011954187585762478,"394":-0.029943727317085462,"395":-0.03478597016864547,"396":-0.03399109094522769,"397":0.049514186819112786,"398":0.02647112656353622,"399":-0.024573939954344107,"400":0.0034967316682017464,"401":0.05694283585672531,"402":0.003658983737524323,"403":-0.052282207583226055,"404":0.03550061021947369,"405":-0.004856247911852222,"406":0.013549630145382284,"407":0.03638230025352017,"408":-0.019442870164584316,"409":0.035680985593006434,"410":-0.058524797846191016,"411":-0.03010258359288503,"412":0.10208572279502998,"413":-0.03516249355891939,"414":-0.0570630456390875,"415":-0.03883784131365492,"416":-0.02839496536349201,"417":0.005803452505956347,"418":0.10440190366565323,"419":0.06665169546317057,"420":-0.060440404646972465,"421":-0.06307811050868521,"422":0.06955117777358687,"423":0.010228654200238631,"424":0.033490470252029,"425":0.005877797977589661,"426":-0.004467006785271179,"427":0.0395743352818656,"428":0.010578898655081364,"429":0.041485374213741606,"430":-0.005145988179560902,"431":-0.10918419016583208,"432":0.004357045436142742,"433":-0.06422707373018353,"434":-0.03837004257901131,"435":-0.003228479388597426,"436":0.04459756569542171,"437":-0.09551091011779692,"438":-0.07207658336432861,"439":0.02715691806329554,"440":-0.02105781905786813,"441":-0.03107109534488794,"442":-0.06862597886343685,"443":-0.03851858481504588,"444":-0.022228546419885434,"445":-0.022884823492073377,"446":-0.03677130504088828,"447":-0.02266130497468597,"448":0.053934592576917365,"449":-0.07474118701989463,"450":-0.01889742691934227,"451":0.07343879658413534,"452":0.012549025374459871,"453":-0.004435322866129797,"454":-0.00124752061142134,"455":0.03181013880367603,"456":-0.03981005589963774,"457":-0.021804146045093033,"458":0.026741786337195005,"459":0.04668782729658478,"460":0.013395764067218468,"461":0.021326564425624018,"462":-0.023395722276606544,"463":-0.053390803584600244,"464":0.051909966730488935,"465":0.015482014234535435,"466":0.048308308766468466,"467":0.011697617530157913,"468":-0.01459239937796444,"469":0.013034144366627044,"470":0.0034099004935157547,"471":-0.010261523193727601,"472":0.04288327042213839,"473":-0.0099414881174221,"474":-0.005888322866862907}},{"sx":1,"sy":1,"depth":475,"w":{"0":0.039519975284137025,"1":0.05795815398718492,"2":0.12334525378361823,"3":0.11363394558951721,"4":0.007845369600744646,"5":0.006261239546937313,"6":0.020855459151295108,"7":0.06238708396545624,"8":0.01691048516573541,"9":0.014103373552177606,"10":0.06621442019069333,"11":0.11450910502731243,"12":0.06856359417665045,"13":0.031176076985802735,"14":0.042619914567934715,"15":0.07904141996978302,"16":0.024932642233296696,"17":0.08006066550743876,"18":0.038547926527444286,"19":-0.01051146213632209,"20":-0.02608823154865042,"21":0.043821728480305064,"22":0.10601498483093867,"23":-0.012635406676993751,"24":-0.03870778049265964,"25":0.039757241580284895,"26":0.028874952627237795,"27":0.11121858782119058,"28":0.0059788026705777505,"29":-0.03041471273175881,"30":-0.024818483505668808,"31":-0.016013703542447327,"32":0.23178398097806974,"33":-0.05476722458129552,"34":-0.02810050262081711,"35":-0.002685326162005175,"36":0.041093730815022905,"37":0.4132275783291271,"38":-0.04368493884686595,"39":0.01074658258865658,"40":0.03594014608687632,"41":0.10961951908541627,"42":0.2818330065027508,"43":-0.02195785862797034,"44":0.08183531934052647,"45":-0.007147023540577582,"46":0.13076994968521224,"47":0.27363445733163283,"48":0.014814826465191186,"49":-0.004263206301802418,"50":-0.0059760949545154575,"51":0.126132253332379,"52":0.1957307807208892,"53":-0.015218156177296579,"54":-0.07800165977417035,"55":0.07610815537464993,"56":0.03402191200793486,"57":-0.08736226872509942,"58":-0.025688244699112812,"59":0.029256469025290464,"60":0.007607913633590079,"61":0.11035512278007334,"62":-0.043117300807905816,"63":0.01256147431925445,"64":-0.047335469333933254,"65":0.08200783732155158,"66":0.14918464514252083,"67":-0.005067175684046981,"68":-0.09969011365841463,"69":-0.08273755878429243,"70":-0.035396837519604846,"71":0.13806695243311487,"72":-0.050789487824167444,"73":-0.007321066763945916,"74":-0.09161362485314321,"75":-0.0013638024079632818,"76":0.11602588966639077,"77":0.09453796827228347,"78":0.03456717646094347,"79":-0.002817365962827469,"80":0.058259979902178315,"81":0.05168412821087972,"82":0.019901793216798695,"83":0.046863151052558984,"84":0.01210313133752414,"85":-0.04259777057329785,"86":-0.0118662279414983,"87":-0.007317455029381272,"88":-0.04226582499184789,"89":0.016626703026155952,"90":0.041098634487736665,"91":0.042212943850240714,"92":0.1077734370418367,"93":0.0033627585216431193,"94":0.04370488025729974,"95":-0.007927336886446692,"96":0.04734477297945695,"97":0.021989859561057798,"98":-0.015037670980663121,"99":-0.0491778823082863,"100":-0.010162449083552839,"101":0.028279394954519095,"102":-0.09415561876394386,"103":0.0018111750178613048,"104":-0.019534985598141225,"105":0.03138376157778554,"106":-0.082102078000888,"107":-0.05040772971825283,"108":-0.02174780697219371,"109":0.045346604786580536,"110":-0.011020045432961383,"111":-0.10678145733795023,"112":0.04074218787461401,"113":-0.04302868002286887,"114":-0.018555843944114,"115":0.108202101778435,"116":0.05833936682925179,"117":0.20687018905866905,"118":0.02970565687927541,"119":0.07483571905532582,"120":0.035021936144569665,"121":0.06411314077856527,"122":0.03442615438460365,"123":0.0037554314190213346,"124":0.09277590728957201,"125":0.0560979794560828,"126":0.07425187211454476,"127":0.017487355616904742,"128":0.043409324820623624,"129":-0.028784572270954895,"130":0.10556021605900584,"131":0.09147354871193598,"132":-0.043275721620135335,"133":0.0490463490839176,"134":-0.042149890344062316,"135":0.030996318156814483,"136":0.10161215931985508,"137":0.006457503129558762,"138":-0.03734184588762549,"139":-0.03955743176934879,"140":0.1061464970116832,"141":0.03148405292403645,"142":0.036685041627495946,"143":-0.03893140965462787,"144":-0.007631462618281874,"145":0.032485290019367265,"146":0.008291570256171783,"147":0.10512628036806024,"148":-0.04816336409337741,"149":0.031199719352290007,"150":0.04022068147909998,"151":0.02242333097777377,"152":0.05398533707551698,"153":0.06910870748356045,"154":-0.020607192127235933,"155":-0.023525512499740386,"156":-0.0037177304276695172,"157":0.02306693992065621,"158":-0.08562652737588973,"159":0.0708031967683531,"160":0.03451238623513065,"161":-0.06747544852866975,"162":0.07769263633947948,"163":0.0597700432274713,"164":0.0036193346836823773,"165":-0.024835840670641807,"166":-0.035678103389688035,"167":-0.07303119696458676,"168":-0.016558832063861016,"169":0.07794786104626372,"170":0.009591577646388157,"171":0.05320267427339358,"172":-0.03915777304789863,"173":-0.012438593174483025,"174":0.03043474358395043,"175":-0.048220938521760764,"176":0.09986104269669138,"177":-0.011579643751684165,"178":-0.03848032475609553,"179":-0.10119294268747249,"180":0.06628848246012006,"181":-0.000842876303752285,"182":0.04821441839530334,"183":-0.03215683362599395,"184":0.0002754246683530024,"185":-0.00229641567282947,"186":0.013249134626975087,"187":-0.003452812106800341,"188":0.008306510676865117,"189":-0.02204877246981475,"190":-0.07898601413448633,"191":0.014024487430423477,"192":-0.056900448119950715,"193":0.06392739591930574,"194":-0.04000483865482305,"195":0.07564129494523934,"196":0.04535548529857948,"197":0.022885949980080398,"198":0.0014997766147433211,"199":-0.03956550398687862,"200":-0.030457828768617034,"201":0.06995512047243266,"202":0.06459401731169362,"203":-0.04419659464654628,"204":-0.03307385655151775,"205":-0.02628214326230152,"206":0.011577940673301243,"207":-0.040657951065094476,"208":0.0009752403220156189,"209":-0.11265812018493547,"210":0.028503352950407766,"211":0.07800881482525925,"212":0.03195128661341578,"213":0.050849781767411735,"214":0.0805593448067567,"215":0.06675604759087944,"216":-0.015837504270001367,"217":0.11031388005170546,"218":0.05234688635306593,"219":0.039338180226340135,"220":-0.01489255329027503,"221":-0.02079933336776437,"222":0.007238847121371882,"223":0.05204390640319284,"224":-0.03272381495254054,"225":-0.011702532767622653,"226":0.0337358923127671,"227":-0.016580918261119824,"228":0.016953471656726397,"229":0.008099236509388456,"230":-0.0024199433253256544,"231":-0.05742176837141556,"232":0.02437704082120972,"233":0.05059478619252239,"234":-0.016043724720659076,"235":-0.03346902434405941,"236":0.07458141870315933,"237":-0.01882194241077555,"238":0.025596914297580667,"239":0.007594440752031726,"240":-0.015880397816603827,"241":0.04043778997442292,"242":-0.035056764163440925,"243":-0.023280578964448153,"244":0.0826826870675388,"245":0.04872572490106455,"246":-0.014297778158892346,"247":0.02609021662396599,"248":0.04381180591330032,"249":0.03191926000561702,"250":-0.05740269697127799,"251":0.046431911828558214,"252":-0.012027037248882546,"253":-0.0016220286322979963,"254":-0.0016432312709051544,"255":0.03769756952900332,"256":0.07851221865928855,"257":-0.054182094850756674,"258":0.05844002387263115,"259":0.02331115235358733,"260":-0.018172247243767804,"261":-0.003457848661589106,"262":0.10371915830118836,"263":0.006686619616878603,"264":0.0850374237740156,"265":0.021585873642245054,"266":-0.058548102317363675,"267":0.05310407260735362,"268":0.01318106426835798,"269":0.005385183328359839,"270":-0.006368064010867835,"271":-0.07176653261494849,"272":-0.07282885798562883,"273":0.12970342432607276,"274":-0.011857192245546362,"275":0.024793659110890407,"276":0.02237718287537482,"277":-0.03413010947041463,"278":-0.013517963837692815,"279":0.008247537536292784,"280":0.10030358441489692,"281":-0.04800834343150972,"282":0.05092132137530245,"283":0.058721500494957446,"284":0.02770849658588734,"285":0.0669531215021007,"286":0.05510524714565588,"287":-0.07995232845300089,"288":0.008543893743666412,"289":0.04889136562339233,"290":-0.1086086502304198,"291":0.047002874417271,"292":-0.024193581394728637,"293":-0.0005664189449241477,"294":0.0465866214028533,"295":0.05190944084210073,"296":0.011465812762085076,"297":0.07989010653894983,"298":-0.06589833893836666,"299":0.030117960856257203,"300":-0.08550185723195831,"301":0.030858246977326014,"302":0.01590639926585213,"303":0.0032215081734926843,"304":0.0017323322996545246,"305":-0.021428953709290963,"306":-0.015851011282464834,"307":-0.03578056588569566,"308":0.009706039129796671,"309":-0.020295571995533432,"310":0.054231960264846474,"311":0.08931628023285865,"312":-0.005036998416474083,"313":-0.0125439242013554,"314":-0.009621840244508045,"315":0.01910014841328171,"316":-0.03201018935210395,"317":-0.001046277707253547,"318":-0.024126148366922905,"319":-0.0239059368821337,"320":-0.02078654945437105,"321":0.027038098748406073,"322":-0.04594611970723719,"323":0.04234698518087861,"324":0.004044840840237428,"325":-0.038553076601997915,"326":0.062383364396592256,"327":-0.10304115009018108,"328":0.038307752807920745,"329":0.018792492850540153,"330":0.01202152017392567,"331":-0.0002869401774427385,"332":-0.01394970976895559,"333":0.021757193997296302,"334":0.0058953156028504075,"335":0.011486411089026743,"336":0.09780283150554377,"337":-0.025907830082046418,"338":-0.0005167273035450343,"339":-0.07138198721582513,"340":-0.03951914470944077,"341":0.021585243806408815,"342":-0.0006362358170700903,"343":-0.03385268401285795,"344":0.0046790005683052015,"345":0.02177451658412051,"346":-0.03128772553825389,"347":0.09293804322208112,"348":0.05536341392670622,"349":-0.07667878715424181,"350":0.03625523200495681,"351":-0.04370580785851023,"352":0.027066780439900965,"353":-0.02622916227349057,"354":0.047041310784389244,"355":-0.0006972339337474691,"356":0.019155754054149716,"357":0.06519017053050749,"358":0.01549646944726854,"359":-0.04051167533629598,"360":0.03599210827666821,"361":-0.026934230784610772,"362":-0.03918630026622286,"363":-0.033226088317704565,"364":0.06788459934792687,"365":0.010688610834793,"366":0.018048780287346577,"367":-0.06308441007404564,"368":0.03104313600175408,"369":-0.03050659444525701,"370":-0.07013199208573569,"371":-0.028961833471168236,"372":-0.026565201025589586,"373":0.03929111917004514,"374":-0.011035684869684396,"375":-0.05710398744291727,"376":-0.08578839020319912,"377":0.04790655355637616,"378":0.014098782946881884,"379":-0.011702204205891343,"380":0.0008560445526951599,"381":0.02946414304753856,"382":-0.010461495075606174,"383":-0.008057250032438346,"384":-0.005694307648069367,"385":0.039058889533382254,"386":-0.04206823708777001,"387":0.051169199394475784,"388":-0.020530508379181283,"389":-0.058337484272455546,"390":0.01472454518944262,"391":0.054686965593847475,"392":0.013504341189621846,"393":0.05008425686177266,"394":0.016918738920569453,"395":-0.0019493376036640914,"396":-0.054836777905443626,"397":-0.056630369645860365,"398":-0.00843999699691508,"399":-0.020278051836040225,"400":0.03908568558261389,"401":0.03158669931595324,"402":0.0644910315574404,"403":0.02110130817149486,"404":-0.05268713253959078,"405":0.0018317060664258557,"406":0.03299446492689824,"407":0.011800269637109536,"408":0.04653438589638357,"409":0.059771059740496665,"410":-0.043772079712363694,"411":-0.08489416368008025,"412":-0.0071314744791440435,"413":0.07482981129201591,"414":-0.09689730200292818,"415":0.08028257872030206,"416":-0.048709106917352536,"417":0.028344194845749005,"418":-0.03460332617786884,"419":0.030553939757409478,"420":0.017390531262357217,"421":0.014897258877447634,"422":0.033658633791229194,"423":0.004958228280443471,"424":-0.013728296557135056,"425":0.01852670781827092,"426":-0.020130856350257773,"427":-0.02445002370378351,"428":-0.023764806712664135,"429":0.012441062788104801,"430":0.038746153638311104,"431":-0.038094681911983036,"432":-0.012561215863423202,"433":-0.04761611460905448,"434":-0.005459400769053357,"435":0.02058251838135407,"436":0.005423907009222622,"437":-0.03916176571935456,"438":-0.009390331398819875,"439":-0.008310093989625568,"440":0.004350140245278593,"441":0.08344360480853388,"442":0.1096353377215939,"443":0.014174207353862637,"444":-0.030236542375725296,"445":0.0793113907574529,"446":0.09836084940959142,"447":0.03614559134203322,"448":-0.03244762692395451,"449":-0.06441151084431058,"450":-0.018565028509618435,"451":-0.013974222533146386,"452":0.018758613545897453,"453":-0.062053136012161135,"454":0.022649644549499158,"455":0.034405956055901216,"456":0.11107779605360622,"457":0.028812548190981137,"458":0.00018098586819120598,"459":0.02248341495380456,"460":-0.06623956532268373,"461":0.009041012999881352,"462":-0.032635614978495896,"463":-0.004217225885381709,"464":0.03525202117388482,"465":-0.0045535646811240334,"466":-0.06127070031298431,"467":-0.0021925098286475916,"468":0.0443035565702691,"469":0.06566025923513613,"470":-0.07568441639524816,"471":-0.03943247550613626,"472":0.03480209522168827,"473":-0.04646666448793153,"474":-0.0016966056751066877}},{"sx":1,"sy":1,"depth":475,"w":{"0":0.003638721985482498,"1":-0.05305717346906742,"2":-0.026612201296490078,"3":-0.05413057430932218,"4":-0.027533825312060813,"5":0.028079240194753916,"6":0.0043813527145308865,"7":-0.03862762610679177,"8":-0.035069117370895395,"9":0.03170007731821051,"10":-0.02100240483205252,"11":0.02038845379448871,"12":-0.0554961416497648,"13":0.0513130858748416,"14":0.0405381267543601,"15":-0.01713260146231854,"16":0.005220001781267578,"17":-0.010259611827571853,"18":0.006214327294208835,"19":-0.014688346823237327,"20":-0.020471620057373408,"21":-0.03527695474221118,"22":0.04592136174292479,"23":-0.02310113089471078,"24":0.009084879004210025,"25":-0.038222220836682086,"26":-0.058546602316197495,"27":-0.05251619961878704,"28":-0.02605580390631473,"29":-0.03609343582423075,"30":-0.029471624121183593,"31":-0.036464454238422615,"32":-0.0012801794399710138,"33":-0.025118136794125886,"34":0.036523813008244095,"35":0.09825906014930932,"36":0.03259828259313236,"37":0.04746950181052684,"38":0.002414753203973775,"39":-0.00041322135812378455,"40":0.025600352035813546,"41":0.02558402163033921,"42":-0.006833492937823549,"43":-0.0030789239749763365,"44":0.005220029659439164,"45":0.06017199901229944,"46":0.1275025526349659,"47":-0.033213071493900403,"48":-0.006666714090283637,"49":0.005996360307036522,"50":-0.07465915328646283,"51":0.09979040224573928,"52":0.002914758232838575,"53":-0.05021730405923284,"54":0.06095761887088615,"55":0.025187155906456524,"56":0.09192725587956924,"57":-0.12842388453896766,"58":0.08618221863313356,"59":0.02378874133908499,"60":0.04350315612807796,"61":0.14721627088816197,"62":0.044191610443344305,"63":0.016445880285515215,"64":-0.060505749969479716,"65":-0.023522105353966087,"66":0.10112603103663914,"67":-0.12785669520073012,"68":0.007854346390105989,"69":0.11462846073437975,"70":-0.04962618609463254,"71":0.143346530774305,"72":-0.060551398574205335,"73":0.0220693246470368,"74":0.011899445740953302,"75":-0.005788097893480657,"76":0.14912236962641748,"77":-0.11668160353624804,"78":0.01395110258347176,"79":0.015459399712989912,"80":0.04573085637935472,"81":0.07132149875474847,"82":-0.043231038085514796,"83":0.05853199858956466,"84":-0.029030611733338624,"85":0.05509450001486027,"86":0.15514618903856922,"87":-0.11176505537435959,"88":-0.02005953849827662,"89":-0.04359453126269202,"90":-0.004032677702110273,"91":0.06281823767706908,"92":-0.029667174761554265,"93":-0.03035334620250991,"94":0.0706240429022358,"95":0.031027660107949107,"96":0.12088852475078056,"97":0.047657636460749844,"98":0.07966239331806907,"99":-0.04682428839752662,"100":-0.003947687949651934,"101":-0.007302259608784266,"102":0.004673580495350959,"103":-0.04557328117152204,"104":-0.03959875875467404,"105":-0.0025198479406663824,"106":0.05130425974165161,"107":0.13755090173809786,"108":0.047816659941542994,"109":-0.07376812136507792,"110":0.1192408069461723,"111":-0.0180732407064976,"112":0.042567558816518795,"113":0.05709454515626638,"114":-0.004570491642125478,"115":0.03511192857570999,"116":0.12105715395722288,"117":0.06520009878946662,"118":-0.046080911415761754,"119":-0.0026318857024378597,"120":0.044854273415792886,"121":-0.06333808571553892,"122":-0.027671397466370182,"123":-0.0057796703970886204,"124":-0.038450790410792995,"125":0.004853028649270791,"126":-0.01923296271879959,"127":-0.050442202716619845,"128":-0.033218584504731405,"129":0.013370932801744293,"130":0.0493763500554941,"131":-0.06944374408020797,"132":-0.06690247541684022,"133":0.0037708228683162592,"134":0.0050386391095199635,"135":0.006637121478612525,"136":0.07495646059950048,"137":-0.0031982489153163903,"138":0.04372585757785619,"139":0.006799504846436729,"140":0.025555890575674364,"141":0.026845329582540836,"142":-0.01778373514055776,"143":-0.07412391274557266,"144":-0.058162760663323286,"145":-0.01801438558676415,"146":-0.02253819032628781,"147":-0.03605393164961053,"148":-0.006170099909409398,"149":-0.10934068586755491,"150":0.038791340383586684,"151":0.0305742445131962,"152":0.02045456274279587,"153":0.0010212614862940075,"154":0.06311814587399558,"155":0.04138597076279175,"156":0.012183324880865971,"157":-0.02241130770979321,"158":-0.05652645468718125,"159":-0.012192600588558656,"160":0.0010582115625962468,"161":-0.03962490532894368,"162":-0.0048420376938876925,"163":-0.08398731883590944,"164":0.029577315586158552,"165":-0.024890945672308745,"166":0.06639165193138485,"167":0.005411836292963506,"168":-0.00998197311498511,"169":-0.0731153929632682,"170":-0.055837331520315336,"171":0.06711049829442575,"172":-0.07556512480359709,"173":-0.04969173727861327,"174":0.05319899784643144,"175":0.04448052230678024,"176":0.023228580217086594,"177":0.017627607569367893,"178":-0.06098901625161576,"179":0.03665003267393519,"180":-0.03824468189371816,"181":0.06652648007479751,"182":0.032372089493513806,"183":0.03088925641667373,"184":0.012822879504754966,"185":0.14441118152783108,"186":0.08368713264121266,"187":0.006603303346699187,"188":-0.05037689410515232,"189":-0.027437384721710607,"190":0.04800750268981455,"191":0.12180279455088844,"192":-0.0211757505649093,"193":-0.01779738836969962,"194":0.01588678165514857,"195":0.02143066786777929,"196":0.05359012277035853,"197":-0.03086809194052417,"198":0.04271965630598748,"199":-0.044570933075438655,"200":0.01974027729109844,"201":0.06863604446861693,"202":0.03216700549485993,"203":-0.044255716420547944,"204":-0.03430933991974429,"205":-0.025902094124550013,"206":0.04134518818106114,"207":-0.0012157444643613629,"208":0.03389485305832554,"209":0.0038022479445993596,"210":-0.0648775592773403,"211":0.04194483898962491,"212":-0.03184747326065403,"213":-0.0623490071356578,"214":-0.0077245043459913685,"215":0.025206020384445638,"216":-0.050800861622349744,"217":-0.040234259542050635,"218":-0.08186027190476285,"219":-0.024479032240610463,"220":0.006829532052319264,"221":0.027997380377104628,"222":-0.06662594541590898,"223":-0.04448637304057779,"224":0.06027934060303396,"225":0.043802031482551594,"226":-0.0008132755284931974,"227":-0.044165831146419796,"228":0.0026890244344440935,"229":-0.006312258961235844,"230":-0.06196483641439114,"231":-0.09276274005889092,"232":-0.014866696259690617,"233":-0.00797387716064448,"234":-0.03341568492864715,"235":-0.04266862560473245,"236":0.08201173120791962,"237":-0.07989346254915752,"238":0.07380997489516591,"239":-0.04328648242750215,"240":-0.0278089053138367,"241":-0.042559684772021475,"242":-0.10039268933378881,"243":-0.08705854449002337,"244":-0.07854506931029484,"245":-0.001913226416143428,"246":0.04145173739694121,"247":-0.010221718899698315,"248":-0.08156487156998972,"249":-0.015687390649898693,"250":-0.08580203335894473,"251":-0.012424779232638872,"252":-0.10589886698911728,"253":-0.06590980261651937,"254":-0.08413055334305315,"255":0.014858391682965436,"256":0.05929330572567044,"257":0.04283806984135579,"258":-0.020395978300823462,"259":-0.03412196082389462,"260":-0.020180523626635166,"261":0.007141967559078614,"262":0.032291008659936275,"263":-0.08005718369588927,"264":-0.07467063702770052,"265":0.042529801452984954,"266":-0.03383315009334448,"267":0.028598474968808508,"268":-0.07679502929318029,"269":-0.07094125575601228,"270":0.02106909590684618,"271":0.10430117405877802,"272":0.023627573457585226,"273":-0.04100876729139793,"274":-0.026332114822656228,"275":0.01403000796691096,"276":0.008708644429852813,"277":-0.020664117352451133,"278":-0.039131591116807925,"279":0.003602663850192534,"280":0.05343862555849789,"281":-0.009547973546232354,"282":-0.08512518863855321,"283":-0.04985571996316227,"284":0.0017180119336332347,"285":-0.020657740676986117,"286":-0.03754932759745237,"287":-0.058520603871419836,"288":-0.0055969064485927355,"289":-0.01926379141410997,"290":0.03696812726496182,"291":0.09102444304932206,"292":-0.045615863508166654,"293":-0.06665448521435015,"294":-0.14339156561872105,"295":0.03247270853141552,"296":-0.023435173258931935,"297":0.026188783744481636,"298":0.01953517139942325,"299":-0.03733488903619917,"300":0.04704464104594003,"301":0.09692326627114288,"302":-0.007051896059077976,"303":-0.01083075532613251,"304":-0.005968331521029528,"305":0.03652960691338991,"306":0.11325659705279714,"307":0.018142211081352718,"308":0.04513340471896003,"309":0.03258147943162349,"310":0.03982286959700914,"311":-0.01884376887237396,"312":-0.10466228422672288,"313":-0.03114229454941295,"314":-0.009132961108566805,"315":-0.027526194497923265,"316":0.06639883451930924,"317":-0.00031577650040959975,"318":0.10045181818587637,"319":0.06611879760504667,"320":0.002370081083267706,"321":0.0007370626968674913,"322":0.05907206695706128,"323":-0.016253648140916142,"324":0.005090370582152606,"325":0.016102707991337128,"326":0.03295299676051076,"327":-0.007399537184566903,"328":-0.02934870156336299,"329":0.03341750044736755,"330":0.025878836984401694,"331":0.1044186416989806,"332":0.0015760046012215237,"333":-0.04747024920243859,"334":-0.05165288821675685,"335":-0.024601069603751902,"336":0.0567250873322962,"337":0.0485422660680013,"338":0.027845133002655835,"339":0.05311139545450366,"340":0.07122344959290675,"341":0.07837435257655224,"342":-0.04059725085757614,"343":0.021266899755398715,"344":0.047229728189465824,"345":0.07981272344203268,"346":-0.0056763696029942445,"347":-0.09627450414305168,"348":0.04024658952027623,"349":-0.06081521493287345,"350":0.013847163854039548,"351":-0.014650139149109084,"352":-0.021695062903928464,"353":0.057028024984105,"354":-0.023364327824780675,"355":-0.05100531482218364,"356":-0.01524402346392386,"357":-0.007297018006140109,"358":0.025730834704608893,"359":0.004945055036707625,"360":0.0389452287884917,"361":0.08398046573537701,"362":-0.0052580148428969945,"363":-0.06996605687167426,"364":-0.04549119514492504,"365":0.012167714204751472,"366":0.09385230388680138,"367":-0.047743888856363575,"368":0.006610612132348323,"369":0.01881902073184581,"370":-0.021863306821054522,"371":0.010609109772015193,"372":-0.03500364690162157,"373":-0.06757219543326597,"374":-0.001259367541220311,"375":-0.05034539532001651,"376":-0.0016813977284040958,"377":-0.08620132726988466,"378":0.051966237420497365,"379":0.044377558331642475,"380":-0.011561370489837674,"381":0.037302699664340924,"382":-0.033137324473598156,"383":-0.01322058588688844,"384":-0.07141233853126397,"385":-0.012932676778606189,"386":-0.03884210853774847,"387":0.035115254884004736,"388":-0.03078774896781515,"389":-0.06282048168144219,"390":0.041067519121048036,"391":0.02206952673348264,"392":-0.06807814452956783,"393":-0.0008816968970921744,"394":-0.02836145858669857,"395":0.054621250264303485,"396":-0.03298185224624143,"397":0.0023750333155554085,"398":0.017779958421230178,"399":-0.03265670144392172,"400":-0.05961487487322028,"401":0.047753627755298914,"402":-0.047665408555345866,"403":-0.023121536970960237,"404":-0.03891099094686853,"405":-0.08052531311371867,"406":-0.0410206886406581,"407":0.028399504955701656,"408":-0.0036008156141316256,"409":0.0616638373305435,"410":0.03532387311447014,"411":-0.01093885015613328,"412":-0.008291517525480198,"413":0.03495569908899372,"414":-0.012327787295808414,"415":-0.027984974320847966,"416":0.05475942128380613,"417":0.0459928097449206,"418":-0.04999459468812683,"419":-0.1794704814626891,"420":0.015985142984982215,"421":-0.03947367421306501,"422":0.03425750967328326,"423":-0.015643492646253757,"424":0.05730200133836503,"425":0.08059256678392003,"426":0.06344918825160033,"427":-0.035006967033229135,"428":-0.08070533910477735,"429":-0.11900868182702853,"430":-0.08475691447117951,"431":0.000942888489194474,"432":0.0373841445975764,"433":0.022005762055559243,"434":-0.04178937666921027,"435":0.06482895965880042,"436":-0.0019856490264944467,"437":-0.04983903001983802,"438":0.016737635466851856,"439":-0.029110317019345026,"440":-0.001393260926368807,"441":0.010828685954205584,"442":0.041168081959933385,"443":0.06106660781684834,"444":-0.03189785542830271,"445":0.0220076562230717,"446":0.0451021007865849,"447":-0.02334127948788088,"448":0.0419755415710439,"449":0.021794291928967577,"450":0.020768195116489568,"451":0.016840722619303725,"452":-0.010147118994887856,"453":0.008123624171821366,"454":0.0034482454863788386,"455":0.07768341429763609,"456":-0.02780686331073078,"457":-0.015999716672754957,"458":-0.0027560714052165063,"459":-0.07213546548425241,"460":-0.044776155714392425,"461":0.06321602796597353,"462":-0.011828236010201996,"463":0.016206351697126982,"464":0.019319480690453764,"465":0.012317492365818689,"466":0.025188187661036972,"467":-0.0375201577445786,"468":-0.006479742378570546,"469":0.024127203871332617,"470":-0.04947073226822874,"471":0.008046536226944193,"472":-0.06694512675753635,"473":-0.016146853286977434,"474":-0.015530627707317583}},{"sx":1,"sy":1,"depth":475,"w":{"0":-0.0022876756344208664,"1":0.015662194810272922,"2":0.0192686115271566,"3":-0.025837645165180008,"4":-0.026382794142975508,"5":0.04373442412844697,"6":0.008131380632960128,"7":0.05323510118597563,"8":0.026175015819634065,"9":-0.05020611296600459,"10":0.06562102732409852,"11":-0.024841855714581515,"12":-0.05697019911374196,"13":-0.0038227513932787643,"14":0.0772805604725855,"15":0.027496159228410675,"16":0.036144719586485075,"17":0.04359451233566825,"18":-0.002514798861485256,"19":-0.062325024871877396,"20":0.042944051651322784,"21":-0.012637047546925859,"22":0.03143426329727671,"23":0.003789516206582089,"24":0.004187292238324455,"25":-0.03933674892723699,"26":-0.0065130272152178,"27":-0.010833216178906436,"28":-0.0006900346749658241,"29":-0.015633450583383997,"30":0.03958598228975304,"31":-0.04311730138624763,"32":-0.010527207601307424,"33":0.07770855082732196,"34":-0.03268079790786626,"35":-0.06071446359118527,"36":-0.09155832294970921,"37":-0.01559706549007489,"38":0.0456246923187128,"39":-0.02025055567349382,"40":-0.0642286284968551,"41":-0.04342755119318821,"42":-0.06828309980493104,"43":0.036772423240402814,"44":-0.0008579194559464352,"45":0.030856156689669408,"46":-0.01715381159190171,"47":-0.04604060566430571,"48":0.06499024720603531,"49":-0.019102302971866998,"50":0.008436878325015832,"51":-0.016307643704440346,"52":0.029943678592104638,"53":-0.037827533298083485,"54":-0.016746894322903785,"55":-0.0149287699973941,"56":0.0021853859757696597,"57":0.060026038523151845,"58":-0.018254706162227824,"59":0.01058303399460703,"60":-0.057142839753012105,"61":-0.10862401068380262,"62":-0.04018433714725356,"63":0.029893684578698232,"64":0.01659754848075626,"65":-0.03858455881056025,"66":-0.021834093451550737,"67":0.04253380025881907,"68":0.03443165027894307,"69":0.02113299104065758,"70":0.010677355590842624,"71":-0.04123207658393275,"72":-0.0016315279341016754,"73":0.005043163249786255,"74":0.04364349434887347,"75":-0.06377277333787022,"76":-0.10005527944146117,"77":-0.06488132064390971,"78":-0.034219461253117506,"79":-0.067466269794776,"80":-0.05846063471519748,"81":0.00302988500297489,"82":-0.08668509004028088,"83":-0.03950871174227659,"84":0.02903607560360954,"85":0.1116859456861242,"86":-0.00560371837899867,"87":-0.16516502799864285,"88":-0.004083927217078439,"89":-0.017737935078372513,"90":0.12018100457123952,"91":0.05196553524805566,"92":-0.1629646899581386,"93":-0.0066692085069226335,"94":-0.029516344699533372,"95":0.06967843112641904,"96":0.049789635953432505,"97":-0.007994468594050041,"98":-0.003982185587940701,"99":-0.010512907745078452,"100":-0.03623185002012214,"101":-0.035648137082827075,"102":0.016724980518573296,"103":0.021683435489304535,"104":0.00022695748470861053,"105":-0.004808894719444693,"106":0.05731564793504096,"107":-0.0002901019732906015,"108":0.07679749889888568,"109":-0.027201087298128555,"110":-0.03460562219537955,"111":0.029449044606951434,"112":-0.07691583147139539,"113":-0.07873431852128523,"114":0.01967879885031716,"115":-0.07326367286936282,"116":0.025110547222005956,"117":0.03365381742922725,"118":0.006904378202683061,"119":0.029436303791148782,"120":-0.07874262286256181,"121":-0.016432611571261583,"122":0.050884961980211564,"123":-0.034728939467945405,"124":-0.02535622189544065,"125":0.0761372545283655,"126":0.007616627158755863,"127":0.013225196474066055,"128":0.03553476354601662,"129":0.02429764901478929,"130":-0.07833863516629806,"131":0.010012557872111567,"132":-0.06524976245062501,"133":-0.110073105098788,"134":0.05620468550576322,"135":-0.060537952884045045,"136":-0.03568617828320133,"137":-0.03668968563459329,"138":-0.024520758819121916,"139":-0.03570108062624441,"140":-0.0688268597016145,"141":-0.015364377148809458,"142":-0.03552754040942272,"143":0.01961768655758122,"144":0.0006693086263559407,"145":-0.01659034476045992,"146":-0.059354696985489994,"147":0.030510516149452733,"148":0.12362142789584482,"149":0.005785492805621991,"150":0.029563044310744642,"151":0.11455413400847513,"152":-0.09136859968485991,"153":0.015639795467323428,"154":-0.035322760768613834,"155":-0.009999647625282942,"156":0.06083151723300921,"157":-0.06104109672132616,"158":-0.03675409718313615,"159":-0.08190288490784779,"160":0.0020817364317745187,"161":0.0011927204072641202,"162":-0.013919627345678079,"163":-0.002556626734967854,"164":-0.03025543052600703,"165":-0.04736303499364164,"166":-0.03879260473688922,"167":0.08623543361544068,"168":0.025324145829286358,"169":-0.043431298321806984,"170":-0.027038152962887026,"171":0.0052746559458246595,"172":0.03117523950980518,"173":0.01670345141448407,"174":0.022041868943256906,"175":0.020488649673818544,"176":0.0006203040732593425,"177":0.038420337058948234,"178":-0.007108874432882525,"179":-0.04201211720795623,"180":0.040917209864860124,"181":-0.0024944938071705517,"182":0.002420288809961316,"183":0.01111205213935831,"184":0.014482733191958598,"185":-0.003807773737780444,"186":0.02116137898530731,"187":-0.04874470800896341,"188":-0.021177978352950447,"189":0.001764749853202825,"190":-0.025020070175690877,"191":-0.085653630859764,"192":-0.04734758674956824,"193":-0.026966956029585404,"194":-0.002164792506466683,"195":0.03328946733819656,"196":-0.053198233592833974,"197":0.006758604594657325,"198":0.035451681189554295,"199":0.006503213650607728,"200":-0.011410782213412034,"201":-0.04459579962565133,"202":-0.05554519812171378,"203":0.07732077205736054,"204":-0.04769636992411975,"205":0.0723759114868356,"206":-0.009921974828737736,"207":0.022050371484418543,"208":0.011918820833034248,"209":-0.0024613535291912528,"210":0.04325494958875172,"211":0.0598475144845403,"212":-0.05754398064018125,"213":0.053406121395770355,"214":-0.004343013149325232,"215":0.020914089985024246,"216":-0.023780337880688694,"217":-0.06204494435825127,"218":0.055248393996254544,"219":-0.028522816389987157,"220":-0.05729661007804898,"221":0.14631444707120997,"222":-0.04884807017796251,"223":-0.0004520453388838668,"224":0.00034615380054988623,"225":0.0638922618349282,"226":-0.08510567286648212,"227":-0.019284555676688332,"228":-0.06842659271032929,"229":-0.001177487823198585,"230":0.016003021179162115,"231":-0.020744679337230267,"232":-0.0026170237720499223,"233":-0.0014996066045593957,"234":-0.07055517200562826,"235":-0.03745369369644709,"236":-0.005373356606898515,"237":0.012559290612508947,"238":0.02795483419967961,"239":0.07825502930605334,"240":0.03269972444092843,"241":-0.011178526950781165,"242":-0.03856132865050053,"243":-0.08118333651329006,"244":-0.0019352998309036735,"245":-0.045722584304120795,"246":-0.03690183615842894,"247":0.022352127990504473,"248":-0.05905641485425798,"249":-0.03810167845833632,"250":-0.01772561163993729,"251":0.01906987599180789,"252":0.03432673092098271,"253":-0.012833457734680602,"254":-0.03571688659745139,"255":0.006163954182334079,"256":-0.0693190251685732,"257":-0.04866390133579681,"258":-0.06498463751895171,"259":0.019482181266885477,"260":0.027255540785120654,"261":0.020466451626591477,"262":-0.01286792153898368,"263":0.019866112323087774,"264":0.005927388666514991,"265":-0.06859058782326935,"266":0.020590048029800925,"267":-0.016269820024061413,"268":0.06658110902656514,"269":-0.011400708662942011,"270":0.04746225833695335,"271":-0.030469374820674223,"272":-0.11309969331533883,"273":0.0272730254102447,"274":0.015957099018065565,"275":0.03297148810785351,"276":-0.006433055875543479,"277":-0.0034318225016721103,"278":0.011941644255219605,"279":-0.014044259034225457,"280":0.14279041269722617,"281":0.07357823429222678,"282":-0.05098602365848795,"283":-0.17050033639730128,"284":0.04042105412910907,"285":-0.005889890548721303,"286":0.05080848302710666,"287":0.09182256026680127,"288":-0.0414343667638052,"289":0.0032543423472578452,"290":-0.045811807010655375,"291":-0.05873098606546953,"292":0.022845792560126723,"293":0.009418946787368366,"294":-0.025819368378720935,"295":0.01842920161409934,"296":0.04624980843958987,"297":0.04698484462080954,"298":-0.04927201426374748,"299":0.07014495865000248,"300":0.09965003493622032,"301":0.002580003185129626,"302":-0.013458212492282805,"303":-0.0021617924583848683,"304":0.019222598255269466,"305":0.04815032029556851,"306":-0.009083227094143963,"307":-0.0071537293449498544,"308":-0.0711845500995559,"309":-0.03491302187543292,"310":0.02073520872252548,"311":0.06875635839765208,"312":-0.0036303651609288683,"313":0.060198944413708586,"314":0.007043820830649006,"315":0.028892296732157405,"316":-0.10075632871048112,"317":0.08083260727200381,"318":0.035977268346902194,"319":0.006816265053535526,"320":-0.04632241812486616,"321":-0.01901558391586063,"322":0.02413150351015687,"323":0.0362732336464331,"324":0.03520338707420168,"325":0.009620884147095854,"326":0.014011895014894242,"327":-0.03213318856772328,"328":-0.03194788500886299,"329":0.008756805095372472,"330":-0.0513825195398453,"331":-0.049370401108983476,"332":0.02269714962448051,"333":-0.08223700312594738,"334":-0.01514114108765528,"335":0.01185538370414042,"336":0.0328670580251182,"337":-0.10336976229312218,"338":-0.002901160358723492,"339":-0.08366174639660828,"340":0.029813019195047016,"341":-0.005336637411647704,"342":-0.03092916283509934,"343":0.03744779073659225,"344":0.02341370657503545,"345":0.10953554571008627,"346":-0.02654708155117073,"347":-0.01798045539801743,"348":-0.07443302444090631,"349":0.0025015120721129996,"350":-0.07249679169154083,"351":-0.10343593329016512,"352":-0.046814490427471996,"353":-0.05972161449133308,"354":-0.02132982740413937,"355":-0.021811726650360238,"356":-0.05353219176701991,"357":-0.02237812995975431,"358":-0.03259819409050355,"359":-0.07320321216931186,"360":0.0743078960161429,"361":-0.003918212281509518,"362":0.00937979170928483,"363":0.0017465773345819553,"364":0.01776685709566198,"365":-0.0024687729836152805,"366":0.014946812167866568,"367":0.05842612105082341,"368":-0.05214707410878733,"369":-0.06563208256819256,"370":-0.058927221507634325,"371":0.04202924750045271,"372":0.09273465688132233,"373":-0.0090676837292795,"374":-0.06085740882364521,"375":0.06064939605091533,"376":0.015520066301922071,"377":0.06063634220444852,"378":-0.00763041156762672,"379":-0.024750771839183526,"380":0.027121736872420976,"381":0.0685881281114066,"382":0.08391167391448906,"383":0.048187556936066134,"384":0.008039404751809032,"385":0.005924321754222993,"386":-0.0010843069598235236,"387":-0.03866445814701776,"388":0.09926969221710141,"389":-0.08074167076346808,"390":-0.049028984577681345,"391":0.0018325244922515603,"392":-0.043281042480302116,"393":0.12221572751945714,"394":0.0891895883334337,"395":-0.038472902300990534,"396":0.06203527385056888,"397":0.08059823589636016,"398":-0.023219194027576197,"399":0.051577738343575597,"400":-0.02958279340031377,"401":0.046997070846046325,"402":-0.07133294938823184,"403":-0.04041851960514784,"404":-0.029756173354613252,"405":-0.024947786310672678,"406":-0.00446817619918484,"407":0.05925211929494401,"408":0.04580835562878462,"409":0.007299334390174095,"410":0.013253063370223646,"411":-0.05940624988658277,"412":-0.00495666033544762,"413":-0.038031093392729684,"414":0.03201390736322293,"415":-0.061059414594483455,"416":-0.014807652071075428,"417":-0.02414958350180238,"418":-0.026893154054600972,"419":-0.11202656666759825,"420":0.08444115227130329,"421":-0.00007186773685143169,"422":0.034403443028971435,"423":0.04452733364294047,"424":-0.02127402951850569,"425":-0.019520864910288396,"426":-0.007031298515626666,"427":0.008950134514401905,"428":0.07309944552032219,"429":-0.012169305273644722,"430":-0.010785544108060437,"431":-0.04378128436521106,"432":0.11633288650516524,"433":-0.018254944698331145,"434":-0.004688436575207079,"435":-0.01807746668218985,"436":-0.009505745309259394,"437":-0.010463532086861177,"438":-0.026263589299301227,"439":0.05894229556003522,"440":0.02949851185892511,"441":0.061102350203118216,"442":-0.08277902252085319,"443":0.03811269105855264,"444":-0.040116864995060335,"445":-0.06266410560832686,"446":0.05357985502319918,"447":-0.015640260238612497,"448":0.005777509227642652,"449":-0.02475234912884275,"450":0.04623696755855093,"451":0.01674589856624486,"452":0.014425505426173843,"453":-0.04148394704612757,"454":-0.002923809619168904,"455":0.06863564598381756,"456":-0.03806470849271861,"457":-0.03077589213868188,"458":0.05448678168709272,"459":-0.0029152579400674255,"460":-0.04538838382597037,"461":-0.025201692147676813,"462":-0.09871937931054339,"463":-0.060560320545214964,"464":0.01922261325012245,"465":-0.01282345868380293,"466":-0.0324480541224445,"467":-0.020083617604625965,"468":0.004913501737321602,"469":0.018602209362521615,"470":0.04643784654221201,"471":0.04583774654953343,"472":-0.013763690972056677,"473":0.009187171222237944,"474":0.021828336683435035}},{"sx":1,"sy":1,"depth":475,"w":{"0":0.06465297851543207,"1":0.016985020785772312,"2":-0.08433042179977301,"3":-0.002398073683875002,"4":-0.11457041791129037,"5":-0.024477943261978864,"6":0.007244916870329021,"7":-0.09147573027823888,"8":0.014980141228816123,"9":-0.0341880575964417,"10":-0.07962308900208571,"11":0.023225477519694174,"12":-0.01809466088049024,"13":0.0013796564330198087,"14":-0.057639176285011175,"15":0.032503411197730626,"16":0.04559212122574253,"17":0.010481904662019818,"18":0.0006915389294905016,"19":0.05272840935014153,"20":-0.05235005615981587,"21":0.026623693503770595,"22":-0.03840407287833274,"23":0.07517020674869784,"24":-0.11364239413267274,"25":0.043471285622059284,"26":0.05578868660608541,"27":-0.04586697371454466,"28":-0.13553249711231485,"29":-0.039977477238085944,"30":0.0012046014195261677,"31":-0.034807394581088,"32":-0.03249625059465063,"33":0.04021643535258663,"34":-0.042568690160825165,"35":0.05603178025487589,"36":-0.048273141490664244,"37":-0.03881289357675013,"38":-0.021671858775142157,"39":0.011247239430908808,"40":-0.007872406659398049,"41":-0.02541680288911282,"42":-0.03328007152101256,"43":-0.005845582264908149,"44":-0.01230187442276266,"45":-0.06714642459503631,"46":0.053755322053593776,"47":-0.023350787480953022,"48":-0.030714136006839778,"49":0.013935827005986072,"50":0.06680251765261429,"51":-0.011176719893993917,"52":0.020903777422927247,"53":0.034628960747647014,"54":-0.008729813131187151,"55":0.002255749055882314,"56":-0.052265942696411674,"57":0.015341801968503453,"58":-0.042067819165886124,"59":0.12386036618542373,"60":0.0044553462288176885,"61":-0.05228216386125043,"62":-0.04734685130833549,"63":0.01384134856333437,"64":0.04350329012566751,"65":-0.08628341579026605,"66":-0.0680196656690131,"67":-0.02216437390521257,"68":-0.08571666635642218,"69":-0.06215259977158656,"70":-0.014778547418717258,"71":-0.015678019035275083,"72":-0.02246490771624379,"73":-0.016466074480492032,"74":-0.0212179590295793,"75":-0.014894428031288313,"76":0.07501981440520905,"77":-0.09279737923094243,"78":-0.019488549409509805,"79":-0.011562272081787582,"80":-0.043923042879506116,"81":0.05486796033864855,"82":-0.08441127339074878,"83":0.0040235659902048216,"84":-0.056152679678033245,"85":-0.00766734486483394,"86":-0.12280906749686421,"87":-0.08636179075692334,"88":0.02976176242290474,"89":-0.11046563884013248,"90":0.06533761504986112,"91":-0.07584949323688077,"92":-0.10105299400477279,"93":-0.03329901486557518,"94":-0.02661949694305278,"95":0.059061764507161635,"96":-0.03981711643656306,"97":-0.045086707513746556,"98":0.008395786602108771,"99":0.028543267470359554,"100":-0.03140028175011837,"101":-0.001346458517751978,"102":0.012417376523936,"103":-0.021482017037598916,"104":-0.05429454365521857,"105":0.023945015531837355,"106":-0.03376147948193271,"107":-0.05096191149708401,"108":0.00011404525153660986,"109":0.06576502153454697,"110":0.0923242707198909,"111":-0.04647457229452021,"112":0.05029907411287589,"113":0.042806891576524474,"114":-0.052073196552403354,"115":0.0007196249982469872,"116":-0.004173541153496117,"117":0.005385265745639192,"118":0.009003826156243953,"119":-0.021830330923385377,"120":0.008417390676762998,"121":0.02734516588018089,"122":-0.123227768416102,"123":-0.10338242139154015,"124":0.05672939904471347,"125":0.036419415474232074,"126":-0.015510090953899451,"127":0.023929362199916402,"128":-0.03843609345262635,"129":-0.05556162609004649,"130":-0.07208945516610997,"131":-0.048381771046726134,"132":-0.001235038790425251,"133":0.05688171074704279,"134":-0.016958599141963463,"135":-0.057547289022713076,"136":-0.06521482624602658,"137":-0.01796149591267197,"138":0.005509269290587908,"139":0.04672063561109886,"140":0.05647188196313307,"141":-0.007848907187275248,"142":-0.04778202319381921,"143":-0.040460995745106365,"144":-0.03884333794185938,"145":-0.03332241698017736,"146":-0.056098991363405994,"147":-0.02377370830320087,"148":-0.0457254134958059,"149":0.011035531841431039,"150":0.026771703875413565,"151":0.029859467009568128,"152":-0.031533082770150656,"153":-0.06833590092936882,"154":0.032607682767477296,"155":0.08765888199023236,"156":0.003327143572131137,"157":0.060113959400380106,"158":-0.019266336893820613,"159":-0.044139447682355164,"160":-0.056488073910117814,"161":0.0026015984297442884,"162":-0.0034217597574950315,"163":0.025518127542508224,"164":-0.010729267759839838,"165":-0.0005994710180612533,"166":-0.025005414266327738,"167":0.007640348673745479,"168":-0.012513294433542717,"169":0.0391318393329427,"170":-0.014143562337342598,"171":0.039491167495786794,"172":0.0247396413342547,"173":-0.06042260793631519,"174":-0.08690321608083623,"175":-0.06925321167520207,"176":-0.01387349005319288,"177":-0.021234228314225223,"178":-0.08168185179031824,"179":0.0007296008064151711,"180":0.0385014252075066,"181":-0.007467394743138442,"182":0.013781773781610475,"183":-0.08676837907856116,"184":-0.043631528488490716,"185":-0.03489676916307617,"186":0.0875607291807121,"187":-0.02062563897766291,"188":0.02650898422134104,"189":0.0301716729347045,"190":0.0067203071370342884,"191":-0.06426050420405299,"192":0.03393967974955494,"193":-0.028223202908876605,"194":0.016738911775099556,"195":0.00923368404653129,"196":-0.03317446922743816,"197":-0.022704138593788163,"198":-0.038186879093208434,"199":-0.0007437556718818066,"200":0.008503271055123456,"201":0.010134878719660156,"202":0.028027254353877016,"203":-0.09128442612918301,"204":0.04321733890055402,"205":-0.07081577778830438,"206":-0.019084308245861457,"207":0.015521891185243537,"208":0.007767775380841697,"209":0.0026669760045589653,"210":0.01666418345280129,"211":0.039140928138287685,"212":-0.002004516115797283,"213":0.03825196922057809,"214":0.008936000873622908,"215":-0.014041132246484773,"216":0.021759333312825185,"217":-0.050561854521750896,"218":-0.06418584031275273,"219":-0.07511409677382644,"220":-0.06315723941142033,"221":-0.08298478019209882,"222":0.024399033331388972,"223":-0.001888931988141301,"224":-0.003600404243406719,"225":0.01950382313018792,"226":0.007237162810363583,"227":-0.03553471184404746,"228":0.03669566003044648,"229":0.005385501336892049,"230":0.03508685599491862,"231":-0.04460779814623282,"232":-0.0745603105747088,"233":-0.08991022546541837,"234":0.0018435222035252546,"235":-0.005737361066607585,"236":0.022306971105730832,"237":0.0032013817728113163,"238":0.011779681589294128,"239":0.04563090891305958,"240":0.10794473013021269,"241":-0.004172321882442178,"242":0.05486710471699297,"243":-0.013119102927970775,"244":0.0655556696342722,"245":-0.0008343536923850733,"246":0.08292751569619466,"247":0.0368469028071722,"248":-0.027559125821215346,"249":0.001463198321618686,"250":-0.015617751487622416,"251":-0.02745830926595051,"252":-0.029313893601160802,"253":0.003811336187985376,"254":-0.03551069194775463,"255":0.0051621450509024575,"256":-0.10981525720827433,"257":0.009950937231731698,"258":-0.02045784441639291,"259":-0.001301073349348195,"260":0.033910377102385716,"261":0.008501847966490499,"262":0.038866315701551434,"263":-0.05379971667146633,"264":-0.020580157285296892,"265":0.04573981663889326,"266":-0.033147058977525526,"267":-0.06448897052649602,"268":0.02572224236965183,"269":0.049621815879317445,"270":0.061177566688598514,"271":-0.0054132421150641236,"272":0.04968358319743889,"273":-0.0661034622377103,"274":-0.020357984333831083,"275":-0.016048981409249808,"276":0.016801616818398656,"277":-0.030558362057159436,"278":-0.026988227248738193,"279":0.08701812311158191,"280":0.035044328766935307,"281":-0.022864976351215236,"282":-0.0020557370735931908,"283":0.039520070887796445,"284":-0.020101843727147947,"285":0.02296789406032303,"286":-0.09219590680093304,"287":-0.050755281969212244,"288":-0.006702810085695883,"289":0.07521012948299402,"290":-0.010236600227250129,"291":-0.03200692670259121,"292":0.0679661148094562,"293":-0.011193999260991211,"294":-0.04262366632422993,"295":0.046836044951178706,"296":-0.065067878176859,"297":0.022638192275506088,"298":-0.06539410344216177,"299":0.0063552140444020685,"300":0.054027421984695484,"301":0.01340716536220031,"302":-0.030244863883660253,"303":0.0029265111400401072,"304":0.012762992224697787,"305":-0.07158585471477785,"306":-0.0378000337462336,"307":0.020217274717061636,"308":0.08104249347219558,"309":-0.013124152451387774,"310":-0.06736747496350345,"311":0.08804901998222979,"312":-0.08532085470460422,"313":0.01688016788232501,"314":-0.059087774404837784,"315":-0.021741742357774072,"316":-0.011869586895881313,"317":-0.04459430319684969,"318":0.012893882745564926,"319":0.03458724214599607,"320":-0.040666132386724785,"321":0.04418261988304275,"322":-0.06272438125419942,"323":0.030127073733897926,"324":0.016745756510467565,"325":0.05190224404873772,"326":0.0192547848487914,"327":-0.08774347390875598,"328":0.037015051776568435,"329":0.009067620705066375,"330":0.01987054551481372,"331":-0.03625815523238076,"332":-0.030133602021356065,"333":0.0248309383262032,"334":-0.06734398531889403,"335":-0.029209640153290892,"336":-0.02676804644605107,"337":-0.09254790242859293,"338":-0.07117375800903754,"339":0.0053528979939275485,"340":-0.061052303545866646,"341":-0.026984710452363257,"342":0.0014283018000750061,"343":0.053232011897557704,"344":-0.020278315086711355,"345":0.014628780552018588,"346":-0.04247997581071423,"347":-0.027392599451673928,"348":-0.005595449492103813,"349":-0.01818923815627104,"350":0.036197984423630127,"351":0.005788695005015876,"352":0.0119984548585896,"353":-0.05103878527366458,"354":-0.001042305378772219,"355":0.017210036762427095,"356":-0.004640744698646032,"357":-0.037776110089310255,"358":0.029413933995289493,"359":0.03983908166665505,"360":0.047255573760981745,"361":-0.01205561188126233,"362":-0.025179344312573484,"363":-0.08915297545558869,"364":0.028875566420113432,"365":0.02095638490822451,"366":-0.01564174532038028,"367":0.06637274318463197,"368":0.004402606821402523,"369":0.024353072370847863,"370":0.04449675888321638,"371":-0.011354059406892799,"372":0.017674650010073595,"373":0.05271202149824749,"374":-0.10304561014624047,"375":-0.020640207361330477,"376":0.05489825879721483,"377":-0.02332193278460921,"378":-0.016042267971399876,"379":0.013343099955511948,"380":0.013317435444235633,"381":-0.005404479098336588,"382":0.06833787326237413,"383":0.0012927433204991219,"384":-0.03138277707941782,"385":0.04915523443329999,"386":-0.06319616748114275,"387":-0.053763119672020375,"388":0.0702151366628024,"389":0.07221102752519198,"390":-0.03481475883728725,"391":0.033942332702837405,"392":-0.062355297735335755,"393":-0.004013650931069613,"394":-0.00493965594113388,"395":-0.039452647502734695,"396":0.045963121233517513,"397":-0.010597633928659452,"398":0.026264583917472228,"399":-0.02930023159435289,"400":0.027272502264527942,"401":-0.02756573628115294,"402":-0.03407801271519157,"403":0.03623381402564276,"404":0.07552685603344099,"405":-0.011770024700741113,"406":-0.04711908985956665,"407":0.003537530611557577,"408":-0.03263731390750848,"409":0.11525621580782867,"410":-0.023781489135666713,"411":-0.029273694201981598,"412":0.0959212985061568,"413":-0.005752431992112856,"414":0.037384260261066365,"415":0.02061820941249655,"416":-0.003545678362058577,"417":-0.024805667441468213,"418":-0.0011328626074995677,"419":-0.05678612587522522,"420":0.013269028344940387,"421":-0.06840787227345856,"422":0.03230511085370622,"423":0.07700000599396094,"424":-0.047611766085207625,"425":0.044177375300840746,"426":-0.06280354740320762,"427":-0.0361587916607822,"428":-0.004351859118613683,"429":0.03800050192377498,"430":0.0005987867781075898,"431":0.03397354483663407,"432":0.08658470038124615,"433":0.04132888519332363,"434":0.025575861934587794,"435":0.0005508550024938622,"436":-0.11623128500061469,"437":0.06811062613552765,"438":-0.10547755194605762,"439":-0.06793289338399194,"440":-0.052763521643956396,"441":-0.05024530163203492,"442":0.002405777616156215,"443":0.09367315193294569,"444":0.028592587030429873,"445":-0.00033399182318095613,"446":0.006891327429247295,"447":-0.014580056991821858,"448":0.06606667836162963,"449":-0.004647095780862671,"450":0.024951631368809197,"451":-0.02222505360409007,"452":0.05216166738336442,"453":0.06469137422771234,"454":-0.05803916699879587,"455":0.028769704216256898,"456":-0.0878603068149555,"457":-0.0025477463137124796,"458":-0.06121939207448689,"459":-0.06545149622351312,"460":-0.038770209754113986,"461":0.03253288021820472,"462":0.03319352335120497,"463":-0.01749730188837824,"464":-0.08227489196829053,"465":0.0039228037188092915,"466":0.045287001740312895,"467":0.06653802250075419,"468":0.05572433911628926,"469":-0.030576986180056397,"470":-0.05943056755515595,"471":-0.051177722817866825,"472":0.05157009238631811,"473":-0.058810757486296765,"474":0.009620362329079979}},{"sx":1,"sy":1,"depth":475,"w":{"0":0.08672656528054486,"1":0.05147867028006318,"2":0.18997670990495716,"3":0.09287848841912573,"4":0.0560790021299814,"5":0.02930940819692221,"6":0.052333843650694496,"7":0.21415057122774994,"8":0.12036397626736758,"9":0.08549537748451495,"10":-0.053453558468691285,"11":0.019525238822683793,"12":0.14602200027323378,"13":0.027083411189248917,"14":0.08136230027432849,"15":0.06997997905456965,"16":0.03820837720361223,"17":0.2285176361812579,"18":0.08770369883987986,"19":-0.0035651645351149376,"20":-0.08597886766340641,"21":0.08609373974637705,"22":0.24731093754448621,"23":0.12702403148354,"24":-0.019384268816331415,"25":0.009007903979734977,"26":0.057700627019435194,"27":0.24912438810906418,"28":0.14693731145190692,"29":-0.03140461819816028,"30":0.01862823348342137,"31":0.06262353377447806,"32":0.2690605728447522,"33":0.10676404230514087,"34":-0.01608117619098003,"35":-0.010311695129656044,"36":-0.01885283556719882,"37":0.46185481722208155,"38":0.03515468054267022,"39":0.007190297203596868,"40":-0.0023920213239756556,"41":0.09496514307172205,"42":0.48718182564285395,"43":-0.009396183148684794,"44":-0.00741256144225624,"45":-0.027450434231776552,"46":0.02902026858902613,"47":0.3574502813119669,"48":-0.006235200701149991,"49":0.014597607404907585,"50":0.026606651946274085,"51":0.06675353653761729,"52":0.21302996348688694,"53":-0.010575128163809741,"54":-0.027117391453883432,"55":0.027710185897776882,"56":0.035647484522395426,"57":0.010260270280630686,"58":0.021486865836203958,"59":-0.10112206451250394,"60":0.017792110064365006,"61":0.11588833744446211,"62":0.005911855994825805,"63":-0.052854863399297056,"64":0.04047275391071332,"65":0.004443733529376462,"66":0.002009033021603784,"67":0.04455349379164355,"68":-0.06341999822760237,"69":-0.006511070854384039,"70":-0.0061543963948417855,"71":-0.03639177978142493,"72":0.0120346210847643,"73":-0.05447531372056215,"74":0.013906121224219647,"75":0.044254377059165136,"76":-0.03743499187651214,"77":0.051414461072832505,"78":-0.07478486415606699,"79":0.06099487704453748,"80":-0.033968190302256944,"81":0.02361755079259117,"82":0.03836771696162748,"83":-0.05505290817494374,"84":0.01659755220123764,"85":0.07591338343093168,"86":0.016899900421999348,"87":0.05148937585785613,"88":-0.12359986172458357,"89":0.08032419660879678,"90":-0.020257534050418184,"91":-0.12724849557052062,"92":-0.021915110911510657,"93":-0.09393597349546678,"94":-0.055443513118484146,"95":0.036491766903238076,"96":0.01636472073487823,"97":-0.019941121615946057,"98":-0.08082371652133485,"99":0.019314280255505162,"100":-0.02156419316256229,"101":-0.014211270435990506,"102":-0.056463102569843784,"103":0.005012745157212328,"104":-0.042861568322453844,"105":-0.016975287622720724,"106":-0.04159868054209124,"107":0.05124000238969434,"108":0.0021212911166282496,"109":0.032496047198246426,"110":0.011342706694303019,"111":-0.0794415699713874,"112":-0.025339774293469855,"113":-0.021706103457127788,"114":0.05450685441226018,"115":0.13137344394846218,"116":0.1530701303683994,"117":0.1385549275184498,"118":0.12323206759783288,"119":0.08157347674249484,"120":-0.019439933258055084,"121":0.05839556039912411,"122":0.01604773601655569,"123":0.12343928633517318,"124":0.0436720428058574,"125":-0.0005755233637755283,"126":0.022314094623413962,"127":0.06132692703379008,"128":0.03623325366929237,"129":0.0009535744196235799,"130":0.036473864239511995,"131":0.044445850325196504,"132":0.06988964641393773,"133":0.0605883446097353,"134":0.13604120352738652,"135":0.00020394616699396736,"136":0.10629364720695647,"137":0.009042601445929999,"138":0.029761753813032938,"139":-0.02778666167917637,"140":0.05243223966929466,"141":0.0076304643086540875,"142":0.050258101676599505,"143":-0.007846402814972332,"144":0.08481057373715871,"145":0.02368504082210419,"146":-0.00291386546904249,"147":0.08402909935312265,"148":-0.008941838431300394,"149":0.059289662854989544,"150":0.00959263683543298,"151":-0.020753257335671845,"152":0.0558767602025263,"153":0.05894406896392581,"154":0.009485871224110749,"155":0.00873440198744961,"156":-0.02592131263732245,"157":0.04264902919562371,"158":0.005677540012154245,"159":0.01377066688489729,"160":-0.053924937197421766,"161":-0.11165043936713387,"162":0.04488795876652971,"163":0.08787038965249339,"164":0.07115545815936505,"165":0.11485847760720527,"166":-0.07169937798445837,"167":0.0047560989289378046,"168":0.0279528127097854,"169":0.037413651899224305,"170":0.05679738892888527,"171":0.05066834180566749,"172":-0.01658112746604675,"173":-0.048405819469114035,"174":0.019985503830355154,"175":-0.014164676139465891,"176":0.051561375624545526,"177":0.0586597932425035,"178":-0.07420447358340788,"179":-0.04276257704901109,"180":0.02160037303661902,"181":-0.01851352033898325,"182":-0.015299780713441614,"183":-0.0448940471436042,"184":0.062390042246973684,"185":0.01387696832605219,"186":0.014351543118815379,"187":-0.02047839611934281,"188":-0.023379128683861806,"189":0.07548843924649437,"190":0.07560871808998555,"191":0.08901938572380344,"192":-0.07516271016214712,"193":-0.054754746008552374,"194":0.0068387745654120684,"195":0.0010662890344306688,"196":-0.01123132501411256,"197":-0.023706820053407157,"198":0.0067770169107763826,"199":0.01683237868004996,"200":-0.028184419039922304,"201":0.032617690281456724,"202":0.04519017186416681,"203":-0.0030011175506520736,"204":-0.0011409010889373004,"205":-0.05229134029504955,"206":-0.018116439658118245,"207":0.03606008280615365,"208":0.027200235943383094,"209":0.027789610709562054,"210":0.09897298489654115,"211":-0.02862939065748873,"212":-0.057208943563367316,"213":-0.04034162230723216,"214":0.013756684499782141,"215":-0.03715101533727342,"216":0.03741399724740587,"217":-0.006647390391647198,"218":-0.10516075867199318,"219":-0.0915014916809026,"220":-0.033344779633569924,"221":0.03016110525159961,"222":0.0048823181035672885,"223":-0.03548515316112634,"224":-0.026474211727239377,"225":-0.015087112169745912,"226":-0.016322013842900735,"227":0.04476367110371378,"228":-0.03937607706946578,"229":-0.0011139830696835224,"230":-0.07897127332710427,"231":0.024143827638647995,"232":0.04554067202499127,"233":-0.011683348288820354,"234":0.015512813586105774,"235":-0.02827996385739003,"236":-0.017074876367627115,"237":-0.03136766699076331,"238":0.04374408322533892,"239":0.002624279081640518,"240":0.032087024846188306,"241":0.042910918006227,"242":0.008188404473693851,"243":-0.05673281328837833,"244":0.09637593881419602,"245":-0.020395837727328683,"246":-0.004058805333115006,"247":-0.035759482310772105,"248":0.01907430850422131,"249":0.03398919164242967,"250":-0.060185220777969485,"251":-0.006170704243724734,"252":-0.0007596623867633362,"253":0.022865091616830403,"254":0.04149093729171324,"255":0.027083079701645058,"256":0.02191585905933984,"257":-0.034347283704853196,"258":-0.06511199484287264,"259":-0.01764401129496982,"260":-0.013838039879308787,"261":0.03181577805371639,"262":-0.046759384724669284,"263":-0.042580144005011915,"264":-0.026406587570373636,"265":0.01810925896113942,"266":-0.0042918530272942545,"267":0.06467477634342648,"268":-0.11923896563079604,"269":-0.004056360126471384,"270":-0.055927669506156824,"271":-0.05389983210206171,"272":-0.001223028882925852,"273":-0.05247671589501843,"274":-0.06019849870203947,"275":-0.05430531112587833,"276":0.013200127789053814,"277":0.04146442421308069,"278":0.0110970675520448,"279":0.006513216338386292,"280":0.030380150936137853,"281":-0.11046010114202746,"282":0.048995136791434926,"283":-0.028472766954595843,"284":0.0715880861599235,"285":-0.052579038769787284,"286":-0.003842497186470731,"287":0.01044208007276232,"288":-0.0488028232782512,"289":0.007243697092698427,"290":0.014830164629421758,"291":0.007053521138004073,"292":0.09787544818386085,"293":-0.07224343235413602,"294":0.04942077617242182,"295":0.01451692747608038,"296":0.01702550630029666,"297":-0.05825098091416762,"298":0.018669774549238457,"299":0.002427542637961648,"300":-0.00872646267688807,"301":0.009593067807295597,"302":0.03448626844452254,"303":-0.027404913865007294,"304":0.0528788641705407,"305":-0.025406993415747342,"306":0.000631168040467799,"307":0.02117331204161848,"308":0.015094720566787975,"309":0.013195976188117242,"310":-0.05421234025292487,"311":0.017911455142101202,"312":0.00685361085114223,"313":0.07361807343085104,"314":0.04615918889143975,"315":0.009927206737526123,"316":0.02280536428615124,"317":-0.0172200811820347,"318":0.05555463789916934,"319":-0.007034361629393291,"320":0.008426124045182629,"321":-0.021596746105112787,"322":-0.05916979229988438,"323":0.019285444519607637,"324":-0.03248834477852246,"325":0.08291712117074933,"326":-0.036755594162115275,"327":0.03136264900811121,"328":0.04774094554313436,"329":-0.06746033735448667,"330":-0.003426193955293739,"331":0.05895098975588212,"332":-0.017434142250299316,"333":-0.0032140641586828086,"334":0.02142009426453534,"335":0.04012550467034345,"336":-0.028144714630140035,"337":0.017454283104123617,"338":0.03287399392493538,