
//<![CDATA[

// a few things don't have var in front of them - they update already existing variables the game needs
lanesSide = 2;
patchesAhead = 8;
patchesBehind = 8;
trainIterations = 100000;

var num_inputs = (lanesSide * 2 + 1) * (patchesAhead + patchesBehind);
var num_actions = 5;
var temporal_window = 3;
var network_size = num_inputs * temporal_window + num_actions * temporal_window + num_inputs;

var layer_defs = [];
layer_defs.push({
    type: 'input',
    out_sx: 1,
    out_sy: 1,
    out_depth: network_size
});
layer_defs.push({
    type: 'fc',
    num_neurons: 100,
    activation: 'relu'
});
/*layer_defs.push({
    type: 'fc',
    num_neurons: 100,
    activation: 'relu'
});*/
layer_defs.push({
    type: 'regression',
    num_neurons: num_actions
});

var tdtrainer_options = {
    learning_rate: 0.001,
    momentum: 0.0,
    batch_size: 64,
    l2_decay: 0.01
};

var opt = {};
opt.temporal_window = temporal_window;
opt.experience_size = 3000;
opt.start_learn_threshold = 500;
opt.gamma = 0.7;
opt.learning_steps_total = 10000;
opt.learning_steps_burnin = 1000;
opt.epsilon_min = 0.0;
opt.epsilon_test_time = 0.0;
opt.layer_defs = layer_defs;
opt.tdtrainer_options = tdtrainer_options;

brain = new deepqlearn.Brain(num_inputs, num_actions, opt);

learn = function (state, lastReward) {
    brain.backward(lastReward);
    var action = brain.forward(state);

    draw_net();
    draw_stats();

    return action;
}

//]]>
    
/*###########*/
if (brain) {
brain.value_net.fromJSON({"layers":[{"out_depth":335,"out_sx":1,"out_sy":1,"layer_type":"input"},{"out_depth":100,"out_sx":1,"out_sy":1,"layer_type":"fc","num_inputs":335,"l1_decay_mul":0,"l2_decay_mul":1,"filters":[{"sx":1,"sy":1,"depth":335,"w":{"0":0.00040155020486094795,"1":0.032937181960104776,"2":-0.46581455451635545,"3":-0.14400515430078825,"4":0.011854887723253424,"5":0.0309544323271178,"6":0.16687354266135498,"7":-0.26760713507390677,"8":-0.17813264589442462,"9":-0.013708867292030967,"10":0.09283960603132844,"11":0.055257217442432255,"12":-0.31621969504140734,"13":-0.20538217218660323,"14":-0.09409205779234629,"15":0.054450118203613104,"16":0.0661367336767349,"17":-0.18733618886576545,"18":-0.18719896729888594,"19":0.017647000335804547,"20":-0.08532027362688592,"21":-0.020206315138481295,"22":-0.017570580052084474,"23":-0.18093948886668237,"24":-0.030981701489269722,"25":0.06946468775424518,"26":-0.0607835566672798,"27":0.03016064743145822,"28":-0.1958828977489368,"29":0.048170569703392695,"30":-0.04864690981534377,"31":0.08468981056596923,"32":-0.003919281848133361,"33":-0.09782141595324813,"34":0.010875662277186077,"35":0.03495645268971405,"36":0.05082074516493371,"37":-0.07633062531105406,"38":-0.06960699840611209,"39":0.06721494779833365,"40":-0.0648453317425636,"41":0.026961796437052914,"42":-0.20359827079592402,"43":-0.11611298125850071,"44":-0.005767153334450514,"45":-0.05815202345352119,"46":-0.0032242042558349405,"47":-0.12719729681247308,"48":-0.13756127329811382,"49":0.0634534748111141,"50":0.034451003176931054,"51":0.09254784071241609,"52":-0.04821060473419589,"53":-0.11436625471995783,"54":-0.014358264974223139,"55":-0.06877640860028716,"56":0.04535834021746762,"57":-0.07614498471723602,"58":0.019978601269154232,"59":-0.009838728661767266,"60":0.06647064800931606,"61":0.07546526371771888,"62":0.08219062392632079,"63":-0.009446876694703605,"64":-0.059142588087655476,"65":-0.009617498172937871,"66":0.05356312113687951,"67":0.03059329909074123,"68":-0.09095056185361346,"69":-0.07232166993337119,"70":0.01865390641751629,"71":-0.014122458737951146,"72":-0.003944409058438319,"73":0.057761725872394615,"74":0.0031569222716395693,"75":-0.005094910509011341,"76":0.14539951333252188,"77":-0.1227015481176679,"78":0.010928806957545134,"79":0.05202827078153751,"80":-0.013095795241720875,"81":-0.049670797159135645,"82":-0.07637989481358969,"83":0.038341762095962004,"84":-0.09297222151986895,"85":0.060984531039063504,"86":0.09072731911377177,"87":-0.052685114054769215,"88":0.10448915194486977,"89":-0.11434055692155894,"90":-0.019867498776461198,"91":-0.051913244443146836,"92":0.03762331414609367,"93":-0.00031938845938111874,"94":-0.11622417237394032,"95":-0.009076450193618036,"96":0.016990324072249104,"97":-0.042170048603529395,"98":0.010392474258021697,"99":0.03114713043546483,"100":-0.06984518778302927,"101":0.09105450093974032,"102":-0.11288707941421737,"103":-0.08619313646734697,"104":-0.017948271665143806,"105":0.04997188533117686,"106":0.041775444749534235,"107":0.03164844696602303,"108":-0.022409366581046773,"109":-0.06084415101010395,"110":-0.017103821866094878,"111":0.024983878408138704,"112":0.07137863292551895,"113":-0.026717080919499137,"114":-0.06454296118021957,"115":0.018341809191927478,"116":0.011829280321768165,"117":0.03876355119246184,"118":-0.10697032215803011,"119":0.015104964584828559,"120":0.010102811837254734,"121":0.05538548120964681,"122":0.04951467015100119,"123":0.02993372652980532,"124":-0.007127926680600742,"125":0.005009615206426523,"126":0.13996893320039386,"127":0.04385335363518368,"128":-0.12722210398633527,"129":0.037189823817588896,"130":-0.01211044758774729,"131":-0.05147185972332591,"132":-0.08313176959677454,"133":-0.018881138609869997,"134":0.005069484769231181,"135":-0.03636082210158409,"136":0.005666847796881988,"137":0.060783528055676946,"138":0.0044119721416763956,"139":0.04280298491691531,"140":-0.008077921686730799,"141":-0.031937125180199484,"142":-0.019544097400206257,"143":-0.011685554366858862,"144":-0.008858882125601472,"145":0.000630994883753369,"146":0.002668471546019326,"147":-0.05158725357056,"148":0.04408327996274067,"149":0.09631815928981163,"150":-0.09304773324369259,"151":-0.02584824878392593,"152":0.046897820545362366,"153":0.08581817540346053,"154":0.04482655299901215,"155":-0.027001150481967783,"156":0.08252590863717421,"157":-0.045072820521291364,"158":0.16411964300427478,"159":0.0481443530613461,"160":0.04816561073132559,"161":0.06598801174258206,"162":-0.012524937856529722,"163":0.022954150356444814,"164":0.04696830490325314,"165":-0.07841010927756506,"166":-0.013447820342917407,"167":-0.0930266002408196,"168":0.01332775852353757,"169":0.013027415054968206,"170":0.03802023863020586,"171":-0.11596553698659098,"172":0.02914543872574909,"173":-0.015328617098792009,"174":0.03214116594254864,"175":-0.1322125212766729,"176":0.040546028647078666,"177":0.08152776500737305,"178":-0.05420391500464219,"179":-0.00905655018233608,"180":0.0431876642461831,"181":0.022023337000171922,"182":-0.0018563519263154586,"183":0.033138373288840825,"184":0.07473758030519434,"185":0.009170030069762752,"186":0.004400495006204346,"187":-0.0887234834122309,"188":-0.042699167318218,"189":-0.0030425955284955606,"190":-0.004517454057877534,"191":-0.04819486100153999,"192":0.0158154014968958,"193":0.025747965946243328,"194":0.025447430487632282,"195":0.08638248627979862,"196":-0.016659078435743487,"197":0.062133145220472995,"198":-0.043608349698368694,"199":0.026407854218820838,"200":0.007847345486944522,"201":-0.00023396060052542855,"202":-0.0980726551943496,"203":-0.07203798233353806,"204":0.04353512273301683,"205":0.0040088244025456325,"206":-0.004427809674953914,"207":0.026437691317667426,"208":-0.07759723560173085,"209":0.025087788767326355,"210":-0.05965908525019091,"211":0.004055727339051955,"212":-0.05965738774409206,"213":0.02483798248827977,"214":-0.00901065954083695,"215":0.026712049928171576,"216":-0.041281708737331134,"217":-0.059818529488223984,"218":-0.040531291271048125,"219":-0.06969649098060177,"220":-0.028577557847659425,"221":0.0006052099415317214,"222":-0.00666644482946561,"223":-0.0059691555315788195,"224":-0.021184002027065548,"225":-0.00976681316717895,"226":0.040791270391006926,"227":-0.06440010220956988,"228":0.04915250352206457,"229":0.010180392504427678,"230":0.011621894712492194,"231":0.049814594475762676,"232":0.04264624184673977,"233":0.004217864714925097,"234":0.07737438776862933,"235":-0.04994118758030232,"236":-0.027920228565253467,"237":0.02970645052618914,"238":-0.03452229150478144,"239":0.036482174567394623,"240":0.05457465899315295,"241":0.008230157843745227,"242":-0.07783119860564369,"243":0.011940574431193323,"244":-0.033142761435007724,"245":0.0005391359548131319,"246":0.004028991673061001,"247":0.03747394629271923,"248":0.029310296643953005,"249":0.03136885223058263,"250":0.054394875075159436,"251":-0.03952582209559947,"252":-0.11848208567427032,"253":-0.06149209161545821,"254":0.06737206920497252,"255":-0.09404480793064977,"256":-0.044264889746521145,"257":0.005535968556061163,"258":-0.006076265312424146,"259":-0.03737123083712206,"260":-0.02975909320348671,"261":0.13408044043782458,"262":-0.037064454261104336,"263":0.0028654800621219887,"264":-0.053771949128996334,"265":0.057558723469458804,"266":-0.018342113609232387,"267":0.041837680753820494,"268":0.016555383582106148,"269":-0.05491736860445894,"270":0.07192998390104045,"271":-0.0865613336254462,"272":0.047929999514120504,"273":0.0168978104078712,"274":-0.005565119658543996,"275":0.04674278365241619,"276":-0.043106025845970584,"277":-0.00404399616381416,"278":-0.04515362078014818,"279":-0.01978105348315618,"280":0.03796993462037578,"281":0.020764598907432413,"282":0.02862113310180765,"283":-0.04274039923798443,"284":0.0009049124187956227,"285":-0.020040291381177956,"286":-0.006507722330822922,"287":-0.04275866544379549,"288":0.029905672553303574,"289":-0.02637591369148181,"290":0.04107989740827818,"291":-0.0033010786921982694,"292":0.03791542106407575,"293":-0.04454995000105643,"294":-0.0498450538109136,"295":0.05944154190227489,"296":0.010403397361942276,"297":-0.06384358417989858,"298":0.03668043238668044,"299":-0.07573983056299266,"300":0.056885089219946776,"301":-0.047471797910703474,"302":0.0008559153175112921,"303":-0.09347944909927426,"304":-0.0018051223066759383,"305":0.027997924778289853,"306":0.01954280402931281,"307":0.04079690786408521,"308":0.08704972957513255,"309":-0.03803026339977187,"310":0.00473295133072386,"311":0.05528420312965239,"312":0.027447589984318555,"313":-0.028204393861218792,"314":-0.05028017796731254,"315":-0.007883424660850962,"316":0.14947236864472702,"317":0.10806002402775218,"318":0.0508618289274116,"319":-0.06558829649694685,"320":0.01105096062426747,"321":-0.014643912094246987,"322":-0.0701276810001472,"323":0.0360134149700618,"324":0.010079553554838448,"325":-0.08091654446980427,"326":-0.02740414671950215,"327":0.048239192136901116,"328":0.07716812318126837,"329":0.06833684019422258,"330":0.06020121714654782,"331":-0.004127924126054865,"332":0.09635674611715468,"333":0.04494798833500778,"334":0.022214180995323875}},{"sx":1,"sy":1,"depth":335,"w":{"0":-0.06658299461505063,"1":-0.05899650384761046,"2":0.010809703446042424,"3":0.014006891297387955,"4":0.005455059817385472,"5":-0.08650396059502793,"6":0.07703219588822201,"7":-0.003474016492646026,"8":0.02331003488050435,"9":0.014933627327969377,"10":0.016412791762549707,"11":0.028757418978335447,"12":-0.07613820152747634,"13":0.017561934334586995,"14":0.0733534095807115,"15":-0.07561306765682475,"16":0.031479558140510594,"17":0.01644019477149534,"18":0.07076414642468047,"19":0.01477149035614628,"20":0.04880903327786446,"21":0.026416566162890603,"22":0.017597525676839237,"23":0.1254065552615438,"24":0.07315200748677905,"25":0.021245844271219477,"26":-0.024213316143706372,"27":0.014910075122873415,"28":0.019566093622885947,"29":0.02473574805401005,"30":0.16397059041033984,"31":0.10377719184792311,"32":-0.019636218511403868,"33":0.07816403207375798,"34":-0.09170799688435075,"35":-0.057945704672194925,"36":0.026638213775413123,"37":-0.03982599920493371,"38":0.09535518720114693,"39":0.03310038138787718,"40":0.03395525785639798,"41":-0.04291740998033965,"42":0.007192246248319645,"43":0.07757588028312544,"44":0.02072704200575765,"45":-0.07979557546507032,"46":-0.02782095410633875,"47":-0.10327687972584153,"48":0.06881382335888228,"49":0.07838538269310938,"50":0.004345495259762337,"51":0.005273289906812064,"52":0.004389999486872635,"53":0.05333955521327168,"54":-0.02366648166662876,"55":0.02005610770784868,"56":0.020437164539535313,"57":0.01434988526531937,"58":0.07430438263641317,"59":-0.028816934678880673,"60":0.11979085113513438,"61":0.05890046875087208,"62":-0.014050004467737813,"63":0.06540968536371243,"64":-0.10062955875495064,"65":0.02975183993213711,"66":-0.09116366654442419,"67":0.016249314400747603,"68":-0.08274897304489601,"69":-0.015591569382870638,"70":0.013755019392183631,"71":-0.0035284038967984027,"72":0.09471629627709882,"73":-0.03191631154964999,"74":0.04039498383532775,"75":0.07435883344632631,"76":-0.0487010912834368,"77":0.029536617516008855,"78":-0.016094029024061225,"79":0.052408974075239895,"80":0.10528069416086094,"81":0.023116584148826624,"82":0.01613699457970778,"83":0.05505369506977621,"84":-0.03459260032641144,"85":0.002142024340000003,"86":0.07273121751854252,"87":-0.013216338521940893,"88":0.07203127991205405,"89":-0.05309754784170089,"90":-0.021791336150027645,"91":-0.054513850011584875,"92":-0.012969656473682213,"93":0.08103477989074084,"94":0.010831233841158402,"95":0.0776247978250008,"96":-0.006664581544352307,"97":0.06226792091137262,"98":0.15601785148943276,"99":0.11606268745787496,"100":0.10903185285635161,"101":0.10485728598337243,"102":-0.044131642679240295,"103":0.01602720519420811,"104":0.07220190778680137,"105":0.002176237381492966,"106":-0.055912009735416324,"107":-0.0015348537793005513,"108":0.025070882041677563,"109":0.14232216215897361,"110":-0.04780194886899549,"111":0.06729755696949126,"112":0.07330149750273501,"113":-0.11946883646713803,"114":0.05279639096129038,"115":0.010074790361441807,"116":-0.10191968025426464,"117":0.04200314736345166,"118":-0.031159607803998735,"119":0.04293223077033808,"120":-0.026180303631240562,"121":0.10236959190641655,"122":0.030262406543498942,"123":-0.10945014030813753,"124":0.016620023624502142,"125":0.00964936746931848,"126":-0.03129090487709889,"127":-0.00876887552706651,"128":0.03243031752501147,"129":-0.07890451761687162,"130":-0.04021459675197658,"131":0.04375005423400188,"132":-0.05988446425119822,"133":-0.0029768754535195647,"134":0.004211925220607001,"135":0.006805686888944411,"136":0.02781900506198626,"137":-0.046897972119676175,"138":-0.005459318598326749,"139":0.07334613118785786,"140":0.01675480847470311,"141":0.016091736351304838,"142":-0.06229636916987154,"143":-0.0509758128477047,"144":-0.054070369387858204,"145":-0.07846067149260863,"146":-0.0467571403633637,"147":0.0593848811839236,"148":0.07727158210296955,"149":0.01703638512617905,"150":0.005024194411225148,"151":-0.14908002328360856,"152":0.07740961559357702,"153":0.05748937367023254,"154":-0.017215221324707285,"155":0.0013004534990657647,"156":-0.004692484341639199,"157":0.024500424216884583,"158":-0.03011187992649253,"159":0.004386565888350019,"160":-0.016054122298523803,"161":0.027432966450244105,"162":-0.03062008144989554,"163":0.012293798619186962,"164":-0.1572863154915312,"165":0.08675786165745626,"166":-0.02570672540881461,"167":-0.0028193336586469853,"168":0.012739158621488002,"169":-0.10056432011875766,"170":0.037971943838032055,"171":0.04607273924340189,"172":-0.10263333603001817,"173":0.10168327195695054,"174":-0.1272267865168562,"175":0.000266920029885461,"176":-0.034067550217227044,"177":-0.037545514504085414,"178":0.004247322950126218,"179":-0.0014966645697713026,"180":0.038255167126861785,"181":0.06753347708300507,"182":-0.10930402215441205,"183":0.046399293814443,"184":-0.016391729784084003,"185":-0.02316216528511277,"186":-0.013115260695394499,"187":0.019315037272031856,"188":0.0024646350461090707,"189":0.08667957793093847,"190":-0.034890570585808106,"191":-0.15998661615215296,"192":-0.05906862115329206,"193":0.10087241118709633,"194":-0.004673293250755875,"195":0.028087185138006013,"196":-0.02608648454424754,"197":-0.024945666223286644,"198":0.11001623787388738,"199":0.009487269565573359,"200":-0.029141065988946606,"201":0.07510319064377051,"202":0.051854228796417046,"203":0.0028023309103538873,"204":0.0026224004492666968,"205":0.02748245671559199,"206":-0.023327166116807237,"207":-0.0415288273203767,"208":0.021045114332283312,"209":0.08483106168889687,"210":-0.052128398412786776,"211":0.08221513298571781,"212":-0.03928106102601458,"213":-0.012161773319569455,"214":0.05896321397721587,"215":0.07151522375621937,"216":0.000010583033185074062,"217":-0.027801368345419342,"218":-0.03503846332443079,"219":-0.021692283150409438,"220":0.06847287055930042,"221":-0.013975919547378741,"222":-0.011444266002614521,"223":0.02584183120410999,"224":-0.08770974204066713,"225":-0.029372470115313888,"226":0.06599378753585522,"227":-0.00037853401610154325,"228":-0.053722116313206086,"229":0.04057005710703949,"230":-0.048419348469731824,"231":0.027187687630557202,"232":0.11995177832386593,"233":-0.04130770566556058,"234":-0.04573565041025678,"235":-0.05928333544632301,"236":-0.037303799512089356,"237":0.014781561645189512,"238":-0.025311329151732377,"239":0.061546118801522366,"240":-0.03935790414206879,"241":0.028930793339684766,"242":0.021824473524666644,"243":-0.025950131425749357,"244":-0.015531343498132337,"245":0.027645684867196683,"246":0.03815109046446641,"247":-0.1318599370397586,"248":0.03427215945680696,"249":0.0256336459163391,"250":-0.011744851189129261,"251":0.08811449167565158,"252":0.03313817729687014,"253":-0.15084770562871808,"254":0.010184502418475112,"255":0.01643784315878762,"256":0.08091818642630776,"257":-0.009122936199687005,"258":0.026356513422474002,"259":-0.030690537020120534,"260":-0.02181646260387902,"261":-0.0013998121432679737,"262":-0.010695441005924136,"263":-0.03110959699561313,"264":-0.06487437186661277,"265":-0.0330088103849248,"266":-0.0412607228894449,"267":0.03662108115795644,"268":-0.033746823101385555,"269":0.07507081559225465,"270":-0.043838129604652186,"271":-0.03855142848985533,"272":-0.05063783125496199,"273":-0.033912342300833384,"274":-0.034986005130763505,"275":0.03404374891740786,"276":-0.040423679182927164,"277":0.06338882729819248,"278":-0.04817322941878827,"279":-0.030809464690803902,"280":-0.07864860962042075,"281":-0.047009547313305894,"282":0.010478971474581395,"283":0.040848695701432354,"284":0.050231152829903335,"285":-0.1155829193706965,"286":-0.030965728264579072,"287":-0.0233259131185863,"288":0.0535006583060343,"289":-0.019499463699290048,"290":-0.001787993659390342,"291":-0.12280138390509492,"292":0.11152088732494554,"293":0.03612343188804989,"294":0.02522227381607513,"295":0.0189743740568187,"296":0.05633487687006078,"297":-0.005407650416545001,"298":0.025648773667798826,"299":0.049553395186283315,"300":0.03498815444779658,"301":-0.04222428735238277,"302":-0.029994061784388508,"303":0.0038003105785914043,"304":0.06632352445161419,"305":-0.049669085722147004,"306":0.04576797195639359,"307":-0.03809275058582945,"308":-0.028258907591182016,"309":0.004411343045902258,"310":-0.02641361933211006,"311":0.07162792178543297,"312":-0.07009654648005041,"313":-0.04192661699316721,"314":0.06559756399386414,"315":0.044745212209768015,"316":-0.007929134893248927,"317":-0.021671898624342552,"318":-0.09577327051573824,"319":-0.009723541372988668,"320":0.13047505496014797,"321":-0.010454794062629984,"322":-0.0064188536693270855,"323":-0.012366781592053532,"324":-0.06608290979943,"325":-0.09106889046363087,"326":-0.05983197730171109,"327":-0.0887795449087051,"328":0.0158563695902635,"329":0.06493729211422446,"330":-0.022657054119202606,"331":-0.18134942611298915,"332":0.03241505424639852,"333":0.02982541326200524,"334":0.027971328540089716}},{"sx":1,"sy":1,"depth":335,"w":{"0":0.06284020831547367,"1":-0.021178249006413536,"2":0.04217928042167455,"3":-0.0493452738033928,"4":-0.048944194092159464,"5":0.01944644370580252,"6":0.045895026804581976,"7":0.002439746929274631,"8":0.10206882277469699,"9":-0.11380711761931343,"10":-0.0500403648219886,"11":0.0362103248614612,"12":-0.05155677077800596,"13":0.02313618477405142,"14":0.06789959079421387,"15":-0.08886169910288332,"16":-0.014632429458681465,"17":0.04301724947724473,"18":0.012699232114494797,"19":0.005135492129627327,"20":0.02230015839415372,"21":-0.008280594863265189,"22":0.065769642847843,"23":-0.0025094669385097765,"24":0.0006384750962421102,"25":-0.11786772092231061,"26":0.005339621257282118,"27":0.025813796834035906,"28":0.0831911001829229,"29":-0.04327538007349767,"30":0.0074029479838168145,"31":0.0037983874771608025,"32":-0.11276460327946397,"33":0.10271034074572401,"34":0.07437673461865162,"35":0.008680405493556647,"36":-0.06318012364764862,"37":-0.003437225800990444,"38":0.0739337649233154,"39":0.06358163858529546,"40":0.08327314904844661,"41":-0.041904536864264263,"42":-0.06864237864290072,"43":-0.06275505426220716,"44":0.07955255561970172,"45":-0.004577878728629848,"46":-0.06587872644838996,"47":0.009055340982353199,"48":-0.01324445286827989,"49":0.050354020963262906,"50":-0.01575470361666893,"51":-0.025347934538996794,"52":-0.09582630539807854,"53":-0.017827648106667742,"54":-0.020310350144855625,"55":0.006770463792143174,"56":-0.09516289702271599,"57":-0.001066365341034415,"58":0.05955864766236628,"59":0.08847825671249486,"60":0.001761151228549121,"61":-0.03769692417487492,"62":-0.05594740462500835,"63":-0.060383008473051794,"64":-0.02533235601802546,"65":-0.005951013852180753,"66":-0.04140518198596234,"67":-0.04738047394307402,"68":-0.0005801530563810982,"69":0.0667941260484166,"70":0.013694513754765084,"71":0.09952702666600771,"72":0.10914241542101381,"73":0.009427773490164207,"74":0.02383215988794034,"75":-0.006826304912520553,"76":-0.0007825011607008836,"77":0.07428728709650904,"78":0.03667274396662529,"79":0.08503417949163691,"80":-0.02072411659736358,"81":-0.01749522576515815,"82":-0.0237021108460217,"83":0.0007581919313911944,"84":-0.09276316030378441,"85":-0.005726930412871456,"86":0.06870083811239248,"87":0.026551424940824617,"88":0.04787608709032491,"89":0.03302236466122985,"90":-0.06687919434092798,"91":0.10017787116695086,"92":-0.04022215916702475,"93":0.018106985248806398,"94":0.06374208762219351,"95":-0.013886055418230112,"96":-0.007540216840219157,"97":-0.12136941698222403,"98":0.016868829245408837,"99":0.04054675248712908,"100":0.017219915157903196,"101":-0.009540568312858466,"102":0.12607310995721904,"103":-0.051401603552011774,"104":0.044890955051285555,"105":0.07411140468718866,"106":-0.00555032860251805,"107":0.06940274803502566,"108":-0.025735764308556442,"109":-0.027755112523849833,"110":-0.0023656126923883116,"111":0.0077750436359777094,"112":-0.03021257547113356,"113":0.01436296755853475,"114":-0.07606108580386364,"115":0.025871475228238308,"116":-0.0153881752885045,"117":-0.014580770850891505,"118":-0.08491521638669614,"119":0.10134135110339286,"120":0.1019685745060665,"121":-0.0055813606191567715,"122":-0.015675217507620003,"123":-0.022061904631072667,"124":0.002973133430146679,"125":0.08777897498399129,"126":-0.043713431637112436,"127":-0.0355231253187426,"128":-0.07942764077066468,"129":-0.09897846151815262,"130":-0.00784424761579224,"131":-0.05128717936045385,"132":-0.045372554683232855,"133":0.005688969548233416,"134":0.017791763593598395,"135":-0.054809949360817234,"136":-0.057109355827534486,"137":-0.11816556647971656,"138":-0.037089728181867995,"139":0.04723883902482179,"140":0.05409078447446536,"141":0.05399723179713684,"142":-0.04353193915597352,"143":-0.022344596630634976,"144":-0.16197908127979518,"145":-0.07624525461610901,"146":-0.050658134172199346,"147":-0.06896400522979468,"148":0.01427477948034495,"149":0.04458606593577288,"150":-0.03184396323300872,"151":-0.057647939956967216,"152":0.05576073550035506,"153":0.08054392926984547,"154":-0.006902330417196774,"155":-0.005631477570980032,"156":-0.01433364901203465,"157":-0.05574577331985629,"158":-0.022648459390045624,"159":-0.03520439095114033,"160":-0.057840982988302876,"161":-0.035839829444454144,"162":-0.1194379121439216,"163":-0.025047069354141492,"164":-0.056258304131622264,"165":-0.012607050865002177,"166":0.023736728796773004,"167":-0.026122808503837268,"168":-0.02750792055052247,"169":-0.0007332017548997177,"170":-0.05383711163225462,"171":0.008621732250515267,"172":-0.03771073519227175,"173":-0.003576144291286709,"174":0.11857885342718527,"175":0.04561679827555654,"176":0.02968533030403185,"177":0.058168536616840884,"178":0.0014639998362087985,"179":0.0014649870243699833,"180":0.08281200013909638,"181":0.001867174884744592,"182":0.027917190257382717,"183":0.03693696299549019,"184":-0.015165185801760985,"185":-0.006529947218950455,"186":-0.025728949748105367,"187":0.04099029902545405,"188":-0.05358440757859482,"189":0.03740648262666442,"190":-0.029550466598368314,"191":0.01409542100208396,"192":0.04846887381637886,"193":0.008338497063890669,"194":-0.032353302648997974,"195":-0.018746256000081205,"196":-0.04873587523369229,"197":0.014096052175451412,"198":0.051501036263222284,"199":0.0005893806069925835,"200":0.10623788448237163,"201":-0.09080758832371269,"202":-0.005162534557927769,"203":0.052942446171750646,"204":0.0043507855782806545,"205":-0.05172746484408998,"206":-0.013075915058906875,"207":-0.12073949688414747,"208":0.004695018407944073,"209":-0.04124267972748319,"210":0.0027921679814543457,"211":0.017046334225527763,"212":-0.0881683918928203,"213":0.0089499758259606,"214":-0.07258830341660949,"215":-0.03986724806278327,"216":-0.05776645337459681,"217":0.027699651939236104,"218":0.024696310222848884,"219":-0.030599568925274788,"220":0.024203443345266678,"221":-0.0020010289803979553,"222":0.016030735688736406,"223":-0.07774664201718598,"224":0.07172462363603661,"225":-0.0031293114094742727,"226":0.06989960721792189,"227":0.03692479920099699,"228":-0.06379862786066799,"229":0.03309776261377724,"230":0.010733036460265797,"231":0.0013579722511050181,"232":-0.09102808891942953,"233":0.031445733064053044,"234":-0.04760732000289309,"235":0.0032198605363347866,"236":0.06413159805637739,"237":0.04413020900536907,"238":0.008635264167789317,"239":-0.09786436804737216,"240":-0.06674622036391867,"241":-0.032075329611519196,"242":-0.021280236115146855,"243":-0.045593124708935805,"244":-0.08320821162771053,"245":-0.02644363439897971,"246":-0.003966003397918584,"247":0.027667101361315314,"248":-0.013489322730160526,"249":-0.009950093148073765,"250":-0.05748535243264335,"251":0.020592394629537276,"252":-0.0025847812696454696,"253":-0.06536461073942226,"254":-0.1466194472591716,"255":0.007920156556262879,"256":-0.08206593718306932,"257":0.02821327703843161,"258":0.06583587450615264,"259":-0.08873083113188458,"260":0.03271344197290425,"261":0.008109029083199801,"262":-0.05903237243469066,"263":-0.0344623405057259,"264":0.0034888880397031387,"265":-0.023509838703135003,"266":-0.03818092280702661,"267":0.05909601723973399,"268":-0.048823169203716564,"269":0.019557036365834196,"270":-0.059088374953688474,"271":-0.01587254136428189,"272":-0.12281416981043272,"273":0.054343144703782945,"274":-0.048891944829275204,"275":0.06059229481995478,"276":-0.02409394873331051,"277":0.019334230850615204,"278":0.008671341466185619,"279":-0.041839859682117196,"280":-0.17467646768996117,"281":0.013513354104145479,"282":-0.0036265867652966644,"283":0.08136632383690079,"284":0.006093829214588902,"285":0.022317366529415426,"286":-0.06428835423504821,"287":-0.0018494566966445304,"288":-0.04595772683887372,"289":-0.010581269088188698,"290":-0.09956986797603255,"291":0.021580492823374063,"292":-0.04671211494595168,"293":-0.003688389110579317,"294":0.0073028543722848255,"295":0.02083251646103982,"296":-0.06009180706399371,"297":-0.043428528799771854,"298":0.03872248561838007,"299":-0.04940309887737432,"300":-0.05781707572023993,"301":0.060610506991605126,"302":-0.015062133565220471,"303":-0.009849401264003195,"304":0.0482342207124598,"305":0.11785167574558446,"306":0.01896763102138973,"307":-0.011833820020024479,"308":0.0818259010159901,"309":-0.03361649621600102,"310":-0.008893967407434415,"311":-0.009362662966505168,"312":-0.06009871332396515,"313":-0.04350207365253428,"314":-0.05995280808464249,"315":-0.05187115208898299,"316":-0.03318880023379061,"317":-0.10626691300468522,"318":0.07581353666064898,"319":-0.027206710679860056,"320":0.00427398021070162,"321":-0.06234123295813922,"322":0.07870712571209881,"323":0.07836591710374295,"324":-0.021955860149040843,"325":0.03776442404242954,"326":0.06465075220751983,"327":0.07190496221448456,"328":-0.06357925141083896,"329":0.08313819351351118,"330":-0.10363487002991624,"331":-0.010404992583418182,"332":0.027586993187926328,"333":-0.03266239054459803,"334":-0.006070625199842577}},{"sx":1,"sy":1,"depth":335,"w":{"0":0.03119081097069227,"1":0.03678431784798828,"2":-0.0503375904780797,"3":0.013503992768577994,"4":-0.11057189661858699,"5":-0.0698991226881572,"6":0.031050227038769754,"7":-0.10195169135961865,"8":0.0012781884712461569,"9":-0.09386467239830455,"10":0.023381362374261278,"11":-0.05549366667631076,"12":-0.12401068546279446,"13":-0.13528514517572662,"14":0.06985509163504905,"15":-0.011121409396165684,"16":-0.059508430527342636,"17":0.006522386056199068,"18":-0.060507766585635774,"19":0.03702090646558781,"20":-0.005945754242758424,"21":-0.12673521547741115,"22":-0.08467361659412925,"23":-0.004755705269693443,"24":0.010215665719334239,"25":0.056324148493976225,"26":-0.14035953985350774,"27":-0.02612071401910185,"28":0.02664200456173631,"29":0.048226506345248936,"30":0.09383825975763058,"31":-0.05931171477366295,"32":0.06491878566718481,"33":-0.109608594331803,"34":-0.03765349091075002,"35":0.01904851992884138,"36":0.02634244214754695,"37":-0.04094609082952265,"38":0.0626465954550408,"39":-0.07389539944807733,"40":0.06550561569249451,"41":-0.06190192420466449,"42":-0.08489553036203455,"43":-0.02073556095352798,"44":0.009696921311351617,"45":0.033641816204443155,"46":-0.07207367339450482,"47":-0.12578683314361427,"48":-0.012925241642705764,"49":-0.05215504256300844,"50":0.006057928316418635,"51":-0.0002940985422585774,"52":-0.1507000504178972,"53":-0.09886328849756036,"54":-0.0864953636360281,"55":-0.04906803250788594,"56":-0.004530409440525069,"57":-0.1303191377148256,"58":-0.11580190655929834,"59":-0.058287728830578346,"60":0.08709395993022906,"61":-0.02062118914441551,"62":-0.05762867668023456,"63":-0.052228805591021284,"64":0.0071044946856000865,"65":0.0958474992909712,"66":-0.04100677084467905,"67":0.050624037533806975,"68":-0.007080729951873496,"69":-0.1282328568335534,"70":-0.06916975529375928,"71":-0.0611971973716061,"72":0.05024980560043975,"73":-0.012797154703845952,"74":-0.015696677689006303,"75":-0.04886463308153144,"76":-0.03738728238388112,"77":-0.0006947436894874477,"78":0.05788819401227125,"79":-0.03154240460824446,"80":-0.10004815357039645,"81":-0.058798371108466925,"82":-0.0457855271693221,"83":-0.08155185899961985,"84":0.005185069097577808,"85":0.038691245513092345,"86":0.10803032777074006,"87":0.040644400696479475,"88":-0.03970462332675725,"89":-0.03346764900635216,"90":0.0010199854133897996,"91":-0.022734288778027554,"92":0.08005921955290562,"93":0.049082276089944324,"94":0.07109480877208026,"95":-0.03259787022415939,"96":-0.010317972420133643,"97":-0.038405007173079334,"98":-0.01480556844953506,"99":-0.04693650397690713,"100":0.027330725899179033,"101":0.00008903145849128169,"102":-0.09496352800774646,"103":0.07785580942734058,"104":-0.02283193001091237,"105":-0.04280747918426516,"106":-0.01783922242098769,"107":-0.012880729968937273,"108":-0.06550926172938454,"109":0.06700316762724298,"110":-0.037264484202478375,"111":-0.05760480396603909,"112":-0.11063582359341624,"113":-0.09793944174451423,"114":-0.01799978384910739,"115":-0.050022006259083145,"116":-0.08133243772925133,"117":0.020933578330854016,"118":0.0081724557218208,"119":0.05565169298018359,"120":-0.046115005379697406,"121":-0.06545374857718937,"122":-0.10022578812186628,"123":-0.007112360348170215,"124":-0.058512398802005205,"125":0.0402933137181297,"126":0.028652946925532784,"127":-0.18854143699983747,"128":0.015355465349041099,"129":-0.0524696475510631,"130":-0.02486648497373166,"131":-0.07957258793361535,"132":-0.07554675681381509,"133":0.03935014330917504,"134":0.0169471634172044,"135":-0.055039837827421785,"136":-0.03489077846240439,"137":-0.09095921395971122,"138":-0.045614046606156436,"139":0.0239211308900111,"140":-0.004854469459140937,"141":-0.019900795860560132,"142":-0.0322255927228857,"143":0.02160333562887543,"144":-0.05572484973027566,"145":0.049814601507394946,"146":0.017430103531845324,"147":0.02732655641514552,"148":-0.0524267995997435,"149":0.1027083544993029,"150":-0.009711042094025766,"151":-0.06141361958017275,"152":0.11511848587484443,"153":-0.12402730575933947,"154":-0.03226243824507755,"155":-0.1079624651898197,"156":-0.06125977343477029,"157":-0.02736421609292596,"158":0.06928163141627158,"159":0.05936627447785049,"160":-0.0456849814868355,"161":-0.005277722533679731,"162":0.10273542232274754,"163":0.03453891253692056,"164":0.03187849720050807,"165":0.061700109365695706,"166":0.0023055693233809227,"167":0.04578875851366009,"168":-0.059375818138000226,"169":0.021842584929430454,"170":-0.016262768618409498,"171":-0.0017220189046633218,"172":0.056374774635365305,"173":-0.007346862941100464,"174":-0.041255336573607665,"175":0.13325555439780637,"176":-0.04294389352394248,"177":-0.07000732625334959,"178":-0.01809833179811633,"179":-0.04524954702436996,"180":-0.013044687904734014,"181":0.05578111761421768,"182":0.041488394745646924,"183":0.008184973617124395,"184":0.022523239976669534,"185":0.022871598639561327,"186":0.03137619116243043,"187":-0.12585065287191008,"188":0.020718858812631986,"189":-0.037850034486388885,"190":-0.06425025276459063,"191":0.12189564950144122,"192":0.03498791607234788,"193":0.040153308963502825,"194":-0.08712296654564097,"195":0.023656276991401923,"196":-0.006012766325996914,"197":0.08634542565321733,"198":-0.06651113514902847,"199":0.00034476296638345105,"200":0.0695087232354888,"201":0.04070085411784,"202":-0.017851561155031767,"203":-0.037237655684375384,"204":-0.07745733267405225,"205":0.0946039077493911,"206":-0.0370284987226139,"207":-0.06388933498855742,"208":0.009711518716952769,"209":-0.022441391883649277,"210":-0.01797027041283858,"211":-0.09811198241377443,"212":0.01806305126434154,"213":-0.045945541736905,"214":-0.04593313525292088,"215":0.0012980636554083692,"216":0.021437555193453552,"217":-0.06640427700387498,"218":0.07814290105753695,"219":-0.047220012170152904,"220":-0.0169791370111228,"221":-0.05511414009487944,"222":0.006782817508561602,"223":-0.0011936093669447402,"224":-0.01973881029276472,"225":0.03057764097756434,"226":0.014898842785980936,"227":-0.022916926604059088,"228":0.005709707794601395,"229":0.032645917060167,"230":-0.01831700391916989,"231":-0.005185439632582063,"232":0.0040078259669204365,"233":-0.05227562581536034,"234":-0.10598926269272606,"235":0.03941710676115736,"236":0.02687852717485573,"237":0.010917897873829846,"238":0.016211912972542458,"239":-0.0888085858428254,"240":0.016833737968572043,"241":0.09587191166204635,"242":-0.05004677377022363,"243":-0.09536045228392775,"244":-0.042096847095206856,"245":-0.0123170609094254,"246":-0.004738768031063356,"247":-0.04035847626817316,"248":0.00714398054533135,"249":-0.012564794403065294,"250":-0.004842498350859756,"251":-0.015565574248808596,"252":0.04041431596108326,"253":0.02924154114367789,"254":0.06917037695520249,"255":-0.05237285483964036,"256":0.03068780344956283,"257":-0.12903871336128286,"258":-0.006255647038954002,"259":-0.004725829945032637,"260":0.04901630885097993,"261":0.017379472600218205,"262":0.0012035080057911254,"263":0.0007058871375616064,"264":-0.014276623726151051,"265":0.002553273139679357,"266":0.0730794482076347,"267":0.023501820789896658,"268":0.08064280723530036,"269":-0.06413397337661463,"270":-0.0012189348296400664,"271":-0.024620943075774306,"272":0.08087939802315759,"273":-0.04965011635009328,"274":0.07777334587860925,"275":0.04362262016330902,"276":-0.03155516117902597,"277":0.005319215850770591,"278":0.003433422798338405,"279":-0.01811274530341841,"280":-0.0715477040389366,"281":-0.11303115323163998,"282":0.02916136504857306,"283":-0.038908191883420866,"284":0.018434189489080096,"285":0.03535091584474909,"286":-0.0766691000497904,"287":-0.09826176112884544,"288":-0.05882163565148938,"289":0.09972382549175648,"290":-0.037563585408165914,"291":0.062016307932677595,"292":0.056485265816842364,"293":-0.050592778753070416,"294":-0.014241428416763327,"295":-0.0018545178344509083,"296":0.019263939869120263,"297":-0.04117248008536471,"298":-0.0356488915495473,"299":-0.023536329191872565,"300":-0.13797201843199763,"301":-0.06778224470757939,"302":-0.000977593093764806,"303":0.027496600999027777,"304":-0.1491499556358062,"305":-0.035001883177067934,"306":-0.0692582880623332,"307":-0.018064499711251795,"308":0.07430492224042108,"309":0.01822237699398598,"310":0.10289986802958888,"311":0.007990617465839187,"312":-0.02161156330174075,"313":-0.07251209713427824,"314":0.02263268677442309,"315":-0.04443811860955217,"316":0.02161753125257197,"317":-0.0012986675264744316,"318":-0.08203637965951946,"319":-0.05928860989737572,"320":0.14305451083160445,"321":-0.006465272349271374,"322":0.014338069622726848,"323":-0.015272649185653115,"324":0.04155926126697903,"325":-0.057627504260295434,"326":-0.07472598922068459,"327":-0.040072428910617935,"328":-0.0699527682744211,"329":-0.06298398816996793,"330":-0.013661246106518189,"331":-0.008442543787585315,"332":-0.07262352224352252,"333":0.002550789872678063,"334":-0.07132322703902312}},{"sx":1,"sy":1,"depth":335,"w":{"0":-0.011818930788701658,"1":0.03599178708730055,"2":-0.06736716972158965,"3":0.036931811715952265,"4":0.12386285833626616,"5":-0.07801034673596394,"6":0.0031306351509340622,"7":0.12842394048834402,"8":0.0629995993550654,"9":0.10053561849774151,"10":-0.03961902346927399,"11":0.009482378084725775,"12":0.04607132226088327,"13":0.12211335551492758,"14":-0.014927723239584913,"15":-0.01646193422803532,"16":-0.002889619994315093,"17":0.12886310893722794,"18":0.07624097192659478,"19":0.0358126863903905,"20":-0.03706734107976489,"21":-0.018653943560539288,"22":-0.0018153087446785708,"23":0.08712438751048195,"24":0.022325079211260618,"25":-0.048942368403658516,"26":-0.09791786344354098,"27":-0.023927470715569055,"28":0.05932953973623468,"29":-0.028042646647201974,"30":0.01817495370990007,"31":-0.11014555157339719,"32":0.05985439516272158,"33":0.07595289681249201,"34":0.012423139986700558,"35":-0.03636021907591794,"36":-0.11350162719061542,"37":-0.020857653867166228,"38":0.04236921775298358,"39":0.01230968112230952,"40":-0.008623138936084953,"41":-0.007722683515927441,"42":0.09389679324855772,"43":0.13253947971887806,"44":0.01890545067219349,"45":-0.05087491135758217,"46":-0.10495253869283387,"47":0.0223825763960629,"48":0.051854242260088494,"49":-0.10507687521053236,"50":0.02234973756362736,"51":0.001661714562608349,"52":0.10397949964665824,"53":0.22813909131472065,"54":-0.014149703876585302,"55":0.06212621409200327,"56":-0.007956590377340325,"57":0.01871387269132165,"58":0.03700298747318695,"59":-0.01330922560720144,"60":-0.05434349346896217,"61":-0.10445108057299196,"62":-0.028680745324833414,"63":0.12604186711985046,"64":0.04451589286086166,"65":-0.04740310774122412,"66":-0.03529560614990426,"67":0.01621775448125284,"68":0.0922822522840722,"69":-0.024046768573774073,"70":-0.07789139195309867,"71":-0.01648518463616629,"72":0.06624296776252696,"73":-0.02200885875505148,"74":-0.017934637456097587,"75":-0.009349169125877896,"76":0.11000610291209459,"77":0.03620906460880897,"78":-0.12531880200323622,"79":-0.046540399600048944,"80":-0.028395894710159856,"81":-0.058483321703633226,"82":0.00708345001456416,"83":0.027995555832058785,"84":0.1327903653721865,"85":0.15933742685878255,"86":-0.08945466645926428,"87":-0.01884310703243984,"88":0.0047744678467180925,"89":-0.0314466785094877,"90":-0.023109935044178645,"91":-0.00867744418095408,"92":0.05810029927492195,"93":0.007422298115725937,"94":0.08997613685176085,"95":-0.01502200243660767,"96":-0.09742818264100463,"97":-0.027504673048547437,"98":0.10097325921782822,"99":0.0817260477441789,"100":-0.11838804619353577,"101":-0.01232992839416267,"102":0.0037278945255721017,"103":0.1235561283095527,"104":-0.010252505400688774,"105":0.05842555487270341,"106":-0.10170115329935606,"107":-0.08901147879323522,"108":0.1291683762131696,"109":0.07972780053310032,"110":-0.05250541181777721,"111":-0.009984108901396725,"112":-0.045416328477392735,"113":0.006662357432452752,"114":0.0341333882632202,"115":0.06162631602243879,"116":-0.059446350776709164,"117":-0.049411986286764555,"118":-0.005530121299891783,"119":0.04670118075741994,"120":-0.024144064454416025,"121":-0.08583441447336854,"122":0.10224408927481769,"123":0.06659519168064519,"124":0.0720072469625714,"125":-0.07260451180659944,"126":-0.05391256761855202,"127":0.10644391781020568,"128":0.09221239924077371,"129":-0.08224335748190466,"130":0.030713662208995973,"131":-0.06967831461457222,"132":-0.004462066137301461,"133":0.06231306138308269,"134":0.026609269973691094,"135":-0.037889122617197284,"136":-0.05379868449934692,"137":-0.03933643774994045,"138":0.03134648508471725,"139":0.03715371628947403,"140":-0.04011049417427127,"141":0.00765629595167849,"142":-0.09143846901967533,"143":0.04224911121036107,"144":-0.023314266285554594,"145":-0.0463107821089217,"146":-0.05782361531348032,"147":-0.044992074072405505,"148":0.03611158287268961,"149":-0.03150697500965442,"150":-0.004304958421415416,"151":0.02773097710826072,"152":0.02515181633102376,"153":-0.008642954957790456,"154":0.022197207953249955,"155":-0.035263034217002186,"156":0.013938925449255636,"157":-0.0846599256457178,"158":0.004846086857713801,"159":0.013901407724425753,"160":-0.04125591473889532,"161":-0.06760709759272768,"162":-0.014659790172369945,"163":-0.040180499381026656,"164":0.006541126081090698,"165":-0.16108767558797568,"166":-0.04112818001154261,"167":0.011227834941216458,"168":-0.05400644627835073,"169":0.05365578371626856,"170":-0.09248373043878429,"171":0.01159043209056313,"172":0.01857362390110039,"173":0.03402271181379217,"174":0.01985394563787304,"175":0.008411952884085281,"176":-0.04783570555276341,"177":0.00035030106738498693,"178":0.0002885382710176677,"179":-0.07183891428285341,"180":0.0567963093994933,"181":-0.041024005543106486,"182":-0.012381379615175391,"183":0.0691956647644269,"184":-0.04347084767048071,"185":0.04595256537088901,"186":-0.01759114932480145,"187":0.16798353654265472,"188":-0.0412040994510492,"189":-0.026438332488201887,"190":0.07633482173605667,"191":-0.021128407841254457,"192":0.06262173913207468,"193":-0.05613500758426408,"194":-0.013846756827237834,"195":-0.017245093912648224,"196":0.005815743653932113,"197":-0.06427960141518407,"198":0.05485585515663895,"199":-0.02746346477474385,"200":-0.08035489646592289,"201":-0.0662134099491094,"202":-0.05501834328315686,"203":0.03740686807252392,"204":0.02359599751456674,"205":-0.03515364154807266,"206":-0.043909083781674636,"207":0.03423696934218512,"208":0.045328764426813134,"209":0.08368507238007283,"210":0.05325380795682849,"211":-0.009426040593338243,"212":-0.013094840554333981,"213":0.005299861616135178,"214":-0.044103579136994656,"215":-0.01842985048028674,"216":-0.08601423113646399,"217":-0.08097351113016953,"218":0.03742974853510294,"219":-0.005061682441455891,"220":0.059964231449400884,"221":0.015040599793067645,"222":0.08736443203117274,"223":0.06798764497834318,"224":0.09517949648122345,"225":0.005683030276587207,"226":0.04422790162217811,"227":0.03042108141944142,"228":0.027082215401318426,"229":0.055906741677569684,"230":0.01885458454365859,"231":0.00023064855102604453,"232":-0.009411035104252955,"233":-0.0379671806334078,"234":-0.0709967092811607,"235":-0.08936359012137023,"236":-0.007626319483789485,"237":-0.0721725572556143,"238":0.006757586029185539,"239":-0.03966343680771519,"240":0.15735390605453414,"241":0.044551032181729684,"242":-0.0282538401100752,"243":0.12025237485918096,"244":-0.07704037413638673,"245":0.06691841104393428,"246":0.03865355664278191,"247":-0.0711023133054288,"248":-0.017352830251950013,"249":0.014022548261541232,"250":-0.04130008416937876,"251":-0.10547125730888444,"252":0.0539540427129643,"253":-0.013343297971256734,"254":-0.06092824128782207,"255":0.0180668006059473,"256":-0.04289648313911461,"257":-0.07559451217525386,"258":0.011652289311190672,"259":-0.013908576997639619,"260":-0.0044061723334664,"261":0.058155720475931885,"262":0.038493504917475004,"263":0.0006503480641256303,"264":0.0007180261799909725,"265":-0.06283322329752465,"266":-0.08306624388542451,"267":0.01494614477774136,"268":0.08231361402450299,"269":-0.034878695295910096,"270":0.05126831421799018,"271":0.030774680424158554,"272":0.02109623909582937,"273":-0.041246176137415935,"274":-0.06951447499826992,"275":0.025629501302259484,"276":0.022568813084643796,"277":-0.03239402345768622,"278":-0.054694463283428786,"279":-0.01819427916264154,"280":0.012122808181628133,"281":0.04228112644038368,"282":-0.055073114383543016,"283":-0.0012191529784947948,"284":-0.05000245973049345,"285":0.08542153563262185,"286":-0.03530518065596238,"287":-0.03586461461337928,"288":0.06258980405055908,"289":0.008128341258625896,"290":-0.0666928205169946,"291":-0.0722990988567282,"292":-0.04674871984932395,"293":-0.05911066819586991,"294":0.06811493964538773,"295":-0.06428204320757873,"296":-0.11605942405812214,"297":0.022821515266479266,"298":-0.0034565858677315085,"299":-0.1064751900121433,"300":-0.004978592093571435,"301":0.04741119915482986,"302":-0.02034276541296114,"303":-0.0367376301009486,"304":0.02396570460418371,"305":-0.010534692528332093,"306":-0.020758496003192167,"307":0.01053373216980869,"308":0.017588625334907928,"309":-0.04339118015584953,"310":0.028867272552536558,"311":-0.03566089908958061,"312":0.03663803201884796,"313":-0.03205190482964465,"314":-0.04805033648175118,"315":0.023827475286035925,"316":0.06957763851166651,"317":-0.006508618812367432,"318":0.012269558051523783,"319":-0.04988567690588426,"320":-0.02509082659350533,"321":-0.02626316972464257,"322":-0.05859865453797032,"323":0.04269361883452149,"324":-0.014892652126035303,"325":0.013877129678092752,"326":0.025898130200811133,"327":0.05159548629865041,"328":0.012737439816987068,"329":0.008522814068319489,"330":0.014203685212190193,"331":0.002106933918120456,"332":0.07472201653731052,"333":0.07879909386294687,"334":-0.018331801106491647}},{"sx":1,"sy":1,"depth":335,"w":{"0":0.040030306743979054,"1":-0.05555209922809837,"2":-0.07329307726397459,"3":-0.07501795568042717,"4":0.10943693011652088,"5":0.0005948417841746879,"6":0.02732657910935925,"7":0.06409734494237142,"8":-0.015567941565826042,"9":0.019742189160051535,"10":0.08794485930581426,"11":0.06562480944535154,"12":-0.015416278702609648,"13":-0.09988359379796441,"14":-0.048266941735725134,"15":-0.05121270292472204,"16":0.052504108619020766,"17":0.05953392656450183,"18":0.07556778251868815,"19":-0.07118702270811461,"20":-0.06539278415076688,"21":-0.017400508860248236,"22":0.004299941881992405,"23":0.0751961113558169,"24":0.0028403788240397385,"25":-0.057030362893914284,"26":-0.04366109712587289,"27":0.03778423556210114,"28":-0.12377963055121634,"29":-0.02201647634166961,"30":-0.05828777718078842,"31":-0.041746132610268036,"32":0.0725706566302935,"33":-0.060629150178879654,"34":0.07787588397447662,"35":0.020309147086307853,"36":-0.10627697601769084,"37":0.03293484674959914,"38":-0.04303007771159323,"39":-0.05930243834650323,"40":-0.049728860535008426,"41":-0.0720745878575131,"42":0.05374908941627862,"43":-0.05831400196885402,"44":-0.015798935302361167,"45":0.022670069120344867,"46":-0.013109747687338096,"47":-0.06863221267090701,"48":-0.09513269028126735,"49":0.0451621237608166,"50":-0.03477280718449412,"51":0.0022686788726842566,"52":-0.042480773703074966,"53":-0.017830529109924984,"54":-0.06608892286065675,"55":-0.07161621526825862,"56":-0.06973124114026917,"57":-0.0657273450738882,"58":-0.1690112618545377,"59":-0.1283499370719755,"60":0.10021334190988751,"61":0.01583163798639701,"62":-0.012639580246035858,"63":-0.11500438115081904,"64":-0.1091764539641429,"65":0.008352362705570987,"66":0.07795242243792609,"67":-0.0012359004524684172,"68":-0.09578390804039208,"69":0.026270590501450086,"70":-0.04128121250434597,"71":-0.03198198068510768,"72":-0.055855278206819466,"73":-0.09583420272814687,"74":0.07201053703187497,"75":-0.09254822947977255,"76":0.10621298403502656,"77":0.036518458314866685,"78":-0.06892678610494943,"79":0.015984435578930867,"80":0.03022244855095986,"81":0.04457875620815403,"82":-0.03942732059732989,"83":-0.011011087699096915,"84":-0.056809511074460986,"85":-0.0488406231674835,"86":0.08303241937135467,"87":-0.09184052378154553,"88":-0.06873758035018682,"89":-0.0025646530432833735,"90":0.030032245048216503,"91":-0.08893858454689993,"92":0.09936454093412568,"93":-0.027995274254025492,"94":-0.012343141058493589,"95":0.019284204285176094,"96":-0.08501643180141252,"97":0.050450338534502266,"98":-0.054487175543044976,"99":0.05136175497788546,"100":0.020018827347595535,"101":-0.013543910765566308,"102":-0.06102014232081391,"103":0.06468008412166938,"104":-0.10809272618495161,"105":-0.06959089966875179,"106":-0.0045496780609130885,"107":0.05897557195586709,"108":-0.00480114956978271,"109":-0.09785201187649963,"110":0.0819597295026234,"111":-0.03316043139153099,"112":-0.06085419934593789,"113":-0.025829229078682833,"114":0.044902524590380084,"115":0.036588381466034436,"116":-0.0966928692405936,"117":0.03443924633816768,"118":0.030267274867338805,"119":0.04187522870639397,"120":-0.03243936968629552,"121":-0.01718911821960779,"122":-0.039540769763155,"123":-0.08960069794481137,"124":0.004311495096064781,"125":0.04339840415371106,"126":-0.03219149724690051,"127":0.03601654515100306,"128":-0.014308736215042011,"129":0.09497978571780774,"130":-0.039048764767755,"131":-0.1007102624843826,"132":-0.07490606800208195,"133":0.03771376701011899,"134":-0.01869723157261168,"135":-0.03961551405948184,"136":0.0032062267168725617,"137":-0.02464425956804096,"138":-0.010604871895775783,"139":0.04044366111111936,"140":0.023734989686354287,"141":-0.04207678633762095,"142":-0.06197913143093653,"143":-0.0024832311436676167,"144":0.07297630152129012,"145":0.04268630443681192,"146":0.021013080901075797,"147":-0.004363195614539686,"148":0.06115179974987083,"149":0.0448780105747055,"150":0.07335328661159206,"151":-0.019540251625257965,"152":0.025720352340901004,"153":-0.006664092855737481,"154":-0.15635147467000127,"155":0.06994819642237692,"156":-0.07298239196918081,"157":-0.08772874179027947,"158":-0.033346433503301035,"159":-0.10108597923768432,"160":-0.02549260513352438,"161":-0.06419922917004772,"162":-0.052980509201422527,"163":0.041374957968758654,"164":0.01860442478664902,"165":0.08445420058608256,"166":0.030639749524529608,"167":0.01782942348623504,"168":0.06132627393711191,"169":-0.004634976150380642,"170":0.003636292395500974,"171":-0.05652457931266761,"172":0.025049915038685366,"173":0.08784403349852501,"174":0.07694618750269519,"175":0.008490762554839397,"176":-0.0554076476825496,"177":0.01867884800671887,"178":0.04951900933193663,"179":0.03304403803910643,"180":-0.02119509872558604,"181":0.0033771308867790047,"182":0.02571341404863061,"183":-0.015439706196395795,"184":-0.006955804028960316,"185":-0.09200140731724703,"186":-0.015426820193293408,"187":-0.005460948422825087,"188":-0.08620906797856233,"189":0.06703291763598164,"190":-0.03829958037215546,"191":-0.009490573702495283,"192":-0.04098065762515971,"193":-0.005888966949578991,"194":-0.018402859830635915,"195":0.03975532792293053,"196":-0.008175358248685243,"197":-0.08788218271425971,"198":-0.060462606373641696,"199":-0.00646414576924486,"200":-0.00728677218889765,"201":0.008295256850224511,"202":-0.07597739749870983,"203":-0.011716005121938962,"204":0.007919047890959886,"205":0.04354992418929323,"206":-0.006020798029975197,"207":-0.06385702471506856,"208":-0.026900260241488658,"209":-0.026848672694414946,"210":-0.0366727626929888,"211":-0.010741891537103568,"212":-0.03244381825904728,"213":-0.0946911747601176,"214":-0.0018213468503700135,"215":-0.025677032084210245,"216":-0.010101067495230747,"217":-0.0460072258090966,"218":0.058240079692357526,"219":-0.04906433487198228,"220":-0.039530284154866806,"221":0.04038721885332876,"222":-0.09743215382215642,"223":0.06282997067520878,"224":0.03268742007053329,"225":-0.0211409604093482,"226":-0.033762722888099575,"227":0.017959694878461205,"228":0.001990938221410275,"229":0.10504289225185028,"230":-0.008817006574629615,"231":0.004321345928785732,"232":-0.035342267376985446,"233":0.05543580549499664,"234":-0.0711756562894513,"235":-0.017892846839601746,"236":0.019800974368961884,"237":-0.04809450268348822,"238":-0.13727651111800263,"239":0.08528250646728214,"240":0.016201745615338964,"241":-0.0002998275025215081,"242":0.015153681831347675,"243":-0.01186405430353665,"244":-0.05100065721076405,"245":-0.018892159149244112,"246":-0.012914473607572181,"247":0.0060529544882163425,"248":0.09456700369345103,"249":-0.029777453912546777,"250":0.016338117991924455,"251":0.013184598628483946,"252":-0.008579886180002634,"253":-0.0029164128310494764,"254":-0.07490052348239196,"255":-0.029629897438093022,"256":-0.005923989149884844,"257":0.021492276885976908,"258":0.02902236067923365,"259":-0.039279236772195,"260":0.0273985530900964,"261":-0.0014830856685892576,"262":-0.03220184609229682,"263":-0.014973223121777948,"264":0.011652827682999304,"265":-0.05739195544092709,"266":-0.01472347993111736,"267":0.010368482948486928,"268":-0.0406577056811663,"269":-0.07025126519012982,"270":0.05053551012529504,"271":-0.06042458567140443,"272":0.076157133885343,"273":-0.007641155912758665,"274":-0.0729113483428158,"275":-0.10261626956956622,"276":-0.028122591709744654,"277":0.013551842170360383,"278":0.017703036099661482,"279":-0.02386162679972949,"280":-0.033786416193667484,"281":-0.03828364875712944,"282":0.018827744951702273,"283":0.0693230030249388,"284":-0.01748449442032824,"285":0.06723217958025131,"286":0.036434794122854865,"287":0.03297936408980492,"288":0.06388863512884009,"289":-0.007962405251695904,"290":-0.018190974944864494,"291":0.009680077393477912,"292":-0.015205943627224917,"293":-0.06994897492737186,"294":0.007717796833757833,"295":0.08280776243841156,"296":-0.013399742047589714,"297":-0.08124575371035113,"298":0.01823873900196958,"299":-0.11495058056692692,"300":0.006301635807943232,"301":-0.055021181000855734,"302":-0.08126685675117763,"303":-0.06449495292915317,"304":-0.050776720191876075,"305":0.027569132292053097,"306":-0.008090857859664723,"307":-0.019285391213201462,"308":-0.03246523478177823,"309":0.0571598669014527,"310":-0.03189989055695305,"311":-0.08907973718154338,"312":-0.10679551004588983,"313":0.07400009858894623,"314":-0.016727464614406537,"315":0.02688304682739867,"316":0.02552419015998662,"317":0.03356931076803623,"318":-0.03184436135172708,"319":0.11612200850809304,"320":-0.001142064890183089,"321":0.03083708989938614,"322":-0.03810184314298433,"323":-0.004597872264265656,"324":0.09201085122807577,"325":-0.05439843862509106,"326":0.0055082770554935444,"327":0.02403790081589518,"328":-0.03034116829545944,"329":-0.021315337917892828,"330":-0.008015786801740359,"331":-0.08515586927944424,"332":-0.05704861560873597,"333":-0.006991783522547649,"334":-0.03316035623803385}},{"sx":1,"sy":1,"depth":335,"w":{"0":-0.06703876235428595,"1":0.005995819819340478,"2":-0.13256346765645521,"3":0.053897685355438166,"4":-0.02071123836918897,"5":-0.06668040488281703,"6":0.055619608558598606,"7":-0.06912339245371497,"8":-0.0011076856861807602,"9":0.0012560516179148673,"10":-0.044389351665050716,"11":-0.01670405883920291,"12":0.08235867041801531,"13":-0.013747176364400565,"14":0.0550399794408053,"15":0.01995747610035744,"16":0.0044304486983545305,"17":-0.030722582805461245,"18":-0.05261257033036024,"19":-0.07752690237098568,"20":-0.004287311270785914,"21":-0.03747990433616456,"22":0.0020038478118352718,"23":0.08190625200180139,"24":0.027160453250366826,"25":-0.0034417578714443123,"26":0.028698889038936175,"27":-0.021134207455055717,"28":0.08114898293651905,"29":0.04119462140886583,"30":0.008628031086656295,"31":-0.06216739433593396,"32":0.08920930473871129,"33":-0.06312836352429947,"34":0.08310571158527141,"35":0.04497154009598511,"36":0.023127851687977357,"37":0.028864333516219275,"38":-0.05082323891807496,"39":-0.03570470498911839,"40":-0.0017808338069031481,"41":-0.06053771541542485,"42":-0.01213465466081228,"43":0.011732217867783033,"44":-0.049996349594330275,"45":-0.021259285816568052,"46":-0.019440290317303623,"47":0.050986730212075726,"48":-0.02715353560941288,"49":-0.04446054782184906,"50":0.009908217848008192,"51":-0.08745366594177044,"52":0.042342059237973365,"53":0.04707375647884396,"54":-0.049315123080705354,"55":-0.022376813834861734,"56":-0.05422054312367268,"57":-0.015449842908776225,"58":0.07116288218182858,"59":0.017005284963191928,"60":-0.07821517977969054,"61":-0.11569723525892621,"62":0.007057879817205112,"63":0.013905100734542774,"64":-0.05956639158006481,"65":0.06280745751571025,"66":-0.006675886858578064,"67":0.079598747922407,"68":-0.009526100702359859,"69":-0.04324925381706223,"70":-0.007583249872097895,"71":0.03815544687063229,"72":-0.008929165193583253,"73":0.052005909871724515,"74":-0.028680053442005186,"75":0.06962534612597056,"76":0.0005711452566675193,"77":0.03797971582108454,"78":0.03956685350479408,"79":-0.10377773217949196,"80":-0.10404757657548312,"81":0.09830969856937677,"82":-0.05845528930613575,"83":-0.06595379247789254,"84":-0.006879938102065297,"85":-0.007589086599109611,"86":-0.08636839679404106,"87":-0.05158567710048777,"88":-0.05968928679352356,"89":0.020039816725838756,"90":0.014194301500019466,"91":-0.04943245685633625,"92":-0.09397840008762574,"93":0.04697636463980922,"94":-0.019361049550579986,"95":0.028883863535464637,"96":-0.07906215608176678,"97":0.05658905679590823,"98":-0.03415725811955843,"99":-0.023120016166425398,"100":0.15224250468187375,"101":0.08269917950032848,"102":-0.00916176124198848,"103":-0.002717933175050349,"104":-0.016126018073156986,"105":0.017535613136104754,"106":-0.0399984473396213,"107":-0.0900630740342566,"108":0.05204088810167541,"109":-0.01739455964439056,"110":-0.0595546307102907,"111":-0.006873161301161881,"112":-0.004373493325941194,"113":-0.023816722052934988,"114":-0.049215699792413324,"115":0.02795191826319207,"116":-0.05160503567331681,"117":0.0469975886884122,"118":0.09285503798683013,"119":-0.10543441152113978,"120":0.026135132616777627,"121":0.018132441708556827,"122":0.07501764355881436,"123":-0.022441156259971756,"124":0.0155987772107785,"125":-0.06902297087195268,"126":-0.009347336536210582,"127":0.014183124390727268,"128":0.017482251163880105,"129":-0.04247541365517528,"130":0.028447105174737114,"131":-0.019263558761399256,"132":-0.07803336467839515,"133":0.058829674969916534,"134":-0.03134894155669809,"135":0.08579822815179897,"136":0.06944186637789172,"137":-0.03870766862035769,"138":-0.020778858963063404,"139":-0.0701134309594747,"140":0.03994164381118101,"141":0.0018683273750540776,"142":0.04212381005302034,"143":-0.001446308851997289,"144":-0.027446948981443474,"145":0.06775708750390436,"146":-0.060034933228689226,"147":0.03672692523604817,"148":0.02251592474528914,"149":-0.01685775047228254,"150":-0.00948807748984507,"151":0.01702414197053739,"152":0.08643955049323306,"153":0.05692460987122181,"154":-0.08575348128308789,"155":-0.1148236380654871,"156":0.01957652192984613,"157":0.0025248828436773346,"158":-0.03927190232071088,"159":0.03267774727748407,"160":-0.011325190264117468,"161":0.001454565179579986,"162":-0.03292084164014397,"163":-0.02901265904662381,"164":-0.09626188778489694,"165":0.023307322585459533,"166":0.02190459883369707,"167":0.125826047989095,"168":0.003649310026275788,"169":0.045321503727946945,"170":0.0396535002518943,"171":0.0035051101812300254,"172":-0.10328412768357172,"173":0.08035642542405967,"174":0.08795569321178559,"175":0.06619857476295674,"176":0.08996794977756391,"177":-0.03578719543784261,"178":-0.09207374601116096,"179":-0.04691758991874739,"180":0.06035836087236355,"181":-0.06330090987993124,"182":0.008236331432209322,"183":-0.004471063898325995,"184":0.09441406873533331,"185":0.048887206889293953,"186":-0.02918851278794588,"187":0.011140367098803032,"188":0.010086105007343964,"189":-0.01389574529048808,"190":-0.06017314606220875,"191":0.00003750895003825195,"192":-0.0479764315588361,"193":0.022710318677081336,"194":-0.03800980164738242,"195":-0.010288157694870308,"196":0.010008902348650067,"197":-0.03286429314227031,"198":-0.12343869698413812,"199":0.023151529843252402,"200":0.06388124096788392,"201":0.009326045795007844,"202":0.020603374479850656,"203":-0.020987715596186472,"204":0.1017817421835248,"205":0.021263515880778162,"206":-0.034008642997347426,"207":-0.015861905983889157,"208":0.030030312699062024,"209":-0.010960277565507753,"210":-0.060221080752121695,"211":0.08145652246071958,"212":-0.01843074299314524,"213":-0.05035969858528745,"214":0.06775136550383788,"215":0.08638769411994948,"216":-0.0020156082892724076,"217":-0.06276834056599633,"218":0.11600421780500135,"219":-0.10099800971144308,"220":0.05740278460578741,"221":-0.021276907732853786,"222":0.03763271079875688,"223":0.016684544730325393,"224":-0.1026249667590067,"225":0.03422184495620292,"226":0.03649726114877467,"227":0.005617116248367015,"228":0.04438132295221309,"229":-0.03179046662748711,"230":0.026643020623530703,"231":-0.019496786745013782,"232":0.00025619732949442925,"233":-0.02351092448027586,"234":-0.01376879838378236,"235":-0.10755914016792781,"236":-0.04394469491410801,"237":-0.002385043745259531,"238":0.05565372767707543,"239":-0.02121928584478404,"240":-0.0946990790192826,"241":0.005756245283645349,"242":-0.013740903661784414,"243":0.030408207178643846,"244":0.015145692485784608,"245":-0.02032642165171507,"246":0.02252449182081828,"247":-0.018817578072718243,"248":-0.05245612173563606,"249":-0.063705943793156,"250":0.020302093851958754,"251":-0.09493059540610721,"252":0.03150503179143838,"253":0.10443722159534603,"254":0.06896032431510049,"255":-0.0077133262649906244,"256":0.03516542084034347,"257":0.05782665706629482,"258":-0.06223120063540712,"259":-0.06377339723680239,"260":-0.06223171944374792,"261":-0.04719551954369332,"262":-0.03203015892841106,"263":0.033011895797200506,"264":-0.029081966105914514,"265":-0.0405497686695542,"266":-0.04309355520332176,"267":-0.04253587700837549,"268":-0.12418155729918966,"269":0.03886131041351035,"270":0.009185716232510565,"271":0.018004743122302793,"272":-0.010454858310305515,"273":0.08017112862592328,"274":0.0072485675619477965,"275":-0.07303542846253405,"276":0.039543360157523945,"277":0.008449256686458465,"278":0.08838175690964167,"279":-0.06232705760563157,"280":0.022442026250129404,"281":0.03448862746964367,"282":-0.06339635075181077,"283":-0.09827194822086237,"284":0.006372939752399232,"285":0.001617713200366795,"286":-0.06094954006355727,"287":0.1163939648348394,"288":0.038393921203463834,"289":-0.0305935735308912,"290":0.019512882901418834,"291":0.012915847321669024,"292":0.026876720373589978,"293":-0.020940782709836184,"294":-0.010597923075333412,"295":0.0059501989050503605,"296":0.04395807928008043,"297":0.010696679640500972,"298":-0.022608558818142114,"299":-0.12945455684161514,"300":0.004773484736485681,"301":-0.06202150750615802,"302":-0.07532625403312608,"303":0.04173453437514675,"304":-0.00917980778853891,"305":0.058957405555953975,"306":0.021500852853408598,"307":-0.06093818351070635,"308":-0.024189551462615862,"309":-0.023444302282834256,"310":0.08341735165793826,"311":0.06677414887610028,"312":0.06794006333145432,"313":0.0019963544156512587,"314":0.06958909925198507,"315":-0.05778812585999069,"316":0.02631154398010004,"317":0.006827911056445287,"318":-0.05352450941259609,"319":-0.023268580994305024,"320":0.0032808917756209192,"321":-0.03257247732779763,"322":0.03773216367985593,"323":0.14502285711500756,"324":-0.04738018905044247,"325":-0.012342756876747879,"326":0.0552042200022584,"327":-0.025767677925739366,"328":0.05058933333072754,"329":-0.03252498823450821,"330":-0.005273613569055266,"331":0.06374365099148777,"332":-0.018553819944760738,"333":-0.051452281484421596,"334":-0.07854989782406822}},{"sx":1,"sy":1,"depth":335,"w":{"0":0.09050587737324647,"1":0.004612067549559495,"2":0.28850611228679796,"3":-0.06016758919557993,"4":0.05046903043561859,"5":0.016752090841412097,"6":0.13629777576509186,"7":0.2895582241180755,"8":-0.12508811358507851,"9":0.08059271469507649,"10":0.026559579185337877,"11":0.014904745350625083,"12":0.19232495349685438,"13":-0.2134026192048508,"14":-0.04893589230078574,"15":0.04141901949166475,"16":-0.020539112719836407,"17":0.07175991187364406,"18":-0.07705735296902436,"19":-0.0474476521883044,"20":-0.03676495303451934,"21":0.04722073664875419,"22":0.09055907953570734,"23":-0.13500801656822797,"24":-0.026056871885776507,"25":-0.10336793257182135,"26":0.006255600511862239,"27":-0.00853964085314955,"28":-0.10188625409123846,"29":0.08460118660323639,"30":-0.005103138828387706,"31":0.15660099634654762,"32":0.10808059434015145,"33":-0.20938464238093846,"34":0.08316068476050281,"35":-0.0223789342165992,"36":-0.03186414555465763,"37":0.10382353771567554,"38":-0.09900192199579409,"39":0.06611931536376858,"40":-0.15733884805622889,"41":-0.008521184116461071,"42":0.14380855234387327,"43":-0.12493470896967558,"44":-0.05046814182027837,"45":-0.044316169821377774,"46":-0.09499645144085912,"47":0.0875833325395397,"48":-0.101138173695512,"49":0.04342310947249523,"50":-0.08369701400925623,"51":0.046981361884776064,"52":0.08149073866519038,"53":-0.14728078885028145,"54":-0.03997294217659425,"55":0.06442337666831638,"56":0.016783863876891222,"57":0.10446324377614656,"58":-0.19998674114351211,"59":0.01075577254108396,"60":-0.0379883650898906,"61":-0.006892830448416003,"62":0.008190450398300757,"63":-0.09356687080348068,"64":-0.035798012763703785,"65":0.04391994589786511,"66":-0.08754343662216237,"67":0.07055011548227512,"68":-0.11239262027365907,"69":-0.09987930617083236,"70":0.005336321603041265,"71":-0.013965489429070383,"72":0.022031311437171165,"73":0.041748326700736846,"74":0.012293247248085651,"75":0.007755867809399651,"76":-0.125750530328066,"77":0.054825902194314664,"78":-0.03645290564206734,"79":0.05859620635030897,"80":-0.06104753005643287,"81":0.031959304949870274,"82":-0.016448644824657525,"83":0.05220645008732822,"84":-0.006332388735007008,"85":0.0036492307501055777,"86":0.04123446612808232,"87":0.0868125040925463,"88":0.010361350491315681,"89":-0.08119194859771516,"90":0.059653439755982286,"91":-0.04018138075737863,"92":0.11221124873022557,"93":-0.06885751335431459,"94":0.05948297494795473,"95":-0.0610578375205835,"96":0.0038947574897782184,"97":0.09010053976147704,"98":-0.1219073717847612,"99":-0.04030725767613959,"100":-0.03130242744041592,"101":-0.0225837902791032,"102":0.07247424774914685,"103":-0.15950863042602695,"104":-0.005884743179146666,"105":0.12521068146330472,"106":-0.07217594907524692,"107":0.11088248885073244,"108":-0.1290808452343998,"109":-0.06989353511351228,"110":0.07877342170558331,"111":0.0004986926722712551,"112":0.034509720656909035,"113":-0.10261249755044963,"114":0.0242748055775541,"115":-0.004425366935770972,"116":0.006421289726194148,"117":0.010641344655851648,"118":-0.08657386148692264,"119":0.02269944710688781,"120":0.09693179733259064,"121":0.073256851072839,"122":-0.12097181049670364,"123":-0.01945809666544674,"124":0.04112580554408571,"125":-0.1138771503446601,"126":-0.005903395022512511,"127":0.02343869990550796,"128":-0.08672279154787925,"129":0.021294458042475487,"130":-0.01535486615718233,"131":-0.01850620924149714,"132":0.03687952149772013,"133":-0.0634422381614778,"134":0.028369130387496503,"135":-0.019322841590770627,"136":0.05804190083634032,"137":-0.06691287893270059,"138":-0.0926006275747273,"139":0.06347209052913358,"140":0.02757860512548594,"141":-0.04479789275170826,"142":0.02841999755016201,"143":0.08715231005557239,"144":0.005461765776285601,"145":0.0292466684070019,"146":0.008909651423946787,"147":-0.023763873705283156,"148":-0.010104824988766851,"149":0.0251979798946384,"150":0.040285886943037884,"151":-0.09763841484529978,"152":0.058075692191533024,"153":0.02394109164114321,"154":-0.03717652851600357,"155":-0.007829153727428581,"156":0.04217045681316434,"157":-0.004571537214995001,"158":-0.010387594307674377,"159":-0.010558915338638434,"160":0.035215180171589144,"161":0.07256591787094392,"162":0.027800872605351787,"163":0.01614409848071452,"164":0.06026037720028122,"165":0.0022807757329833854,"166":0.0037234790304299242,"167":0.003707287620975014,"168":-0.032630905059016876,"169":0.04674989114404387,"170":0.004673681296606246,"171":0.022018937836234632,"172":0.04852123981032873,"173":-0.012238126903677954,"174":-0.001960297835707512,"175":-0.03574877049858627,"176":-0.11815675046327503,"177":-0.032383725769424054,"178":0.006746298896876895,"179":0.09858489080421914,"180":0.031095782482358857,"181":-0.03775339379066493,"182":0.11092822480800274,"183":-0.08233046120829894,"184":0.04712059905965067,"185":-0.0192987622057011,"186":-0.02007118785634666,"187":0.05101628315775251,"188":0.047601055552379035,"189":-0.034668137913560146,"190":-0.09169217079820645,"191":-0.06411182623037914,"192":-0.05511081280028303,"193":-0.04890033359919071,"194":0.037780994203452524,"195":0.010613492196060318,"196":-0.04602256870039901,"197":-0.1144364496843903,"198":-0.05220657104937745,"199":0.053199336482100075,"200":0.05697038354704553,"201":-0.03265358765758529,"202":-0.09284754296192434,"203":-0.03670858445280817,"204":-0.05333632966635892,"205":0.0906738424463704,"206":0.03660748948638499,"207":0.033660618811339305,"208":0.02406510773678968,"209":-0.007135250416193493,"210":-0.11791492923769199,"211":-0.03608104479999894,"212":-0.004557811144191507,"213":-0.06643404646841629,"214":0.03830758781560909,"215":0.0733898402344929,"216":0.015847805701621757,"217":-0.025703578112712296,"218":-0.05558433368169196,"219":0.020424817860600342,"220":0.05551385073735203,"221":-0.0545917435255428,"222":-0.027881437120892593,"223":-0.09000073848668226,"224":0.022497931719273695,"225":-0.06443927681448113,"226":-0.04876516685849475,"227":-0.00844795883804936,"228":0.07235618483941786,"229":-0.06730461597515834,"230":0.06836375161026881,"231":-0.08351976804227591,"232":-0.08909610660490284,"233":-0.056933916803362794,"234":-0.004290142256647614,"235":0.0831211436430034,"236":0.04258386248288635,"237":-0.013579838115090568,"238":0.08217016586332897,"239":0.06814763014980418,"240":0.048370529731068104,"241":0.010270062485585764,"242":-0.03746725591447419,"243":-0.036236241397130935,"244":0.013186308788244769,"245":-0.03989880198907108,"246":-0.06555825654214927,"247":0.09787297463030126,"248":-0.02646094642268284,"249":-0.00886744939836836,"250":-0.027448720887326476,"251":-0.04013876513735281,"252":0.016777746015054145,"253":0.017531279264958285,"254":-0.11724198988115266,"255":0.07941237440958102,"256":-0.030173339499272457,"257":0.055170165929783216,"258":-0.00932178940224206,"259":0.07802558931465323,"260":0.07398928263451826,"261":0.14824535744600326,"262":0.03127801605041123,"263":-0.08987565307250509,"264":0.021860250176926926,"265":0.032579899702502635,"266":0.02755093662844032,"267":0.0910190076614579,"268":-0.0334797698797886,"269":-0.015148787076538729,"270":-0.11760775413076656,"271":0.032618571470259865,"272":-0.03311448426281011,"273":0.06906777287521358,"274":0.036068943430268646,"275":0.05498610992069394,"276":0.07115101428080169,"277":-0.006427042944675864,"278":0.011018735900925001,"279":0.0477229559144931,"280":0.006480424449786364,"281":0.022452781991341757,"282":-0.033529400881095094,"283":0.04829039180851344,"284":0.0029402180320791988,"285":0.061303743253247174,"286":-0.030788881344060905,"287":0.09458675289575225,"288":-0.1311310637015553,"289":0.05505450423826167,"290":-0.09740403348631606,"291":0.03607439204111177,"292":0.11553467450663953,"293":-0.03661998882367907,"294":-0.10133134529121153,"295":-0.0028549837907630325,"296":0.052572295487439163,"297":0.0018198477202237258,"298":-0.03855547172495567,"299":-0.10188369084632598,"300":0.07435337158664528,"301":0.014842665340219734,"302":0.0778861610530165,"303":0.05316514562608884,"304":0.06213669954612927,"305":-0.03652278794052567,"306":-0.027424630058703287,"307":-0.0711758344130604,"308":-0.0242646322114976,"309":0.04973345958134744,"310":0.022011797275336423,"311":-0.0051956445180792385,"312":-0.0314285936169835,"313":-0.06282304538901937,"314":0.008233362408482105,"315":-0.09077707595550465,"316":0.02689909757486003,"317":0.06360371424973706,"318":0.018084213883555147,"319":0.028106822012242575,"320":0.001974639019034986,"321":0.009779010334794672,"322":-0.0035824391495487555,"323":-0.011602704962886106,"324":0.016779203403416883,"325":0.11107601269449242,"326":0.03162005321131726,"327":0.03356970238668434,"328":0.0221829323545221,"329":0.09981838414260687,"330":0.04912503027605168,"331":-0.005030463388033717,"332":-0.08452400661331534,"333":0.006096969914809942,"334":0.02525866436930193}},{"sx":1,"sy":1,"depth":335,"w":{"0":-0.1197244260139386,"1":-0.024779742008185376,"2":-0.04388285452487363,"3":-0.01390682454111087,"4":0.08078044837748916,"5":-0.01911184229422266,"6":-0.030779581112085713,"7":-0.005850465352282457,"8":0.018767324845937405,"9":-0.11677310022996505,"10":0.06475794893326049,"11":-0.0409757281343399,"12":-0.05344077607697473,"13":-0.04771639143004436,"14":-0.11898307718802914,"15":-0.018206827163228623,"16":-0.09161970109501445,"17":-0.1108439341292901,"18":0.03786396977188363,"19":-0.08342948811744187,"20":0.022022334736600122,"21":-0.047821482749924774,"22":-0.08334425236855093,"23":0.030255342435640036,"24":0.0721814631433883,"25":-0.0430139064166399,"26":-0.10002139740727159,"27":0.027971629954058445,"28":-0.01347346095514827,"29":0.03272067397657487,"30":-0.025337502856953693,"31":-0.024094768850746687,"32":-0.0151795542655751,"33":0.0038546027514292517,"34":0.0598223273398454,"35":0.015717887461213657,"36":-0.06009603194815167,"37":0.05678070560661244,"38":-0.02633762021506067,"39":-0.0497909153522231,"40":-0.0035733346662899404,"41":0.06254257797057267,"42":-0.07091294170128919,"43":0.09580739943423845,"44":-0.023272849854272564,"45":-0.060472844356614916,"46":-0.122154392137036,"47":0.05676134336364379,"48":-0.014043376997074095,"49":-0.044216275482765674,"50":-0.0670880487033369,"51":0.06393566883704169,"52":-0.0013435187799105365,"53":-0.02351118044703244,"54":-0.03696409724566983,"55":0.12933086081513454,"56":0.009696662705028143,"57":0.032366250923524444,"58":0.0006944470638855904,"59":-0.018493474179731018,"60":0.012265550285208857,"61":-0.03436400541070535,"62":-0.01713306952799718,"63":0.07035027868816038,"64":-0.003980421113291642,"65":-0.007533719656628477,"66":-0.006956968369058593,"67":-0.037020731198220656,"68":0.0252775157378916,"69":0.009234510762675313,"70":0.043661890586425466,"71":-0.008302274144676396,"72":0.0314264572732101,"73":0.06712939910544263,"74":0.023252869633881436,"75":0.0911883735234529,"76":0.06879798835483887,"77":0.02053022914889628,"78":-0.04674967575601726,"79":-0.005458263525895909,"80":0.04700694149101191,"81":-0.03271668646876724,"82":0.04571645005319111,"83":-0.008066485921847187,"84":0.009543360097670501,"85":0.008492677901391058,"86":0.064177086590324,"87":-0.03833321406106274,"88":-0.041828611623475495,"89":-0.07358262585298124,"90":-0.0995341829032773,"91":-0.07373847881232536,"92":0.03713199484186765,"93":0.04716254930539334,"94":0.02692735640114838,"95":-0.017983799291003823,"96":-0.034318514489565036,"97":-0.06784046116905773,"98":0.031829089165316196,"99":0.03296958906061852,"100":-0.04462544286459167,"101":0.010734455285155866,"102":-0.022254579382999656,"103":-0.016339962591645222,"104":0.027147430836570917,"105":0.05083955728481869,"106":-0.08021006522052547,"107":-0.04248910680846619,"108":0.0071048859151166205,"109":-0.05127772776852069,"110":-0.016052932364018266,"111":0.05490709939503399,"112":0.029226213908397584,"113":0.05147679055999252,"114":-0.006493588658203849,"115":0.0010227992464365225,"116":0.020273865200331632,"117":0.012642623135774073,"118":0.009983007307894863,"119":0.07243553471794328,"120":0.0038492610440323915,"121":0.011649049759443812,"122":-0.03659787004402231,"123":0.02834669110569541,"124":0.032166073232092335,"125":-0.001127810209071701,"126":0.0034594405801218224,"127":-0.04230926822661295,"128":-0.0026171415947539977,"129":-0.04072384699776998,"130":0.012189636999015433,"131":-0.02753885196054378,"132":-0.04760324345235005,"133":0.08139294406998618,"134":0.001727312939352761,"135":0.05153372565157186,"136":-0.03658304574571048,"137":-0.1296528067133045,"138":0.05353046957608569,"139":-0.04110435878155939,"140":-0.07332273985376647,"141":0.07541100291856595,"142":-0.025641857626004502,"143":0.07162482272080932,"144":-0.0436291527064855,"145":-0.08929149581429803,"146":-0.0034502334118906887,"147":-0.058770704243548515,"148":0.06125608924558342,"149":-0.007261176561539916,"150":-0.03164871967694719,"151":-0.10803312096044998,"152":0.02418902406744924,"153":0.06767037433309944,"154":0.043428202714123856,"155":0.01094944262017815,"156":0.08017568169938179,"157":-0.09487694537525612,"158":-0.00979499718665978,"159":-0.009612334897270933,"160":-0.011696306442990953,"161":0.05996758189073095,"162":0.05485307842365786,"163":-0.011076995836645018,"164":-0.0012953588656552622,"165":0.015483327488869329,"166":0.04809930915765401,"167":0.06294448954084027,"168":-0.09844253429828273,"169":0.04169956372999384,"170":-0.1333697977300265,"171":0.002916009891054781,"172":-0.09743486929856317,"173":-0.008413454971317803,"174":0.03609059396911119,"175":-0.06684966978208944,"176":0.06507317152779611,"177":-0.028904804152331987,"178":0.0048451322771005815,"179":0.036168184214896246,"180":0.06306634275577998,"181":-0.038063093866845324,"182":0.016097007244401825,"183":-0.01197870304127364,"184":0.027160058546740275,"185":-0.08836649033816525,"186":-0.0990365088113453,"187":0.007277884470923377,"188":0.025927687040217137,"189":-0.041193650978220496,"190":-0.07249206739722054,"191":0.06610881672937283,"192":0.03164112946179401,"193":0.007575685197419729,"194":0.05685280313596636,"195":-0.07496745389060305,"196":0.009417405439438755,"197":-0.014086340184753143,"198":0.07383952479219208,"199":0.014245170669990863,"200":0.03415206295551682,"201":-0.018188162614207696,"202":-0.04823726754281913,"203":0.035009449412533485,"204":0.0029086860432068536,"205":0.008379773589390908,"206":-0.07954948107102355,"207":-0.1376503384907274,"208":0.050971613918082755,"209":-0.06967322421694198,"210":-0.010579265033681453,"211":-0.08469398563271166,"212":0.012243848442966356,"213":0.028093800787175684,"214":0.061062232939105954,"215":-0.012233197203224279,"216":-0.12072609144529417,"217":0.004284580355146721,"218":-0.010043750916214459,"219":0.025519774862331146,"220":0.030914800815128075,"221":-0.07965656598008158,"222":-0.005175953718683401,"223":-0.018232342586900097,"224":0.1174188555041533,"225":0.038216192545152926,"226":-0.046538122284242735,"227":0.04507820736192357,"228":0.020485471042937308,"229":0.06145921754951776,"230":-0.06363614287587725,"231":-0.06522473474726295,"232":0.035578195437320784,"233":0.12033567624353057,"234":0.005660559589619021,"235":0.02237575002196506,"236":-0.02923734069711175,"237":0.052748498765752494,"238":-0.03700951872944409,"239":-0.085914405896853,"240":0.03790667012178896,"241":-0.018795299319036042,"242":-0.03604114066772008,"243":0.05466097181446766,"244":-0.07607597564133904,"245":-0.08934737862694885,"246":-0.011394656213632417,"247":-0.0048098653660630115,"248":0.09172960533995518,"249":0.007744554759960437,"250":0.00016326677460241058,"251":0.03557360892911723,"252":0.007821829657601066,"253":-0.017252596888779195,"254":-0.0006562864422676411,"255":0.05306060213443261,"256":0.07367329554393039,"257":-0.034511394610224524,"258":-0.06074008051528122,"259":0.03985045740197151,"260":-0.002019305431447824,"261":-0.007393570491512167,"262":0.04377103540997378,"263":0.005129702236142499,"264":0.021379391372006815,"265":0.13532848563759606,"266":0.06404004688126862,"267":0.0910870553064405,"268":-0.03279065233994231,"269":-0.030045725789769797,"270":0.009920247223022,"271":-0.060828347478786744,"272":-0.07024235231717602,"273":-0.04902115154380829,"274":0.08371150478756169,"275":-0.041696793341961524,"276":0.030441904651646184,"277":-0.07470742747923848,"278":-0.031130847552438095,"279":-0.013319783407001596,"280":-0.0767223205859191,"281":-0.06050573415188568,"282":0.044175228841571636,"283":0.0489305467658505,"284":0.08978291665147135,"285":-0.02864658374173438,"286":-0.002055791017442407,"287":0.012475803812557518,"288":-0.01833399607343872,"289":-0.06815381317894055,"290":0.060160264127479386,"291":0.03813423970724559,"292":0.008757562949808107,"293":-0.08037292209991476,"294":0.12024102416522847,"295":-0.034087354546301143,"296":-0.05428690846788745,"297":0.017615749492926568,"298":0.08710869088006733,"299":-0.06305071803446122,"300":-0.01265987779714331,"301":-0.040036812588983305,"302":0.018052670267654725,"303":0.02906482646980596,"304":0.10238846052851053,"305":0.028853463235098426,"306":0.028389704576184588,"307":0.15807616165061736,"308":-0.056170200298508444,"309":0.06865910423831875,"310":0.033635769240236715,"311":-0.0869936964317245,"312":-0.05459722526319973,"313":-0.05833242213024343,"314":-0.03266746207809132,"315":0.10179141517807523,"316":-0.028239515285626106,"317":-0.03679386305450699,"318":0.08164425017111648,"319":-0.00958759703415542,"320":0.0368855500229703,"321":-0.03409768807276527,"322":0.01642527474646893,"323":0.04241890646049347,"324":-0.018436304941252868,"325":0.0007559929865415145,"326":0.06699485697844754,"327":-0.05240416422605294,"328":-0.020767090746832,"329":0.027473261813979917,"330":0.019415328853067175,"331":-0.053051651409501355,"332":0.06535659224718769,"333":-0.07860425850946846,"334":-0.08758444288545558}},{"sx":1,"sy":1,"depth":335,"w":{"0":0.017951737188690125,"1":-0.049265575720365946,"2":-0.13612170101455096,"3":-0.0359178909878636,"4":-0.008561841592227018,"5":0.13438779606041254,"6":0.03564529276198812,"7":-0.1035427263770839,"8":-0.05579414446000444,"9":0.02414306766867922,"10":-0.009728679014798422,"11":0.08956342404992314,"12":-0.02138177296002325,"13":0.1293254712494504,"14":-0.053866701805305,"15":0.050927211522285784,"16":-0.012439320447333632,"17":-0.043201571739390536,"18":0.0024449173134616625,"19":-0.083789760136158,"20":0.014832264597600937,"21":0.005838024072558857,"22":-0.13773972744340227,"23":-0.09208996083720374,"24":-0.018903333446593933,"25":-0.07181637898424223,"26":-0.07022389453494934,"27":-0.0018506215292586896,"28":0.029491387403438755,"29":-0.09471197361369876,"30":0.012739904608927159,"31":0.01914962393566222,"32":-0.06711282161888225,"33":0.03468086467306635,"34":0.031186809002288943,"35":0.046868906144226334,"36":0.0037295550522334466,"37":-0.06563656647389902,"38":0.01653799427739895,"39":-0.029500057993200764,"40":0.05833243778607604,"41":0.025474108491709405,"42":-0.1733994428928175,"43":0.010118163718069714,"44":0.13181999735054706,"45":-0.017420375431709642,"46":-0.006518465092354974,"47":0.006776723264300665,"48":0.049308110832910756,"49":-0.01457472584820853,"50":0.030590626203115524,"51":0.09112550041426126,"52":-0.004842477836361584,"53":0.06745555839727364,"54":-0.0031182221159738246,"55":0.02715519988448574,"56":-0.005968470051962381,"57":-0.06556869046459042,"58":0.03809408125070295,"59":0.054324323029643,"60":0.08515633451261094,"61":0.012388890055194158,"62":0.12267868714251046,"63":-0.044267784444214094,"64":0.03394966751908599,"65":-0.08139899462998954,"66":0.057127900271779476,"67":0.08644627162170458,"68":-0.040686095927444196,"69":-0.018664251459034793,"70":-0.01588039217250611,"71":0.03272560508590511,"72":0.021743052833552053,"73":0.03518619651996223,"74":-0.04615768779145027,"75":0.005484689524775495,"76":-0.057356231122895854,"77":0.020740907519955432,"78":0.03903310957015967,"79":0.015353983330009141,"80":0.139535874376024,"81":-0.03965222580046513,"82":0.04119260115386249,"83":-0.021108827729182815,"84":-0.05663984479491415,"85":0.028369383712747876,"86":-0.04459050476702657,"87":-0.025096009199265218,"88":-0.022034776239807777,"89":0.09201839753625358,"90":0.01678900617182979,"91":-0.03634553358051227,"92":-0.07158616800222914,"93":0.05003733295391106,"94":0.07633732046371577,"95":0.1051330515417598,"96":0.06430679953319872,"97":0.02099251433689631,"98":0.08885220795400996,"99":-0.026487914243599107,"100":-0.07433279868225881,"101":-0.028507743324953948,"102":0.018978401505456894,"103":0.017441639526998048,"104":0.0506467640800932,"105":0.02495024139732597,"106":0.04662888636478301,"107":0.04818946512075785,"108":0.03758691643059244,"109":-0.005198851162444042,"110":0.02815901599822598,"111":0.013158936655494472,"112":-0.06751428185536369,"113":0.05105156538383586,"114":-0.03992319659454766,"115":0.08287076627976424,"116":-0.016992428291247905,"117":-0.09439050955890595,"118":-0.008088802673903068,"119":-0.11347806463997924,"120":-0.02133597356968068,"121":-0.05495403198668012,"122":0.06892390952853429,"123":-0.03480780537134442,"124":-0.046546708088448664,"125":-0.06383599916859066,"126":-0.06556455845765972,"127":-0.1020344548851442,"128":0.03211356445315146,"129":-0.057493403420297615,"130":0.05030160553644658,"131":0.019771472984496673,"132":-0.09333744785482545,"133":-0.031096308489016834,"134":-0.13554058190727647,"135":0.010858826975335717,"136":-0.06333331529499776,"137":-0.0034088016084270543,"138":0.002125700032334908,"139":-0.025589318701513757,"140":-0.03009905511450132,"141":0.04394488029438673,"142":0.0023959279221572815,"143":-0.04819087805479149,"144":0.12675860174977935,"145":0.03188667289799022,"146":0.06068762526793039,"147":-0.03253576417468006,"148":-0.0315209137224012,"149":-0.06675952642047528,"150":0.0065454457229671215,"151":-0.06881122017386918,"152":-0.005205009845911663,"153":0.09513543857824035,"154":-0.0032812879200809263,"155":0.04555203316980935,"156":0.012400900691484936,"157":0.052760266641843696,"158":-0.00691917096961508,"159":-0.043267352834561304,"160":0.030403079108536422,"161":-0.08849783146802749,"162":0.06213334275849521,"163":0.047600626736114676,"164":-0.014571300464189526,"165":0.025587065466597413,"166":0.0015610731034846103,"167":0.03455908476416815,"168":-0.012241789190019139,"169":-0.022883870124577703,"170":0.06549402447703549,"171":0.09332035710889311,"172":-0.027647526064876065,"173":0.01389238154748667,"174":0.1330933299612589,"175":0.08717433756435816,"176":-0.0002718621446702576,"177":0.00864828602748243,"178":0.05016471927140083,"179":-0.026572501895138226,"180":-0.0032795426535416803,"181":-0.07344810625857144,"182":0.014985720538348714,"183":-0.0400920861619532,"184":0.022206581893630797,"185":-0.004047127145579583,"186":-0.05805468348050442,"187":-0.0749268898456434,"188":-0.06409683040484923,"189":-0.04996100889876279,"190":0.08397603951182167,"191":-0.040252352838614114,"192":-0.05792245775303814,"193":-0.07529586952552267,"194":-0.025057052367736077,"195":0.028430046599633704,"196":-0.017758677399817922,"197":-0.048611717801451584,"198":-0.03626909854863535,"199":0.06478197778901139,"200":0.03693690491184479,"201":-0.02585156220569556,"202":-0.008169153760849313,"203":-0.01106362752204714,"204":-0.002329706193876911,"205":-0.0321977894228952,"206":0.03435943658394384,"207":0.04406364926112259,"208":-0.024047261134925415,"209":-0.08330792929264011,"210":-0.09887253608393017,"211":-0.04281970644533361,"212":-0.06857789698754067,"213":-0.08501241160401812,"214":0.06966729266414728,"215":0.04017128789385789,"216":0.04745808466673811,"217":-0.02187897881087175,"218":-0.005519886568971755,"219":-0.03122325394527016,"220":-0.014457073111771107,"221":-0.018864614260686998,"222":-0.022261641918909558,"223":-0.003901019034073903,"224":0.06439511734158568,"225":0.027595612999543596,"226":-0.03741278530180136,"227":0.010442405761986332,"228":-0.051549505462803145,"229":0.021546509937413024,"230":0.14256707981174455,"231":0.034917699949190875,"232":0.04340221840272875,"233":0.020846348531311634,"234":-0.11514467356118385,"235":-0.05036226740886977,"236":0.051933465766284895,"237":0.1298338303692626,"238":-0.04580489384313175,"239":-0.11307288073276921,"240":-0.0007767292587343645,"241":-0.06982265255453175,"242":0.045731446392386445,"243":0.05721907955251997,"244":-0.05374005954872454,"245":0.04468408240610898,"246":-0.06412799414517231,"247":0.02671649244691699,"248":0.035593760496586684,"249":0.03118113455610167,"250":0.05568376026090759,"251":-0.13407860516062223,"252":0.012660678886918204,"253":0.005974675147171965,"254":-0.015145828181043468,"255":0.011260718252526326,"256":-0.04676756830517285,"257":-0.03786577900138203,"258":-0.038901260657409516,"259":0.0402910209030429,"260":0.009994794592933764,"261":-0.02811094163450862,"262":-0.032550484976569975,"263":0.09618836522995933,"264":0.00978926566161061,"265":-0.11567412649683256,"266":-0.016478965084052177,"267":-0.02325086132176233,"268":-0.055915905419005166,"269":-0.0375413097784466,"270":0.05344506536579263,"271":-0.049135732710929386,"272":-0.016901443126837404,"273":-0.018040808578157232,"274":-0.08855145347522575,"275":0.03911164424939225,"276":0.014308991302114688,"277":0.05445213121413753,"278":-0.014898086847344012,"279":0.033676108094053324,"280":0.018147046218357187,"281":0.07971230968815596,"282":-0.04820706652648115,"283":0.002303314057628092,"284":-0.022989240038003202,"285":-0.0689174033054889,"286":-0.02424893201247384,"287":-0.056360831596602885,"288":0.0002343085234904047,"289":-0.05975842754164149,"290":0.018528788941040944,"291":-0.06508418509572335,"292":0.04507319620379946,"293":-0.03491888789027561,"294":-0.08194149083971818,"295":-0.0011487243009257768,"296":0.038463174428201845,"297":0.05735391952590161,"298":-0.08591390886347447,"299":-0.036895353753719495,"300":-0.0007747479227014271,"301":0.010174230257739109,"302":0.007099774154242732,"303":0.04584825915680617,"304":-0.050648646934018965,"305":0.11591956298045751,"306":-0.0547991117733625,"307":-0.05323697355278902,"308":0.0957076598172574,"309":0.10278438834370067,"310":0.06394796421188735,"311":0.020626253181465225,"312":-0.05085879468711303,"313":0.04652015382921134,"314":-0.0006780456634015867,"315":0.02493675230896588,"316":0.06011771469447709,"317":0.01029163085510244,"318":0.04550003639753975,"319":0.022103071974543725,"320":-0.09394501402668655,"321":-0.003234612319982843,"322":-0.028546549892666754,"323":-0.009530284464056928,"324":-0.0678722045196035,"325":0.005793976815200931,"326":-0.024884610850930283,"327":-0.06947286165912929,"328":0.024329781447890515,"329":0.0098807285073933,"330":-0.12135458498268564,"331":0.029654013214249958,"332":-0.06139789781075711,"333":-0.026640995754220322,"334":0.014388574131923994}},{"sx":1,"sy":1,"depth":335,"w":{"0":-0.03694861178123681,"1":-0.011797742644148112,"2":-0.26870170841780194,"3":-0.0277244881737721,"4":0.06693684792964,"5":0.02964489627429171,"6":0.10419034613381019,"7":-0.08591250783580619,"8":-0.08267788753525172,"9":0.004417276118988983,"10":0.06048395681971775,"11":0.15575528880729905,"12":-0.10524264369934977,"13":-0.15543266295067298,"14":0.005019424240072602,"15":-0.05957250518127575,"16":0.029322655170283603,"17":-0.023595917615373913,"18":-0.07092950930337444,"19":-0.09995536840286769,"20":0.06208078278267961,"21":0.017121312052790175,"22":-0.06994270850371313,"23":-0.054701656557444654,"24":0.08003982083542176,"25":-0.03005849751482346,"26":0.21692204418160868,"27":0.023633534459986585,"28":-0.044631878767144174,"29":0.004410828723490647,"30":0.024264162467970692,"31":0.10056523985751777,"32":-0.04703425016413796,"33":-0.004960293029331049,"34":0.030064315903176805,"35":0.0024064510524179133,"36":0.06539605288765424,"37":-0.01160365707322784,"38":-0.029089915255947462,"39":-0.04159182586206233,"40":-0.012551202222542988,"41":0.1372305982883621,"42":-0.11795722791845964,"43":-0.0900432149687487,"44":0.03936693867787105,"45":0.040299931780091044,"46":0.06379997427824162,"47":-0.14657298221705214,"48":-0.0710192468014785,"49":-0.004155078665476909,"50":-0.011958255074442797,"51":0.0916697822067984,"52":-0.13165300561419352,"53":-0.04412922727178834,"54":0.035792796477437216,"55":0.032339748484998924,"56":0.11714222696553002,"57":-0.130482102676343,"58":0.08189247227514014,"59":-0.049683786747460004,"60":-0.04041473395435242,"61":0.10183547758956041,"62":-0.015041630484790203,"63":-0.017185198480271956,"64":0.08971892682330597,"65":0.028329867487259675,"66":0.003375933876647597,"67":-0.07749428910761906,"68":-0.012143908895699817,"69":0.052738962901549745,"70":-0.018662691865787354,"71":-0.040127272259895555,"72":-0.017258485719067133,"73":0.02089894567438617,"74":-0.038441760884115786,"75":-0.03546792439137122,"76":-0.055716810090377586,"77":-0.0042967912345776,"78":-0.07680819528814356,"79":0.024088242602559914,"80":0.024651369232511693,"81":-0.05469329319590307,"82":0.07002054794365556,"83":0.023034829967285328,"84":-0.004531033727793706,"85":-0.08708083636723433,"86":0.053620555233990334,"87":-0.035300618675480316,"88":-0.03256655016020716,"89":-0.030825491682138113,"90":-0.03763881918305414,"91":-0.03140520256964539,"92":-0.053570041536958476,"93":-0.027074001293048277,"94":-0.036554108991898315,"95":0.0626712127129328,"96":0.09470968820554246,"97":-0.04020855536233816,"98":0.012959312158750447,"99":0.029576179886203913,"100":-0.0029917981908839293,"101":0.07452259139027222,"102":-0.06023079881271748,"103":-0.08351277681916493,"104":0.03562795376736339,"105":-0.015049605165286204,"106":-0.012523914792069725,"107":-0.02166663120216635,"108":0.01333821192356387,"109":0.03895439925749508,"110":0.015012602180765845,"111":0.05619075870519398,"112":-0.06894611273213651,"113":-0.07110875537604278,"114":0.018071954980553903,"115":-0.041966284730710395,"116":0.14864054675522598,"117":-0.03826669536289404,"118":-0.013919774982038087,"119":-0.026270214487402032,"120":0.06422971095403261,"121":0.08469400540307892,"122":0.15782143361661413,"123":-0.014507179138630887,"124":0.11986230310291761,"125":-0.01450974316915278,"126":0.06406292684204491,"127":0.037705772249686735,"128":-0.03753769061484426,"129":0.06788113328909022,"130":-0.03098867821135075,"131":0.12231154731412175,"132":0.094558419009331,"133":-0.08553351422487708,"134":0.03575802179555014,"135":0.021119855057873328,"136":0.021718579655159245,"137":-0.014164805065044478,"138":-0.013768734468673256,"139":0.05682928964090041,"140":0.019774087145100205,"141":0.01597680623263095,"142":-0.08276068864517834,"143":-0.01669441224997642,"144":-0.005346770952234391,"145":0.008422638909382977,"146":-0.058264845366007276,"147":0.020900812728594995,"148":0.11133385002598242,"149":-0.021612032717450803,"150":0.05568759599260279,"151":0.032387334443448414,"152":-0.017359612586048616,"153":-0.04563546469656846,"154":-0.040250558861558816,"155":0.07394610194555032,"156":-0.07702383792611402,"157":-0.04939990036981371,"158":0.055753923636285015,"159":-0.04642861449359896,"160":0.01014786530935876,"161":0.07365104673894506,"162":0.030418536299919332,"163":-0.02170454893886404,"164":0.033712152122583605,"165":0.09039363750800046,"166":0.05200638092541143,"167":-0.03708647788993699,"168":-0.004284797538103036,"169":0.0031531586530829264,"170":-0.04900558459102873,"171":0.10446739213632436,"172":0.02051780470455626,"173":0.031213075717260206,"174":-0.03448385388063188,"175":0.05465437617791145,"176":0.10574776463472406,"177":0.007553734273794647,"178":-0.009676206392234194,"179":-0.06650043698605788,"180":0.07468152673243772,"181":0.0868012528748229,"182":0.00654528167298865,"183":-0.01836893053590236,"184":0.03390887939483955,"185":0.06889891275757856,"186":-0.011648132189420405,"187":0.0315835308968877,"188":-0.004887209801730066,"189":0.009473250546255684,"190":-0.007011363063631618,"191":-0.005334762480968163,"192":0.027272042599645184,"193":-0.026104720107259623,"194":-0.011721908198091937,"195":0.022857001425333357,"196":0.06456082804981766,"197":-0.0025956803729438303,"198":-0.03866605035081792,"199":0.009762642529848637,"200":0.018746714658115147,"201":0.02890362130031108,"202":-0.010858831940018823,"203":-0.016225397988471595,"204":-0.001140818081223715,"205":0.06119342803966839,"206":0.012461907010605773,"207":0.09235678954401565,"208":-0.03412423298469863,"209":-0.049171184785744594,"210":0.011521905098016762,"211":0.038158627149718,"212":-0.03811100394243436,"213":-0.038120606540211516,"214":-0.053153679472705884,"215":-0.0044411353436945005,"216":0.03575831979222089,"217":0.06145125120942867,"218":0.013308752685735796,"219":0.08678342967413456,"220":0.035488193993774515,"221":0.0067444839690381465,"222":0.031239525620631932,"223":-0.004327736884021643,"224":-0.006725510040027256,"225":-0.02339909341966527,"226":-0.0022345029454940014,"227":-0.07295971407028909,"228":-0.10141824842033065,"229":-0.02742788165027513,"230":0.04039414861458573,"231":0.09460289066311389,"232":-0.11320964318788253,"233":-0.032414055045878305,"234":-0.035565120793957794,"235":0.06003709075081836,"236":0.09327105434391511,"237":0.07971560236734684,"238":0.07584141959395499,"239":0.04017376808199151,"240":0.05581556770487884,"241":-0.00849091283618556,"242":0.033757467208568245,"243":0.17260409751480607,"244":0.021310368030775986,"245":0.008516284812905417,"246":-0.01793290679407175,"247":-0.019553632160731995,"248":-0.006333240560054335,"249":0.009856989416975654,"250":0.02881606852395454,"251":-0.00014240094389834245,"252":0.06788606913890151,"253":0.027179294592601228,"254":-0.08707911698678084,"255":0.04471945370411866,"256":-0.01060685796286604,"257":-0.01985058089314331,"258":0.024985233337148964,"259":-0.06148398125456782,"260":0.02477236796643263,"261":0.05009548063987149,"262":-0.018721156753762094,"263":0.07509917314171513,"264":-0.01178894256684648,"265":-0.011923995257090498,"266":0.10217691636539313,"267":-0.049975911305355974,"268":0.00803648782185146,"269":-0.016248868939271487,"270":-0.12044944023034253,"271":-0.03081479901833547,"272":0.031967405800463276,"273":-0.054153972914406004,"274":0.028626737661610696,"275":-0.04857247328660122,"276":0.020612283508954166,"277":-0.011727481182202735,"278":0.055310991580477115,"279":-0.004932754064166658,"280":-0.01535660457849489,"281":-0.01423498907318932,"282":-0.01999029094300595,"283":0.05835422354343908,"284":-0.0007693662566912306,"285":0.03801566035583688,"286":-0.07861418704325482,"287":0.07702885866239828,"288":-0.031605795481473076,"289":0.053684168257933366,"290":0.001702841348699364,"291":0.023720960708998734,"292":-0.10396385119169799,"293":-0.045479088614275076,"294":0.014380508835368762,"295":-0.02000307966161028,"296":0.016111246670249137,"297":0.052733946376975746,"298":-0.003936492409254668,"299":0.06351989590799421,"300":0.06854377822183555,"301":0.050846357990691926,"302":-0.02982855928418012,"303":0.0022448437434163526,"304":0.008539933072815118,"305":0.01388582818909797,"306":-0.03233989392917698,"307":0.03932219566198417,"308":-0.013521138375947544,"309":-0.07347029141902328,"310":-0.028170817058883295,"311":-0.019692986389273075,"312":-0.10148672231630432,"313":0.015552563330306584,"314":-0.024881328294509293,"315":-0.10139579630873609,"316":-0.05601415267576257,"317":-0.01761677739167508,"318":0.022635930613986076,"319":-0.011595187512653466,"320":-0.006944484834189057,"321":0.024467023641543507,"322":0.05051930448989643,"323":0.08661981852069829,"324":-0.023516743218468278,"325":-0.0032031073181198397,"326":-0.027721914340918877,"327":0.05083975975108777,"328":-0.0852192236865266,"329":-0.023492537617297877,"330":-0.047939986780632826,"331":0.02085098006407165,"332":0.1335947123001389,"333":0.019754650223052273,